svm_type c_svc
kernel_type linear
nr_class 2
total_sv 137
rho 5.94391
label 1 0
probA -3.67638
probB -0.711309
nr_sv 69 68
SV
1 1:0.20967742 2:0.70967742 3:1 4:0.22222222 5:0.5 6:1 
0.2326768093280783 1:0.51851852 2:0.74468085 3:1 4:0.33333333 5:0.5 6:1 
1 1:0.51851852 2:0.74468085 3:1 4:0.33333333 5:0.5 6:1 
1 1:0.016129032 2:0.054054054 3:1 4:0.071428571 5:0.5 6:0 
1 1:0 2:0 3:1 4:0 5:0.5 6:0 
1 1:0 2:0 3:1 4:0 5:0.5 6:0 
1 1:0 2:0.054054054 3:1 4:0 5:0.5 6:0 
1 1:0.54216867 2:0.76502732 3:0 4:0.44444444 5:1 6:0 
1 1:0 2:0.020408163 3:1 4:0 5:0.5 6:0 
1 1:0 2:0.04137931 3:1 4:0 5:0.5 6:0 
1 1:0.4 2:0.76315789 3:1 4:0.33333333 5:0.5 6:1 
1 1:0 2:0.30909091 3:1 4:0 5:0.5 6:0 
1 1:0 2:0.057803468 3:1 4:0 5:0.5 6:0 
1 1:0 2:0.36697248 3:1 4:0 5:0.5 6:0 
1 1:0 2:0.36697248 3:1 4:0 5:0.5 6:0 
1 1:0.57142857 2:0.72118959 3:1 4:0.5 5:0 6:0 
1 1:0.50526316 2:0.74336283 3:1 4:0.625 5:0 6:0 
0.05811845045481662 1:0.84353741 2:0 3:1 4:0.75862069 5:0.5 6:0 
1 1:0.026431718 2:0.19266055 3:0 4:0.042553191 5:0.5 6:0 
1 1:0.37735849 2:0.98084291 3:0 4:0.4 5:1 6:0 
1 1:0.30344828 2:0.71895425 3:0 4:0.27272727 5:1 6:0 
1 1:0.69333333 2:0 3:1 4:0.3 5:0.5 6:0 
1 1:0 2:0.047904192 3:1 4:0 5:0.5 6:0 
1 1:0.45333333 2:0.72727273 3:0 4:0.33333333 5:1 6:0 
1 1:0.58823529 2:0.76415094 3:0 4:0.33333333 5:1 6:0 
1 1:0.4 2:0.82242991 3:1 4:0.5 5:0 6:0 
1 1:0.68965517 2:0 3:1 4:0.4 5:0.5 6:1 
1 1:0.071428571 2:0.43518519 3:1 4:0.090909091 5:0.5 6:0 
1 1:0.73913043 2:1 3:0 4:0.77272727 5:1 6:0 
1 1:0 2:0 3:1 4:0 5:0.66666667 6:0.90909091 
1 1:0 2:0 3:1 4:0 5:0.66666667 6:0.8974359 
1 1:0.74193548 2:0.85 3:1 4:0.57142857 5:0 6:0.94736842 
1 1:0 2:0 3:1 4:0 5:0.66666667 6:0.90909091 
1 1:0.60194175 2:0 3:1 4:0.45454545 5:0.5 6:0 
1 1:0.66666667 2:0 3:1 4:0.5 5:0.5 6:0 
1 1:0.5830721 2:0 3:1 4:0.37037037 5:0.5 6:0 
1 1:0.576 2:0 3:1 4:0.70833333 5:0 6:0 
1 1:0.6122449 2:0.52444444 3:1 4:0.57142857 5:0 6:0 
1 1:0.51851852 2:0.73224044 3:1 4:0.33333333 5:0.5 6:1 
0.5735798273310413 1:0.83870968 2:1 3:0 4:0.66666667 5:1 6:0 
1 1:0.51724138 2:0.94690265 3:0 4:0.23076923 5:1 6:0 
1 1:0.016949153 2:0.12820513 3:1 4:0.15384615 5:0.5 6:0 
1 1:0.66666667 2:0 3:1 4:0.51162791 5:0.5 6:0 
1 1:0.57894737 2:0.99530516 3:1 4:0.75 5:0 6:0 
1 1:0.45454545 2:0.7195122 3:1 4:0.42105263 5:0.5 6:1 
1 1:0.39583333 2:0.50241546 3:0 4:0.5 5:1 6:0 
1 1:0.70175439 2:0.72794118 3:1 4:0.66666667 5:0 6:0 
1 1:0.51465798 2:0.062015504 3:1 4:0.34482759 5:0.5 6:0 
1 1:0.51465798 2:0.062992126 3:1 4:0.34482759 5:0.5 6:0 
1 1:0.64150943 2:0.72401434 3:1 4:0.57142857 5:0 6:0 
1 1:0.70175439 2:0.71384615 3:0 4:0.5 5:1 6:0 
1 1:0.66666667 2:0.68807339 3:1 4:0.57142857 5:0 6:0 
1 1:0.68627451 2:0.99628253 3:0 4:0.35714286 5:1 6:0 
1 1:0.66666667 2:0 3:1 4:0.66666667 5:0 6:0 
1 1:0.58823529 2:0.9197861 3:1 4:0.55555556 5:0 6:0 
1 1:0.7 2:0.70535714 3:1 4:0.60869565 5:0 6:0 
0.7340476954678166 1:0.45238095 2:0.26168224 3:1 4:0.42857143 5:0.5 6:0 
1 1:0 2:0 3:1 4:0 5:0.5 6:0 
1 1:0 2:0.48333333 3:1 4:0 5:0.5 6:0 
1 1:0.47154472 2:0.68421053 3:1 4:0.4 5:0.5 6:1 
1 1:0.66976744 2:0.61751152 3:0 4:0.6 5:0.5 6:0 
1 1:0.82539683 2:0.97297297 3:0 4:0.8 5:1 6:0 
1 1:0.93150685 2:0.97297297 3:0 4:0.82352941 5:0.5 6:0 
1 1:0.64197531 2:1 3:0 4:0.68085106 5:1 6:0 
1 1:0.66129032 2:1 3:0 4:0.48275862 5:1 6:0 
1 1:0.47058824 2:1 3:0 4:0.4 5:1 6:0 
1 1:0.66666667 2:1 3:0 4:0.28571429 5:1 6:0 
1 1:0.65454545 2:0.3803681 3:1 4:0.6 5:0.4 6:0 
1 1:0.04494382 2:0.062015504 3:1 4:0.26086957 5:0.5 6:0 
-1 1:0.032432432 2:0.11578947 3:0 4:0.060606061 5:1 6:0.58333333 
-1 1:0.032432432 2:0.11578947 3:0 4:0.060606061 5:1 6:0.58333333 
-1 1:0.11510791 2:0.056451613 3:1 4:0.32 5:0.5 6:0 
-1 1:0.94339623 2:0.95384615 3:1 4:0.93617021 5:0 6:0 
-1 1:0.065934066 2:0.13496933 3:0 4:0.11764706 5:1 6:0.47826087 
-1 1:0.76923077 2:0.99328859 3:1 4:0.4 5:0 6:0 
-1 1:0.11510791 2:0.056451613 3:1 4:0.32 5:0.5 6:0 
-1 1:0.82758621 2:0.99115044 3:1 4:0.66666667 5:0 6:0 
-1 1:0.13138686 2:0.056451613 3:1 4:0.26086957 5:0.5 6:0 
-1 1:0.37956204 2:0.95384615 3:1 4:0.38709677 5:0 6:0 
-1 1:0.11678832 2:0.075471698 3:1 4:0.090909091 5:0.5 6:0 
-1 1:0.11510791 2:0.076628352 3:1 4:0.32 5:0.5 6:0 
-1 1:0.11510791 2:0.056451613 3:1 4:0.32 5:0.5 6:0 
-1 1:0.54736842 2:0.79090909 3:1 4:0.26666667 5:0 6:0 
-1 1:0.63768116 2:0.99481865 3:1 4:0.28571429 5:0 6:0 
-1 1:0.60869565 2:0.75409836 3:1 4:0.41176471 5:0 6:0 
-1 1:0.67741935 2:0.99173554 3:1 4:0.5 5:0 6:0 
-1 1:0.75 2:0.7810219 3:1 4:0.4 5:0 6:0 
-1 1:0.67741935 2:0.99173554 3:1 4:0.5 5:0 6:0 
-1 1:0.53061224 2:0.79452055 3:1 4:0.24242424 5:0 6:0 
-1 1:0.53061224 2:0.79090909 3:1 4:0.24242424 5:0 6:0 
-1 1:0.53061224 2:0.79090909 3:1 4:0.24242424 5:0 6:0 
-1 1:0.53061224 2:0.79090909 3:1 4:0.24242424 5:0 6:0 
-1 1:0.53061224 2:0.79452055 3:1 4:0.24242424 5:0 6:0 
-1 1:0.032432432 2:0.11578947 3:0 4:0.060606061 5:1 6:0.58333333 
-1 1:0.56410256 2:0.76211454 3:1 4:0.4 5:0 6:0 
-1 1:1 2:0.75961538 3:1 4:1 5:0 6:0 
-1 1:1 2:0.75961538 3:1 4:1 5:0 6:0 
-1 1:1 2:0.78431373 3:1 4:1 5:0 6:0 
-1 1:0.6122449 2:0.72258065 3:1 4:0.5 5:0 6:0 
-1 1:0.10884354 2:0.039215686 3:0 4:0.11111111 5:1 6:0.375 
-1 1:0.15841584 2:0.23880597 3:0 4:0.23076923 5:1 6:0.25 
-1 1:0.6433121 2:0.95546559 3:1 4:0.36956522 5:1 6:0 
-1 1:0 2:0.097222222 3:0 4:0 5:1 6:0.4375 
-1 1:0.037037037 2:0.11469534 3:0 4:0.14285714 5:1 6:0 
-1 1:0.057142857 2:0.10679612 3:1 4:0 5:0.5 6:0.63636364 
-1 1:0.10218978 2:0.054644809 3:0 4:0.11428571 5:1 6:0.625 
-1 1:0.10526316 2:0.07804878 3:0 4:0.12903226 5:1 6:0.25 
-1 1:0.16842105 2:0.144 3:1 4:0.05 5:0.5 6:0 
-1 1:0.1025641 2:0.056737589 3:0 4:0.15789474 5:1 6:0.4375 
-1 1:0.093023256 2:0.049261084 3:1 4:0 5:1 6:0 
-1 1:0.079207921 2:0.077922078 3:1 4:0 5:0.5 6:0 
-1 1:1 2:0.7804878 3:1 4:1 5:0 6:0 
-1 1:1 2:0.78431373 3:1 4:1 5:0 6:0 
-1 1:1 2:0.78431373 3:1 4:1 5:0 6:0 
-1 1:1 2:0.78431373 3:1 4:1 5:0 6:0 
-1 1:0.023255814 2:0.099099099 3:0 4:0 5:1 6:0.23076923 
-1 1:0.15217391 2:0.04494382 3:1 4:0.34782609 5:0.5 6:0.46153846 
-1 1:0.098360656 2:0.13043478 3:0 4:0.052631579 5:1 6:0.4375 
-1 1:0.15384615 2:0.14457831 3:0 4:0.16666667 5:1 6:0.8125 
-1 1:0.77227723 2:0.99497487 3:1 4:0.8 5:0 6:0 
-1 1:0.093333333 2:0.059405941 3:0 4:0.090909091 5:1 6:0.625 
-1 1:0.55384615 2:0.47826087 3:1 4:0.57142857 5:0.5 6:0 
-1 1:0.13483146 2:0.067567568 3:0 4:0.16666667 5:1 6:0.52 
-1 1:0.12121212 2:0.090909091 3:0 4:0.11111111 5:1 6:0.46875 
-1 1:0.46666667 2:0.97916667 3:1 4:0.28571429 5:0 6:0 
-1 1:0.096 2:0.088607595 3:0 4:0.064516129 5:1 6:0.44117647 
-1 1:0.096 2:0.088607595 3:0 4:0.064516129 5:1 6:0.44117647 
-0.2825391365992973 1:0.10619469 2:0.02247191 3:0 4:0 5:1 6:0.61904762 
-1 1:0.096 2:0.088607595 3:0 4:0.064516129 5:1 6:0.44117647 
-1 1:0.10619469 2:0.02247191 3:0 4:0 5:1 6:0.61904762 
-1 1:0.15909091 2:0.17391304 3:0 4:0.15384615 5:1 6:0.5625 
-0.3158836459824556 1:0.56666667 2:0.72268908 3:1 4:0.57142857 5:0 6:0 
-1 1:0.56666667 2:0.72268908 3:1 4:0.57142857 5:0 6:0 
-1 1:0.56666667 2:0.72268908 3:1 4:0.57142857 5:0 6:0 
-1 1:0.75294118 2:0.7480916 3:1 4:0.7 5:0 6:0 
-1 1:0.77647059 2:0.7480916 3:1 4:0.7 5:0 6:0 
-1 1:0.56666667 2:0.72268908 3:1 4:0.57142857 5:0 6:0 
