svm_type c_svc
kernel_type linear
nr_class 2
total_sv 32664
rho 1.00034
label 1 0
probA -5161.79
probB -5160.48
nr_sv 15925 16739
SV
1 1:1 2:1 3:1 4:0 5:0 6:0 7:0 8:1 9:1 10:1 11:1 
1 1:1 2:1 3:1 4:0 5:0 6:0 7:0 8:1 9:1 10:1 11:1 
1 1:1 2:1 3:1 4:0 5:0 6:0 7:0 8:1 9:1 10:1 11:1 
1 1:1 2:1 3:1 4:0 5:0 6:0 7:0 8:1 9:1 10:1 11:1 
1 1:1 2:1 3:1 4:0 5:0 6:0 7:0 8:1 9:1 10:1 11:1 
1 1:1 2:1 3:1 4:0 5:0 6:0 7:0 8:0.21428571 9:0 10:1 11:1 
1 1:1 2:1 3:1 4:0 5:0 6:0 7:0 8:1 9:1 10:1 11:1 
1 1:1 2:1 3:1 4:0 5:0 6:0 7:0 8:1 9:1 10:1 11:1 
1 1:1 2:1 3:1 4:0 5:0 6:0 7:0 8:1 9:1 10:1 11:1 
1 1:1 2:1 3:1 4:0 5:0 6:0 7:0 8:1 9:1 10:1 11:1 
1 1:1 2:1 3:1 4:0 5:0 6:0 7:0 8:1 9:1 10:1 11:1 
1 1:1 2:1 3:1 4:0 5:0 6:0 7:0 8:0.21428571 9:0 10:1 11:1 
1 1:1 2:1 3:1 4:0 5:0 6:0 7:0 8:1 9:1 10:1 11:1 
1 1:1 2:1 3:1 4:0 5:0 6:0 7:0 8:1 9:1 10:1 11:1 
1 1:1 2:1 3:1 4:0 5:0 6:0 7:0 8:1 9:1 10:1 11:1 
1 1:1 2:1 3:1 4:0 5:0 6:0 7:0 8:1 9:1 10:1 11:1 
1 1:1 2:1 3:1 4:0 5:0 6:0 7:0 8:0.21428571 9:0 10:1 11:1 
1 1:1 2:1 3:1 4:0 5:0 6:0 7:0 8:1 9:1 10:1 11:1 
1 1:1 2:1 3:1 4:0 5:0 6:0 7:0 8:1 9:1 10:1 11:1 
1 1:1 2:1 3:1 4:0 5:0 6:0 7:0 8:1 9:1 10:1 11:1 
1 1:1 2:1 3:1 4:0 5:0 6:0 7:0 8:1 9:1 10:1 11:1 
1 1:1 2:1 3:1 4:0 5:0 6:0 7:0 8:0.21428571 9:0 10:1 11:1 
1 1:1 2:1 3:1 4:0 5:0 6:0 7:0 8:1 9:1 10:1 11:1 
1 1:1 2:1 3:1 4:0 5:0 6:0 7:0 8:1 9:1 10:1 11:1 
1 1:1 2:1 3:1 4:0 5:0 6:0 7:0 8:0.21428571 9:0 10:1 11:1 
1 1:1 2:1 3:1 4:0 5:0 6:0 7:0 8:1 9:1 10:1 11:1 
1 1:1 2:1 3:1 4:0 5:0 6:0 7:0 8:0.21428571 9:0 10:1 11:1 
1 1:1 2:1 3:1 4:0 5:0 6:0 7:0 8:0.21428571 9:0 10:1 11:1 
1 1:0.72727273 2:0.6 3:0.72727273 4:0 5:0 6:0 7:0 8:1 9:1 10:1 11:1 
1 1:1 2:1 3:1 4:1 5:1 6:1 7:1 8:0 9:0 10:1 11:1 
1 1:1 2:1 3:1 4:1 5:1 6:1 7:1 8:0 9:0 10:1 11:1 
1 1:1 2:1 3:1 4:1 5:1 6:1 7:1 8:0 9:0 10:1 11:1 
1 1:1 2:1 3:1 4:1 5:1 6:0 7:0 8:0.96815287 9:0.90909091 10:1 11:1 
1 1:1 2:1 3:1 4:1 5:1 6:0 7:0 8:0.96815287 9:0.90909091 10:1 11:1 
1 1:1 2:1 3:1 4:1 5:1 6:0 7:0 8:1 9:1 10:1 11:1 
1 1:1 2:1 3:1 4:1 5:1 6:0 7:0 8:1 9:1 10:1 11:1 
1 1:0.4454374 2:0.25 3:0.4 4:1 5:1 6:1 7:1 8:1 9:1 10:1 11:1 
1 1:0.4454374 2:0.25 3:0.4 4:1 5:1 6:1 7:1 8:1 9:1 10:1 11:1 
1 1:1 2:1 3:1 4:1 5:1 6:1 7:1 8:1 9:1 10:1 11:1 
1 1:1 2:1 3:1 4:1 5:1 6:1 7:1 8:1 9:1 10:1 11:1 
1 1:1 2:1 3:1 4:1 5:1 6:1 7:1 8:1 9:1 10:1 11:1 
1 1:1 2:1 3:1 4:1 5:1 6:1 7:1 8:1 9:1 10:1 11:1 
1 1:1 2:1 3:1 4:1 5:1 6:1 7:1 8:1 9:1 10:1 11:1 
1 1:1 2:1 3:1 4:0 5:0 6:0 7:0 8:1 9:1 10:1 11:1 
1 1:1 2:1 3:1 4:0 5:0 6:0 7:0 8:1 9:1 10:1 11:1 
1 1:1 2:1 3:1 4:0 5:0 6:0 7:0 8:1 9:1 10:1 11:1 
1 1:1 2:1 3:1 4:0 5:0 6:0 7:0 8:1 9:1 10:1 11:1 
1 1:1 2:1 3:1 4:1 5:1 6:0 7:0 8:1 9:1 10:1 11:1 
1 1:1 2:1 3:1 4:1 5:1 6:0 7:0 8:1 9:1 10:1 11:1 
1 1:1 2:1 3:1 4:1 5:1 6:0 7:0 8:1 9:1 10:1 11:1 
1 1:1 2:1 3:1 4:1 5:1 6:0 7:0 8:1 9:1 10:1 11:1 
1 1:1 2:1 3:1 4:1 5:1 6:0 7:0 8:1 9:1 10:1 11:1 
1 1:1 2:1 3:1 4:1 5:1 6:0 7:0 8:1 9:1 10:1 11:1 
1 1:1 2:1 3:1 4:1 5:1 6:1 7:1 8:1 9:1 10:1 11:1 
1 1:0.79166667 2:0.625 3:0.28571429 4:1 5:1 6:0 7:1 8:1 9:1 10:1 11:1 
1 1:0.79166667 2:0.58823529 3:0.28571429 4:1 5:1 6:0 7:1 8:1 9:1 10:1 11:1 
1 1:0.79166667 2:0.58823529 3:0.28571429 4:1 5:1 6:0 7:1 8:1 9:1 10:1 11:1 
1 1:0.79166667 2:0.58823529 3:0.28571429 4:1 5:1 6:0 7:1 8:1 9:1 10:1 11:1 
1 1:0.79166667 2:0.58823529 3:0.28571429 4:1 5:1 6:0 7:0 8:1 9:1 10:1 11:1 
1 1:1 2:0.7826087 3:1 4:1 5:1 6:1 7:1 8:1 9:1 10:1 11:1 
1 1:1 2:1 3:1 4:1 5:1 6:1 7:1 8:1 9:1 10:1 11:1 
1 1:1 2:1 3:1 4:1 5:1 6:1 7:1 8:1 9:1 10:1 11:1 
1 1:0.99490036 2:0.83333333 3:0.83333333 4:1 5:1 6:0 7:0.91304348 8:1 9:1 10:1 11:1 
1 1:1 2:0.7826087 3:1 4:1 5:1 6:1 7:1 8:1 9:1 10:1 11:1 
1 1:1 2:1 3:1 4:1 5:1 6:1 7:1 8:1 9:1 10:1 11:1 
1 1:0.99490036 2:0.83333333 3:0.83333333 4:1 5:1 6:0 7:0.91304348 8:1 9:1 10:1 11:1 
1 1:1 2:0.7826087 3:1 4:1 5:1 6:1 7:1 8:1 9:1 10:1 11:1 
1 1:0.99490036 2:0.7826087 3:0.83333333 4:1 5:1 6:0 7:0.91304348 8:1 9:1 10:1 11:1 
1 1:0 2:0 3:0 4:1 5:1 6:1 7:1 8:0.89795918 9:1 10:1 11:1 
1 1:0 2:0 3:0 4:1 5:1 6:0 7:0.91304348 8:0.89795918 9:1 10:1 11:1 
1 1:0.99490036 2:0.83333333 3:0.83333333 4:1 5:1 6:0 7:0.91304348 8:1 9:1 10:1 11:1 
1 1:0.91666667 2:0.85714286 3:0.8 4:0 5:0 6:0 7:0 8:0 9:0 10:1 11:1 
1 1:0.91666667 2:0.85714286 3:0.8 4:0 5:0 6:0 7:0 8:0.94736842 9:1 10:1 11:1 
1 1:0.91666667 2:0.85714286 3:0.8 4:0 5:0 6:0 7:0 8:0.075949367 9:0.16666667 10:1 11:1 
1 1:0.91666667 2:0.9 3:0.8 4:0 5:0 6:0 7:0 8:0 9:0 10:1 11:1 
1 1:0.91666667 2:0.85714286 3:0.8 4:0 5:0 6:0 7:0 8:0 9:0 10:1 11:1 
1 1:0.91666667 2:0.85714286 3:0.8 4:0 5:0 6:0 7:0 8:0 9:0 10:1 11:1 
1 1:0.91666667 2:0.85714286 3:0.8 4:0 5:0 6:0 7:0 8:0 9:0 10:1 11:1 
1 1:0.6292048 2:0.41666667 3:0.66666667 4:0 5:0 6:0 7:0 8:0 9:0 10:1 11:1 
1 1:0.91666667 2:0.85714286 3:0.8 4:0 5:0 6:0 7:0 8:0 9:0 10:1 11:1 
1 1:0.91666667 2:0.85714286 3:0.8 4:0 5:0 6:0 7:0 8:0 9:0 10:1 11:1 
1 1:0.91666667 2:0.85714286 3:0.8 4:0 5:0 6:0 7:0 8:0 9:0 10:1 11:1 
1 1:0.91666667 2:0.85714286 3:0.8 4:0 5:0 6:0 7:0 8:0 9:0 10:1 11:1 
1 1:1 2:1 3:1 4:0 5:0 6:0 7:0 8:0 9:0 10:1 11:1 
1 1:1 2:1 3:1 4:0 5:0 6:0 7:0 8:0 9:0 10:1 11:1 
1 1:1 2:1 3:1 4:0 5:0 6:0 7:0 8:0 9:0 10:1 11:1 
1 1:1 2:0.7826087 3:1 4:0 5:0 6:0 7:0 8:0 9:0 10:1 11:1 
1 1:1 2:1 3:1 4:0 5:0 6:0 7:0 8:0 9:0 10:1 11:1 
1 1:1 2:1 3:1 4:0 5:0 6:0 7:0 8:0 9:0 10:1 11:1 
1 1:1 2:1 3:1 4:0 5:0 6:0 7:0 8:0 9:0 10:1 11:1 
1 1:0.49073968 2:0.44444444 3:0.72727273 4:0 5:0 6:0 7:0 8:0 9:0 10:1 11:1 
1 1:1 2:1 3:1 4:0 5:0 6:0 7:0 8:0 9:0 10:1 11:1 
1 1:1 2:1 3:1 4:0 5:0 6:0 7:0 8:0 9:0 10:1 11:1 
1 1:1 2:1 3:1 4:0 5:0 6:0 7:0 8:0 9:0 10:1 11:1 
1 1:1 2:1 3:1 4:0 5:0 6:0 7:0 8:0 9:0 10:1 11:1 
1 1:1 2:1 3:1 4:0 5:0 6:0 7:0 8:0 9:0 10:1 11:1 
1 1:1 2:1 3:1 4:0 5:0 6:0 7:0 8:0 9:0 10:1 11:1 
1 1:1 2:0.7826087 3:1 4:0 5:0 6:0 7:0 8:0 9:0 10:1 11:1 
1 1:1 2:1 3:1 4:0 5:0 6:0 7:0 8:0 9:0 10:1 11:1 
1 1:1 2:1 3:1 4:0 5:0 6:0 7:0 8:0 9:0 10:1 11:1 
1 1:1 2:1 3:1 4:0 5:0 6:0 7:0 8:0 9:0 10:1 11:1 
1 1:0.49073968 2:0.44444444 3:0.72727273 4:0 5:0 6:0 7:0 8:0 9:0 10:1 11:1 
1 1:1 2:1 3:1 4:0 5:0 6:0 7:0 8:0 9:0 10:1 11:1 
1 1:1 2:1 3:1 4:0 5:0 6:0 7:0 8:0 9:0 10:1 11:1 
1 1:1 2:1 3:1 4:0 5:0 6:0 7:0 8:0 9:0 10:1 11:1 
1 1:1 2:1 3:1 4:0 5:0 6:0 7:0 8:0 9:0 10:1 11:1 
1 1:1 2:1 3:1 4:0 5:0 6:0 7:0 8:0 9:0 10:1 11:1 
1 1:1 2:0.7826087 3:1 4:0 5:0 6:0 7:0 8:0 9:0 10:1 11:1 
1 1:1 2:1 3:1 4:0 5:0 6:0 7:0 8:0 9:0 10:1 11:1 
1 1:1 2:1 3:1 4:0 5:0 6:0 7:0 8:0 9:0 10:1 11:1 
1 1:0.49073968 2:0.44444444 3:0.72727273 4:0 5:0 6:0 7:0 8:0 9:0 10:1 11:1 
1 1:1 2:1 3:1 4:0 5:0 6:0 7:0 8:0 9:0 10:1 11:1 
1 1:1 2:1 3:1 4:0 5:0 6:0 7:0 8:0 9:0 10:1 11:1 
1 1:1 2:1 3:1 4:0 5:0 6:0 7:0 8:0 9:0 10:1 11:1 
1 1:1 2:1 3:1 4:0 5:0 6:0 7:0 8:0 9:0 10:1 11:1 
1 1:1 2:1 3:1 4:0 5:0 6:0 7:0 8:0 9:0 10:1 11:1 
1 1:1 2:0.7826087 3:1 4:0 5:0 6:0 7:0 8:0 9:0 10:1 11:1 
1 1:1 2:1 3:1 4:0 5:0 6:0 7:0 8:0 9:0 10:1 11:1 
1 1:0.49073968 2:0.44444444 3:0.72727273 4:0 5:0 6:0 7:0 8:0 9:0 10:1 11:1 
1 1:1 2:1 3:1 4:0 5:0 6:0 7:0 8:0 9:0 10:1 11:1 
1 1:1 2:1 3:1 4:0 5:0 6:0 7:0 8:0 9:0 10:1 11:1 
1 1:1 2:1 3:1 4:0 5:0 6:0 7:0 8:0 9:0 10:1 11:1 
1 1:1 2:1 3:1 4:0 5:0 6:0 7:0 8:0 9:0 10:1 11:1 
1 1:1 2:0.7826087 3:1 4:0 5:0 6:0 7:0 8:0 9:0 10:1 11:1 
1 1:1 2:1 3:1 4:0 5:0 6:0 7:0 8:0 9:0 10:1 11:1 
1 1:0.49073968 2:0.44444444 3:0.72727273 4:0 5:0 6:0 7:0 8:0 9:0 10:1 11:1 
1 1:1 2:1 3:1 4:0 5:0 6:0 7:0 8:0 9:0 10:1 11:1 
1 1:1 2:1 3:1 4:0 5:0 6:0 7:0 8:0 9:0 10:1 11:1 
1 1:1 2:1 3:1 4:0 5:0 6:0 7:0 8:0 9:0 10:1 11:1 
1 1:1 2:1 3:1 4:0 5:0 6:0 7:0 8:0 9:0 10:1 11:1 
1 1:1 2:0.7826087 3:1 4:0 5:0 6:0 7:0 8:0 9:0 10:1 11:1 
1 1:1 2:1 3:1 4:0 5:0 6:0 7:0 8:0 9:0 10:1 11:1 
1 1:0.49073968 2:0.44444444 3:0.72727273 4:0 5:0 6:0 7:0 8:0 9:0 10:1 11:1 
1 1:1 2:1 3:1 4:0 5:0 6:0 7:0 8:0 9:0 10:1 11:1 
1 1:1 2:1 3:1 4:0 5:0 6:0 7:0 8:0 9:0 10:1 11:1 
1 1:1 2:1 3:1 4:0 5:0 6:0 7:0 8:0 9:0 10:1 11:1 
1 1:1 2:0.7826087 3:1 4:0 5:0 6:0 7:0 8:0 9:0 10:1 11:1 
1 1:1 2:1 3:1 4:0 5:0 6:0 7:0 8:0 9:0 10:1 11:1 
1 1:0.49073968 2:0.44444444 3:0.72727273 4:0 5:0 6:0 7:0 8:0 9:0 10:1 11:1 
1 1:1 2:1 3:1 4:0 5:0 6:0 7:0 8:0 9:0 10:1 11:1 
1 1:1 2:1 3:1 4:0 5:0 6:0 7:0 8:0 9:0 10:1 11:1 
1 1:1 2:0.7826087 3:1 4:0 5:0 6:0 7:0 8:0 9:0 10:1 11:1 
1 1:0.49073968 2:0.44444444 3:0.72727273 4:0 5:0 6:0 7:0 8:0 9:0 10:1 11:1 
1 1:1 2:1 3:1 4:0 5:0 6:0 7:0 8:0.082191781 9:0 10:1 11:1 
1 1:1 2:0.7826087 3:1 4:0 5:0 6:0 7:0 8:0 9:0 10:1 11:1 
1 1:0.49073968 2:0.44444444 3:0.72727273 4:0 5:0 6:0 7:0 8:0 9:0 10:1 11:1 
1 1:1 2:0.7826087 3:1 4:0 5:0 6:0 7:0 8:0 9:0 10:1 11:1 
1 1:0.49073968 2:0.44444444 3:0.72727273 4:0 5:0 6:0 7:0 8:0 9:0 10:1 11:1 
1 1:0.49073968 2:0.38461538 3:0.72727273 4:0 5:0 6:0 7:0 8:0 9:0 10:1 11:1 
1 1:0.54441433 2:0.36363636 3:0.76923077 4:0 5:0 6:0 7:0 8:0.93913043 9:1 10:1 11:1 
1 1:0.91666667 2:0.85714286 3:0.8 4:0 5:0 6:0 7:0 8:0 9:0 10:1 11:1 
1 1:0.49073968 2:0.44444444 3:0.72727273 4:0 5:0 6:0 7:0 8:0.93913043 9:1 10:1 11:1 
1 1:0.49073968 2:0.44444444 3:0.72727273 4:0 5:0 6:0 7:0 8:0 9:0 10:1 11:1 
1 1:1 2:0.7826087 3:1 4:0 5:0 6:0 7:0 8:0 9:0 10:1 11:1 
1 1:0.49073968 2:0.44444444 3:0.72727273 4:0 5:0 6:0 7:0 8:0.93913043 9:1 10:1 11:1 
1 1:0.49073968 2:0.44444444 3:0.72727273 4:0 5:0 6:0 7:0 8:0 9:0 10:1 11:1 
1 1:0.91666667 2:0.85714286 3:0.8 4:0 5:0 6:0 7:0 8:0 9:0 10:1 11:1 
1 1:1 2:0.7826087 3:1 4:0 5:0 6:0 7:0 8:0.95867769 9:1 10:1 11:1 
1 1:0.91666667 2:0.85714286 3:0.8 4:0 5:0 6:0 7:0 8:0 9:0 10:1 11:1 
1 1:0.91666667 2:0.85714286 3:0.8 4:0 5:0 6:0 7:0 8:0 9:0 10:1 11:1 
1 1:0.91666667 2:0.85714286 3:0.8 4:0 5:0 6:0 7:0 8:0 9:0 10:1 11:1 
1 1:1 2:0.7826087 3:1 4:0 5:0 6:0 7:0 8:0.89430894 9:0.91666667 10:1 11:1 
1 1:0.49073968 2:0.44444444 3:0.72727273 4:0 5:0 6:0 7:0 8:0 9:0 10:1 11:1 
1 1:0.875 2:0.83333333 3:0.83333333 4:0 5:0 6:0 7:0 8:1 9:1 10:1 11:1 
1 1:0.6292048 2:0.41666667 3:0.66666667 4:0 5:0 6:0 7:0 8:0 9:0 10:1 11:1 
1 1:1 2:1 3:1 4:0 5:0 6:0 7:0 8:1 9:1 10:1 11:1 
1 1:1 2:1 3:1 4:0 5:0 6:0 7:0 8:0 9:0 10:1 11:1 
1 1:0.49073968 2:0.38461538 3:0.72727273 4:0 5:0 6:0 7:0 8:0 9:0 10:1 11:1 
1 1:1 2:1 3:1 4:0 5:0 6:0 7:0 8:0 9:0 10:1 11:1 
1 1:0.6292048 2:0.41666667 3:0.66666667 4:0 5:0 6:0 7:0 8:0 9:0 10:1 11:1 
1 1:0.49073968 2:0.38461538 3:0.72727273 4:0 5:0 6:0 7:0 8:0.94736842 9:1 10:1 11:1 
1 1:0.6292048 2:0.41666667 3:0.66666667 4:0 5:0 6:0 7:0 8:0 9:0 10:1 11:1 
1 1:0.6292048 2:0.41666667 3:0.66666667 4:0 5:0 6:0 7:0 8:0 9:0 10:1 11:1 
1 1:0.6292048 2:0.41666667 3:0.66666667 4:0 5:0 6:0 7:0 8:0 9:0 10:1 11:1 
1 1:0.49073968 2:0.38461538 3:0.72727273 4:0 5:0 6:0 7:0 8:0.87931034 9:0.9 10:1 11:1 
1 1:1 2:1 3:1 4:0 5:0 6:0 7:0 8:0 9:0 10:1 11:1 
1 1:0.875 2:0.83333333 3:0.83333333 4:0 5:0 6:0 7:0 8:1 9:1 10:1 11:1 
1 1:0.6292048 2:0.41666667 3:0.66666667 4:0 5:0 6:0 7:0 8:0 9:0 10:1 11:1 
1 1:1 2:1 3:1 4:0 5:0 6:0 7:0 8:0 9:0 10:1 11:1 
1 1:0.49073968 2:0.38461538 3:0.72727273 4:0 5:0 6:0 7:0 8:0 9:0 10:1 11:1 
1 1:1 2:1 3:1 4:0 5:0 6:0 7:0 8:0 9:0 10:1 11:1 
1 1:0.6292048 2:0.41666667 3:0.66666667 4:0 5:0 6:0 7:0 8:0 9:0 10:1 11:1 
1 1:0.49073968 2:0.38461538 3:0.72727273 4:0 5:0 6:0 7:0 8:0.94736842 9:1 10:1 11:1 
1 1:0.6292048 2:0.41666667 3:0.66666667 4:0 5:0 6:0 7:0 8:0 9:0 10:1 11:1 
1 1:0.6292048 2:0.41666667 3:0.66666667 4:0 5:0 6:0 7:0 8:0 9:0 10:1 11:1 
1 1:0.6292048 2:0.41666667 3:0.66666667 4:0 5:0 6:0 7:0 8:0 9:0 10:1 11:1 
1 1:0.49073968 2:0.38461538 3:0.72727273 4:0 5:0 6:0 7:0 8:0.87931034 9:0.9 10:1 11:1 
1 1:1 2:1 3:1 4:0 5:0 6:0 7:0 8:0 9:0 10:1 11:1 
1 1:0.875 2:0.83333333 3:0.83333333 4:0 5:0 6:0 7:0 8:0 9:0 10:1 11:1 
1 1:0.6292048 2:0.41666667 3:0.66666667 4:0 5:0 6:0 7:0 8:0 9:0 10:1 11:1 
1 1:1 2:1 3:1 4:0 5:0 6:0 7:0 8:0 9:0 10:1 11:1 
1 1:0.49073968 2:0.38461538 3:0.72727273 4:0 5:0 6:0 7:0 8:0 9:0 10:1 11:1 
1 1:1 2:1 3:1 4:0 5:0 6:0 7:0 8:0 9:0 10:1 11:1 
1 1:0.6292048 2:0.41666667 3:0.66666667 4:0 5:0 6:0 7:0 8:0 9:0 10:1 11:1 
1 1:0.49073968 2:0.38461538 3:0.72727273 4:0 5:0 6:0 7:0 8:0 9:0 10:1 11:1 
1 1:0.6292048 2:0.41666667 3:0.66666667 4:0 5:0 6:0 7:0 8:0 9:0 10:1 11:1 
1 1:0.6292048 2:0.41666667 3:0.66666667 4:0 5:0 6:0 7:0 8:0 9:0 10:1 11:1 
1 1:0.6292048 2:0.41666667 3:0.66666667 4:0 5:0 6:0 7:0 8:0 9:0 10:1 11:1 
1 1:0.49073968 2:0.38461538 3:0.72727273 4:0 5:0 6:0 7:0 8:0 9:0 10:1 11:1 
1 1:0.74088089 2:0.33333333 3:0.54545455 4:0 5:0 6:0 7:0 8:0 9:0 10:1 11:1 
1 1:1 2:1 3:1 4:0 5:0 6:0 7:0 8:0 9:0 10:1 11:1 
1 1:0.6292048 2:0.41666667 3:0.66666667 4:0 5:0 6:0 7:0 8:0 9:0 10:1 11:1 
1 1:0.91666667 2:0.9 3:0.8 4:0 5:0 6:0 7:0 8:0 9:0 10:1 11:1 
1 1:0.6292048 2:0.41666667 3:0.66666667 4:0 5:0 6:0 7:0 8:0 9:0 10:1 11:1 
1 1:1 2:1 3:1 4:0 5:0 6:0 7:0 8:0 9:0 10:1 11:1 
1 1:0.91666667 2:0.9 3:0.8 4:0 5:0 6:0 7:0 8:0 9:0 10:1 11:1 
1 1:1 2:1 3:1 4:0 5:0 6:0 7:0 8:0 9:0 10:1 11:1 
1 1:1 2:1 3:1 4:0 5:0 6:0 7:0 8:0 9:0 10:1 11:1 
1 1:0.91666667 2:0.9 3:0.8 4:0 5:0 6:0 7:0 8:0 9:0 10:1 11:1 
1 1:0.875 2:0.83333333 3:0.83333333 4:0 5:0 6:0 7:0 8:0 9:0 10:1 11:1 
1 1:0.6292048 2:0.41666667 3:0.66666667 4:0 5:0 6:0 7:0 8:0 9:0 10:1 11:1 
1 1:1 2:1 3:1 4:0 5:0 6:0 7:0 8:0 9:0 10:1 11:1 
1 1:0.49073968 2:0.38461538 3:0.72727273 4:0 5:0 6:0 7:0 8:0 9:0 10:1 11:1 
1 1:0.6292048 2:0.41666667 3:0.66666667 4:0 5:0 6:0 7:0 8:0 9:0 10:1 11:1 
1 1:0.49073968 2:0.38461538 3:0.72727273 4:0 5:0 6:0 7:0 8:0 9:0 10:1 11:1 
1 1:0.6292048 2:0.41666667 3:0.66666667 4:0 5:0 6:0 7:0 8:0 9:0 10:1 11:1 
1 1:0.6292048 2:0.41666667 3:0.66666667 4:0 5:0 6:0 7:0 8:0 9:0 10:1 11:1 
1 1:0.49073968 2:0.38461538 3:0.72727273 4:0 5:0 6:0 7:0 8:0 9:0 10:1 11:1 
1 1:0.875 2:0.83333333 3:0.83333333 4:0 5:0 6:0 7:0 8:0 9:0 10:1 11:1 
1 1:0.6292048 2:0.41666667 3:0.66666667 4:0 5:0 6:0 7:0 8:0 9:0 10:1 11:1 
1 1:0.49073968 2:0.38461538 3:0.72727273 4:0 5:0 6:0 7:0 8:0 9:0 10:1 11:1 
1 1:0.6292048 2:0.41666667 3:0.66666667 4:0 5:0 6:0 7:0 8:0 9:0 10:1 11:1 
1 1:0.49073968 2:0.38461538 3:0.72727273 4:0 5:0 6:0 7:0 8:0 9:0 10:1 11:1 
1 1:0.6292048 2:0.41666667 3:0.66666667 4:0 5:0 6:0 7:0 8:0 9:0 10:1 11:1 
1 1:0.6292048 2:0.41666667 3:0.66666667 4:0 5:0 6:0 7:0 8:0 9:0 10:1 11:1 
1 1:0.49073968 2:0.38461538 3:0.72727273 4:0 5:0 6:0 7:0 8:0 9:0 10:1 11:1 
1 1:0.74088089 2:0.33333333 3:0.54545455 4:0 5:0 6:0 7:0 8:0 9:0 10:1 11:1 
1 1:0.91666667 2:0.9 3:0.8 4:0 5:0 6:0 7:0 8:0 9:0 10:1 11:1 
1 1:1 2:1 3:1 4:0 5:0 6:0 7:0 8:0 9:0 10:1 11:1 
1 1:0.91666667 2:0.9 3:0.8 4:0 5:0 6:0 7:0 8:0 9:0 10:1 11:1 
1 1:1 2:1 3:1 4:0 5:0 6:0 7:0 8:0 9:0 10:1 11:1 
1 1:1 2:1 3:1 4:0 5:0 6:0 7:0 8:0 9:0 10:1 11:1 
1 1:0.91666667 2:0.9 3:0.8 4:0 5:0 6:0 7:0 8:0 9:0 10:1 11:1 
1 1:0 2:0 3:0 4:0 5:0 6:0 7:0 8:0 9:0 10:1 11:1 
1 1:0 2:0 3:0 4:0 5:0 6:0 7:0 8:0 9:0 10:1 11:1 
1 1:0 2:0 3:0 4:0 5:0 6:0 7:0 8:0 9:0 10:1 11:1 
1 1:0 2:0 3:0 4:0 5:0 6:0 7:0 8:0 9:0 10:1 11:1 
1 1:0 2:0 3:0 4:0 5:0 6:0 7:0 8:0 9:0 10:1 11:1 
1 1:0 2:0 3:0 4:0 5:0 6:0 7:0 8:0 9:0 10:1 11:1 
1 1:0 2:0 3:0 4:0 5:0 6:0 7:0 8:0 9:0 10:1 11:1 
1 1:0.54441433 2:0.3125 3:0.76923077 4:0 5:0 6:0 7:0 8:0.87931034 9:0.9 10:1 11:1 
1 1:1 2:1 3:1 4:0 5:0 6:0 7:0 8:0 9:0 10:1 11:1 
1 1:0.91666667 2:0.9 3:0.8 4:0 5:0 6:0 7:0 8:0 9:0 10:1 11:1 
1 1:1 2:1 3:1 4:0 5:0 6:0 7:0 8:0.93442623 9:0.91666667 10:1 11:1 
1 1:0.91666667 2:0.9 3:0.8 4:0 5:0 6:0 7:0 8:0 9:0 10:1 11:1 
1 1:0.91666667 2:0.9 3:0.8 4:0 5:0 6:0 7:0 8:0 9:0 10:1 11:1 
1 1:0.74088089 2:0.33333333 3:0.54545455 4:0 5:0 6:0 7:0 8:0 9:0 10:1 11:1 
1 1:0.91666667 2:0.9 3:0.8 4:0 5:0 6:0 7:0 8:0 9:0 10:1 11:1 
1 1:1 2:1 3:1 4:0 5:0 6:0 7:0 8:0 9:0 10:1 11:1 
1 1:0.91666667 2:0.9 3:0.8 4:0 5:0 6:0 7:0 8:0 9:0 10:1 11:1 
1 1:1 2:1 3:1 4:0 5:0 6:0 7:0 8:0 9:0 10:1 11:1 
1 1:0.54441433 2:0.3125 3:0.76923077 4:0 5:0 6:0 7:0 8:0 9:0 10:1 11:1 
1 1:0.91666667 2:0.9 3:0.8 4:0 5:0 6:0 7:0 8:0 9:0 10:1 11:1 
1 1:1 2:1 3:1 4:0 5:0 6:0 7:0 8:0 9:0 10:1 11:1 
1 1:0.91666667 2:0.9 3:0.8 4:0 5:0 6:0 7:0 8:0 9:0 10:1 11:1 
1 1:0.54441433 2:0.3125 3:0.76923077 4:0 5:0 6:0 7:0 8:0.94736842 9:1 10:1 11:1 
1 1:0.91666667 2:0.9 3:0.8 4:0 5:0 6:0 7:0 8:0 9:0 10:1 11:1 
1 1:0.91666667 2:0.9 3:0.8 4:0 5:0 6:0 7:0 8:0 9:0 10:1 11:1 
1 1:0.74088089 2:0.33333333 3:0.54545455 4:0 5:0 6:0 7:0 8:0 9:0 10:1 11:1 
1 1:1 2:1 3:1 4:0 5:0 6:0 7:0 8:0 9:0 10:1 11:1 
1 1:0.74088089 2:0.33333333 3:0.54545455 4:0 5:0 6:0 7:0 8:0 9:0 10:1 11:1 
1 1:0.3419882 2:0.29411765 3:0.33333333 4:0 5:0 6:0 7:0 8:1 9:1 10:1 11:1 
1 1:0.92222244 2:0.80597015 3:0.7826087 4:0 5:0 6:0 7:0.97368421 8:0.8028169 9:0.8 10:0 11:1 
1 1:0.67799399 2:0.375 3:0.5 4:0 5:0 6:0 7:0.84210526 8:0.95238095 9:1 10:1 11:1 
1 1:0.67799399 2:0.375 3:0.5 4:0 5:0 6:0 7:0.90789474 8:0.9516129 9:0.9 10:1 11:1 
1 1:0.92222244 2:0.80597015 3:0.7826087 4:0 5:0 6:0 7:0.97368421 8:0.8028169 9:0.8 10:0 11:1 
1 1:0.67799399 2:0.40816327 3:0.5 4:0 5:0 6:0.73333333 7:0.86666667 8:0.76635514 9:0.625 10:1 11:1 
1 1:0.93956731 2:0.75362319 3:0.8 4:0 5:0 6:0 7:0.85526316 8:0.9047619 9:0.8 10:0 11:1 
1 1:0.92222244 2:0.80597015 3:0.7826087 4:0 5:0 6:0 7:0.97368421 8:0.8028169 9:0.8 10:0 11:1 
1 1:0.93956731 2:0.77142857 3:0.8 4:0 5:0 6:1 7:1 8:0.96062992 9:0.9 10:0 11:1 
1 1:0.92222244 2:0.80597015 3:0.7826087 4:0 5:0 6:0 7:0.97368421 8:0.8028169 9:0.8 10:0 11:1 
1 1:0.82833181 2:0.28571429 3:0.53333333 4:0 5:0 6:0 7:0.86666667 8:0.6504065 9:0.875 10:0 11:1 
1 1:1 2:0.7826087 3:1 4:0 5:0 6:0 7:0.73333333 8:0.71028037 9:0.5 10:1 11:1 
1 1:1 2:0.7826087 3:1 4:0 5:0 6:0 7:0.8 8:0.7047619 9:0.5 10:1 11:1 
1 1:0.82833181 2:0.28571429 3:0.53333333 4:0 5:0 6:0 7:0.86666667 8:0.6504065 9:0.875 10:0 11:1 
1 1:0.71010408 2:0.40909091 3:0.70588235 4:0 5:0 6:0 7:0.8 8:0.74766355 9:0.875 10:0 11:1 
1 1:0.82833181 2:0.28571429 3:0.53333333 4:0 5:0 6:0 7:0.86666667 8:0.6504065 9:0.875 10:0 11:1 
1 1:0.71010408 2:0.53333333 3:0.70588235 4:0 5:0 6:0.33333333 7:0.93333333 8:0.81481481 9:1 10:0 11:1 
1 1:0.82833181 2:0.28571429 3:0.53333333 4:0 5:0 6:0 7:0.86666667 8:0.6504065 9:0.875 10:0 11:1 
1 1:0.7868862 2:0.73015873 3:0.8 4:1 5:1 6:0 7:1 8:0.83916084 9:0.91666667 10:1 11:1 
1 1:0.71010408 2:0.40909091 3:0.70588235 4:0 5:0 6:0 7:0.58333333 8:0.91338583 9:0.88888889 10:0 11:0.5 
1 1:0.71010408 2:0.40909091 3:0.70588235 4:1 5:1 6:0 7:0.58333333 8:0.912 9:0.8 10:0 11:1 
1 1:0.7868862 2:0.73015873 3:0.8 4:0.5 5:0.5 6:0 7:1 8:0.83916084 9:0.91666667 10:1 11:1 
1 1:1 2:0.92307692 3:1 4:1 5:1 6:0 7:0.91666667 8:0.94488189 9:0.91666667 10:1 11:1 
1 1:0.7868862 2:0.73015873 3:0.8 4:1 5:1 6:0 7:1 8:0.83916084 9:0.91666667 10:1 11:1 
1 1:0.7868862 2:0.73015873 3:0.8 4:1 5:1 6:0 7:1 8:0.83916084 9:0.91666667 10:1 11:1 
1 1:0.82833181 2:0.29268293 3:0.53333333 4:0 5:0 6:0 7:0 8:0.78873239 9:0.77777778 10:0 11:0.5 
1 1:1 2:1 3:1 4:0 5:0 6:0 7:0 8:0.93548387 9:0.88888889 10:1 11:1 
1 1:0.82833181 2:0.29268293 3:0.53333333 4:0 5:0 6:0 7:0 8:0.78873239 9:0.77777778 10:0 11:0.5 
1 1:0.71010408 2:0.51162791 3:0.70588235 4:0 5:0 6:0 7:0 8:0.88888889 9:0.77777778 10:0 11:0.5 
1 1:0.82833181 2:0.29268293 3:0.53333333 4:0 5:0 6:0 7:0 8:0.78873239 9:0.77777778 10:0 11:0.5 
1 1:0.82833181 2:0.29268293 3:0.53333333 4:0 5:0 6:0 7:0 8:0.78873239 9:0.77777778 10:0 11:0.5 
1 1:0.7868862 2:0.74193548 3:0.8 4:1 5:1 6:0 7:0 8:0.87323944 9:0.92307692 10:1 11:1 
1 1:0.71010408 2:0.51162791 3:0.70588235 4:1 5:1 6:0 7:0 8:0.9516129 9:0.9 10:0 11:1 
1 1:0.7868862 2:0.74193548 3:0.8 4:0.5 5:0.5 6:0 7:0 8:0.87323944 9:0.92307692 10:1 11:1 
1 1:0.7868862 2:0.74193548 3:0.8 4:1 5:1 6:0 7:0 8:0.87323944 9:0.92307692 10:1 11:1 
1 1:0.7868862 2:0.74193548 3:0.8 4:1 5:1 6:0 7:0 8:0.87323944 9:0.92307692 10:1 11:1 
1 1:0.82833181 2:0.29268293 3:0.53333333 4:1 5:1 6:0 7:0 8:0.84285714 9:0.9 10:0 11:1 
1 1:0.82833181 2:0.29268293 3:0.53333333 4:0.5 5:0.5 6:0 7:0 8:0.84285714 9:0.9 10:0 11:1 
1 1:0.82833181 2:0.29268293 3:0.53333333 4:1 5:1 6:0 7:0 8:0.84285714 9:0.9 10:0 11:1 
1 1:0.82833181 2:0.29268293 3:0.53333333 4:1 5:1 6:0 7:0 8:0.84285714 9:0.9 10:0 11:1 
1 1:1 2:1 3:1 4:0.5 5:0.5 6:0 7:0 8:1 9:1 10:1 11:1 
1 1:1 2:1 3:1 4:1 5:1 6:0 7:0 8:1 9:1 10:1 11:1 
1 1:1 2:1 3:1 4:1 5:1 6:0 7:0 8:1 9:1 10:1 11:1 
1 1:1 2:1 3:1 4:0.5 5:0.5 6:0 7:0 8:1 9:1 10:1 11:1 
1 1:1 2:1 3:1 4:1 5:1 6:0 7:0 8:1 9:1 10:1 11:1 
1 1:1 2:1 3:1 4:0.5 5:0.5 6:0 7:0 8:1 9:1 10:1 11:1 
1 1:0.6292048 2:0.41666667 3:0.66666667 4:0 5:0 6:0 7:0 8:0.64 9:1 10:1 11:1 
1 1:0.66557313 2:0.36734694 3:0.4 4:1 5:1 6:0 7:0.66666667 8:0.93650794 9:0.90909091 10:0 11:1 
1 1:0.76315789 2:0.62068966 3:0.66666667 4:1 5:1 6:0 7:0 8:0.80555556 9:0.81818182 10:1 11:1 
1 1:0.91666667 2:0.85714286 3:0.8 4:1 5:1 6:0 7:0 8:0.44897959 9:0.72727273 10:1 11:1 
1 1:0.91666667 2:0.81818182 3:0.8 4:1 5:1 6:0 7:0 8:0.44897959 9:0.72727273 10:1 11:1 
1 1:0.59803922 2:0.26086957 3:0.28571429 4:1 5:1 6:0 7:1 8:0.91338583 9:0.9 10:1 11:1 
1 1:1 2:1 3:1 4:0 5:0 6:0 7:0 8:0.6631016 9:1 10:1 11:1 
1 1:0.6292048 2:0.41666667 3:0.66666667 4:1 5:1 6:0 7:0 8:0.64248705 9:1 10:1 11:1 
1 1:0.91666667 2:0.81818182 3:0.8 4:1 5:1 6:0 7:0 8:0.44897959 9:0.72727273 10:1 11:1 
1 1:0.86934969 2:0.5 3:0.33333333 4:0 5:0 6:0 7:0.74509804 8:0.4 9:1 10:1 11:1 
1 1:0.91666667 2:0.85714286 3:0.8 4:0 5:0 6:0 7:0 8:0.64921466 9:1 10:1 11:1 
1 1:0.91666667 2:0.9 3:0.8 4:0 5:0 6:0 7:0 8:0.48927039 9:0.81818182 10:1 11:1 
1 1:1 2:1 3:1 4:0 5:0 6:0 7:0 8:0.953125 9:1 10:1 11:1 
1 1:0.91666667 2:0.85714286 3:0.8 4:1 5:1 6:0 7:0 8:0.67428571 9:0.90909091 10:1 11:1 
1 1:0.91666667 2:0.9 3:0.8 4:0 5:0 6:0 7:1 8:0.953125 9:1 10:1 11:1 
1 1:0.91666667 2:0.81818182 3:0.8 4:1 5:1 6:0 7:0 8:0.44897959 9:0.72727273 10:1 11:1 
1 1:0.91666667 2:0.9 3:0.8 4:1 5:1 6:0 7:0 8:0.81944444 9:0.90909091 10:0 11:1 
1 1:0.77777778 2:0.64285714 3:0.72727273 4:1 5:1 6:0 7:0 8:0.64864865 9:0.90909091 10:1 11:1 
1 1:0.62765213 2:0.27272727 3:0.30769231 4:1 5:1 6:0 7:0 8:0.62032086 9:0.63636364 10:0 11:1 
1 1:0.59090909 2:0.25714286 3:0.26666667 4:0 5:0 6:0 7:0 8:0.69512195 9:0.81818182 10:1 11:1 
1 1:0.91666667 2:0.85714286 3:0.8 4:0 5:0 6:0 7:0.70175439 8:0.953125 9:1 10:1 11:1 
1 1:0.76315789 2:0.62068966 3:0.66666667 4:1 5:1 6:0 7:0 8:0.80555556 9:0.81818182 10:1 11:1 
1 1:0.49073968 2:0.38461538 3:0.72727273 4:0 5:0 6:0 7:0 8:0.57407407 9:0.68421053 10:0 11:1 
1 1:0.67142857 2:0.35294118 3:0.54545455 4:1 5:1 6:0 7:1 8:0.87323944 9:1 10:1 11:1 
1 1:0.81162924 2:0.58064516 3:0.71428571 4:1 5:1 6:0 7:0 8:0.9 9:0.8 10:0 11:1 
1 1:1 2:0.7826087 3:1 4:1 5:1 6:0 7:0 8:0.5210728 9:0.57894737 10:0 11:1 
1 1:1 2:0.75 3:1 4:1 5:1 6:0 7:0 8:0.5210728 9:0.57894737 10:0 11:1 
1 1:0.61764706 2:0.25352113 3:0.4 4:1 5:1 6:0 7:1 8:0.7972028 9:0.8 10:0 11:1 
1 1:0.91666667 2:0.9 3:0.8 4:0 5:0 6:0 7:0 8:0.61083744 9:0.73684211 10:0 11:1 
1 1:0.49073968 2:0.38461538 3:0.72727273 4:1 5:1 6:0 7:0 8:0.59330144 9:0.63157895 10:0 11:1 
1 1:1 2:0.75 3:1 4:1 5:1 6:0 7:0 8:0.5210728 9:0.57894737 10:0 11:1 
1 1:0.80081279 2:0.45454545 3:0.25 4:0 5:0 6:0 7:1 8:0.33333333 9:1 10:0 11:1 
1 1:1 2:0.7826087 3:1 4:0 5:0 6:0 7:0 8:0.59903382 9:0.63157895 10:0 11:1 
1 1:1 2:1 3:1 4:0 5:0 6:0 7:0 8:0.54618474 9:0.63157895 10:0 11:1 
1 1:0.91666667 2:0.9 3:0.8 4:0 5:0 6:0 7:0 8:0.83333333 9:0.91666667 10:0 11:1 
1 1:1 2:0.7826087 3:1 4:1 5:1 6:0 7:0 8:0.80628272 9:0.84210526 10:0 11:0.5 
1 1:1 2:1 3:1 4:0 5:0 6:0 7:1 8:0.83333333 9:0.91666667 10:0 11:1 
1 1:1 2:0.75 3:1 4:1 5:1 6:0 7:0 8:0.5210728 9:0.57894737 10:0 11:1 
1 1:0.83333333 2:0.6 3:0.92307692 4:1 5:1 6:0 7:0 8:0.59701493 9:0.57894737 10:0 11:1 
1 1:0.62915383 2:0.32352941 3:0.42857143 4:1 5:1 6:0 7:0 8:0.57142857 9:0.5 10:1 11:1 
1 1:0.66729329 2:0.30555556 3:0.375 4:0 5:0 6:0 7:0 8:0.61111111 9:0.53333333 10:0 11:1 
1 1:1 2:0.7826087 3:1 4:0 5:0 6:0 7:0.9122807 8:0.83333333 9:0.91666667 10:0 11:1 
1 1:0.81162924 2:0.58064516 3:0.71428571 4:1 5:1 6:0 7:0 8:0.9 9:0.8 10:0 11:1 
1 1:0.49073968 2:0.44444444 3:0.72727273 4:0 5:0 6:0 7:0.57894737 8:0.61 9:1 10:1 11:1 
1 1:0.67142857 2:0.46153846 3:0.54545455 4:0 5:0 6:0.41666667 7:0.92982456 8:0.95238095 9:0.91666667 10:0 11:1 
1 1:0.81162924 2:0.625 3:0.71428571 4:0 5:0 6:0 7:0.9122807 8:0.84722222 9:0.75 10:1 11:1 
1 1:1 2:1 3:1 4:0 5:0 6:0 7:0.89473684 8:0.46530612 9:0.66666667 10:1 11:1 
1 1:1 2:0.88 3:1 4:0 5:0 6:0 7:0.89473684 8:0.46530612 9:0.66666667 10:1 11:1 
1 1:0.61764706 2:0.33333333 3:0.4 4:0 5:0 6:1 7:1 8:0.96062992 9:0.9 10:1 11:1 
1 1:0.91666667 2:0.85714286 3:0.8 4:0 5:0 6:0 7:0.87719298 8:0.68449198 9:1 10:1 11:1 
1 1:0.49073968 2:0.44444444 3:0.72727273 4:0 5:0 6:0 7:0.89473684 8:0.66321244 9:1 10:1 11:1 
1 1:1 2:0.88 3:1 4:0 5:0 6:0 7:0.89473684 8:0.46530612 9:0.66666667 10:1 11:1 
1 1:0.80081279 2:0.43478261 3:0.25 4:0 5:0 6:1 7:1 8:0.4 9:1 10:1 11:1 
1 1:1 2:1 3:1 4:0 5:0 6:0 7:0.89473684 8:0.67015707 9:1 10:1 11:1 
1 1:1 2:0.7826087 3:1 4:0 5:0 6:0 7:0.9122807 8:0.50643777 9:0.75 10:1 11:1 
1 1:0.91666667 2:0.85714286 3:0.8 4:0 5:0 6:0 7:0.71929825 8:1 9:1 10:1 11:1 
1 1:1 2:1 3:1 4:0 5:0 6:0 7:0.9122807 8:0.68571429 9:0.91666667 10:1 11:1 
1 1:1 2:0.7826087 3:1 4:0 5:0 6:1 7:1 8:1 9:1 10:1 11:1 
1 1:1 2:0.88 3:1 4:0 5:0 6:0 7:0.89473684 8:0.46530612 9:0.66666667 10:1 11:1 
1 1:0.83333333 2:0.77419355 3:0.92307692 4:0 5:0 6:0 7:0.9122807 8:0.67027027 9:0.91666667 10:1 11:1 
1 1:0.62915383 2:0.28985507 3:0.42857143 4:0 5:0 6:0 7:0.92982456 8:0.59893048 9:0.58333333 10:0 11:1 
1 1:0.66729329 2:0.24657534 3:0.375 4:0 5:0 6:0 7:0.9122807 8:0.7195122 9:0.75 10:1 11:1 
1 1:0.81162924 2:0.625 3:0.71428571 4:0 5:0 6:0 7:0.9122807 8:0.84722222 9:0.75 10:1 11:1 
1 1:0.2974785 2:0.25454545 3:0.38095238 4:0 5:0 6:0 7:0.75 8:0.5959596 9:0.91666667 10:0 11:1 
1 1:0.36648051 2:0.28571429 3:0.46153846 4:0 5:0 6:0 7:0 8:0.56481481 9:0.66666667 10:1 11:1 
1 1:0.49073968 2:0.44444444 3:0.72727273 4:0 5:0 6:0 7:0 8:0.42271293 9:0.42307692 10:1 11:1 
1 1:0.49073968 2:0.35714286 3:0.72727273 4:0 5:0 6:0 7:0 8:0.42271293 9:0.42307692 10:1 11:1 
1 1:0.27815909 2:0.18666667 3:0.27586207 4:0 5:0 6:0 7:0.73529412 8:0.58291457 9:0.9 10:1 11:1 
1 1:0.6292048 2:0.41666667 3:0.66666667 4:0 5:0 6:0 7:0 8:0.54826255 9:0.6 10:1 11:1 
1 1:1 2:1 3:1 4:0 5:0 6:0 7:0 8:0.53584906 9:0.58333333 10:1 11:1 
1 1:0.49073968 2:0.35714286 3:0.72727273 4:0 5:0 6:0 7:0 8:0.42271293 9:0.42307692 10:1 11:1 
1 1:0.9 2:0.69230769 3:0.57142857 4:0 5:0 6:0 7:0.62745098 8:0.21052632 9:1 10:1 11:1 
1 1:0.49073968 2:0.44444444 3:0.72727273 4:0 5:0 6:0 7:0 8:0.53992395 9:0.63636364 10:1 11:1 
1 1:0.49073968 2:0.38461538 3:0.72727273 4:0 5:0 6:0 7:0 8:0.43934426 9:0.42307692 10:1 11:1 
1 1:0.6292048 2:0.41666667 3:0.66666667 4:0 5:0 6:0 7:0 8:0.61 9:1 10:1 11:1 
1 1:0.49073968 2:0.44444444 3:0.72727273 4:0 5:0 6:0 7:0 8:0.50202429 9:0.46153846 10:1 11:1 
1 1:0.49073968 2:0.38461538 3:0.72727273 4:0 5:0 6:0 7:0.73529412 8:0.61 9:1 10:1 11:1 
1 1:0.49073968 2:0.35714286 3:0.72727273 4:0 5:0 6:0 7:0 8:0.42271293 9:0.42307692 10:1 11:1 
1 1:0.40086211 2:0.41176471 3:0.66666667 4:0 5:0 6:0 7:0 8:0.55252918 9:0.66666667 10:1 11:1 
1 1:0.28238543 2:0.19444444 3:0.2962963 4:0 5:0 6:0 7:0 8:0.51737452 9:0.5 10:0 11:1 
1 1:0.26025266 2:0.15789474 3:0.25806452 4:0 5:0 6:0 7:0 8:0.54237288 9:0.66666667 10:1 11:1 
1 1:0.36648051 2:0.28571429 3:0.46153846 4:0 5:0 6:0 7:0 8:0.56481481 9:0.66666667 10:1 11:1 
1 1:0.67142857 2:0.41509434 3:0.54545455 4:1 5:1 6:0 7:1 8:0.43621399 9:0.58333333 10:0 11:1 
1 1:0.81162924 2:0.60606061 3:0.71428571 4:1 5:1 6:0 7:0 8:0.58237548 9:0.93333333 10:1 11:1 
1 1:1 2:0.88 3:1 4:1 5:1 6:0 7:0 8:1 9:1 10:1 11:1 
1 1:0.61764706 2:0.30136986 3:0.4 4:1 5:1 6:0 7:1 8:0.48360656 9:0.9 10:1 11:1 
1 1:0.91666667 2:0.81818182 3:0.8 4:0 5:0 6:0 7:0 8:0.70394737 9:0.72 10:1 11:1 
1 1:0.49073968 2:0.35714286 3:0.72727273 4:1 5:1 6:0 7:0 8:0.7483871 9:0.75 10:1 11:1 
1 1:1 2:1 3:1 4:1 5:1 6:0 7:0 8:1 9:1 10:1 11:1 
1 1:0.80081279 2:0.41666667 3:0.25 4:0 5:0 6:0 7:0.98039216 8:0.16243655 9:1 10:1 11:1 
1 1:1 2:0.88 3:1 4:0 5:0 6:0 7:0 8:0.75974026 9:0.81818182 10:1 11:1 
1 1:1 2:0.75 3:1 4:0 5:0 6:0 7:0 8:0.80571429 9:0.82051282 10:1 11:1 
1 1:0.91666667 2:0.81818182 3:0.8 4:0 5:0 6:0 7:0 8:0.46530612 9:0.66666667 10:1 11:1 
1 1:1 2:0.88 3:1 4:1 5:1 6:0 7:0 8:0.67123288 9:0.78571429 10:1 11:1 
1 1:1 2:0.75 3:1 4:0 5:0 6:0 7:1 8:0.46530612 9:0.66666667 10:1 11:1 
1 1:1 2:1 3:1 4:1 5:1 6:0 7:0 8:1 9:1 10:1 11:1 
1 1:0.83333333 2:0.6875 3:0.92307692 4:1 5:1 6:0 7:0 8:0.7218543 9:0.71428571 10:1 11:1 
1 1:0.62915383 2:0.28571429 3:0.42857143 4:1 5:1 6:0 7:0 8:0.74342105 9:0.88888889 10:0 11:1 
1 1:0.66729329 2:0.24324324 3:0.375 4:0 5:0 6:0 7:0 8:0.66903915 9:0.86666667 10:1 11:1 
1 1:0.81162924 2:0.60606061 3:0.71428571 4:1 5:1 6:0 7:0 8:0.58237548 9:0.93333333 10:1 11:1 
1 1:0.67142857 2:0.41509434 3:0.54545455 4:1 5:1 6:0 7:1 8:0.43621399 9:0.58333333 10:0 11:1 
1 1:0.81162924 2:0.60606061 3:0.71428571 4:1 5:1 6:0 7:0 8:0.58237548 9:0.93333333 10:1 11:1 
1 1:1 2:0.88 3:1 4:1 5:1 6:0 7:0 8:1 9:1 10:1 11:1 
1 1:0.61764706 2:0.30136986 3:0.4 4:1 5:1 6:0 7:1 8:0.48360656 9:0.9 10:1 11:1 
1 1:0.91666667 2:0.81818182 3:0.8 4:0 5:0 6:0 7:0 8:0.70394737 9:0.72 10:1 11:1 
1 1:0.49073968 2:0.35714286 3:0.72727273 4:1 5:1 6:0 7:0 8:0.7483871 9:0.75 10:1 11:1 
1 1:1 2:1 3:1 4:1 5:1 6:0 7:0 8:1 9:1 10:1 11:1 
1 1:0.80081279 2:0.41666667 3:0.25 4:0 5:0 6:0 7:0.98039216 8:0.16243655 9:1 10:1 11:1 
1 1:1 2:0.88 3:1 4:0 5:0 6:0 7:0 8:0.75974026 9:0.81818182 10:1 11:1 
1 1:1 2:0.75 3:1 4:0 5:0 6:0 7:0 8:0.80571429 9:0.82051282 10:1 11:1 
1 1:0.91666667 2:0.81818182 3:0.8 4:0 5:0 6:0 7:0 8:0.46530612 9:0.66666667 10:1 11:1 
1 1:1 2:0.88 3:1 4:1 5:1 6:0 7:0 8:0.67123288 9:0.78571429 10:1 11:1 
1 1:1 2:0.75 3:1 4:0 5:0 6:0 7:1 8:0.46530612 9:0.66666667 10:1 11:1 
1 1:0.83333333 2:0.6875 3:0.92307692 4:1 5:1 6:0 7:0 8:0.7218543 9:0.71428571 10:1 11:1 
1 1:0.62915383 2:0.28571429 3:0.42857143 4:1 5:1 6:0 7:0 8:0.74342105 9:0.88888889 10:0 11:1 
1 1:0.66729329 2:0.24324324 3:0.375 4:0 5:0 6:0 7:0 8:0.66903915 9:0.86666667 10:1 11:1 
1 1:0.81162924 2:0.60606061 3:0.71428571 4:1 5:1 6:0 7:0 8:0.58237548 9:0.93333333 10:1 11:1 
1 1:0.67142857 2:0.41509434 3:0.54545455 4:1 5:1 6:0 7:1 8:0.43621399 9:0.58333333 10:0 11:1 
1 1:0.81162924 2:0.60606061 3:0.71428571 4:1 5:1 6:0 7:0 8:0.58237548 9:0.93333333 10:1 11:1 
1 1:1 2:0.88 3:1 4:1 5:1 6:0 7:0 8:1 9:1 10:1 11:1 
1 1:0.61764706 2:0.30136986 3:0.4 4:1 5:1 6:0 7:1 8:0.48360656 9:0.9 10:1 11:1 
1 1:0.91666667 2:0.81818182 3:0.8 4:0 5:0 6:0 7:0 8:0.70394737 9:0.72 10:1 11:1 
1 1:0.49073968 2:0.35714286 3:0.72727273 4:1 5:1 6:0 7:0 8:0.7483871 9:0.75 10:1 11:1 
1 1:0.80081279 2:0.41666667 3:0.25 4:0 5:0 6:0 7:0.98039216 8:0.16243655 9:1 10:1 11:1 
1 1:1 2:0.88 3:1 4:0 5:0 6:0 7:0 8:0.75974026 9:0.81818182 10:1 11:1 
1 1:1 2:0.75 3:1 4:0 5:0 6:0 7:0 8:0.80571429 9:0.82051282 10:1 11:1 
1 1:0.91666667 2:0.81818182 3:0.8 4:0 5:0 6:0 7:0 8:0.46530612 9:0.66666667 10:1 11:1 
1 1:1 2:0.88 3:1 4:1 5:1 6:0 7:0 8:0.67123288 9:0.78571429 10:1 11:1 
1 1:1 2:0.75 3:1 4:0 5:0 6:0 7:1 8:0.46530612 9:0.66666667 10:1 11:1 
1 1:0.83333333 2:0.6875 3:0.92307692 4:1 5:1 6:0 7:0 8:0.7218543 9:0.71428571 10:1 11:1 
1 1:0.62915383 2:0.28571429 3:0.42857143 4:1 5:1 6:0 7:0 8:0.74342105 9:0.88888889 10:0 11:1 
1 1:0.66729329 2:0.24324324 3:0.375 4:0 5:0 6:0 7:0 8:0.66903915 9:0.86666667 10:1 11:1 
1 1:0.81162924 2:0.60606061 3:0.71428571 4:1 5:1 6:0 7:0 8:0.58237548 9:0.93333333 10:1 11:1 
1 1:0.77142857 2:0.66666667 3:0.66666667 4:1 5:1 6:0 7:1 8:0.8028169 9:0.66666667 10:0 11:1 
1 1:0.67142857 2:0.46153846 3:0.54545455 4:1 5:1 6:0 7:1 8:0.43621399 9:0.58333333 10:0 11:1 
1 1:0.60947131 2:0.8 3:0.8 4:1 5:1 6:0.41666667 7:1 8:0.912 9:0.8 10:0 11:1 
1 1:0.66557313 2:0.36734694 3:0.4 4:0 5:0 6:0 7:0.58333333 8:0.64864865 9:0.91666667 10:0 11:1 
1 1:0.29790007 2:0.25454545 3:0.38095238 4:1 5:1 6:0 7:0.58333333 8:0.62827225 9:0.91666667 10:0 11:1 
1 1:0.55137668 2:0.19607843 3:0.11111111 4:0 5:0 6:0.41666667 7:1 8:0.41025641 9:1 10:0 11:1 
1 1:0.67142857 2:0.46153846 3:0.54545455 4:0 5:0 6:0 7:0.58333333 8:0.63492063 9:0.91666667 10:0 11:1 
1 1:0.67142857 2:0.35294118 3:0.54545455 4:0 5:0 6:0 7:1 8:0.47619048 9:0.66666667 10:0 11:1 
1 1:0.66557313 2:0.36734694 3:0.4 4:0 5:0 6:0 7:0.58333333 8:0.95238095 9:0.91666667 10:0 11:1 
1 1:0.67142857 2:0.46153846 3:0.54545455 4:1 5:1 6:0 7:1 8:0.71676301 9:1 10:0 11:0.5 
1 1:0.67142857 2:0.35294118 3:0.54545455 4:0 5:0 6:0.41666667 7:1 8:0.95238095 9:0.91666667 10:0 11:1 
1 1:0.75714286 2:0.6440678 3:0.60869565 4:1 5:1 6:0 7:0.91666667 8:0.63387978 9:0.83333333 10:0 11:1 
1 1:0.60502589 2:0.74226804 3:0.84210526 4:1 5:1 6:0 7:1 8:0.60540541 9:0.66666667 10:1 11:1 
1 1:0.63698749 2:0.69306931 3:0.76190476 4:0 5:0 6:0 7:0.91666667 8:0.67901235 9:0.66666667 10:0 11:1 
1 1:0.77142857 2:0.66666667 3:0.66666667 4:1 5:1 6:0 7:1 8:0.8028169 9:0.66666667 10:0 11:1 
1 1:0.86085639 2:0.82051282 3:0.8 4:1 5:1 6:0 7:0 8:0.60696517 9:0.6 10:1 11:1 
1 1:0.83333333 2:0.77419355 3:0.92307692 4:1 5:1 6:0 7:0 8:0.7218543 9:0.71428571 10:1 11:1 
1 1:0.67647059 2:0.48101266 3:0.4516129 4:1 5:1 6:0 7:1 8:0.64130435 9:0.8 10:1 11:1 
1 1:0.77777778 2:0.64285714 3:0.72727273 4:0 5:0 6:0 7:0 8:0.86065574 9:0.85714286 10:1 11:1 
1 1:0.40086211 2:0.41176471 3:0.66666667 4:1 5:1 6:0 7:0 8:0.912 9:0.85714286 10:1 11:1 
1 1:0.68960469 2:0.33333333 3:0.22222222 4:0 5:0 6:0 7:1 8:0.20437956 9:0.66666667 10:1 11:1 
1 1:0.83333333 2:0.77419355 3:0.92307692 4:0 5:0 6:0 7:0 8:0.91935484 9:0.85714286 10:1 11:1 
1 1:0.83333333 2:0.6 3:0.92307692 4:0 5:0 6:0 7:0 8:0.67586207 9:0.66666667 10:1 11:1 
1 1:0.77777778 2:0.64285714 3:0.72727273 4:0 5:0 6:0 7:0 8:0.67027027 9:0.91666667 10:1 11:1 
1 1:0.83333333 2:0.77419355 3:0.92307692 4:1 5:1 6:0 7:0 8:0.51724138 9:0.52380952 10:1 11:1 
1 1:0.83333333 2:0.6 3:0.92307692 4:0 5:0 6:0 7:1 8:0.67027027 9:0.91666667 10:1 11:1 
1 1:0.68820622 2:0.44736842 3:0.48275862 4:1 5:1 6:0 7:0 8:0.86885246 9:0.72222222 10:0 11:1 
1 1:0.66363636 2:0.4 3:0.42424242 4:0 5:0 6:0 7:0 8:0.81447964 9:0.8 10:1 11:1 
1 1:0.86085639 2:0.82051282 3:0.8 4:1 5:1 6:0 7:0 8:0.60696517 9:0.6 10:1 11:1 
1 1:0 2:0 3:0 4:1 5:1 6:0 7:0 8:0.74257426 9:0.86666667 10:1 11:1 
1 1:0 2:0 3:0 4:1 5:1 6:0 7:0 8:0.61386139 9:0.74074074 10:1 11:1 
1 1:0 2:0 3:0 4:1 5:1 6:0 7:1 8:0.65945946 9:0.9 10:1 11:1 
1 1:0 2:0 3:0 4:0 5:0 6:0 7:0 8:0.53877551 9:0.56 10:1 11:1 
1 1:0 2:0 3:0 4:1 5:1 6:0 7:0 8:0.52589641 9:0.58333333 10:1 11:1 
1 1:0 2:0 3:0 4:0 5:0 6:0 7:0.98039216 8:0.23188406 9:1 10:1 11:1 
1 1:0 2:0 3:0 4:0 5:0 6:0 7:0 8:0.53012048 9:0.63636364 10:1 11:1 
1 1:0 2:0 3:0 4:0 5:0 6:0 7:0 8:0.62542955 9:0.81481481 10:1 11:1 
1 1:0 2:0 3:0 4:0 5:0 6:0 7:0 8:0.68817204 9:1 10:1 11:1 
1 1:0 2:0 3:0 4:1 5:1 6:0 7:0 8:0.79828326 9:0.81481481 10:1 11:1 
1 1:0 2:0 3:0 4:0 5:0 6:0 7:1 8:0.68817204 9:1 10:1 11:1 
1 1:0 2:0 3:0 4:1 5:1 6:0 7:0 8:0.47346939 9:0.44444444 10:0 11:1 
1 1:0 2:0 3:0 4:0 5:0 6:0 7:0 8:0.53153153 9:0.6 10:1 11:1 
1 1:0 2:0 3:0 4:1 5:1 6:0 7:0 8:0.74257426 9:0.86666667 10:1 11:1 
1 1:0.81162924 2:0.58064516 3:0.71428571 4:0 5:0 6:0 7:0 8:0.61044177 9:1 10:1 11:1 
1 1:1 2:0.7826087 3:1 4:0 5:0 6:0 7:0 8:0.80571429 9:0.82051282 10:1 11:1 
1 1:0.61764706 2:0.25352113 3:0.4 4:0 5:0 6:0 7:1 8:0.52586207 9:1 10:1 11:1 
1 1:0.91666667 2:0.9 3:0.8 4:0 5:0 6:0 7:0 8:0.67808219 9:0.68 10:1 11:1 
1 1:0.49073968 2:0.38461538 3:0.72727273 4:0 5:0 6:0 7:0 8:0.67785235 9:0.66666667 10:1 11:1 
1 1:0.80081279 2:0.45454545 3:0.25 4:0 5:0 6:0 7:1 8:0.17297297 9:1 10:1 11:1 
1 1:1 2:0.7826087 3:1 4:0 5:0 6:0 7:0 8:0.68918919 9:0.72727273 10:1 11:1 
1 1:0.91666667 2:0.9 3:0.8 4:0 5:0 6:0 7:0 8:0.50643777 9:0.75 10:1 11:1 
1 1:1 2:0.7826087 3:1 4:0 5:0 6:0 7:0 8:0.69285714 9:0.85714286 10:1 11:1 
1 1:1 2:1 3:1 4:0 5:0 6:0 7:1 8:0.50643777 9:0.75 10:1 11:1 
1 1:0.62915383 2:0.32352941 3:0.42857143 4:0 5:0 6:0 7:0 8:0.66438356 9:0.77777778 10:0 11:1 
1 1:0.66729329 2:0.30555556 3:0.375 4:0 5:0 6:0 7:0 8:0.72118959 9:0.93333333 10:1 11:1 
1 1:0.81162924 2:0.58064516 3:0.71428571 4:0 5:0 6:0 7:0 8:0.61044177 9:1 10:1 11:1 
1 1:0.81162924 2:0.625 3:0.71428571 4:1 5:1 6:0 7:0 8:0.58237548 9:0.93333333 10:1 11:1 
1 1:0.61764706 2:0.33333333 3:0.4 4:1 5:1 6:0 7:1 8:0.48360656 9:0.9 10:1 11:1 
1 1:0.91666667 2:0.85714286 3:0.8 4:0 5:0 6:0 7:0 8:0.70394737 9:0.72 10:1 11:1 
1 1:0.49073968 2:0.44444444 3:0.72727273 4:1 5:1 6:0 7:0 8:0.7483871 9:0.75 10:1 11:1 
1 1:0.80081279 2:0.43478261 3:0.25 4:0 5:0 6:0 7:0.98039216 8:0.16243655 9:1 10:1 11:1 
1 1:1 2:1 3:1 4:0 5:0 6:0 7:0 8:0.75974026 9:0.81818182 10:1 11:1 
1 1:0.91666667 2:0.85714286 3:0.8 4:0 5:0 6:0 7:0 8:0.46530612 9:0.66666667 10:1 11:1 
1 1:1 2:1 3:1 4:1 5:1 6:0 7:0 8:0.67123288 9:0.78571429 10:1 11:1 
1 1:1 2:0.7826087 3:1 4:0 5:0 6:0 7:1 8:0.46530612 9:0.66666667 10:1 11:1 
1 1:0.62915383 2:0.28985507 3:0.42857143 4:1 5:1 6:0 7:0 8:0.74342105 9:0.88888889 10:0 11:1 
1 1:0.66729329 2:0.24657534 3:0.375 4:0 5:0 6:0 7:0 8:0.66903915 9:0.86666667 10:1 11:1 
1 1:0.81162924 2:0.625 3:0.71428571 4:1 5:1 6:0 7:0 8:0.58237548 9:0.93333333 10:1 11:1 
1 1:1 2:1 3:1 4:1 5:1 6:0 7:0 8:1 9:1 10:1 11:1 
1 1:0.73034999 2:0.4691358 3:0.47058824 4:0 5:0 6:0 7:0 8:0.67777778 9:0.66666667 10:1 11:1 
1 1:0.76783307 2:0.7768595 3:0.96 4:0 5:0 6:0 7:1 8:0.74846626 9:1 10:1 11:1 
1 1:0.59090909 2:0.25714286 3:0.26666667 4:0 5:0 6:0 7:0 8:0.82511211 9:0.93333333 10:1 11:1 
1 1:0.25760178 2:0.15789474 3:0.25806452 4:0 5:0 6:0 7:0 8:0.81222707 9:0.93333333 10:1 11:1 
1 1:0.44398629 2:0.13888889 3:0.071428571 4:0 5:0 6:0 7:1 8:0.27586207 9:1 10:1 11:1 
1 1:0.66729329 2:0.24657534 3:0.375 4:0 5:0 6:0 7:0 8:0.81057269 9:0.86666667 10:1 11:1 
1 1:0.59090909 2:0.25714286 3:0.26666667 4:0 5:0 6:0 7:0 8:0.7195122 9:0.75 10:1 11:1 
1 1:0.66729329 2:0.24657534 3:0.375 4:0 5:0 6:0 7:0 8:0.52132701 9:0.53333333 10:1 11:1 
1 1:0.66729329 2:0.30555556 3:0.375 4:0 5:0 6:0 7:1 8:0.7195122 9:0.75 10:1 11:1 
1 1:0.69319753 2:0.83050847 3:0.875 4:0 5:0 6:0 7:0 8:0.80717489 9:0.8 10:0 11:1 
1 1:0.73034999 2:0.4691358 3:0.47058824 4:0 5:0 6:0 7:0 8:0.67777778 9:0.66666667 10:1 11:1 
1 1:0.76315789 2:0.62068966 3:0.66666667 4:0 5:0 6:0 7:0 8:0.62068966 9:0.8 10:1 11:1 
1 1:0.59803922 2:0.26086957 3:0.28571429 4:0 5:0 6:0 7:1 8:0.65591398 9:0.9 10:1 11:1 
1 1:0.6292048 2:0.41666667 3:0.66666667 4:0 5:0 6:0 7:0 8:0.9047619 9:0.875 10:1 11:1 
1 1:0.86934969 2:0.5 3:0.33333333 4:0 5:0 6:0 7:0.98039216 8:0.23021583 9:1 10:1 11:1 
1 1:0.91666667 2:0.85714286 3:0.8 4:0 5:0 6:0 7:0 8:0.904 9:0.90909091 10:1 11:1 
1 1:1 2:1 3:1 4:0 5:0 6:0 7:0 8:0.68449198 9:1 10:1 11:1 
1 1:0.91666667 2:0.85714286 3:0.8 4:0 5:0 6:0 7:0 8:0.52991453 9:0.56 10:1 11:1 
1 1:0.91666667 2:0.9 3:0.8 4:0 5:0 6:0 7:1 8:0.68449198 9:1 10:1 11:1 
1 1:0.62765213 2:0.27272727 3:0.30769231 4:0 5:0 6:0 7:0 8:0.85365854 9:0.83333333 10:0 11:1 
1 1:0.76315789 2:0.62068966 3:0.66666667 4:0 5:0 6:0 7:0 8:0.62068966 9:0.8 10:1 11:1 
1 1:0.81162924 2:0.58064516 3:0.71428571 4:0 5:0 6:0 7:1 8:0.84722222 9:0.75 10:1 11:1 
1 1:0.61764706 2:0.25352113 3:0.4 4:0 5:0 6:1 7:1 8:0.96062992 9:0.9 10:1 11:1 
1 1:0.49073968 2:0.38461538 3:0.72727273 4:0 5:0 6:0 7:1 8:0.66321244 9:1 10:1 11:1 
1 1:0.80081279 2:0.45454545 3:0.25 4:0 5:0 6:1 7:1 8:0.4 9:1 10:1 11:1 
1 1:1 2:0.7826087 3:1 4:0 5:0 6:0 7:1 8:0.67015707 9:1 10:1 11:1 
1 1:0.91666667 2:0.9 3:0.8 4:0 5:0 6:0 7:1 8:1 9:1 10:1 11:1 
1 1:1 2:0.7826087 3:1 4:0 5:0 6:0 7:1 8:0.68571429 9:0.91666667 10:1 11:1 
1 1:0.62915383 2:0.32352941 3:0.42857143 4:0 5:0 6:0 7:1 8:0.59893048 9:0.58333333 10:0 11:1 
1 1:0.81162924 2:0.58064516 3:0.71428571 4:0 5:0 6:0 7:1 8:0.84722222 9:0.75 10:1 11:1 
1 1:0.36648051 2:0.28571429 3:0.46153846 4:1 5:1 6:0 7:0 8:0.60287081 9:0.66666667 10:1 11:1 
1 1:0.27815909 2:0.18666667 3:0.27586207 4:1 5:1 6:0 7:1 8:0.63541667 9:0.9 10:1 11:1 
1 1:0.9 2:0.69230769 3:0.57142857 4:0 5:0 6:0 7:0.98039216 8:0.22068966 9:1 10:1 11:1 
1 1:0.49073968 2:0.44444444 3:0.72727273 4:0 5:0 6:0 7:0 8:0.9765625 9:1 10:1 11:1 
1 1:0.6292048 2:0.41666667 3:0.66666667 4:0 5:0 6:0 7:0 8:0.66321244 9:1 10:1 11:1 
1 1:0.49073968 2:0.44444444 3:0.72727273 4:1 5:1 6:0 7:0 8:0.51666667 9:0.54166667 10:1 11:1 
1 1:0.28238543 2:0.19444444 3:0.2962963 4:1 5:1 6:0 7:0 8:0.92063492 9:0.88888889 10:0 11:1 
1 1:0.36648051 2:0.28571429 3:0.46153846 4:1 5:1 6:0 7:0 8:0.60287081 9:0.66666667 10:1 11:1 
1 1:0.68627451 2:0.5 3:0.5 4:1 5:1 6:0 7:1 8:0.88111888 9:1 10:1 11:1 
1 1:0.6758816 2:0.32258065 3:0.2 4:0 5:0 6:0 7:0.96078431 8:0.33333333 9:1 10:1 11:1 
1 1:0.81162924 2:0.625 3:0.71428571 4:0 5:0 6:0 7:0 8:0.60869565 9:0.66666667 10:1 11:1 
1 1:0.76315789 2:0.62068966 3:0.66666667 4:0 5:0 6:0 7:0 8:0.84722222 9:0.75 10:1 11:1 
1 1:0.81162924 2:0.625 3:0.71428571 4:1 5:1 6:0 7:0 8:0.77486911 9:0.86666667 10:1 11:1 
1 1:0.68627451 2:0.51948052 3:0.53333333 4:1 5:1 6:0 7:0 8:0.591133 9:0.6 10:0 11:1 
1 1:1 2:1 3:1 4:1 5:1 6:0 7:0 8:1 9:1 10:1 11:1 
1 1:0.68627451 2:0.5 3:0.5 4:1 5:1 6:0 7:1 8:0.88111888 9:1 10:1 11:1 
1 1:0.6758816 2:0.32258065 3:0.2 4:0 5:0 6:0 7:0.96078431 8:0.33333333 9:1 10:1 11:1 
1 1:0.81162924 2:0.625 3:0.71428571 4:0 5:0 6:0 7:0 8:0.60869565 9:0.66666667 10:1 11:1 
1 1:0.76315789 2:0.62068966 3:0.66666667 4:0 5:0 6:0 7:0 8:0.84722222 9:0.75 10:1 11:1 
1 1:0.81162924 2:0.625 3:0.71428571 4:1 5:1 6:0 7:0 8:0.77486911 9:0.86666667 10:1 11:1 
1 1:0.68627451 2:0.51948052 3:0.53333333 4:1 5:1 6:0 7:0 8:0.591133 9:0.6 10:0 11:1 
1 1:0.59803922 2:0.26086957 3:0.28571429 4:0 5:0 6:0 7:1 8:0.96062992 9:0.9 10:1 11:1 
1 1:0.86934969 2:0.5 3:0.33333333 4:0 5:0 6:0 7:0.76470588 8:0.4 9:1 10:1 11:1 
1 1:0.91666667 2:0.85714286 3:0.8 4:0 5:0 6:0 7:0 8:0.67015707 9:1 10:1 11:1 
1 1:0.91666667 2:0.85714286 3:0.8 4:0 5:0 6:0 7:0 8:0.68571429 9:0.91666667 10:1 11:1 
1 1:0.62765213 2:0.27272727 3:0.30769231 4:0 5:0 6:0 7:0 8:0.59893048 9:0.58333333 10:0 11:1 
1 1:0.61764706 2:0.33333333 3:0.4 4:0 5:0 6:0 7:1 8:0.64210526 9:0.9 10:1 11:1 
1 1:0.80081279 2:0.43478261 3:0.25 4:0 5:0 6:0 7:0.98039216 8:0.22377622 9:1 10:1 11:1 
1 1:1 2:1 3:1 4:0 5:0 6:0 7:0 8:0.52941176 9:0.59090909 10:1 11:1 
1 1:0.62915383 2:0.28985507 3:0.42857143 4:0 5:0 6:0 7:0 8:0.928 9:0.88888889 10:0 11:1 
1 1:0.46396309 2:0.14084507 3:0.076923077 4:0 5:0 6:1 7:1 8:0.40506329 9:1 10:1 11:1 
1 1:0.61764706 2:0.33333333 3:0.4 4:1 5:1 6:0 7:1 8:0.65517241 9:0.8 10:1 11:1 
1 1:0.93145491 2:0.8034188 3:0.91304348 4:1 5:1 6:0 7:1 8:0.62365591 9:0.8 10:0 11:1 
1 1:0.80081279 2:0.43478261 3:0.25 4:0 5:0 6:0 7:1 8:0.2519685 9:1 10:1 11:1 
1 1:0.62915383 2:0.28985507 3:0.42857143 4:1 5:1 6:0 7:0 8:0.4957265 9:0.5 10:0 11:0.5 
1 1:0 2:0 3:0 4:0 5:0 6:0 7:0.88235294 8:0.23529412 9:1 10:1 11:1 
1 1:0 2:0 3:0 4:0 5:0 6:0 7:0 8:0.88888889 9:0.83333333 10:0 11:1 
1 1:0 2:0 3:0 4:0 5:0 6:0 7:0.98039216 8:0.22535211 9:1 10:1 11:1 
1 1:0 2:0 3:0 4:0 5:0 6:0 7:0 8:0.94779116 9:0.94444444 10:0 11:1 
1 1:0.47860199 2:0.14705882 3:0.083333333 4:0 5:0 6:0 7:1 8:0.23021583 9:1 10:0 11:1 
1 1:1 2:1 3:1 4:0 5:0 6:0 7:1 8:0.79487179 9:1 10:1 11:1 
1 1:0.79166667 2:0.58823529 3:0.28571429 4:0 5:0 6:1 7:1 8:0.96 9:0.88888889 10:1 11:1 
1 1:0.79166667 2:0.58823529 3:0.28571429 4:0 5:0 6:0 7:1 8:0.79487179 9:1 10:1 11:1 
1 1:1 2:1 3:1 4:0 5:0 6:0 7:1 8:0.79487179 9:1 10:1 11:1 
1 1:0.79166667 2:0.58823529 3:0.28571429 4:0 5:0 6:1 7:1 8:0.96 9:0.88888889 10:1 11:1 
1 1:1 2:1 3:1 4:0 5:0 6:0 7:0.96666667 8:0.79487179 9:1 10:1 11:1 
1 1:1 2:1 3:1 4:0 5:0 6:0 7:1 8:0.79487179 9:1 10:1 11:1 
1 1:0.71428571 2:0.43902439 3:0.8 4:0 5:0 6:0 7:0.83333333 8:0.7251462 9:1 10:1 11:1 
1 1:1 2:1 3:1 4:0 5:0 6:1 7:1 8:0.96 9:0.88888889 10:1 11:1 
1 1:0.79166667 2:0.58823529 3:0.28571429 4:0 5:0 6:1 7:1 8:0.96 9:0.88888889 10:1 11:1 
1 1:1 2:1 3:1 4:0 5:0 6:0 7:1 8:0.79487179 9:1 10:1 11:1 
1 1:1 2:1 3:1 4:0 5:0 6:1 7:1 8:0.96 9:0.88888889 10:1 11:1 
1 1:0.79166667 2:0.58823529 3:0.28571429 4:0 5:0 6:1 7:1 8:0.96 9:0.88888889 10:1 11:1 
1 1:1 2:0.7826087 3:1 4:0 5:0 6:1 7:1 8:0.96 9:0.88888889 10:1 11:1 
1 1:1 2:1 3:1 4:0 5:0 6:0 7:0 8:0.9787234 9:0.94736842 10:1 11:1 
1 1:0.79166667 2:0.58823529 3:0.28571429 4:0 5:0 6:0 7:0.96666667 8:0.76433121 9:0.81818182 10:1 11:1 
1 1:0.79166667 2:0.58823529 3:0.28571429 4:0 5:0 6:0 7:0 8:0.9787234 9:0.94736842 10:1 11:1 
1 1:1 2:1 3:1 4:0 5:0 6:0 7:0 8:0.9787234 9:0.94736842 10:1 11:1 
1 1:0.79166667 2:0.58823529 3:0.28571429 4:0 5:0 6:0 7:0.96666667 8:0.76433121 9:0.81818182 10:1 11:1 
1 1:1 2:1 3:1 4:0 5:0 6:0 7:0 8:0.9787234 9:0.94736842 10:1 11:1 
1 1:0.71428571 2:0.43902439 3:0.8 4:0 5:0 6:0 7:0 8:0.69950739 9:0.78947368 10:1 11:1 
1 1:1 2:1 3:1 4:0 5:0 6:0 7:0.96666667 8:0.76433121 9:0.81818182 10:1 11:1 
1 1:0.79166667 2:0.58823529 3:0.28571429 4:0 5:0 6:0 7:0.96666667 8:0.76433121 9:0.81818182 10:1 11:1 
1 1:1 2:1 3:1 4:0 5:0 6:0 7:0 8:0.9787234 9:0.94736842 10:1 11:1 
1 1:1 2:1 3:1 4:0 5:0 6:0 7:0.96666667 8:0.76433121 9:0.81818182 10:1 11:1 
1 1:0.79166667 2:0.58823529 3:0.28571429 4:0 5:0 6:0 7:0.96666667 8:0.76433121 9:0.81818182 10:1 11:1 
1 1:1 2:0.7826087 3:1 4:0 5:0 6:0 7:0.92307692 8:0.76433121 9:0.81818182 10:1 11:1 
1 1:1 2:1 3:1 4:0 5:0 6:0 7:1 8:0.76433121 9:0.81818182 10:1 11:1 
1 1:0.79166667 2:0.58823529 3:0.28571429 4:0 5:0 6:1 7:1 8:1 9:1 10:1 11:1 
1 1:0.79166667 2:0.58823529 3:0.28571429 4:0 5:0 6:0 7:1 8:0.76433121 9:0.81818182 10:1 11:1 
1 1:1 2:1 3:1 4:0 5:0 6:0 7:1 8:0.76433121 9:0.81818182 10:1 11:1 
1 1:0.79166667 2:0.58823529 3:0.28571429 4:0 5:0 6:1 7:1 8:1 9:1 10:1 11:1 
1 1:1 2:1 3:1 4:0 5:0 6:0 7:1 8:0.76433121 9:0.81818182 10:1 11:1 
1 1:0.71428571 2:0.43902439 3:0.8 4:0 5:0 6:0 7:0.83333333 8:0.69767442 9:0.81818182 10:1 11:1 
1 1:0.79166667 2:0.58823529 3:0.28571429 4:0 5:0 6:1 7:1 8:1 9:1 10:1 11:1 
1 1:1 2:1 3:1 4:0 5:0 6:0 7:1 8:0.76433121 9:0.81818182 10:1 11:1 
1 1:1 2:1 3:1 4:0 5:0 6:1 7:1 8:1 9:1 10:1 11:1 
1 1:0.79166667 2:0.58823529 3:0.28571429 4:0 5:0 6:1 7:1 8:1 9:1 10:1 11:1 
1 1:1 2:0.7826087 3:1 4:0 5:0 6:1 7:1 8:1 9:1 10:1 11:1 
1 1:1 2:1 3:1 4:0 5:0 6:0 7:1 8:0.76433121 9:0.81818182 10:1 11:1 
1 1:0.79166667 2:0.58823529 3:0.28571429 4:0 5:0 6:1 7:1 8:1 9:1 10:1 11:1 
1 1:0.79166667 2:0.58823529 3:0.28571429 4:0 5:0 6:0 7:1 8:0.76433121 9:0.81818182 10:1 11:1 
1 1:1 2:1 3:1 4:0 5:0 6:0 7:1 8:0.76433121 9:0.81818182 10:1 11:1 
1 1:0.79166667 2:0.58823529 3:0.28571429 4:0 5:0 6:1 7:1 8:1 9:1 10:1 11:1 
1 1:1 2:1 3:1 4:0 5:0 6:0 7:1 8:0.76433121 9:0.81818182 10:1 11:1 
1 1:0.71428571 2:0.43902439 3:0.8 4:0 5:0 6:0 7:0.83333333 8:0.69767442 9:0.81818182 10:1 11:1 
1 1:0.79166667 2:0.58823529 3:0.28571429 4:0 5:0 6:1 7:1 8:1 9:1 10:1 11:1 
1 1:1 2:1 3:1 4:0 5:0 6:0 7:1 8:0.76433121 9:0.81818182 10:1 11:1 
1 1:0.79166667 2:0.58823529 3:0.28571429 4:0 5:0 6:1 7:1 8:1 9:1 10:1 11:1 
1 1:1 2:0.7826087 3:1 4:0 5:0 6:1 7:1 8:1 9:1 10:1 11:1 
1 1:1 2:1 3:1 4:0 5:0 6:0 7:0 8:1 9:1 10:1 11:1 
1 1:0.79166667 2:0.58823529 3:0.28571429 4:0 5:0 6:0 7:1 8:0.76433121 9:0.81818182 10:1 11:1 
1 1:0.79166667 2:0.58823529 3:0.28571429 4:0 5:0 6:0 7:0 8:1 9:1 10:1 11:1 
1 1:1 2:1 3:1 4:0 5:0 6:0 7:0 8:1 9:1 10:1 11:1 
1 1:0.79166667 2:0.58823529 3:0.28571429 4:0 5:0 6:0 7:1 8:0.76433121 9:0.81818182 10:1 11:1 
1 1:0.71428571 2:0.43902439 3:0.8 4:0 5:0 6:0 7:0 8:0.71921182 9:0.84210526 10:1 11:1 
1 1:0.79166667 2:0.58823529 3:0.28571429 4:0 5:0 6:0 7:1 8:0.76433121 9:0.81818182 10:1 11:1 
1 1:1 2:1 3:1 4:0 5:0 6:0 7:0 8:1 9:1 10:1 11:1 
1 1:0.79166667 2:0.58823529 3:0.28571429 4:0 5:0 6:0 7:1 8:0.76433121 9:0.81818182 10:1 11:1 
1 1:1 2:0.7826087 3:1 4:0 5:0 6:0 7:1 8:0.76433121 9:0.81818182 10:1 11:1 
1 1:1 2:1 3:1 4:0 5:0 6:0 7:0 8:1 9:1 10:1 11:1 
1 1:0.79166667 2:0.58823529 3:0.28571429 4:0 5:0 6:0 7:1 8:0.76433121 9:0.81818182 10:1 11:1 
1 1:0.79166667 2:0.58823529 3:0.28571429 4:0 5:0 6:0 7:0 8:1 9:1 10:1 11:1 
1 1:0.79166667 2:0.58823529 3:0.28571429 4:0 5:0 6:0 7:1 8:0.76433121 9:0.81818182 10:1 11:1 
1 1:0.71428571 2:0.43902439 3:0.8 4:0 5:0 6:0 7:0 8:0.71921182 9:0.84210526 10:1 11:1 
1 1:0.79166667 2:0.58823529 3:0.28571429 4:0 5:0 6:0 7:1 8:0.76433121 9:0.81818182 10:1 11:1 
1 1:1 2:1 3:1 4:0 5:0 6:0 7:0 8:1 9:1 10:1 11:1 
1 1:0.79166667 2:0.58823529 3:0.28571429 4:0 5:0 6:0 7:1 8:0.76433121 9:0.81818182 10:1 11:1 
1 1:1 2:0.7826087 3:1 4:0 5:0 6:0 7:1 8:0.76433121 9:0.81818182 10:1 11:1 
1 1:0.79166667 2:0.58823529 3:0.28571429 4:0 5:0 6:0 7:1 8:0.76433121 9:0.81818182 10:1 11:1 
1 1:0.79166667 2:0.58823529 3:0.28571429 4:0 5:0 6:0 7:0 8:1 9:1 10:1 11:1 
1 1:0.79166667 2:0.58823529 3:0.28571429 4:0 5:0 6:0 7:1 8:0.76433121 9:0.81818182 10:1 11:1 
1 1:0.71428571 2:0.43902439 3:0.8 4:0 5:0 6:0 7:0 8:0.71921182 9:0.84210526 10:1 11:1 
1 1:0.79166667 2:0.58823529 3:0.28571429 4:0 5:0 6:0 7:1 8:0.76433121 9:0.81818182 10:1 11:1 
1 1:1 2:1 3:1 4:0 5:0 6:0 7:0 8:1 9:1 10:1 11:1 
1 1:0.79166667 2:0.58823529 3:0.28571429 4:0 5:0 6:0 7:1 8:0.76433121 9:0.81818182 10:1 11:1 
1 1:1 2:0.7826087 3:1 4:0 5:0 6:0 7:1 8:0.76433121 9:0.81818182 10:1 11:1 
1 1:0.79166667 2:0.58823529 3:0.28571429 4:0 5:0 6:0 7:1 8:0.76433121 9:0.81818182 10:1 11:1 
1 1:0.79166667 2:0.58823529 3:0.28571429 4:0 5:0 6:0 7:0 8:1 9:1 10:1 11:1 
1 1:0.79166667 2:0.58823529 3:0.28571429 4:0 5:0 6:0 7:1 8:0.76433121 9:0.81818182 10:1 11:1 
1 1:0.71428571 2:0.43902439 3:0.8 4:0 5:0 6:0 7:0 8:0.71921182 9:0.84210526 10:1 11:1 
1 1:0.79166667 2:0.58823529 3:0.28571429 4:0 5:0 6:0 7:1 8:0.76433121 9:0.81818182 10:1 11:1 
1 1:0.79166667 2:0.58823529 3:0.28571429 4:0 5:0 6:0 7:1 8:0.76433121 9:0.81818182 10:1 11:1 
1 1:1 2:0.7826087 3:1 4:0 5:0 6:0 7:1 8:0.76433121 9:0.81818182 10:1 11:1 
1 1:1 2:1 3:1 4:0 5:0 6:0 7:1 8:0.76433121 9:0.81818182 10:1 11:1 
1 1:1 2:1 3:1 4:0 5:0 6:0 7:1 8:0.76433121 9:0.81818182 10:1 11:1 
1 1:0.625 2:0.29411765 3:0.2 4:0 5:0 6:0 7:0 8:0.71921182 9:0.84210526 10:1 11:1 
1 1:1 2:1 3:1 4:0 5:0 6:0 7:1 8:0.76433121 9:0.81818182 10:1 11:1 
1 1:1 2:1 3:1 4:0 5:0 6:0 7:1 8:0.76433121 9:0.81818182 10:1 11:1 
1 1:0.79166667 2:0.625 3:0.28571429 4:0 5:0 6:0 7:1 8:0.76433121 9:0.81818182 10:1 11:1 
1 1:0.625 2:0.29411765 3:0.2 4:0 5:0 6:0 7:0.83333333 8:0.69767442 9:0.81818182 10:1 11:1 
1 1:0.625 2:0.29411765 3:0.2 4:0 5:0 6:0 7:0.83333333 8:0.69767442 9:0.81818182 10:1 11:1 
1 1:0.625 2:0.29411765 3:0.2 4:0 5:0 6:0 7:0.83333333 8:0.69767442 9:0.81818182 10:1 11:1 
1 1:0.625 2:0.29411765 3:0.2 4:0 5:0 6:0 7:0.83333333 8:0.69767442 9:0.81818182 10:1 11:1 
1 1:0.71428571 2:0.55 3:0.8 4:0 5:0 6:0 7:1 8:0.69767442 9:0.81818182 10:1 11:1 
1 1:0.79166667 2:0.625 3:0.28571429 4:0 5:0 6:1 7:1 8:1 9:1 10:1 11:1 
1 1:0.79166667 2:0.625 3:0.28571429 4:0 5:0 6:1 7:1 8:1 9:1 10:1 11:1 
1 1:0.79166667 2:0.625 3:0.28571429 4:0 5:0 6:1 7:1 8:1 9:1 10:1 11:1 
1 1:0.79166667 2:0.625 3:0.28571429 4:0 5:0 6:1 7:1 8:1 9:1 10:1 11:1 
1 1:1 2:1 3:1 4:0 5:0 6:1 7:1 8:1 9:1 10:1 11:1 
1 1:1 2:1 3:1 4:0 5:0 6:1 7:1 8:1 9:1 10:1 11:1 
1 1:1 2:1 3:1 4:0 5:0 6:1 7:1 8:1 9:1 10:1 11:1 
1 1:1 2:1 3:1 4:0 5:0 6:1 7:1 8:1 9:1 10:1 11:1 
1 1:1 2:1 3:1 4:0 5:0 6:1 7:1 8:1 9:1 10:1 11:1 
1 1:1 2:1 3:1 4:0 5:0 6:1 7:1 8:1 9:1 10:1 11:1 
1 1:1 2:0.7826087 3:1 4:0 5:0 6:1 7:1 8:0.88732394 9:1 10:1 11:1 
1 1:1 2:0.7826087 3:1 4:0 5:0 6:0 7:0.86666667 8:0.88732394 9:1 10:1 11:1 
1 1:0.79166667 2:0.58823529 3:0.28571429 4:0 5:0 6:0 7:0.56666667 8:0.62745098 9:0.78571429 10:1 11:1 
1 1:0.49073968 2:0.44444444 3:0.72727273 4:0 5:0 6:1 7:1 8:0.88732394 9:1 10:1 11:1 
1 1:1 2:1 3:1 4:0 5:1 6:0.6 7:0.86666667 8:0.88111888 9:0.91666667 10:1 11:1 
1 1:0.79166667 2:0.58823529 3:0.28571429 4:0 5:0 6:0 7:1 8:0.73988439 9:0.85714286 10:1 11:1 
1 1:0.79166667 2:0.58823529 3:0.28571429 4:0 5:0 6:0 7:0.56666667 8:0.62745098 9:0.78571429 10:1 11:1 
1 1:0.49073968 2:0.44444444 3:0.72727273 4:0 5:0 6:1 7:1 8:0.88732394 9:1 10:1 11:1 
1 1:0.91666667 2:0.85714286 3:0.8 4:0 5:0 6:0 7:0.7 8:0.88732394 9:1 10:1 11:1 
1 1:1 2:1 3:1 4:0 5:0 6:0 7:1 8:0.68965517 9:0.85714286 10:1 11:1 
1 1:0.80081279 2:0.43478261 3:0.25 4:0 5:0 6:0 7:1 8:0.70114943 9:0.71428571 10:1 11:1 
1 1:1 2:1 3:1 4:0 5:1 6:0 7:0.76666667 8:0 9:0 10:1 11:1 
1 1:1 2:1 3:1 4:0 5:0 6:0 7:1 8:0.72316384 9:0.85714286 10:1 11:1 
1 1:0.91666667 2:0.85714286 3:0.8 4:0 5:1 6:0 7:0.9 8:0.88111888 9:0.91666667 10:1 11:1 
1 1:0.80081279 2:0.43478261 3:0.25 4:0 5:0 6:0 7:1 8:0.70114943 9:0.71428571 10:1 11:1 
1 1:0.49073968 2:0.44444444 3:0.72727273 4:0 5:0 6:1 7:1 8:0.88732394 9:1 10:1 11:1 
1 1:0.80081279 2:0.43478261 3:0.25 4:0 5:0 6:0 7:1 8:0.70114943 9:0.71428571 10:1 11:1 
1 1:1 2:0.7826087 3:1 4:0 5:0 6:1 7:1 8:0.88732394 9:1 10:1 11:1 
1 1:1 2:1 3:1 4:0 5:0 6:0 7:1 8:0.65240642 9:0.71428571 10:1 11:1 
1 1:0.93871796 2:0.44444444 3:0.72727273 4:0 5:0 6:0 7:1 8:0.66666667 9:0.64285714 10:1 11:1 
1 1:0.49073968 2:0.44444444 3:0.72727273 4:0 5:0 6:1 7:1 8:0.88732394 9:1 10:1 11:1 
1 1:0.49073968 2:0.44444444 3:0.72727273 4:0 5:0 6:1 7:1 8:0.85314685 9:0.90909091 10:1 11:1 
1 1:1 2:1 3:1 4:0 5:0 6:0 7:1 8:0.69364162 9:0.71428571 10:1 11:1 
1 1:1 2:0.7826087 3:1 4:0 5:0 6:1 7:1 8:0.85106383 9:0.88888889 10:1 11:1 
1 1:1 2:1 3:1 4:0 5:0 6:0 7:0.83333333 8:0.76923077 9:0.85714286 10:1 11:1 
1 1:1 2:1 3:1 4:0 5:0 6:0 7:1 8:0.72316384 9:0.85714286 10:1 11:1 
1 1:0.91666667 2:0.85714286 3:0.8 4:0 5:0 6:0 7:0.83333333 8:0.83333333 9:0.85714286 10:1 11:1 
1 1:0.79166667 2:0.625 3:0.28571429 4:0 5:0 6:0 7:0.56666667 8:0.67021277 9:1 10:1 11:1 
1 1:0.79166667 2:0.625 3:0.28571429 4:0 5:0 6:0 7:0 8:0.67021277 9:1 10:1 11:1 
1 1:1 2:1 3:1 4:0 5:0 6:0 7:0 8:1 9:1 10:1 11:1 
1 1:0.73333333 2:0.5 3:0.33333333 4:0 5:0 6:0 7:0.56666667 8:0.67021277 9:1 10:1 11:1 
1 1:0.79166667 2:0.58823529 3:0.28571429 4:0 5:0 6:0 7:0.53191489 8:0.66666667 9:0.91666667 10:1 11:1 
1 1:1 2:1 3:1 4:0 5:0 6:0 7:0 8:0.58447489 9:0.55 10:1 11:1 
1 1:0.73333333 2:0.5 3:0.33333333 4:0 5:0 6:0 7:0.56666667 8:0.67021277 9:1 10:1 11:1 
1 1:0.85 2:0.71428571 3:0.4 4:0 5:0 6:0 7:0 8:0.67021277 9:1 10:1 11:1 
1 1:0.79166667 2:0.58823529 3:0.28571429 4:0 5:0 6:0 7:0 8:0.55454545 9:0.55 10:1 11:1 
1 1:0.79166667 2:0.625 3:0.66666667 4:0 5:0 6:0 7:0 8:0.55454545 9:0.47368421 10:1 11:1 
1 1:0.79166667 2:0.58823529 3:0.28571429 4:0 5:0 6:0 7:0 8:0 9:0 10:1 11:1 
1 1:0.79166667 2:0.58823529 3:0.28571429 4:0 5:0 6:0 7:0 8:0.57399103 9:0.55 10:1 11:1 
1 1:0.85 2:0.71428571 3:0.4 4:0 5:0 6:0 7:0 8:0.66666667 9:0.91666667 10:1 11:1 
1 1:0.79166667 2:0.625 3:0.66666667 4:0 5:0 6:0 7:0 8:0.55454545 9:0.47368421 10:1 11:1 
1 1:0.73333333 2:0.5 3:0.33333333 4:0 5:0 6:0 7:0.56666667 8:0.67021277 9:1 10:1 11:1 
1 1:0.79166667 2:0.625 3:0.66666667 4:0 5:0 6:0 7:0 8:0.55454545 9:0.47368421 10:1 11:1 
1 1:0.79166667 2:0.625 3:0.28571429 4:0 5:0 6:0 7:0.48 8:0.67021277 9:1 10:1 11:1 
1 1:0.79166667 2:0.58823529 3:0.28571429 4:0 5:0 6:0 7:0.5 8:0.52360515 9:0.45 10:1 11:1 
1 1:0.73333333 2:0.5 3:0.33333333 4:0 5:0 6:0 7:0 8:0.53636364 9:0.4 10:1 11:1 
1 1:0.73333333 2:0.5 3:0.33333333 4:0 5:0 6:0 7:0.56666667 8:0.67021277 9:1 10:1 11:1 
1 1:0.73333333 2:0.5 3:0.33333333 4:0 5:0 6:0 7:0.56666667 8:0.64550265 9:0.90909091 10:1 11:1 
1 1:0.79166667 2:0.58823529 3:0.28571429 4:0 5:0 6:0 7:0 8:0.54794521 9:0.47368421 10:1 11:1 
1 1:0.79166667 2:0.625 3:0.28571429 4:0 5:0 6:0 7:0.56666667 8:0.64171123 9:0.88888889 10:1 11:1 
1 1:0.79166667 2:0.58823529 3:0.28571429 4:0 5:0 6:0 7:0 8:0.59534884 9:0.55 10:1 11:1 
1 1:0.79166667 2:0.58823529 3:0.28571429 4:0 5:0 6:0 7:0 8:0.57399103 9:0.55 10:1 11:1 
1 1:0.85 2:0.71428571 3:0.4 4:0 5:0 6:0 7:0 8:0.63366337 9:0.61111111 10:1 11:1 
1 1:0.79166667 2:0.625 3:0.28571429 4:0 5:0 6:0 7:0.56666667 8:0.67021277 9:1 10:1 11:1 
1 1:0.79166667 2:0.625 3:0.28571429 4:0 5:0 6:0 7:0 8:0.67021277 9:1 10:1 11:1 
1 1:0.73333333 2:0.5 3:0.33333333 4:0 5:0 6:0 7:0.56666667 8:0.67021277 9:1 10:1 11:1 
1 1:0.79166667 2:0.58823529 3:0.28571429 4:0 5:0 6:0 7:0.53191489 8:0.66666667 9:0.91666667 10:1 11:1 
1 1:1 2:1 3:1 4:0 5:0 6:0 7:0 8:0.58447489 9:0.55 10:1 11:1 
1 1:0.73333333 2:0.5 3:0.33333333 4:0 5:0 6:0 7:0.56666667 8:0.67021277 9:1 10:1 11:1 
1 1:0.85 2:0.71428571 3:0.4 4:0 5:0 6:0 7:0 8:0.67021277 9:1 10:1 11:1 
1 1:0.79166667 2:0.58823529 3:0.28571429 4:0 5:0 6:0 7:0 8:0.55454545 9:0.55 10:1 11:1 
1 1:0.79166667 2:0.625 3:0.66666667 4:0 5:0 6:0 7:0 8:0.55454545 9:0.47368421 10:1 11:1 
1 1:0.79166667 2:0.58823529 3:0.28571429 4:0 5:0 6:0 7:0 8:0 9:0 10:1 11:1 
1 1:0.79166667 2:0.58823529 3:0.28571429 4:0 5:0 6:0 7:0 8:0.57399103 9:0.55 10:1 11:1 
1 1:0.85 2:0.71428571 3:0.4 4:0 5:0 6:0 7:0 8:0.66666667 9:0.91666667 10:1 11:1 
1 1:0.79166667 2:0.625 3:0.66666667 4:0 5:0 6:0 7:0 8:0.55454545 9:0.47368421 10:1 11:1 
1 1:0.73333333 2:0.5 3:0.33333333 4:0 5:0 6:0 7:0.56666667 8:0.67021277 9:1 10:1 11:1 
1 1:0.79166667 2:0.625 3:0.66666667 4:0 5:0 6:0 7:0 8:0.55454545 9:0.47368421 10:1 11:1 
1 1:0.79166667 2:0.625 3:0.28571429 4:0 5:0 6:0 7:0.48 8:0.67021277 9:1 10:1 11:1 
1 1:0.79166667 2:0.58823529 3:0.28571429 4:0 5:0 6:0 7:0.5 8:0.52360515 9:0.45 10:1 11:1 
1 1:0.73333333 2:0.5 3:0.33333333 4:0 5:0 6:0 7:0 8:0.53636364 9:0.4 10:1 11:1 
1 1:0.73333333 2:0.5 3:0.33333333 4:0 5:0 6:0 7:0.56666667 8:0.67021277 9:1 10:1 11:1 
1 1:0.73333333 2:0.5 3:0.33333333 4:0 5:0 6:0 7:0.56666667 8:0.64550265 9:0.90909091 10:1 11:1 
1 1:0.79166667 2:0.58823529 3:0.28571429 4:0 5:0 6:0 7:0 8:0.54794521 9:0.47368421 10:1 11:1 
1 1:0.79166667 2:0.625 3:0.28571429 4:0 5:0 6:0 7:0.56666667 8:0.64171123 9:0.88888889 10:1 11:1 
1 1:0.79166667 2:0.58823529 3:0.28571429 4:0 5:0 6:0 7:0 8:0.59534884 9:0.55 10:1 11:1 
1 1:0.79166667 2:0.58823529 3:0.28571429 4:0 5:0 6:0 7:0 8:0.57399103 9:0.55 10:1 11:1 
1 1:0.85 2:0.71428571 3:0.4 4:0 5:0 6:0 7:0 8:0.63366337 9:0.61111111 10:1 11:1 
1 1:0.49073968 2:0.38461538 3:0.72727273 4:0 5:0 6:1 7:1 8:0.96062992 9:0.90909091 10:1 11:1 
1 1:0.49073968 2:0.38461538 3:0.72727273 4:0 5:0 6:0 7:0.86666667 8:0.96062992 9:0.90909091 10:1 11:1 
1 1:1 2:1 3:1 4:0 5:0 6:1 7:1 8:0.96062992 9:0.90909091 10:1 11:1 
1 1:0.49073968 2:0.44444444 3:0.72727273 4:0 5:1 6:0.6 7:0.86666667 8:0.953125 9:0.90909091 10:1 11:1 
1 1:0.73333333 2:0.5 3:0.33333333 4:0 5:0 6:0 7:1 8:0.7721519 9:0.90909091 10:1 11:1 
1 1:1 2:1 3:1 4:0 5:0 6:1 7:1 8:0.96062992 9:0.90909091 10:1 11:1 
1 1:0.6292048 2:0.41666667 3:0.66666667 4:0 5:0 6:0 7:0.7 8:0.96062992 9:0.90909091 10:1 11:1 
1 1:0.49073968 2:0.44444444 3:0.72727273 4:0 5:0 6:0 7:1 8:0.72955975 9:0.90909091 10:1 11:1 
1 1:0.9 2:0.69230769 3:0.57142857 4:0 5:0 6:0 7:1 8:0.72955975 9:0.72727273 10:1 11:1 
1 1:0.49073968 2:0.44444444 3:0.72727273 4:0 5:1 6:0 7:0.76666667 8:0 9:0 10:1 11:1 
1 1:0.49073968 2:0.44444444 3:0.72727273 4:0 5:0 6:0 7:1 8:0.75308642 9:0.90909091 10:1 11:1 
1 1:0.6292048 2:0.41666667 3:0.66666667 4:0 5:1 6:0 7:0.9 8:0.953125 9:0.90909091 10:1 11:1 
1 1:0.9 2:0.69230769 3:0.57142857 4:0 5:0 6:0 7:1 8:0.72955975 9:0.72727273 10:1 11:1 
1 1:1 2:1 3:1 4:0 5:0 6:1 7:1 8:0.96062992 9:0.90909091 10:1 11:1 
1 1:0.9 2:0.69230769 3:0.57142857 4:0 5:0 6:0 7:1 8:0.72955975 9:0.72727273 10:1 11:1 
1 1:0.49073968 2:0.38461538 3:0.72727273 4:0 5:0 6:1 7:1 8:0.96062992 9:0.90909091 10:1 11:1 
1 1:0.49073968 2:0.44444444 3:0.72727273 4:0 5:0 6:0 7:1 8:0.6744186 9:0.72727273 10:1 11:1 
1 1:0.63379053 2:0.8 3:1 4:0 5:0 6:0 7:1 8:0.70440252 9:0.63636364 10:1 11:1 
1 1:1 2:1 3:1 4:0 5:0 6:1 7:1 8:0.96062992 9:0.90909091 10:1 11:1 
1 1:0.49073968 2:0.44444444 3:0.72727273 4:0 5:0 6:0 7:1 8:0.73417722 9:0.72727273 10:1 11:1 
1 1:0.49073968 2:0.38461538 3:0.72727273 4:0 5:0 6:1 7:1 8:0.92063492 9:0.77777778 10:1 11:1 
1 1:0.49073968 2:0.44444444 3:0.72727273 4:0 5:0 6:0 7:0.83333333 8:0.79220779 9:0.90909091 10:1 11:1 
1 1:0.49073968 2:0.44444444 3:0.72727273 4:0 5:0 6:0 7:1 8:0.75308642 9:0.90909091 10:1 11:1 
1 1:0.6292048 2:0.41666667 3:0.66666667 4:0 5:0 6:0 7:0.83333333 8:0.86524823 9:0.90909091 10:1 11:1 
1 1:0.91666667 2:0.9 3:0.8 4:0 5:0 6:0 7:0.7 8:1 9:1 10:1 11:1 
1 1:0.91666667 2:0.9 3:0.8 4:0 5:0 6:0 7:0 8:1 9:1 10:1 11:1 
1 1:0.6292048 2:0.41666667 3:0.66666667 4:0 5:0 6:0 7:0.7 8:1 9:1 10:1 11:1 
1 1:0.91666667 2:0.85714286 3:0.8 4:0 5:0 6:0 7:0.55319149 8:0.99212598 9:1 10:1 11:1 
1 1:0.85 2:0.71428571 3:0.4 4:0 5:0 6:0 7:0 8:0.80254777 9:1 10:1 11:1 
1 1:0.6292048 2:0.41666667 3:0.66666667 4:0 5:0 6:0 7:0.7 8:1 9:1 10:1 11:1 
1 1:0.91666667 2:0.85714286 3:0.8 4:0 5:0 6:0 7:0 8:0.75949367 9:1 10:1 11:1 
1 1:0.86934969 2:0.5 3:0.33333333 4:0 5:0 6:0 7:0 8:0.75949367 9:0.81818182 10:1 11:1 
1 1:0.91666667 2:0.85714286 3:0.8 4:0 5:0 6:0 7:0 8:0 9:0 10:1 11:1 
1 1:0.91666667 2:0.85714286 3:0.8 4:0 5:0 6:0 7:0 8:0.7826087 9:1 10:1 11:1 
1 1:1 2:1 3:1 4:0 5:0 6:0 7:0 8:0.99212598 9:1 10:1 11:1 
1 1:0.86934969 2:0.5 3:0.33333333 4:0 5:0 6:0 7:0 8:0.75949367 9:0.81818182 10:1 11:1 
1 1:0.6292048 2:0.41666667 3:0.66666667 4:0 5:0 6:0 7:0.7 8:1 9:1 10:1 11:1 
1 1:0.86934969 2:0.5 3:0.33333333 4:0 5:0 6:0 7:0 8:0.75949367 9:0.81818182 10:1 11:1 
1 1:0.91666667 2:0.9 3:0.8 4:0 5:0 6:0 7:0.64 8:1 9:1 10:1 11:1 
1 1:0.91666667 2:0.85714286 3:0.8 4:0 5:0 6:0 7:0.5 8:0.70175439 9:0.81818182 10:1 11:1 
1 1:0.94253132 2:0.41666667 3:0.66666667 4:0 5:0 6:0 7:0 8:0.73417722 9:0.72727273 10:1 11:1 
1 1:0.6292048 2:0.41666667 3:0.66666667 4:0 5:0 6:0 7:0.7 8:1 9:1 10:1 11:1 
1 1:0.91666667 2:0.85714286 3:0.8 4:0 5:0 6:0 7:0 8:0.76433121 9:0.81818182 10:1 11:1 
1 1:0.91666667 2:0.9 3:0.8 4:0 5:0 6:0 7:0.7 8:0.96 9:0.88888889 10:1 11:1 
1 1:0.91666667 2:0.85714286 3:0.8 4:0 5:0 6:0 7:0 8:0.82352941 9:1 10:1 11:1 
1 1:0.91666667 2:0.85714286 3:0.8 4:0 5:0 6:0 7:0 8:0.7826087 9:1 10:1 11:1 
1 1:1 2:1 3:1 4:0 5:0 6:0 7:0 8:0.9 9:1 10:1 11:1 
1 1:1 2:0.7826087 3:1 4:0 5:0 6:0 7:1 8:0.70175439 9:0.81818182 10:1 11:1 
1 1:1 2:0.7826087 3:1 4:0 5:0 6:0 7:1 8:0.70175439 9:0.81818182 10:1 11:1 
1 1:0.49073968 2:0.44444444 3:0.72727273 4:0 5:0 6:0 7:1 8:0.70175439 9:0.81818182 10:1 11:1 
1 1:1 2:1 3:1 4:0 5:1 6:0 7:0.74468085 8:0.70930233 9:0.83333333 10:1 11:1 
1 1:0.79166667 2:0.58823529 3:0.28571429 4:0 5:0 6:0 7:1 8:0.88118812 9:0.85 10:1 11:1 
1 1:0.49073968 2:0.44444444 3:0.72727273 4:0 5:0 6:0 7:1 8:0.70175439 9:0.81818182 10:1 11:1 
1 1:1 2:1 3:1 4:0 5:0 6:0 7:0.5 8:0.85714286 9:0.8 10:1 11:1 
1 1:0.80081279 2:0.43478261 3:0.25 4:0 5:0 6:0 7:0.5 8:0.88669951 9:0.94736842 10:1 11:1 
1 1:1 2:1 3:1 4:0 5:1 6:0 7:0.5 8:0 9:0 10:1 11:1 
1 1:1 2:1 3:1 4:0 5:0 6:0 7:0.5 8:0.83495146 9:0.7826087 10:1 11:1 
1 1:0.91666667 2:0.85714286 3:0.8 4:0 5:1 6:0 7:0.5 8:0.70930233 9:0.83333333 10:1 11:1 
1 1:0.80081279 2:0.43478261 3:0.25 4:0 5:0 6:0 7:0.5 8:0.88669951 9:0.94736842 10:1 11:1 
1 1:0.49073968 2:0.44444444 3:0.72727273 4:0 5:0 6:0 7:1 8:0.70175439 9:0.81818182 10:1 11:1 
1 1:0.80081279 2:0.43478261 3:0.25 4:0 5:0 6:0 7:0.5 8:0.88669951 9:0.94736842 10:1 11:1 
1 1:1 2:0.7826087 3:1 4:0 5:0 6:0 7:1 8:0.70175439 9:0.81818182 10:1 11:1 
1 1:0.93871796 2:0.44444444 3:0.72727273 4:0 5:0 6:0 7:1 8:0.84729064 9:0.80952381 10:1 11:1 
1 1:0.49073968 2:0.44444444 3:0.72727273 4:0 5:0 6:0 7:1 8:0.70175439 9:0.81818182 10:1 11:1 
1 1:1 2:1 3:1 4:0 5:0 6:0 7:1 8:0.88118812 9:0.89473684 10:1 11:1 
1 1:1 2:0.7826087 3:1 4:0 5:0 6:0 7:1 8:0.72941176 9:1 10:1 11:1 
1 1:1 2:1 3:1 4:0 5:0 6:0 7:0.5 8:0.86868687 9:0.90909091 10:1 11:1 
1 1:1 2:1 3:1 4:0 5:0 6:0 7:0.5 8:0.83495146 9:0.7826087 10:1 11:1 
1 1:0.91666667 2:0.85714286 3:0.8 4:0 5:0 6:0 7:1 8:0.78918919 9:0.88888889 10:1 11:1 
1 1:1 2:0.7826087 3:1 4:0 5:0 6:0 7:0.83333333 8:0.82352941 9:1 10:1 11:1 
1 1:1 2:0.7826087 3:1 4:0 5:0 6:0 7:0 8:0.82352941 9:1 10:1 11:1 
1 1:0.49073968 2:0.44444444 3:0.72727273 4:0 5:0 6:0 7:0.83333333 8:0.82352941 9:1 10:1 11:1 
1 1:1 2:1 3:1 4:0 5:1 6:0 7:0.74468085 8:0.83116883 9:1 10:1 11:1 
1 1:0.79166667 2:0.58823529 3:0.28571429 4:0 5:0 6:0 7:0 8:0.82608696 9:0.9 10:1 11:1 
1 1:0.49073968 2:0.44444444 3:0.72727273 4:0 5:0 6:0 7:0.83333333 8:0.82352941 9:1 10:1 11:1 
1 1:1 2:1 3:1 4:0 5:0 6:0 7:0 8:0.77837838 9:0.85 10:1 11:1 
1 1:0.80081279 2:0.43478261 3:0.25 4:0 5:0 6:0 7:0 8:0.78918919 9:0.84210526 10:1 11:1 
1 1:1 2:1 3:1 4:0 5:1 6:0 7:0 8:0 9:0 10:1 11:1 
1 1:1 2:1 3:1 4:0 5:0 6:0 7:0 8:0.79787234 9:0.86363636 10:1 11:1 
1 1:0.91666667 2:0.85714286 3:0.8 4:0 5:1 6:0 7:0 8:0.83116883 9:1 10:1 11:1 
1 1:0.80081279 2:0.43478261 3:0.25 4:0 5:0 6:0 7:0 8:0.78918919 9:0.84210526 10:1 11:1 
1 1:0.49073968 2:0.44444444 3:0.72727273 4:0 5:0 6:0 7:0.83333333 8:0.82352941 9:1 10:1 11:1 
1 1:0.80081279 2:0.43478261 3:0.25 4:0 5:0 6:0 7:0 8:0.78918919 9:0.84210526 10:1 11:1 
1 1:1 2:0.7826087 3:1 4:0 5:0 6:0 7:0.88 8:0.82352941 9:1 10:1 11:1 
1 1:0.93871796 2:0.44444444 3:0.72727273 4:0 5:0 6:0 7:0 8:0.75675676 9:0.71428571 10:1 11:1 
1 1:0.49073968 2:0.44444444 3:0.72727273 4:0 5:0 6:0 7:0.83333333 8:0.82352941 9:1 10:1 11:1 
1 1:1 2:1 3:1 4:0 5:0 6:0 7:0 8:0.7826087 9:0.78947368 10:1 11:1 
1 1:1 2:0.7826087 3:1 4:0 5:0 6:0 7:0.83333333 8:0.78947368 9:0.88888889 10:1 11:1 
1 1:1 2:1 3:1 4:0 5:0 6:0 7:0 8:0.79787234 9:0.86363636 10:1 11:1 
1 1:0.91666667 2:0.85714286 3:0.8 4:0 5:0 6:0 7:0 8:0.92215569 9:1 10:1 11:1 
1 1:1 2:1 3:1 4:0 5:0 6:0 7:0.86666667 8:1 9:1 10:1 11:1 
1 1:0.49073968 2:0.38461538 3:0.72727273 4:0 5:0 6:1 7:1 8:1 9:1 10:1 11:1 
1 1:1 2:0.7826087 3:1 4:0 5:1 6:0.6 7:0.86666667 8:0.99212598 9:1 10:1 11:1 
1 1:0.79166667 2:0.625 3:0.28571429 4:0 5:0 6:0 7:1 8:0.80254777 9:1 10:1 11:1 
1 1:0.49073968 2:0.38461538 3:0.72727273 4:0 5:0 6:1 7:1 8:1 9:1 10:1 11:1 
1 1:1 2:0.7826087 3:1 4:0 5:0 6:0 7:1 8:0.75949367 9:1 10:1 11:1 
1 1:0.80081279 2:0.45454545 3:0.25 4:0 5:0 6:0 7:1 8:0.75949367 9:0.81818182 10:1 11:1 
1 1:1 2:0.7826087 3:1 4:0 5:1 6:0 7:0.76666667 8:0 9:0 10:1 11:1 
1 1:1 2:0.7826087 3:1 4:0 5:0 6:0 7:1 8:0.7826087 9:1 10:1 11:1 
1 1:0.91666667 2:0.9 3:0.8 4:0 5:1 6:0 7:0.9 8:0.99212598 9:1 10:1 11:1 
1 1:0.80081279 2:0.45454545 3:0.25 4:0 5:0 6:0 7:1 8:0.75949367 9:0.81818182 10:1 11:1 
1 1:0.49073968 2:0.38461538 3:0.72727273 4:0 5:0 6:1 7:1 8:1 9:1 10:1 11:1 
1 1:0.80081279 2:0.45454545 3:0.25 4:0 5:0 6:0 7:1 8:0.75949367 9:0.81818182 10:1 11:1 
1 1:1 2:1 3:1 4:0 5:0 6:1 7:1 8:1 9:1 10:1 11:1 
1 1:0.93871796 2:0.38461538 3:0.72727273 4:0 5:0 6:0 7:1 8:0.73417722 9:0.72727273 10:1 11:1 
1 1:0.49073968 2:0.38461538 3:0.72727273 4:0 5:0 6:1 7:1 8:1 9:1 10:1 11:1 
1 1:1 2:0.7826087 3:1 4:0 5:0 6:0 7:1 8:0.76433121 9:0.81818182 10:1 11:1 
1 1:1 2:1 3:1 4:0 5:0 6:1 7:1 8:0.96 9:0.88888889 10:1 11:1 
1 1:1 2:0.7826087 3:1 4:0 5:0 6:0 7:1 8:0.7826087 9:1 10:1 11:1 
1 1:0.91666667 2:0.9 3:0.8 4:0 5:0 6:0 7:0.83333333 8:0.9 9:1 10:1 11:1 
1 1:0.49073968 2:0.38461538 3:0.72727273 4:0 5:0 6:0 7:0.86666667 8:1 9:1 10:1 11:1 
1 1:1 2:1 3:1 4:0 5:0 6:1 7:1 8:1 9:1 10:1 11:1 
1 1:0.49073968 2:0.44444444 3:0.72727273 4:0 5:1 6:0.6 7:0.86666667 8:0.99212598 9:1 10:1 11:1 
1 1:0.73333333 2:0.5 3:0.33333333 4:0 5:0 6:0 7:1 8:0.80254777 9:1 10:1 11:1 
1 1:1 2:1 3:1 4:0 5:0 6:1 7:1 8:1 9:1 10:1 11:1 
1 1:0.49073968 2:0.44444444 3:0.72727273 4:0 5:0 6:0 7:1 8:0.75949367 9:1 10:1 11:1 
1 1:0.9 2:0.69230769 3:0.57142857 4:0 5:0 6:0 7:1 8:0.75949367 9:0.81818182 10:1 11:1 
1 1:0.49073968 2:0.44444444 3:0.72727273 4:0 5:1 6:0 7:0.76666667 8:0 9:0 10:1 11:1 
1 1:0.49073968 2:0.44444444 3:0.72727273 4:0 5:0 6:0 7:1 8:0.7826087 9:1 10:1 11:1 
1 1:0.6292048 2:0.41666667 3:0.66666667 4:0 5:1 6:0 7:0.9 8:0.99212598 9:1 10:1 11:1 
1 1:0.9 2:0.69230769 3:0.57142857 4:0 5:0 6:0 7:1 8:0.75949367 9:0.81818182 10:1 11:1 
1 1:1 2:1 3:1 4:0 5:0 6:1 7:1 8:1 9:1 10:1 11:1 
1 1:0.9 2:0.69230769 3:0.57142857 4:0 5:0 6:0 7:1 8:0.75949367 9:0.81818182 10:1 11:1 
1 1:0.49073968 2:0.38461538 3:0.72727273 4:0 5:0 6:1 7:1 8:1 9:1 10:1 11:1 
1 1:0.63379053 2:0.8 3:1 4:0 5:0 6:0 7:1 8:0.73417722 9:0.72727273 10:1 11:1 
1 1:0.49073968 2:0.44444444 3:0.72727273 4:0 5:0 6:0 7:1 8:0.76433121 9:0.81818182 10:1 11:1 
1 1:0.49073968 2:0.38461538 3:0.72727273 4:0 5:0 6:1 7:1 8:0.96 9:0.88888889 10:1 11:1 
1 1:0.49073968 2:0.44444444 3:0.72727273 4:0 5:0 6:0 7:1 8:0.7826087 9:1 10:1 11:1 
1 1:0.6292048 2:0.41666667 3:0.66666667 4:0 5:0 6:0 7:0.83333333 8:0.9 9:1 10:1 11:1 
1 1:1 2:0.7826087 3:1 4:0 5:0 6:0 7:0 8:0.7826087 9:1 10:1 11:1 
1 1:0.49073968 2:0.44444444 3:0.72727273 4:0 5:0 6:0 7:1 8:0.7826087 9:1 10:1 11:1 
1 1:1 2:1 3:1 4:0 5:1 6:0 7:0.65957447 8:0.77777778 9:0.91666667 10:1 11:1 
1 1:0.79166667 2:0.58823529 3:0.28571429 4:0 5:0 6:0 7:0 8:0.94791667 9:1 10:1 11:1 
1 1:0.49073968 2:0.44444444 3:0.72727273 4:0 5:0 6:0 7:1 8:0.7826087 9:1 10:1 11:1 
1 1:1 2:1 3:1 4:0 5:0 6:0 7:0 8:0.89119171 9:0.95 10:1 11:1 
1 1:0.80081279 2:0.43478261 3:0.25 4:0 5:0 6:0 7:0 8:0.9015544 9:0.89473684 10:1 11:1 
1 1:1 2:1 3:1 4:0 5:1 6:0 7:0 8:0 9:0 10:1 11:1 
1 1:1 2:1 3:1 4:0 5:0 6:0 7:0 8:1 9:1 10:1 11:1 
1 1:0.91666667 2:0.85714286 3:0.8 4:0 5:1 6:0 7:0 8:0.77777778 9:0.91666667 10:1 11:1 
1 1:0.80081279 2:0.43478261 3:0.25 4:0 5:0 6:0 7:0 8:0.9015544 9:0.89473684 10:1 11:1 
1 1:0.49073968 2:0.44444444 3:0.72727273 4:0 5:0 6:0 7:1 8:0.7826087 9:1 10:1 11:1 
1 1:0.80081279 2:0.43478261 3:0.25 4:0 5:0 6:0 7:0 8:0.9015544 9:0.89473684 10:1 11:1 
1 1:1 2:0.7826087 3:1 4:0 5:0 6:0 7:1 8:0.7826087 9:1 10:1 11:1 
1 1:0.93871796 2:0.44444444 3:0.72727273 4:0 5:0 6:0 7:0 8:0.86010363 9:0.80952381 10:1 11:1 
1 1:1 2:1 3:1 4:0 5:0 6:0 7:0 8:0.89583333 9:0.89473684 10:1 11:1 
1 1:1 2:0.7826087 3:1 4:0 5:0 6:0 7:1 8:0.75 9:0.88888889 10:1 11:1 
1 1:0.91666667 2:0.85714286 3:0.8 4:0 5:0 6:0 7:0 8:0.85714286 9:1 10:1 11:1 
1 1:1 2:0.7826087 3:1 4:0 5:0 6:0 7:0 8:0.7826087 9:1 10:1 11:1 
1 1:0.49073968 2:0.44444444 3:0.72727273 4:0 5:0 6:0 7:1 8:0.7826087 9:1 10:1 11:1 
1 1:1 2:1 3:1 4:0 5:1 6:0 7:0.65957447 8:0.77777778 9:0.91666667 10:1 11:1 
1 1:0.79166667 2:0.58823529 3:0.28571429 4:0 5:0 6:0 7:0 8:0.94791667 9:1 10:1 11:1 
1 1:0.49073968 2:0.44444444 3:0.72727273 4:0 5:0 6:0 7:1 8:0.7826087 9:1 10:1 11:1 
1 1:1 2:1 3:1 4:0 5:0 6:0 7:0 8:0.89119171 9:0.95 10:1 11:1 
1 1:0.80081279 2:0.43478261 3:0.25 4:0 5:0 6:0 7:0 8:0.9015544 9:0.89473684 10:1 11:1 
1 1:1 2:1 3:1 4:0 5:1 6:0 7:0 8:0 9:0 10:1 11:1 
1 1:0.91666667 2:0.85714286 3:0.8 4:0 5:1 6:0 7:0 8:0.77777778 9:0.91666667 10:1 11:1 
1 1:0.80081279 2:0.43478261 3:0.25 4:0 5:0 6:0 7:0 8:0.9015544 9:0.89473684 10:1 11:1 
1 1:0.49073968 2:0.44444444 3:0.72727273 4:0 5:0 6:0 7:1 8:0.7826087 9:1 10:1 11:1 
1 1:0.80081279 2:0.43478261 3:0.25 4:0 5:0 6:0 7:0 8:0.9015544 9:0.89473684 10:1 11:1 
1 1:1 2:0.7826087 3:1 4:0 5:0 6:0 7:1 8:0.7826087 9:1 10:1 11:1 
1 1:0.93871796 2:0.44444444 3:0.72727273 4:0 5:0 6:0 7:0 8:0.86010363 9:0.80952381 10:1 11:1 
1 1:1 2:1 3:1 4:0 5:0 6:0 7:0 8:0.89583333 9:0.89473684 10:1 11:1 
1 1:1 2:0.7826087 3:1 4:0 5:0 6:0 7:1 8:0.75 9:0.88888889 10:1 11:1 
1 1:0.91666667 2:0.85714286 3:0.8 4:0 5:0 6:0 7:0 8:0.85714286 9:1 10:1 11:1 
1 1:0.49073968 2:0.38461538 3:0.72727273 4:0 5:0 6:0 7:0.86666667 8:1 9:1 10:1 11:1 
1 1:1 2:1 3:1 4:0 5:0 6:1 7:1 8:1 9:1 10:1 11:1 
1 1:0.49073968 2:0.44444444 3:0.72727273 4:0 5:1 6:0.6 7:0.86666667 8:0.99212598 9:1 10:1 11:1 
1 1:0.73333333 2:0.5 3:0.33333333 4:0 5:0 6:0 7:1 8:0.80254777 9:1 10:1 11:1 
1 1:0.49073968 2:0.44444444 3:0.72727273 4:0 5:0 6:0 7:1 8:0.75949367 9:1 10:1 11:1 
1 1:0.9 2:0.69230769 3:0.57142857 4:0 5:0 6:0 7:1 8:0.75949367 9:0.81818182 10:1 11:1 
1 1:0.49073968 2:0.44444444 3:0.72727273 4:0 5:1 6:0 7:0.76666667 8:0 9:0 10:1 11:1 
1 1:0.6292048 2:0.41666667 3:0.66666667 4:0 5:1 6:0 7:0.9 8:0.99212598 9:1 10:1 11:1 
1 1:0.9 2:0.69230769 3:0.57142857 4:0 5:0 6:0 7:1 8:0.75949367 9:0.81818182 10:1 11:1 
1 1:1 2:1 3:1 4:0 5:0 6:1 7:1 8:1 9:1 10:1 11:1 
1 1:0.9 2:0.69230769 3:0.57142857 4:0 5:0 6:0 7:1 8:0.75949367 9:0.81818182 10:1 11:1 
1 1:0.49073968 2:0.38461538 3:0.72727273 4:0 5:0 6:1 7:1 8:1 9:1 10:1 11:1 
1 1:0.63379053 2:0.8 3:1 4:0 5:0 6:0 7:1 8:0.73417722 9:0.72727273 10:1 11:1 
1 1:0.49073968 2:0.44444444 3:0.72727273 4:0 5:0 6:0 7:1 8:0.76433121 9:0.81818182 10:1 11:1 
1 1:0.49073968 2:0.38461538 3:0.72727273 4:0 5:0 6:1 7:1 8:0.96 9:0.88888889 10:1 11:1 
1 1:0.6292048 2:0.41666667 3:0.66666667 4:0 5:0 6:0 7:0.83333333 8:0.9 9:1 10:1 11:1 
1 1:0.49073968 2:0.38461538 3:0.72727273 4:0 5:0 6:0 7:0.86666667 8:1 9:1 10:1 11:1 
1 1:0.49073968 2:0.44444444 3:0.72727273 4:0 5:1 6:0.6 7:0.86666667 8:0.99212598 9:1 10:1 11:1 
1 1:0.73333333 2:0.5 3:0.33333333 4:0 5:0 6:0 7:1 8:0.80254777 9:1 10:1 11:1 
1 1:0.49073968 2:0.44444444 3:0.72727273 4:0 5:0 6:0 7:1 8:0.75949367 9:1 10:1 11:1 
1 1:0.9 2:0.69230769 3:0.57142857 4:0 5:0 6:0 7:1 8:0.75949367 9:0.81818182 10:1 11:1 
1 1:0.49073968 2:0.44444444 3:0.72727273 4:0 5:1 6:0 7:0.76666667 8:0 9:0 10:1 11:1 
1 1:0.6292048 2:0.41666667 3:0.66666667 4:0 5:1 6:0 7:0.9 8:0.99212598 9:1 10:1 11:1 
1 1:0.9 2:0.69230769 3:0.57142857 4:0 5:0 6:0 7:1 8:0.75949367 9:0.81818182 10:1 11:1 
1 1:1 2:1 3:1 4:0 5:0 6:1 7:1 8:1 9:1 10:1 11:1 
1 1:0.9 2:0.69230769 3:0.57142857 4:0 5:0 6:0 7:1 8:0.75949367 9:0.81818182 10:1 11:1 
1 1:0.49073968 2:0.38461538 3:0.72727273 4:0 5:0 6:1 7:1 8:1 9:1 10:1 11:1 
1 1:0.63379053 2:0.8 3:1 4:0 5:0 6:0 7:1 8:0.73417722 9:0.72727273 10:1 11:1 
1 1:0.49073968 2:0.44444444 3:0.72727273 4:0 5:0 6:0 7:1 8:0.76433121 9:0.81818182 10:1 11:1 
1 1:0.49073968 2:0.38461538 3:0.72727273 4:0 5:0 6:1 7:1 8:0.96 9:0.88888889 10:1 11:1 
1 1:0.6292048 2:0.41666667 3:0.66666667 4:0 5:0 6:0 7:0.83333333 8:0.9 9:1 10:1 11:1 
1 1:0.91666667 2:0.9 3:0.8 4:0 5:0 6:0 7:0 8:0.9 9:1 10:1 11:1 
1 1:0.91666667 2:0.85714286 3:0.8 4:0 5:1 6:0 7:0.55319149 8:0.89361702 9:0.91666667 10:1 11:1 
1 1:0.85 2:0.71428571 3:0.4 4:0 5:0 6:0 7:0 8:0.88888889 9:1 10:1 11:1 
1 1:0.91666667 2:0.85714286 3:0.8 4:0 5:0 6:0 7:0 8:0.8372093 9:0.94444444 10:1 11:1 
1 1:0.86934969 2:0.5 3:0.33333333 4:0 5:0 6:0 7:0 8:0.84883721 9:0.83333333 10:1 11:1 
1 1:0.91666667 2:0.85714286 3:0.8 4:0 5:1 6:0 7:0 8:0 9:0 10:1 11:1 
1 1:1 2:1 3:1 4:0 5:1 6:0 7:0 8:0.89361702 9:0.91666667 10:1 11:1 
1 1:0.86934969 2:0.5 3:0.33333333 4:0 5:0 6:0 7:0 8:0.84883721 9:0.83333333 10:1 11:1 
1 1:0.6292048 2:0.41666667 3:0.66666667 4:0 5:0 6:0 7:0.83333333 8:0.9 9:1 10:1 11:1 
1 1:0.86934969 2:0.5 3:0.33333333 4:0 5:0 6:0 7:0 8:0.84883721 9:0.83333333 10:1 11:1 
1 1:0.91666667 2:0.9 3:0.8 4:0 5:0 6:0 7:0.8 8:0.9 9:1 10:1 11:1 
1 1:0.94253132 2:0.41666667 3:0.66666667 4:0 5:0 6:0 7:0 8:0.81395349 9:0.77777778 10:1 11:1 
1 1:0.91666667 2:0.85714286 3:0.8 4:0 5:0 6:0 7:0 8:0.84210526 9:0.83333333 10:1 11:1 
1 1:0.91666667 2:0.9 3:0.8 4:0 5:0 6:0 7:0.83333333 8:0.86330935 9:0.88888889 10:1 11:1 
1 1:1 2:0.7826087 3:1 4:0 5:0 6:0 7:0 8:0.75949367 9:1 10:1 11:1 
1 1:1 2:1 3:1 4:0 5:1 6:0 7:0.65957447 8:0.75471698 9:0.91666667 10:1 11:1 
1 1:0.79166667 2:0.58823529 3:0.28571429 4:0 5:0 6:0 7:0 8:0.94179894 9:0.95 10:1 11:1 
1 1:0.80081279 2:0.43478261 3:0.25 4:0 5:0 6:0 7:0 8:0.93684211 9:0.89473684 10:1 11:1 
1 1:1 2:1 3:1 4:0 5:1 6:0 7:0 8:0 9:0 10:1 11:1 
1 1:0.91666667 2:0.85714286 3:0.8 4:0 5:1 6:0 7:0 8:0.75471698 9:0.91666667 10:1 11:1 
1 1:0.80081279 2:0.43478261 3:0.25 4:0 5:0 6:0 7:0 8:0.93684211 9:0.89473684 10:1 11:1 
1 1:0.49073968 2:0.44444444 3:0.72727273 4:0 5:0 6:0 7:1 8:0.75949367 9:1 10:1 11:1 
1 1:0.80081279 2:0.43478261 3:0.25 4:0 5:0 6:0 7:0 8:0.93684211 9:0.89473684 10:1 11:1 
1 1:1 2:0.7826087 3:1 4:0 5:0 6:0 7:1 8:0.75949367 9:1 10:1 11:1 
1 1:0.93871796 2:0.44444444 3:0.72727273 4:0 5:0 6:0 7:0 8:0.90526316 9:0.8 10:1 11:1 
1 1:1 2:1 3:1 4:0 5:0 6:0 7:0 8:0.97354497 9:0.94736842 10:1 11:1 
1 1:1 2:0.7826087 3:1 4:0 5:0 6:0 7:1 8:0.76433121 9:0.88888889 10:1 11:1 
1 1:1 2:1 3:1 4:0 5:0 6:0 7:0.88 8:1 9:1 10:1 11:1 
1 1:1 2:0.7826087 3:1 4:0 5:1 6:0.64 7:0.84 8:0.99212598 9:1 10:1 11:1 
1 1:0.79166667 2:0.625 3:0.28571429 4:0 5:0 6:0 7:1 8:0.80254777 9:1 10:1 11:1 
1 1:0.80081279 2:0.45454545 3:0.25 4:0 5:0 6:0 7:1 8:0.75949367 9:0.81818182 10:1 11:1 
1 1:1 2:0.7826087 3:1 4:0 5:1 6:0 7:0.8 8:0 9:0 10:1 11:1 
1 1:0.91666667 2:0.9 3:0.8 4:0 5:1 6:0 7:1 8:0.99212598 9:1 10:1 11:1 
1 1:0.80081279 2:0.45454545 3:0.25 4:0 5:0 6:0 7:1 8:0.75949367 9:0.81818182 10:1 11:1 
1 1:0.49073968 2:0.38461538 3:0.72727273 4:0 5:0 6:1 7:1 8:1 9:1 10:1 11:1 
1 1:0.80081279 2:0.45454545 3:0.25 4:0 5:0 6:0 7:1 8:0.75949367 9:0.81818182 10:1 11:1 
1 1:0.93871796 2:0.38461538 3:0.72727273 4:0 5:0 6:0 7:1 8:0.73417722 9:0.72727273 10:1 11:1 
1 1:1 2:0.7826087 3:1 4:0 5:0 6:0 7:1 8:0.76433121 9:0.81818182 10:1 11:1 
1 1:1 2:1 3:1 4:0 5:0 6:1 7:1 8:0.96 9:0.88888889 10:1 11:1 
1 1:1 2:1 3:1 4:0 5:0 6:0 7:0.86666667 8:0.96 9:0.88888889 10:1 11:1 
1 1:1 2:0.7826087 3:1 4:0 5:1 6:0.6 7:0.86666667 8:0.95238095 9:0.88888889 10:1 11:1 
1 1:0.79166667 2:0.625 3:0.28571429 4:0 5:0 6:0 7:1 8:0.76923077 9:0.88888889 10:1 11:1 
1 1:0.80081279 2:0.45454545 3:0.25 4:0 5:0 6:0 7:1 8:0.78980892 9:1 10:1 11:1 
1 1:1 2:0.7826087 3:1 4:0 5:1 6:0 7:0.76666667 8:0 9:0 10:1 11:1 
1 1:0.91666667 2:0.9 3:0.8 4:0 5:1 6:0 7:0.9 8:0.95238095 9:0.88888889 10:1 11:1 
1 1:0.80081279 2:0.45454545 3:0.25 4:0 5:0 6:0 7:1 8:0.78980892 9:1 10:1 11:1 
1 1:0.49073968 2:0.38461538 3:0.72727273 4:0 5:0 6:1 7:1 8:0.96 9:0.88888889 10:1 11:1 
1 1:0.80081279 2:0.45454545 3:0.25 4:0 5:0 6:0 7:1 8:0.78980892 9:1 10:1 11:1 
1 1:0.93871796 2:0.38461538 3:0.72727273 4:0 5:0 6:0 7:1 8:0.76433121 9:0.88888889 10:1 11:1 
1 1:1 2:0.7826087 3:1 4:0 5:0 6:0 7:1 8:0.79487179 9:1 10:1 11:1 
1 1:0.91666667 2:0.9 3:0.8 4:0 5:0 6:0 7:0 8:0.99212598 9:1 10:1 11:1 
1 1:0.91666667 2:0.85714286 3:0.8 4:1 5:1 6:0 7:0.63829787 8:1 9:1 10:1 11:1 
1 1:0.85 2:0.71428571 3:0.4 4:0 5:1 6:0 7:0 8:0.79746835 9:0.91666667 10:1 11:1 
1 1:0.86934969 2:0.5 3:0.33333333 4:0 5:1 6:0 7:0 8:0.75471698 9:0.83333333 10:1 11:1 
1 1:0.91666667 2:0.85714286 3:0.8 4:1 5:1 6:0 7:0 8:0 9:0 10:1 11:1 
1 1:0.86934969 2:0.5 3:0.33333333 4:0 5:1 6:0 7:0 8:0.75471698 9:0.83333333 10:1 11:1 
1 1:0.6292048 2:0.41666667 3:0.66666667 4:0 5:1 6:0 7:0.9 8:0.99212598 9:1 10:1 11:1 
1 1:0.86934969 2:0.5 3:0.33333333 4:0 5:1 6:0 7:0 8:0.75471698 9:0.83333333 10:1 11:1 
1 1:0.94253132 2:0.41666667 3:0.66666667 4:0 5:1 6:0 7:0 8:0.72955975 9:0.75 10:1 11:1 
1 1:0.91666667 2:0.85714286 3:0.8 4:0 5:1 6:0 7:0 8:0.75949367 9:0.75 10:1 11:1 
1 1:1 2:0.7826087 3:1 4:0 5:0 6:0 7:0.61702128 8:0.99212598 9:1 10:1 11:1 
1 1:0.79166667 2:0.58823529 3:0.28571429 4:0 5:1 6:0 7:0.72340426 8:0.79746835 9:0.91666667 10:1 11:1 
1 1:0.80081279 2:0.43478261 3:0.25 4:0 5:1 6:0 7:0.72340426 8:0.75471698 9:0.83333333 10:1 11:1 
1 1:1 2:1 3:1 4:1 5:1 6:0 7:0.53191489 8:0 9:0 10:1 11:1 
1 1:0.80081279 2:0.43478261 3:0.25 4:0 5:1 6:0 7:0.72340426 8:0.75471698 9:0.83333333 10:1 11:1 
1 1:0.49073968 2:0.44444444 3:0.72727273 4:0 5:1 6:0.6 7:0.86666667 8:0.99212598 9:1 10:1 11:1 
1 1:0.80081279 2:0.43478261 3:0.25 4:0 5:1 6:0 7:0.72340426 8:0.75471698 9:0.83333333 10:1 11:1 
1 1:0.93871796 2:0.44444444 3:0.72727273 4:0 5:1 6:0 7:0.78723404 8:0.72955975 9:0.75 10:1 11:1 
1 1:1 2:1 3:1 4:0 5:1 6:0 7:0.65957447 8:0.75949367 9:0.75 10:1 11:1 
1 1:0.79166667 2:0.625 3:0.28571429 4:0 5:0 6:0 7:0 8:0.80254777 9:1 10:1 11:1 
1 1:0.80081279 2:0.45454545 3:0.25 4:0 5:0 6:0 7:0 8:0.75949367 9:0.81818182 10:1 11:1 
1 1:1 2:0.7826087 3:1 4:0 5:0 6:0 7:0 8:0 9:0 10:1 11:1 
1 1:0.80081279 2:0.45454545 3:0.25 4:0 5:0 6:0 7:0 8:0.75949367 9:0.81818182 10:1 11:1 
1 1:0.49073968 2:0.38461538 3:0.72727273 4:0 5:0 6:0 7:0.86666667 8:1 9:1 10:1 11:1 
1 1:0.80081279 2:0.45454545 3:0.25 4:0 5:0 6:0 7:0 8:0.75949367 9:0.81818182 10:1 11:1 
1 1:0.93871796 2:0.38461538 3:0.72727273 4:0 5:0 6:0 7:0 8:0.73417722 9:0.72727273 10:1 11:1 
1 1:1 2:0.7826087 3:1 4:0 5:0 6:0 7:0 8:0.76433121 9:0.81818182 10:1 11:1 
1 1:0.79166667 2:0.58823529 3:0.28571429 4:0 5:0 6:0 7:0 8:0.94680851 9:0.89473684 10:1 11:1 
1 1:0.80081279 2:0.43478261 3:0.25 4:0 5:0 6:0 7:0 8:0.96296296 9:0.94736842 10:1 11:1 
1 1:1 2:1 3:1 4:0 5:1 6:0 7:0 8:0 9:0 10:1 11:1 
1 1:0.80081279 2:0.43478261 3:0.25 4:0 5:0 6:0 7:0 8:0.96296296 9:0.94736842 10:1 11:1 
1 1:0.49073968 2:0.44444444 3:0.72727273 4:0 5:0 6:0 7:1 8:0.76433121 9:0.81818182 10:1 11:1 
1 1:0.80081279 2:0.43478261 3:0.25 4:0 5:0 6:0 7:0 8:0.96296296 9:0.94736842 10:1 11:1 
1 1:0.93871796 2:0.44444444 3:0.72727273 4:0 5:0 6:0 7:0 8:0.93121693 9:0.89473684 10:1 11:1 
1 1:0.73333333 2:0.5 3:0.33333333 4:0 5:0 6:0 7:1 8:0.80254777 9:1 10:1 11:1 
1 1:0.9 2:0.69230769 3:0.57142857 4:0 5:0 6:0 7:1 8:0.75949367 9:0.81818182 10:1 11:1 
1 1:0.49073968 2:0.44444444 3:0.72727273 4:0 5:1 6:0 7:0.76666667 8:0 9:0 10:1 11:1 
1 1:0.9 2:0.69230769 3:0.57142857 4:0 5:0 6:0 7:1 8:0.75949367 9:0.81818182 10:1 11:1 
1 1:0.9 2:0.69230769 3:0.57142857 4:0 5:0 6:0 7:1 8:0.75949367 9:0.81818182 10:1 11:1 
1 1:0.63379053 2:0.8 3:1 4:0 5:0 6:0 7:1 8:0.73417722 9:0.72727273 10:1 11:1 
1 1:0.79166667 2:0.58823529 3:0.28571429 4:0 5:1 6:0 7:0 8:0 9:0 10:1 11:1 
1 1:0.80081279 2:0.43478261 3:0.25 4:0 5:1 6:0 7:0 8:0 9:0 10:1 11:1 
1 1:0.80081279 2:0.43478261 3:0.25 4:0 5:1 6:0 7:0 8:0 9:0 10:1 11:1 
1 1:0.80081279 2:0.43478261 3:0.25 4:0 5:1 6:0 7:0 8:0 9:0 10:1 11:1 
1 1:0.93871796 2:0.44444444 3:0.72727273 4:0 5:1 6:0 7:0 8:0 9:0 10:1 11:1 
1 1:0.79166667 2:0.625 3:0.66666667 4:0 5:0 6:0 7:0 8:0.95238095 9:0.89473684 10:1 11:1 
1 1:0.79166667 2:0.625 3:0.66666667 4:0 5:0 6:0 7:0 8:0.95238095 9:0.89473684 10:1 11:1 
1 1:0.79166667 2:0.625 3:0.66666667 4:0 5:0 6:0 7:0 8:0.95238095 9:0.89473684 10:1 11:1 
1 1:0.73333333 2:0.5 3:0.33333333 4:0 5:0 6:0 7:0 8:0.91005291 9:0.8 10:1 11:1 
1 1:0.88835791 2:0.61538462 3:0.57142857 4:0 5:0 6:0 7:0 8:0.92631579 9:0.94736842 10:1 11:1 
1 1:0.88835791 2:0.61538462 3:0.57142857 4:0 5:0 6:0 7:0 8:0.92631579 9:0.94736842 10:1 11:1 
1 1:0.88835791 2:0.61538462 3:0.57142857 4:0 5:0 6:0 7:0 8:0.92631579 9:0.94736842 10:1 11:1 
1 1:1 2:1 3:1 4:0 5:0 6:0 7:0 8:1 9:1 10:1 11:1 
1 1:1 2:1 3:1 4:0 5:0 6:0 7:0 8:1 9:1 10:1 11:1 
1 1:1 2:1 3:1 4:0 5:0 6:0 7:0 8:1 9:1 10:1 11:1 
1 1:1 2:1 3:1 4:0 5:0 6:1 7:1 8:1 9:1 10:1 11:1 
1 1:1 2:1 3:1 4:0 5:0 6:1 7:1 8:1 9:1 10:1 11:1 
1 1:1 2:1 3:1 4:0 5:0 6:1 7:1 8:1 9:1 10:1 11:1 
1 1:0.95454545 2:0.93333333 3:0.88888889 4:0 5:0 6:0.96666667 7:0.96666667 8:0.94252874 9:0.83333333 10:1 11:1 
1 1:0.88636364 2:0.73170732 3:0.66666667 4:0 5:0 6:0 7:0.86666667 8:0.592 9:0.57142857 10:0 11:0 
1 1:1 2:1 3:1 4:0 5:0 6:0 7:1 8:0.68907563 9:0.71428571 10:1 11:1 
1 1:1 2:1 3:1 4:0 5:0 6:0 7:1 8:0.68907563 9:0.71428571 10:1 11:1 
1 1:1 2:1 3:1 4:0 5:0 6:0 7:1 8:0.68907563 9:0.71428571 10:1 11:1 
1 1:0.88636364 2:0.73170732 3:0.66666667 4:0 5:0 6:0 7:0.86666667 8:0.592 9:0.57142857 10:0 11:0 
1 1:0.88636364 2:0.73170732 3:0.66666667 4:0 5:0 6:0 7:0.8 8:0.64347826 9:0.57142857 10:0 11:0 
1 1:1 2:1 3:1 4:0 5:0 6:0 7:1 8:0.68907563 9:0.71428571 10:1 11:1 
1 1:1 2:1 3:1 4:0 5:0 6:0 7:1 8:0.68907563 9:0.71428571 10:1 11:1 
1 1:0.95454545 2:0.93333333 3:0.88888889 4:0 5:0 6:0.96666667 7:0.96666667 8:0.94252874 9:0.83333333 10:1 11:1 
1 1:1 2:1 3:1 4:0 5:0 6:0 7:1 8:0.68907563 9:0.71428571 10:1 11:1 
1 1:0.95454545 2:0.93333333 3:0.88888889 4:0 5:0 6:0 7:0.96666667 8:0.72881356 9:1 10:1 11:1 
1 1:0.88636364 2:0.73170732 3:0.66666667 4:0 5:0 6:0 7:0 8:0.80769231 9:0.8125 10:0 11:0 
1 1:1 2:1 3:1 4:0 5:0 6:0 7:0 8:0.96 9:0.9375 10:1 11:1 
1 1:1 2:1 3:1 4:0 5:0 6:0 7:0 8:0.96 9:0.9375 10:1 11:1 
1 1:1 2:1 3:1 4:0 5:0 6:0 7:0 8:0.96 9:0.9375 10:1 11:1 
1 1:0.88636364 2:0.73170732 3:0.66666667 4:0 5:0 6:0 7:0 8:0.80769231 9:0.8125 10:0 11:0 
1 1:0.88636364 2:0.73170732 3:0.66666667 4:0 5:0 6:0 7:0 8:0.73972603 9:0.75 10:0 11:0 
1 1:1 2:1 3:1 4:0 5:0 6:0 7:0 8:0.96 9:0.9375 10:1 11:1 
1 1:0.95454545 2:0.93333333 3:0.88888889 4:0 5:0 6:0 7:0.96666667 8:0.72881356 9:1 10:1 11:1 
1 1:1 2:1 3:1 4:0 5:0 6:0 7:0 8:0.96 9:0.9375 10:1 11:1 
1 1:0.95454545 2:0.93333333 3:0.88888889 4:0 5:0 6:0 7:0.96666667 8:0.72881356 9:1 10:1 11:1 
1 1:0.88636364 2:0.73170732 3:0.66666667 4:0 5:0 6:0 7:0 8:0.80769231 9:0.875 10:0 11:0 
1 1:1 2:1 3:1 4:0 5:0 6:0 7:0 8:1 9:1 10:1 11:1 
1 1:1 2:1 3:1 4:0 5:0 6:0 7:0 8:1 9:1 10:1 11:1 
1 1:0.88636364 2:0.73170732 3:0.66666667 4:0 5:0 6:0 7:0 8:0.80769231 9:0.875 10:0 11:0 
1 1:0.88636364 2:0.73170732 3:0.66666667 4:0 5:0 6:0 7:0 8:0.73972603 9:0.8125 10:0 11:0 
1 1:1 2:1 3:1 4:0 5:0 6:0 7:0 8:1 9:1 10:1 11:1 
1 1:0.95454545 2:0.93333333 3:0.88888889 4:0 5:0 6:0 7:0.96666667 8:0.72881356 9:1 10:1 11:1 
1 1:1 2:1 3:1 4:0 5:0 6:0 7:0 8:1 9:1 10:1 11:1 
1 1:0.95454545 2:0.93333333 3:0.88888889 4:0 5:0 6:0 7:0.96666667 8:0.72881356 9:1 10:1 11:1 
1 1:0.88636364 2:0.73170732 3:0.66666667 4:0 5:0 6:0 7:0 8:0.80769231 9:0.875 10:0 11:0 
1 1:1 2:1 3:1 4:0 5:0 6:0 7:0 8:1 9:1 10:1 11:1 
1 1:0.88636364 2:0.73170732 3:0.66666667 4:0 5:0 6:0 7:0 8:0.80769231 9:0.875 10:0 11:0 
1 1:0.88636364 2:0.73170732 3:0.66666667 4:0 5:0 6:0 7:0 8:0.73972603 9:0.8125 10:0 11:0 
1 1:1 2:1 3:1 4:0 5:0 6:0 7:0 8:1 9:1 10:1 11:1 
1 1:0.95454545 2:0.93333333 3:0.88888889 4:0 5:0 6:0 7:0.96666667 8:0.72881356 9:1 10:1 11:1 
1 1:1 2:1 3:1 4:0 5:0 6:0 7:0 8:1 9:1 10:1 11:1 
1 1:0.95454545 2:0.93333333 3:0.88888889 4:0 5:0 6:0 7:0.96666667 8:0.72881356 9:1 10:1 11:1 
1 1:0.88636364 2:0.73170732 3:0.66666667 4:0 5:0 6:0 7:0 8:0.80769231 9:0.875 10:0 11:0 
1 1:1 2:1 3:1 4:0 5:0 6:0 7:0 8:1 9:1 10:1 11:1 
1 1:0.88636364 2:0.73170732 3:0.66666667 4:0 5:0 6:0 7:0 8:0.80769231 9:0.875 10:0 11:0 
1 1:0.88636364 2:0.73170732 3:0.66666667 4:0 5:0 6:0 7:0 8:0.73972603 9:0.8125 10:0 11:0 
1 1:0.95454545 2:0.93333333 3:0.88888889 4:0 5:0 6:0 7:0.96666667 8:0.72881356 9:1 10:1 11:1 
1 1:1 2:1 3:1 4:0 5:0 6:0 7:0 8:1 9:1 10:1 11:1 
1 1:0.95454545 2:0.93333333 3:0.88888889 4:0 5:0 6:0 7:0.96666667 8:0.72881356 9:1 10:1 11:1 
1 1:0.88636364 2:0.73170732 3:0.66666667 4:0 5:0 6:0 7:0 8:0.80769231 9:0.875 10:0 11:0 
1 1:0.88636364 2:0.73170732 3:0.66666667 4:0 5:0 6:0 7:0 8:0.80769231 9:0.875 10:0 11:0 
1 1:0.88636364 2:0.73170732 3:0.66666667 4:0 5:0 6:0 7:0 8:0.73972603 9:0.8125 10:0 11:0 
1 1:0.95454545 2:0.93333333 3:0.88888889 4:0 5:0 6:0 7:0.96666667 8:0.72881356 9:1 10:1 11:1 
1 1:1 2:1 3:1 4:0 5:0 6:0 7:0 8:1 9:1 10:1 11:1 
1 1:0.95454545 2:0.93333333 3:0.88888889 4:0 5:0 6:0 7:0.96666667 8:0.72881356 9:1 10:1 11:1 
1 1:0.88636364 2:0.73170732 3:0.66666667 4:0 5:0 6:0 7:0 8:0.80769231 9:0.875 10:0 11:0 
1 1:0.88636364 2:0.73170732 3:0.66666667 4:0 5:0 6:0 7:0 8:0.80769231 9:0.875 10:0 11:0 
1 1:0.88636364 2:0.73170732 3:0.66666667 4:0 5:0 6:0 7:0 8:0.73972603 9:0.8125 10:0 11:0 
1 1:0.95454545 2:0.93333333 3:0.88888889 4:0 5:0 6:0 7:0.96666667 8:0.72881356 9:1 10:1 11:1 
1 1:0.925 2:0.78947368 3:0.76923077 4:0 5:0 6:0 7:0.83333333 8:0.62903226 9:0.83333333 10:0 11:0 
1 1:1 2:1 3:1 4:0 5:0 6:0 7:0 8:1 9:1 10:1 11:1 
1 1:1 2:1 3:1 4:0 5:0 6:0 7:0 8:0.90789474 9:0.9375 10:1 11:1 
1 1:0.925 2:0.78947368 3:0.76923077 4:0 5:0 6:0 7:0.83333333 8:0.62903226 9:0.83333333 10:0 11:0 
1 1:0.925 2:0.78947368 3:0.76923077 4:0 5:0 6:0 7:0.83333333 8:0.62903226 9:0.83333333 10:0 11:0 
1 1:1 2:1 3:1 4:0 5:0 6:0 7:0 8:0.90789474 9:0.9375 10:1 11:1 
1 1:0.925 2:0.78947368 3:0.76923077 4:0 5:0 6:0 7:0.83333333 8:0.62903226 9:0.83333333 10:0 11:0 
1 1:0.925 2:0.78947368 3:0.76923077 4:0 5:0 6:0 7:0.76666667 8:0.68421053 9:0.83333333 10:0 11:0 
1 1:0.925 2:0.78947368 3:0.76923077 4:0 5:0 6:0 7:0.76666667 8:0.68421053 9:0.83333333 10:0 11:0 
1 1:1 2:1 3:1 4:0 5:0 6:1 7:1 8:1 9:1 10:1 11:1 
1 1:0.95454545 2:0.93333333 3:0.88888889 4:0 5:0 6:0 7:1 8:0.51282051 9:0.5 10:1 11:1 
1 1:0.93181818 2:0.90909091 3:0.82352941 4:0 5:0 6:0 7:0.94366197 8:0 9:0 10:1 11:1 
1 1:0.95454545 2:0.93333333 3:0.88888889 4:0 5:0 6:0 7:0 8:0.7862069 9:1 10:1 11:1 
1 1:0.95454545 2:0.93333333 3:0.88888889 4:0 5:0 6:0 7:0 8:0.7862069 9:1 10:1 11:1 
1 1:0.95454545 2:0.93333333 3:0.88888889 4:0 5:0 6:0 7:0 8:0.7862069 9:1 10:1 11:1 
1 1:1 2:1 3:1 4:0 5:1 6:0 7:0 8:0.47058824 9:0.38461538 10:1 11:1 
1 1:0.8952365 2:0.59574468 3:0.625 4:0 5:0 6:0 7:0.90909091 8:0.79470199 9:0.85714286 10:0 11:0 
1 1:0.93181818 2:0.90909091 3:0.82352941 4:0 5:0 6:0 7:0.94366197 8:0 9:0 10:1 11:1 
1 1:1 2:1 3:1 4:0 5:0 6:0 7:0.95833333 8:0.66153846 9:1 10:1 11:1 
1 1:0.95454545 2:0.93333333 3:0.88888889 4:0 5:0 6:0 7:0 8:0.7862069 9:1 10:1 11:1 
1 1:0.95454545 2:0.93333333 3:0.88888889 4:0 5:0 6:0 7:0 8:0.7862069 9:1 10:1 11:1 
1 1:1 2:1 3:1 4:0 5:1 6:0 7:0.88888889 8:0.66153846 9:1 10:1 11:1 
1 1:0.3469152 2:0.35897436 3:0.53333333 4:0 5:0 6:0 7:0 8:0.92592593 9:1 10:1 11:1 
1 1:0.3469152 2:0.35897436 3:0.53333333 4:0 5:0 6:0 7:0 8:0.8042328 9:0.84210526 10:1 11:1 
1 1:1 2:0.89361702 3:1 4:0 5:0 6:0 7:0 8:0.92592593 9:1 10:1 11:1 
1 1:0.95454545 2:0.93333333 3:0.88888889 4:0 5:0 6:0 7:0 8:0.75862069 9:0.92857143 10:1 11:1 
1 1:1 2:1 3:1 4:0 5:0 6:0 7:0 8:0.92592593 9:1 10:1 11:1 
1 1:1 2:1 3:1 4:0 5:0 6:0 7:0 8:0.8 9:0.83333333 10:0 11:0 
1 1:0.95454545 2:0.93333333 3:0.88888889 4:0 5:0 6:0 7:0 8:0.7862069 9:1 10:1 11:1 
1 1:0.95454545 2:0.93333333 3:0.88888889 4:0 5:0 6:0 7:0 8:0.79754601 9:0.73684211 10:1 11:1 
1 1:1 2:0.89361702 3:1 4:0 5:0 6:0 7:0 8:0.75776398 9:0.77777778 10:1 11:1 
1 1:1 2:1 3:1 4:0 5:0 6:0 7:0 8:0.89570552 9:0.94117647 10:1 11:1 
1 1:0.93181818 2:0.90909091 3:0.82352941 4:0 5:0 6:0 7:0.94366197 8:0 9:0 10:1 11:1 
1 1:1 2:1 3:1 4:0 5:0 6:0 7:0 8:0.92592593 9:1 10:1 11:1 
1 1:1 2:1 3:1 4:0 5:0 6:0 7:0 8:0.92592593 9:1 10:1 11:1 
1 1:1 2:0.89361702 3:1 4:0 5:0 6:0 7:0 8:0.66153846 9:1 10:0 11:0 
1 1:0.93181818 2:0.90909091 3:0.82352941 4:0 5:0 6:0 7:0.94366197 8:0 9:0 10:1 11:1 
1 1:1 2:1 3:1 4:0 5:0 6:0 7:0 8:0.8 9:0.83333333 10:0 11:0 
1 1:0.93181818 2:0.90909091 3:0.82352941 4:0 5:0 6:0 7:0.94366197 8:0 9:0 10:1 11:1 
1 1:0.95454545 2:0.93333333 3:0.88888889 4:0 5:0 6:0 7:0 8:0.89440994 9:1 10:0 11:0 
1 1:1 2:1 3:1 4:0 5:0 6:0 7:1 8:0.66153846 9:1 10:1 11:1 
1 1:0.3469152 2:0.35897436 3:0.53333333 4:0 5:0 6:0 7:0 8:0.92592593 9:1 10:1 11:1 
1 1:1 2:1 3:1 4:0 5:0 6:0 7:1 8:0.65648855 9:0.85714286 10:1 11:1 
1 1:0.95454545 2:0.93333333 3:0.88888889 4:0 5:0 6:0 7:0 8:0.7862069 9:1 10:1 11:1 
1 1:0.95454545 2:0.93333333 3:0.88888889 4:0 5:0 6:0 7:0 8:0.73372781 9:0.84210526 10:1 11:1 
1 1:0.77272727 2:0.66666667 3:0.75 4:0 5:0 6:0 7:0 8:0.92592593 9:1 10:1 11:1 
1 1:1 2:1 3:1 4:0 5:0 6:0 7:0 8:0.92592593 9:1 10:1 11:1 
1 1:0.95454545 2:0.93333333 3:0.88888889 4:0 5:0 6:0.96153846 7:0.96153846 8:0.71428571 9:0.83333333 10:1 11:1 
1 1:0.93181818 2:0.90909091 3:0.82352941 4:0 5:0 6:0.8 7:0.92957746 8:0 9:0 10:1 11:1 
1 1:0.95454545 2:0.93333333 3:0.88888889 4:0 5:0 6:0 7:0.8 8:0.85148515 9:1 10:1 11:1 
1 1:0.95454545 2:0.93333333 3:0.88888889 4:0 5:0 6:0 7:0.8 8:0.85148515 9:1 10:1 11:1 
1 1:0.95454545 2:0.93333333 3:0.88888889 4:0 5:0 6:0 7:0.8 8:0.85148515 9:1 10:1 11:1 
1 1:1 2:1 3:1 4:0 5:1 6:0 7:0.86666667 8:0.63492063 9:0.83333333 10:1 11:1 
1 1:0.8952365 2:0.59574468 3:0.625 4:0 5:0 6:0.45454545 7:1 8:0.57943925 9:0.66666667 10:0 11:0 
1 1:0.93181818 2:0.90909091 3:0.82352941 4:0 5:0 6:0.8 7:0.92957746 8:0 9:0 10:1 11:1 
1 1:1 2:1 3:1 4:0 5:0 6:0.91666667 7:0.91666667 8:1 9:1 10:1 11:1 
1 1:0.95454545 2:0.93333333 3:0.88888889 4:0 5:0 6:0 7:0.8 8:0.85148515 9:1 10:1 11:1 
1 1:0.95454545 2:0.93333333 3:0.88888889 4:0 5:0 6:0 7:0.8 8:0.85148515 9:1 10:1 11:1 
1 1:1 2:1 3:1 4:0 5:1 6:0.55555556 7:0.66666667 8:1 9:1 10:1 11:1 
1 1:0.3469152 2:0.35897436 3:0.53333333 4:0 5:0 6:0 7:1 8:0.72881356 9:1 10:1 11:1 
1 1:0.3469152 2:0.35897436 3:0.53333333 4:0 5:0 6:0 7:1 8:0.59310345 9:1 10:1 11:1 
1 1:1 2:0.89361702 3:1 4:0 5:0 6:0 7:1 8:0.72881356 9:1 10:1 11:1 
1 1:0.95454545 2:0.93333333 3:0.88888889 4:0 5:0 6:0 7:0.8 8:0.85148515 9:1 10:1 11:1 
1 1:1 2:1 3:1 4:0 5:0 6:0 7:1 8:0.72881356 9:1 10:1 11:1 
1 1:1 2:1 3:1 4:0 5:0 6:0 7:0.96666667 8:0.7107438 9:1 10:0 11:0 
1 1:0.95454545 2:0.93333333 3:0.88888889 4:0 5:0 6:0 7:0.8 8:0.85148515 9:1 10:1 11:1 
1 1:0.95454545 2:0.93333333 3:0.88888889 4:0 5:0 6:0 7:0.9 8:0.72268908 9:1 10:1 11:1 
1 1:1 2:0.89361702 3:1 4:0 5:0 6:0 7:1 8:0.56410256 9:0.83333333 10:1 11:1 
1 1:1 2:1 3:1 4:0 5:0 6:0 7:1 8:0.72268908 9:1 10:1 11:1 
1 1:0.93181818 2:0.90909091 3:0.82352941 4:0 5:0 6:0.8 7:0.92957746 8:0 9:0 10:1 11:1 
1 1:1 2:1 3:1 4:0 5:0 6:0 7:1 8:0.72881356 9:1 10:1 11:1 
1 1:1 2:1 3:1 4:0 5:0 6:0 7:1 8:0.72881356 9:1 10:1 11:1 
1 1:1 2:0.89361702 3:1 4:0 5:0 6:0 7:0.7 8:1 9:1 10:0 11:0 
1 1:0.93181818 2:0.90909091 3:0.82352941 4:0 5:0 6:0.8 7:0.92957746 8:0 9:0 10:1 11:1 
1 1:1 2:1 3:1 4:0 5:0 6:0 7:0.96666667 8:0.7107438 9:1 10:0 11:0 
1 1:0.93181818 2:0.90909091 3:0.82352941 4:0 5:0 6:0.8 7:0.92957746 8:0 9:0 10:1 11:1 
1 1:0.95454545 2:0.93333333 3:0.88888889 4:0 5:0 6:0 7:1 8:0.73504274 9:1 10:0 11:0 
1 1:0.3469152 2:0.35897436 3:0.53333333 4:0 5:0 6:0 7:1 8:0.72881356 9:1 10:1 11:1 
1 1:1 2:1 3:1 4:0 5:0 6:1 7:1 8:0.98850575 9:1 10:1 11:1 
1 1:0.95454545 2:0.93333333 3:0.88888889 4:0 5:0 6:0 7:0.8 8:0.85148515 9:1 10:1 11:1 
1 1:0.95454545 2:0.93333333 3:0.88888889 4:0 5:0 6:0 7:0.96666667 8:0.688 9:1 10:1 11:1 
1 1:0.77272727 2:0.66666667 3:0.75 4:0 5:0 6:0 7:1 8:0.72881356 9:1 10:1 11:1 
1 1:1 2:1 3:1 4:0 5:0 6:0 7:1 8:0.72881356 9:1 10:1 11:1 
1 1:1 2:1 3:1 4:0 5:0 6:0 7:0.80769231 8:0.62992126 9:0.5 10:1 11:1 
1 1:0.95344982 2:0.82926829 3:0.8 4:0 5:0 6:0 7:0.81690141 8:0 9:0 10:1 11:1 
1 1:1 2:1 3:1 4:0 5:0 6:0 7:0 8:1 9:1 10:1 11:1 
1 1:1 2:1 3:1 4:0 5:0 6:0 7:0 8:1 9:1 10:1 11:1 
1 1:1 2:1 3:1 4:0 5:0 6:0 7:0 8:1 9:1 10:1 11:1 
1 1:0.95454545 2:0.93333333 3:0.88888889 4:0 5:1 6:0 7:0 8:0.56737589 9:0.38461538 10:1 11:1 
1 1:0.92331699 2:0.54545455 3:0.57142857 4:0 5:0 6:0 7:1 8:0.70491803 9:0.71428571 10:0 11:0 
1 1:0.95344982 2:0.82926829 3:0.8 4:0 5:0 6:0 7:0.81690141 8:0 9:0 10:1 11:1 
1 1:0.95454545 2:0.93333333 3:0.88888889 4:0 5:0 6:0 7:0.83333333 8:0.85148515 9:1 10:1 11:1 
1 1:1 2:1 3:1 4:0 5:0 6:0 7:0 8:1 9:1 10:1 11:1 
1 1:1 2:1 3:1 4:0 5:0 6:0 7:0 8:1 9:1 10:1 11:1 
1 1:0.95454545 2:0.93333333 3:0.88888889 4:0 5:1 6:0 7:0.66666667 8:0.85148515 9:1 10:1 11:1 
1 1:0.37566683 2:0.27777778 3:0.46153846 4:0 5:0 6:0 7:0 8:0.85714286 9:1 10:1 11:1 
1 1:0.37566683 2:0.27777778 3:0.46153846 4:0 5:0 6:0 7:0 8:0.7125 9:1 10:1 11:1 
1 1:0.95454545 2:0.90909091 3:0.88888889 4:0 5:0 6:0 7:0 8:0.85714286 9:1 10:1 11:1 
1 1:1 2:1 3:1 4:0 5:0 6:0 7:0 8:0.94827586 9:0.92857143 10:1 11:1 
1 1:0.95454545 2:0.93333333 3:0.88888889 4:0 5:0 6:0 7:0 8:0.85714286 9:1 10:1 11:1 
1 1:0.95454545 2:0.93333333 3:0.88888889 4:0 5:0 6:0 7:0 8:0.75 9:0.85714286 10:0 11:0 
1 1:1 2:1 3:1 4:0 5:0 6:0 7:0 8:0.82089552 9:0.92857143 10:1 11:1 
1 1:0.95454545 2:0.90909091 3:0.88888889 4:0 5:0 6:0 7:0 8:0.68181818 9:0.85714286 10:1 11:1 
1 1:0.95454545 2:0.93333333 3:0.88888889 4:0 5:0 6:0 7:0 8:0.8358209 9:1 10:1 11:1 
1 1:0.95344982 2:0.82926829 3:0.8 4:0 5:0 6:0 7:0.81690141 8:0 9:0 10:1 11:1 
1 1:0.95454545 2:0.93333333 3:0.88888889 4:0 5:0 6:0 7:0 8:0.85714286 9:1 10:1 11:1 
1 1:0.95454545 2:0.93333333 3:0.88888889 4:0 5:0 6:0 7:0 8:0.85714286 9:1 10:1 11:1 
1 1:0.95454545 2:0.90909091 3:0.88888889 4:0 5:0 6:0 7:0 8:0.85148515 9:1 10:0 11:0 
1 1:0.95344982 2:0.82926829 3:0.8 4:0 5:0 6:0 7:0.81690141 8:0 9:0 10:1 11:1 
1 1:0.95454545 2:0.93333333 3:0.88888889 4:0 5:0 6:0 7:0 8:0.75 9:0.85714286 10:0 11:0 
1 1:0.95344982 2:0.82926829 3:0.8 4:0 5:0 6:0 7:0.81690141 8:0 9:0 10:1 11:1 
1 1:1 2:1 3:1 4:0 5:0 6:0 7:0 8:0.83333333 9:0.92857143 10:0 11:0 
1 1:0.37566683 2:0.27777778 3:0.46153846 4:0 5:0 6:0 7:0 8:0.85714286 9:1 10:1 11:1 
1 1:0.95454545 2:0.93333333 3:0.88888889 4:0 5:0 6:0 7:1 8:0.84313725 9:0.85714286 10:1 11:1 
1 1:1 2:1 3:1 4:0 5:0 6:0 7:0 8:1 9:1 10:1 11:1 
1 1:1 2:1 3:1 4:0 5:0 6:0 7:0 8:0.8 9:1 10:1 11:1 
1 1:0.79592029 2:0.60606061 3:0.71428571 4:0 5:0 6:0 7:0 8:0.85714286 9:1 10:1 11:1 
1 1:0.95454545 2:0.93333333 3:0.88888889 4:0 5:0 6:0 7:0 8:0.85714286 9:1 10:1 11:1 
1 1:0.95454545 2:0.93333333 3:0.88888889 4:0 5:0 6:0.95833333 7:0.95833333 8:0.71428571 9:0.83333333 10:1 11:1 
1 1:0.93181818 2:0.90909091 3:0.82352941 4:0 5:0 6:1 7:1 8:0 9:0 10:1 11:1 
1 1:0.95454545 2:0.93333333 3:0.88888889 4:0 5:0 6:0 7:0.83333333 8:0.85148515 9:1 10:1 11:1 
1 1:0.95454545 2:0.93333333 3:0.88888889 4:0 5:0 6:0 7:0.83333333 8:0.85148515 9:1 10:1 11:1 
1 1:0.95454545 2:0.93333333 3:0.88888889 4:0 5:0 6:0 7:0.83333333 8:0.85148515 9:1 10:1 11:1 
1 1:1 2:1 3:1 4:0 5:1 6:0 7:0.91666667 8:0.63492063 9:0.83333333 10:1 11:1 
1 1:0.8952365 2:0.59574468 3:0.625 4:0 5:0 6:0.45454545 7:1 8:0.57943925 9:0.66666667 10:0 11:0 
1 1:0.93181818 2:0.90909091 3:0.82352941 4:0 5:0 6:1 7:1 8:0 9:0 10:1 11:1 
1 1:0.95454545 2:0.93333333 3:0.88888889 4:0 5:0 6:0 7:0.83333333 8:0.85148515 9:1 10:1 11:1 
1 1:0.95454545 2:0.93333333 3:0.88888889 4:0 5:0 6:0 7:0.83333333 8:0.85148515 9:1 10:1 11:1 
1 1:1 2:1 3:1 4:0 5:1 6:0.55555556 7:0.77777778 8:1 9:1 10:1 11:1 
1 1:0.3469152 2:0.35897436 3:0.53333333 4:0 5:0 6:0 7:0.95833333 8:0.72881356 9:1 10:1 11:1 
1 1:0.3469152 2:0.35897436 3:0.53333333 4:0 5:0 6:0 7:0.95833333 8:0.59310345 9:1 10:1 11:1 
1 1:1 2:0.89361702 3:1 4:0 5:0 6:0 7:0.95833333 8:0.72881356 9:1 10:1 11:1 
1 1:0.95454545 2:0.93333333 3:0.88888889 4:0 5:0 6:0 7:1 8:0.85148515 9:1 10:1 11:1 
1 1:1 2:1 3:1 4:0 5:0 6:0 7:0.95833333 8:0.72881356 9:1 10:1 11:1 
1 1:1 2:1 3:1 4:0 5:0 6:0 7:0.875 8:0.7107438 9:1 10:0 11:0 
1 1:0.95454545 2:0.93333333 3:0.88888889 4:0 5:0 6:0 7:0.91666667 8:0.72268908 9:1 10:1 11:1 
1 1:1 2:0.89361702 3:1 4:0 5:0 6:0 7:0.91666667 8:0.56410256 9:0.83333333 10:1 11:1 
1 1:1 2:1 3:1 4:0 5:0 6:0 7:0.95833333 8:0.72268908 9:1 10:1 11:1 
1 1:0.93181818 2:0.90909091 3:0.82352941 4:0 5:0 6:1 7:1 8:0 9:0 10:1 11:1 
1 1:1 2:1 3:1 4:0 5:0 6:0 7:0.95833333 8:0.72881356 9:1 10:1 11:1 
1 1:1 2:1 3:1 4:0 5:0 6:0 7:0.95833333 8:0.72881356 9:1 10:1 11:1 
1 1:1 2:0.89361702 3:1 4:0 5:0 6:0 7:0.58333333 8:1 9:1 10:0 11:0 
1 1:0.93181818 2:0.90909091 3:0.82352941 4:0 5:0 6:1 7:1 8:0 9:0 10:1 11:1 
1 1:1 2:1 3:1 4:0 5:0 6:0 7:0.875 8:0.7107438 9:1 10:0 11:0 
1 1:0.93181818 2:0.90909091 3:0.82352941 4:0 5:0 6:1 7:1 8:0 9:0 10:1 11:1 
1 1:0.95454545 2:0.93333333 3:0.88888889 4:0 5:0 6:0 7:0.91666667 8:0.73504274 9:1 10:0 11:0 
1 1:0.3469152 2:0.35897436 3:0.53333333 4:0 5:0 6:0 7:0.95833333 8:0.72881356 9:1 10:1 11:1 
1 1:1 2:1 3:1 4:0 5:0 6:1 7:1 8:0.98850575 9:1 10:1 11:1 
1 1:0.95454545 2:0.93333333 3:0.88888889 4:0 5:0 6:0 7:0.83333333 8:0.85148515 9:1 10:1 11:1 
1 1:0.95454545 2:0.93333333 3:0.88888889 4:0 5:0 6:0 7:0.95833333 8:0.688 9:1 10:1 11:1 
1 1:0.77272727 2:0.66666667 3:0.75 4:0 5:0 6:0 7:0.95833333 8:0.72881356 9:1 10:1 11:1 
1 1:1 2:1 3:1 4:0 5:0 6:0 7:0.95833333 8:0.72881356 9:1 10:1 11:1 
1 1:0.95454545 2:0.93333333 3:0.88888889 4:0 5:0 6:0 7:1 8:0.55555556 9:0.5 10:1 11:1 
1 1:0.93181818 2:0.90909091 3:0.82352941 4:0 5:0 6:0 7:0.94366197 8:0 9:0 10:1 11:1 
1 1:0.95454545 2:0.93333333 3:0.88888889 4:0 5:0 6:0 7:0 8:0.85714286 9:1 10:1 11:1 
1 1:0.95454545 2:0.93333333 3:0.88888889 4:0 5:0 6:0 7:0 8:0.85714286 9:1 10:1 11:1 
1 1:0.95454545 2:0.93333333 3:0.88888889 4:0 5:0 6:0 7:0 8:0.85714286 9:1 10:1 11:1 
1 1:1 2:1 3:1 4:0 5:1 6:0 7:0 8:0.50632911 9:0.38461538 10:1 11:1 
1 1:0.8952365 2:0.59574468 3:0.625 4:0 5:0 6:0 7:0.90909091 8:0.86330935 9:0.85714286 10:0 11:0 
1 1:0.93181818 2:0.90909091 3:0.82352941 4:0 5:0 6:0 7:0.94366197 8:0 9:0 10:1 11:1 
1 1:0.95454545 2:0.93333333 3:0.88888889 4:0 5:0 6:0 7:0 8:0.85714286 9:1 10:1 11:1 
1 1:0.95454545 2:0.93333333 3:0.88888889 4:0 5:0 6:0 7:0 8:0.85714286 9:1 10:1 11:1 
1 1:1 2:1 3:1 4:0 5:1 6:0 7:0.66666667 8:0.72881356 9:1 10:1 11:1 
1 1:0.3469152 2:0.35897436 3:0.53333333 4:0 5:0 6:0 7:0 8:1 9:1 10:1 11:1 
1 1:0.3469152 2:0.35897436 3:0.53333333 4:0 5:0 6:0 7:0 8:0.84745763 9:1 10:1 11:1 
1 1:1 2:0.89361702 3:1 4:0 5:0 6:0 7:0 8:1 9:1 10:1 11:1 
1 1:0.95454545 2:0.93333333 3:0.88888889 4:0 5:0 6:0 7:0 8:0.82706767 9:0.92857143 10:1 11:1 
1 1:1 2:1 3:1 4:0 5:0 6:0 7:0 8:1 9:1 10:1 11:1 
1 1:1 2:1 3:1 4:0 5:0 6:0 7:0 8:0.8627451 9:0.875 10:0 11:0 
1 1:0.95454545 2:0.93333333 3:0.88888889 4:0 5:0 6:0 7:0 8:0.86092715 9:0.875 10:1 11:1 
1 1:1 2:0.89361702 3:1 4:0 5:0 6:0 7:0 8:0.81879195 9:0.875 10:1 11:1 
1 1:1 2:1 3:1 4:0 5:0 6:0 7:0 8:0.96688742 9:1 10:1 11:1 
1 1:0.93181818 2:0.90909091 3:0.82352941 4:0 5:0 6:0 7:0.94366197 8:0 9:0 10:1 11:1 
1 1:1 2:1 3:1 4:0 5:0 6:0 7:0 8:1 9:1 10:1 11:1 
1 1:1 2:0.89361702 3:1 4:0 5:0 6:0 7:0 8:0.72881356 9:1 10:0 11:0 
1 1:0.93181818 2:0.90909091 3:0.82352941 4:0 5:0 6:0 7:0.94366197 8:0 9:0 10:1 11:1 
1 1:1 2:1 3:1 4:0 5:0 6:0 7:0 8:0.8627451 9:0.875 10:0 11:0 
1 1:0.93181818 2:0.90909091 3:0.82352941 4:0 5:0 6:0 7:0.94366197 8:0 9:0 10:1 11:1 
1 1:0.95454545 2:0.93333333 3:0.88888889 4:0 5:0 6:0 7:0 8:0.96644295 9:1 10:0 11:0 
1 1:0.3469152 2:0.35897436 3:0.53333333 4:0 5:0 6:0 7:0 8:1 9:1 10:1 11:1 
1 1:1 2:1 3:1 4:0 5:0 6:0 7:1 8:0.72268908 9:0.85714286 10:1 11:1 
1 1:0.95454545 2:0.93333333 3:0.88888889 4:0 5:0 6:0 7:0 8:0.85714286 9:1 10:1 11:1 
1 1:0.95454545 2:0.93333333 3:0.88888889 4:0 5:0 6:0 7:0 8:0.78980892 9:0.9375 10:1 11:1 
1 1:0.77272727 2:0.66666667 3:0.75 4:0 5:0 6:0 7:0 8:1 9:1 10:1 11:1 
1 1:1 2:1 3:1 4:0 5:0 6:0 7:0 8:1 9:1 10:1 11:1 
1 1:0.95454545 2:0.93333333 3:0.88888889 4:0 5:0 6:1 7:1 8:0.7079646 9:0.71428571 10:1 11:1 
1 1:0.93181818 2:0.90909091 3:0.82352941 4:0 5:0 6:1 7:1 8:0 9:0 10:1 11:1 
