svm_type c_svc
kernel_type linear
nr_class 2
total_sv 102
rho 4.09903
label 1 0
probA -3.08106
probB 1.07788
nr_sv 51 51
SV
1 1:0.33333333 2:0.71755725 3:1 4:0.5 5:0 6:0 
1 1:0.13565891 2:0.71317829 3:1 4:0.18032787 5:0 6:0 
1 1:0 2:0 3:0 4:0 5:0 6:0.64705882 
1 1:0.045801527 2:0.76190476 3:1 4:0.076923077 5:0 6:0.75 
1 1:0.014388489 2:0.049586777 3:1 4:0.051282051 5:0.5 6:0 
1 1:0.65853659 2:1 3:0 4:0.66666667 5:0 6:0 
0.2576716247693345 1:0 2:0 3:1 4:0 5:0.66666667 6:0 
1 1:0 2:0 3:1 4:0 5:0.66666667 6:0 
1 1:0.65359477 2:0.74193548 3:0 4:0.57894737 5:0 6:1 
1 1:0.27555556 2:0.63461538 3:1 4:0.31034483 5:0 6:0.75 
1 1:0 2:0 3:1 4:0 5:0.66666667 6:0 
1 1:0 2:0 3:1 4:0 5:0.66666667 6:0 
1 1:0 2:0 3:1 4:0 5:0 6:0 
1 1:0 2:0 3:1 4:0 5:0.66666667 6:0 
1 1:0 2:0 3:1 4:0 5:0.66666667 6:0 
1 1:0 2:0 3:1 4:0 5:0.66666667 6:0 
1 1:0.2 2:0.66666667 3:1 4:0.24657534 5:0 6:0 
1 1:0.43356643 2:0 3:1 4:0.375 5:0 6:0 
1 1:0 2:0 3:0 4:0 5:0 6:0 
1 1:0 2:0 3:1 4:0 5:0.66666667 6:0 
1 1:0 2:0 3:1 4:0 5:0.66666667 6:0 
1 1:0.22568093 2:0.70383275 3:1 4:0.29411765 5:0 6:1 
1 1:0 2:0 3:1 4:0 5:0.66666667 6:0 
1 1:0.37762238 2:0.55967078 3:1 4:0.5 5:0 6:0.75 
1 1:0.13675214 2:0 3:1 4:0.086956522 5:0 6:0.75 
1 1:0 2:0 3:1 4:0 5:0.66666667 6:0 
1 1:0.3454039 2:0.67123288 3:1 4:0.4137931 5:0 6:0 
1 1:0 2:0 3:1 4:0 5:0.66666667 6:0 
0.1309234542648252 1:0.074626866 2:0.81481481 3:1 4:0.071005917 5:0 6:1 
1 1:0 2:0 3:1 4:0 5:0.66666667 6:0 
1 1:0.16035635 2:0.72625698 3:1 4:0.17857143 5:0 6:0.92857143 
1 1:0 2:0 3:1 4:0 5:0.66666667 6:0 
1 1:0 2:0 3:1 4:0 5:0.66666667 6:0 
1 1:0 2:0 3:1 4:0 5:0.66666667 6:0 
1 1:0 2:0 3:1 4:0 5:0.66666667 6:0 
1 1:0 2:0 3:1 4:0 5:0.66666667 6:0 
1 1:0.34782609 2:0.765625 3:0 4:0.36893204 5:0 6:1 
1 1:0 2:0 3:1 4:0 5:0.66666667 6:0 
1 1:0.25 2:0.71090047 3:1 4:0.28571429 5:0 6:0.75 
1 1:0.11666667 2:0.0625 3:1 4:0.14814815 5:0.5 6:0 
1 1:0 2:0 3:1 4:0 5:0.66666667 6:0 
1 1:0.38709677 2:0.71428571 3:0 4:0.39285714 5:0 6:0 
1 1:0 2:0 3:1 4:0 5:0.66666667 6:0 
1 1:0.58389262 2:1 3:0 4:0.52941176 5:0 6:0 
1 1:0 2:0 3:1 4:0 5:0.66666667 6:0 
1 1:0 2:0 3:1 4:0 5:0.66666667 6:0 
1 1:0.062111801 2:0.5988024 3:1 4:0.057142857 5:0 6:0.5 
1 1:0.09375 2:0.66666667 3:1 4:0.15384615 5:0 6:0.75 
1 1:0.63874346 2:0.72839506 3:0 4:0.63414634 5:0 6:0 
1 1:0.070175439 2:0 3:1 4:0.15384615 5:0 6:1 
0.9971893183846648 1:0 2:0 3:1 4:0 5:0.66666667 6:0 
-1 1:0.101983 2:0.10945274 3:0 4:0.1443299 5:0.66666667 6:0.54545455 
-1 1:0.074349442 2:0.26728111 3:1 4:0.085714286 5:0 6:0 
-1 1:0 2:0.20879121 3:0 4:0.125 5:0.66666667 6:0 
-1 1:0.016 2:0.035087719 3:1 4:0.27586207 5:0.66666667 6:0 
-1 1:0.06779661 2:0.17721519 3:0 4:0.2 5:0.66666667 6:0 
-1 1:0.097142857 2:0.2010582 3:1 4:0.19148936 5:0 6:0.94444444 
-1 1:0.10344828 2:0.24242424 3:1 4:0.18181818 5:0 6:0 
-1 1:0.092105263 2:0.19310345 3:1 4:0.15 5:0 6:0.5 
-1 1:0.11083123 2:0.1719457 3:1 4:0.11904762 5:0 6:0.75 
-1 1:0.018018018 2:0.17218543 3:1 4:0.24 5:0.66666667 6:0.61538462 
-1 1:0.12280702 2:0.15936255 3:1 4:0.16666667 5:0 6:0.28571429 
-1 1:0.048780488 2:0.26 3:0 4:0.18181818 5:0.66666667 6:0 
-1 1:0.065116279 2:0.2320442 3:1 4:0.2 5:0 6:0.625 
-1 1:0.037558685 2:0.045977011 3:1 4:0.25 5:0.5 6:0 
-1 1:0.056872038 2:0.34224599 3:1 4:0.18604651 5:0 6:0 
-1 1:0.037914692 2:0.28368794 3:1 4:0.18604651 5:0 6:0 
-1 1:0.070175439 2:0.14117647 3:1 4:0.19354839 5:0.66666667 6:0 
-1 1:0.125 2:0.31147541 3:1 4:0.10526316 5:0 6:0 
-1 1:0.043478261 2:0.25490196 3:1 4:0.16666667 5:0 6:0.125 
-1 1:0.015384615 2:0.14054054 3:0 4:0.066666667 5:0.66666667 6:0.38888889 
-1 1:0.038834951 2:0.37777778 3:1 4:0.27586207 5:0 6:0.625 
-1 1:0.012820513 2:0.18487395 3:0 4:0.14814815 5:0.66666667 6:0 
-1 1:0.10666667 2:0.19123506 3:1 4:0.21428571 5:0 6:0.66666667 
-1 1:0.033333333 2:0.32941176 3:1 4:0.13333333 5:0 6:0 
-1 1:0.11167513 2:0.14814815 3:0 4:0.32653061 5:0.66666667 6:0 
-0.3742312870359536 1:0.024590164 2:0.11180124 3:0 4:0.037037037 5:0.66666667 6:0 
-1 1:0 2:0.23188406 3:1 4:0 5:0 6:0.5 
-0.8119643281784006 1:0.15037594 2:0.16326531 3:1 4:0.27777778 5:0 6:0.5 
-1 1:0.11034483 2:0.095652174 3:1 4:0.33333333 5:0.5 6:0 
-1 1:0.12727273 2:0.38028169 3:1 4:0.25641026 5:0 6:0 
-1 1:0 2:0.2688172 3:1 4:0 5:0 6:0.25 
-1 1:0.033573141 2:0.25471698 3:1 4:0.074468085 5:0 6:0.16666667 
-1 1:0 2:0.14117647 3:0 4:0 5:0.66666667 6:0 
-1 1:0.050314465 2:0.2189781 3:1 4:0.085714286 5:0 6:0 
-1 1:0.017977528 2:0.14473684 3:0 4:0.018518519 5:0.66666667 6:0 
-1 1:0.020618557 2:0.24615385 3:1 4:0.18181818 5:0.66666667 6:0 
-1 1:0.083333333 2:0.30357143 3:1 4:0.3125 5:0 6:0 
-1 1:0.10204082 2:0.18947368 3:1 4:0.16666667 5:0 6:0.25 
-1 1:0.090909091 2:0.19672131 3:1 4:0.1509434 5:0 6:0.5 
-0.6737048489481968 1:0 2:0.24137931 3:1 4:0 5:0 6:0 
-0.7229810494201682 1:0.024691358 2:0.31213873 3:1 4:0.25 5:0 6:0 
-1 1:0.13186813 2:0.17142857 3:0 4:0.26086957 5:0.66666667 6:0 
-1 1:0.087954111 2:0.21428571 3:1 4:0.21374046 5:0 6:1 
-1 1:0.023148148 2:0.054054054 3:1 4:0.036697248 5:0.66666667 6:0 
-1 1:0.016949153 2:0.2 3:1 4:0.21428571 5:0.66666667 6:0 
-1 1:0.033149171 2:0.27096774 3:1 4:0.17777778 5:0 6:1 
-1 1:0.055865922 2:0.27777778 3:1 4:0.12244898 5:0 6:0.25 
-1 1:0.1294964 2:0.23770492 3:1 4:0.27586207 5:0 6:0 
-0.8029028838361054 1:0.20869565 2:0.11356467 3:1 4:0.29411765 5:0 6:0.25 
-1 1:0.074074074 2:0.13043478 3:1 4:0.2 5:0.5 6:0 
-1 1:0.069400631 2:0.2345679 3:1 4:0.12307692 5:0 6:0 
