svm_type c_svc
kernel_type linear
nr_class 2
total_sv 25608
rho -2.4967
label 0 1
probA -1.43072
probB -0.223291
nr_sv 12794 12814
SV
1 1:0.88636364 2:0.75 3:0.66666667 4:1 5:1 6:0 7:1 8:0.75438596 9:1 10:1 11:1 
1 1:0.88636364 2:0.75 3:0.66666667 4:1 5:1 6:0 7:1 8:0.75438596 9:1 10:1 11:1 
1 1:0.88636364 2:0.75 3:0.66666667 4:1 5:1 6:0 7:1 8:0.75438596 9:1 10:1 11:1 
1 1:0.88636364 2:0.75 3:0.66666667 4:1 5:1 6:0 7:1 8:0.75438596 9:1 10:1 11:1 
1 1:0.3469152 2:0.35897436 3:0.53333333 4:0 5:0 6:0 7:0.54166667 8:0.94252874 9:0.83333333 10:1 11:1 
1 1:0.3469152 2:0.35897436 3:0.53333333 4:0 5:0 6:0 7:0.54166667 8:0.94252874 9:0.83333333 10:1 11:1 
1 1:0.93516978 2:0.86956522 3:0.77777778 4:0 5:0 6:0 7:0.53846154 8:0.49101796 9:0.5 10:1 11:1 
1 1:0.92307692 2:0.79245283 3:0.83333333 4:1 5:1 6:0 7:1 8:0.75438596 9:1 10:1 11:1 
1 1:0.92307692 2:0.79245283 3:0.83333333 4:1 5:1 6:0 7:1 8:0.75438596 9:1 10:1 11:1 
1 1:0.92307692 2:0.79245283 3:0.83333333 4:1 5:1 6:0 7:1 8:0.75438596 9:1 10:1 11:1 
1 1:0.92307692 2:0.79245283 3:0.83333333 4:1 5:1 6:0 7:1 8:0.75438596 9:1 10:1 11:1 
1 1:0.92307692 2:0.79245283 3:0.83333333 4:1 5:1 6:0 7:1 8:0.75438596 9:1 10:1 11:1 
1 1:0.92307692 2:0.79245283 3:0.83333333 4:1 5:1 6:0 7:1 8:0.75438596 9:1 10:1 11:1 
1 1:0.92307692 2:0.79245283 3:0.83333333 4:1 5:1 6:0 7:1 8:0.75438596 9:1 10:1 11:1 
1 1:0.92307692 2:0.79245283 3:0.83333333 4:1 5:1 6:0 7:1 8:0.75438596 9:1 10:1 11:1 
1 1:0.92307692 2:0.79245283 3:0.83333333 4:1 5:1 6:0 7:1 8:0.75438596 9:1 10:1 11:1 
1 1:0.92307692 2:0.79245283 3:0.83333333 4:1 5:1 6:0 7:1 8:0.75438596 9:1 10:1 11:1 
1 1:0.92307692 2:0.79245283 3:0.83333333 4:1 5:1 6:0 7:1 8:0.75438596 9:1 10:1 11:1 
1 1:0.92307692 2:0.79245283 3:0.83333333 4:1 5:1 6:0 7:1 8:0.75438596 9:1 10:1 11:1 
1 1:0.92307692 2:0.79245283 3:0.83333333 4:1 5:1 6:0 7:1 8:0.75438596 9:1 10:1 11:1 
1 1:0.92307692 2:0.79245283 3:0.83333333 4:1 5:1 6:0 7:1 8:0.75438596 9:1 10:1 11:1 
1 1:0.78125 2:0.59649123 3:0.5 4:1 5:1 6:0 7:1 8:0 9:0 10:1 11:1 
1 1:0.78125 2:0.59649123 3:0.5 4:1 5:1 6:0 7:1 8:0 9:0 10:1 11:1 
1 1:0.78125 2:0.59649123 3:0.5 4:1 5:1 6:0 7:1 8:0 9:0 10:1 11:1 
1 1:0.78125 2:0.59649123 3:0.5 4:1 5:1 6:0 7:1 8:0 9:0 10:1 11:1 
1 1:0.78125 2:0.59649123 3:0.5 4:1 5:1 6:0 7:1 8:0 9:0 10:1 11:1 
1 1:0.78125 2:0.59649123 3:0.5 4:1 5:1 6:0 7:1 8:0 9:0 10:1 11:1 
1 1:0.78125 2:0.59649123 3:0.5 4:1 5:1 6:0 7:1 8:0 9:0 10:1 11:1 
1 1:0.78125 2:0.59649123 3:0.5 4:1 5:1 6:0 7:1 8:0 9:0 10:1 11:1 
1 1:0.78125 2:0.59649123 3:0.5 4:1 5:1 6:0 7:1 8:0 9:0 10:1 11:1 
1 1:0.78125 2:0.59649123 3:0.5 4:1 5:1 6:0 7:1 8:0 9:0 10:1 11:1 
1 1:0.78125 2:0.59649123 3:0.5 4:1 5:1 6:0 7:1 8:0 9:0 10:1 11:1 
1 1:0.78125 2:0.59649123 3:0.5 4:1 5:1 6:0 7:1 8:0 9:0 10:1 11:1 
1 1:0.78125 2:0.59649123 3:0.5 4:1 5:1 6:0 7:1 8:0 9:0 10:1 11:1 
1 1:0.78125 2:0.59649123 3:0.5 4:1 5:1 6:0 7:1 8:0 9:0 10:1 11:1 
1 1:0.78125 2:0.59649123 3:0.5 4:1 5:1 6:0 7:1 8:0 9:0 10:1 11:1 
1 1:0.78125 2:0.59649123 3:0.5 4:1 5:1 6:0 7:1 8:0 9:0 10:1 11:1 
1 1:0.78125 2:0.59649123 3:0.5 4:1 5:1 6:0 7:1 8:0 9:0 10:1 11:1 
1 1:0.78125 2:0.59649123 3:0.5 4:1 5:1 6:0 7:1 8:0 9:0 10:1 11:1 
1 1:0.78125 2:0.59649123 3:0.5 4:1 5:1 6:0 7:1 8:0 9:0 10:1 11:1 
1 1:0.78125 2:0.59649123 3:0.5 4:1 5:1 6:0 7:1 8:0 9:0 10:1 11:1 
1 1:0.78125 2:0.59649123 3:0.5 4:1 5:1 6:0 7:1 8:0 9:0 10:1 11:1 
1 1:0.78125 2:0.59649123 3:0.5 4:1 5:1 6:0 7:1 8:0 9:0 10:1 11:1 
1 1:0.78125 2:0.59649123 3:0.5 4:1 5:1 6:0 7:1 8:0 9:0 10:1 11:1 
1 1:0.78125 2:0.59649123 3:0.5 4:1 5:1 6:0 7:1 8:0 9:0 10:1 11:1 
1 1:0.78125 2:0.59649123 3:0.5 4:1 5:1 6:0 7:1 8:0 9:0 10:1 11:1 
1 1:0.78125 2:0.59649123 3:0.5 4:1 5:1 6:0 7:1 8:0 9:0 10:1 11:1 
1 1:0.78125 2:0.59649123 3:0.5 4:1 5:1 6:0 7:1 8:0 9:0 10:1 11:1 
1 1:0.78125 2:0.59649123 3:0.5 4:1 5:1 6:0 7:1 8:0 9:0 10:1 11:1 
1 1:0.78125 2:0.59649123 3:0.5 4:1 5:1 6:0 7:1 8:0 9:0 10:1 11:1 
1 1:0.53343919 2:0.4 3:0.54545455 4:0 5:0 6:0 7:0 8:0.53543307 9:0.85714286 10:0 11:0 
1 1:0.63333333 2:0.38095238 3:0.5 4:0 5:0 6:0.33333333 7:0.70588235 8:0.625 9:0.63636364 10:0 11:1 
1 1:1 2:1 3:1 4:0 5:0 6:0 7:1 8:0.91489362 9:1 10:1 11:1 
1 1:1 2:1 3:1 4:0 5:0 6:0 7:1 8:0.91489362 9:1 10:1 11:1 
1 1:1 2:1 3:1 4:0 5:0 6:0 7:1 8:0.91489362 9:1 10:1 11:1 
1 1:1 2:1 3:1 4:0 5:0 6:0 7:1 8:0.91489362 9:1 10:1 11:1 
1 1:1 2:1 3:1 4:0 5:0 6:0 7:1 8:0.91489362 9:1 10:1 11:1 
1 1:1 2:1 3:1 4:0 5:0 6:0 7:1 8:0.91489362 9:1 10:1 11:1 
1 1:1 2:1 3:1 4:0 5:0 6:0 7:1 8:0.91489362 9:1 10:1 11:1 
1 1:1 2:1 3:1 4:0 5:0 6:0 7:1 8:0.91489362 9:1 10:1 11:1 
1 1:1 2:1 3:1 4:0 5:0 6:0 7:1 8:0.91489362 9:1 10:1 11:1 
1 1:1 2:1 3:1 4:0 5:0 6:0 7:1 8:0.91489362 9:1 10:1 11:1 
1 1:1 2:1 3:1 4:0 5:0 6:0 7:1 8:0.91489362 9:1 10:1 11:1 
1 1:1 2:1 3:1 4:0 5:0 6:0 7:1 8:0.91489362 9:1 10:1 11:1 
1 1:1 2:1 3:1 4:0 5:0 6:0 7:1 8:0.91489362 9:1 10:1 11:1 
1 1:1 2:1 3:1 4:0 5:0 6:0 7:1 8:0.91489362 9:1 10:1 11:1 
1 1:1 2:1 3:1 4:0 5:0 6:0 7:0.55555556 8:0.55483871 9:1 10:1 11:1 
1 1:1 2:0.89361702 3:1 4:0 5:0 6:0 7:0 8:0.89177489 9:0.8 10:1 11:1 
1 1:0.7521342 2:0.27777778 3:0.46153846 4:0 5:0 6:0 7:0 8:0.5443038 9:0.5 10:1 11:1 
1 1:1 2:1 3:1 4:0 5:0 6:0 7:0 8:0.62318841 9:1 10:1 11:1 
1 1:1 2:1 3:1 4:0 5:0 6:0 7:0 8:0.62318841 9:1 10:1 11:1 
1 1:1 2:1 3:1 4:0 5:0 6:0 7:0 8:0.62318841 9:1 10:1 11:1 
1 1:0.60553841 2:0.62068966 3:0.78571429 4:0 5:0 6:0 7:0.71875 8:0.65306122 9:0.83333333 10:0 11:0 
1 1:0.60553841 2:0.62068966 3:0.78571429 4:0 5:0 6:0 7:0.71875 8:0.65306122 9:0.83333333 10:0 11:0 
1 1:0.60553841 2:0.62068966 3:0.78571429 4:0 5:0 6:0 7:0.71875 8:0.65306122 9:0.83333333 10:0 11:0 
1 1:0.60553841 2:0.62068966 3:0.78571429 4:0 5:0 6:0 7:0.71875 8:0.65306122 9:0.83333333 10:0 11:0 
1 1:0.60553841 2:0.62068966 3:0.78571429 4:0 5:0 6:0 7:0.71875 8:0.65306122 9:0.83333333 10:0 11:0 
1 1:1 2:1 3:1 4:0 5:0 6:0 7:0 8:0.59310345 9:1 10:1 11:1 
1 1:1 2:1 3:1 4:0 5:0 6:0 7:0 8:0.59310345 9:1 10:1 11:1 
1 1:1 2:1 3:1 4:0 5:0 6:0 7:0 8:0.59310345 9:1 10:1 11:1 
1 1:1 2:1 3:1 4:0 5:0 6:0 7:0 8:0.59310345 9:1 10:1 11:1 
1 1:0.74308599 2:0.27027027 3:0.57142857 4:0 5:0 6:0 7:0.67857143 8:0.087912088 9:0 10:1 11:1 
1 1:0.74308599 2:0.27027027 3:0.57142857 4:0 5:0 6:0 7:0.67857143 8:0.087912088 9:0 10:1 11:1 
1 1:0.74308599 2:0.27027027 3:0.57142857 4:0 5:0 6:0 7:0.67857143 8:0.087912088 9:0 10:1 11:1 
1 1:0.74308599 2:0.27027027 3:0.57142857 4:0 5:0 6:0 7:0.67857143 8:0.087912088 9:0 10:1 11:1 
1 1:0.58823529 2:0.10526316 3:0.18181818 4:1 5:1 6:0 7:0 8:0.68613139 9:1 10:1 11:1 
1 1:0.58823529 2:0.10526316 3:0.18181818 4:1 5:1 6:0 7:0 8:0.68613139 9:1 10:1 11:1 
1 1:1 2:1 3:1 4:0 5:0 6:0 7:0.98076923 8:0.53416149 9:1 10:0 11:0 
1 1:0.65014455 2:0.060606061 3:0.47058824 4:1 5:1 6:0 7:1 8:1 9:1 10:1 11:1 
1 1:0.65014455 2:0.060606061 3:0.47058824 4:1 5:1 6:0 7:1 8:1 9:1 10:1 11:1 
1 1:0.5614795 2:0.38888889 3:0.9 4:1 5:1 6:0 7:0 8:0 9:0 10:1 11:1 
1 1:1 2:1 3:1 4:0 5:0 6:0.076923077 7:0.44594595 8:0.98850575 9:1 10:1 11:1 
1 1:0.91666667 2:0.9 3:0.8 4:0 5:0 6:0 7:0.55882353 8:0.62992126 9:0.63636364 10:1 11:1 
1 1:0.27591516 2:0.43636364 3:0.58333333 4:0 5:0 6:1 7:1 8:0.18181818 9:0.2 10:1 11:1 
1 1:0.90909091 2:0.84210526 3:0.8 4:0 5:0 6:0 7:0.43636364 8:0.56756757 9:0.8 10:1 11:1 
1 1:0.90909091 2:0.84210526 3:0.8 4:0 5:0 6:0 7:0.43636364 8:0.56756757 9:0.8 10:1 11:1 
1 1:0.90909091 2:0.84210526 3:0.8 4:0 5:0 6:0 7:0.43636364 8:0.56756757 9:0.8 10:1 11:1 
1 1:0.90909091 2:0.84210526 3:0.8 4:0 5:0 6:0 7:0.43636364 8:0.56756757 9:0.8 10:1 11:1 
1 1:0.90909091 2:0.84210526 3:0.8 4:0 5:0 6:0 7:0.43636364 8:0.56756757 9:0.8 10:1 11:1 
1 1:0.90909091 2:0.84210526 3:0.8 4:0 5:0 6:0 7:0.43636364 8:0.56756757 9:0.8 10:1 11:1 
1 1:0.90909091 2:0.84210526 3:0.8 4:0 5:0 6:0 7:0.43636364 8:0.56756757 9:0.8 10:1 11:1 
1 1:0.90909091 2:0.84210526 3:0.8 4:0 5:0 6:0 7:0.43636364 8:0.56756757 9:0.8 10:1 11:1 
1 1:0.90909091 2:0.84210526 3:0.8 4:0 5:0 6:0 7:0.43636364 8:0.56756757 9:0.8 10:1 11:1 
1 1:0.90909091 2:0.84210526 3:0.8 4:0 5:0 6:0 7:0.43636364 8:0.56756757 9:0.8 10:1 11:1 
1 1:0.90909091 2:0.84210526 3:0.8 4:0 5:0 6:0 7:0.43636364 8:0.56756757 9:0.8 10:1 11:1 
1 1:0.90909091 2:0.84210526 3:0.8 4:0 5:0 6:0 7:0.43636364 8:0.56756757 9:0.8 10:1 11:1 
1 1:0.925 2:0.78947368 3:0.76923077 4:0 5:0 6:0 7:0 8:0.85840708 9:0.93333333 10:1 11:1 
1 1:0.925 2:0.78947368 3:0.76923077 4:0 5:0 6:0 7:0 8:0.85840708 9:0.93333333 10:1 11:1 
1 1:0.7808658 2:0.64615385 3:0.7826087 4:0 5:0 6:0 7:0 8:0.6013986 9:0.85714286 10:0 11:0 
1 1:0.7808658 2:0.64615385 3:0.7826087 4:0 5:0 6:0 7:0 8:0.6013986 9:0.85714286 10:0 11:0 
1 1:0.95454545 2:0.90909091 3:0.88888889 4:0 5:0 6:0 7:0.63333333 8:0.5308642 9:1 10:1 11:1 
1 1:0.95454545 2:0.90909091 3:0.88888889 4:0 5:0 6:0 7:0.63333333 8:0.5308642 9:1 10:1 11:1 
1 1:0.73333333 2:0.5 3:0.33333333 4:0 5:0 6:0 7:0.66666667 8:0.46875 9:0.81818182 10:1 11:1 
1 1:0.73333333 2:0.5 3:0.33333333 4:0 5:0 6:0 7:0.66666667 8:0.46875 9:0.81818182 10:1 11:1 
1 1:0.73333333 2:0.5 3:0.33333333 4:0 5:0 6:0 7:0.66666667 8:0.46875 9:0.81818182 10:1 11:1 
1 1:0.73333333 2:0.5 3:0.33333333 4:0 5:0 6:0 7:0.66666667 8:0.46875 9:0.81818182 10:1 11:1 
1 1:0.95454545 2:0.90909091 3:0.88888889 4:0 5:0 6:0 7:0 8:0.48684211 9:0.54545455 10:1 11:1 
1 1:0.76878664 2:0.52941176 3:0.71428571 4:0 5:0 6:0 7:0 8:0.62135922 9:0.71428571 10:0 11:0 
1 1:0.95454545 2:0.93333333 3:0.88888889 4:0 5:0 6:0 7:0 8:0.44303797 9:0.83333333 10:0 11:0 
1 1:0.95454545 2:0.93333333 3:0.88888889 4:0 5:0 6:0 7:0 8:0.44303797 9:0.83333333 10:0 11:0 
1 1:0.546875 2:0.051282051 3:0.10526316 4:1 5:1 6:1 7:1 8:0.92063492 9:0.66666667 10:1 11:1 
1 1:0.546875 2:0.051282051 3:0.10526316 4:1 5:1 6:1 7:1 8:0.92063492 9:0.66666667 10:1 11:1 
1 1:0.546875 2:0.051282051 3:0.10526316 4:1 5:1 6:1 7:1 8:0.92063492 9:0.66666667 10:1 11:1 
1 1:0 2:0 3:0 4:0 5:0 6:0 7:0 8:0.4137931 9:0.38888889 10:1 11:1 
1 1:0.7972973 2:0.73015873 3:0.86956522 4:0 5:0 6:0 7:0.6122449 8:1 9:1 10:0 11:0 
1 1:0.7972973 2:0.73015873 3:0.86956522 4:0 5:0 6:0 7:0.6122449 8:1 9:1 10:0 11:0 
1 1:0.48525946 2:0.2173913 3:0.35294118 4:0.66666667 5:1 6:0 7:1 8:0.65151515 9:1 10:0 11:1 
1 1:0.48525946 2:0.2173913 3:0.35294118 4:0.66666667 5:1 6:0 7:1 8:0.65151515 9:1 10:0 11:1 
1 1:0.6761457 2:0.064516129 3:0.5 4:1 5:1 6:1 7:1 8:1 9:1 10:1 11:1 
1 1:0.6761457 2:0.064516129 3:0.5 4:1 5:1 6:1 7:1 8:1 9:1 10:1 11:1 
1 1:0.6761457 2:0.064516129 3:0.5 4:1 5:1 6:1 7:1 8:1 9:1 10:1 11:1 
1 1:0.6761457 2:0.064516129 3:0.5 4:1 5:1 6:1 7:1 8:1 9:1 10:1 11:1 
1 1:0.6761457 2:0.064516129 3:0.5 4:1 5:1 6:1 7:1 8:1 9:1 10:1 11:1 
1 1:0.6761457 2:0.064516129 3:0.5 4:1 5:1 6:1 7:1 8:1 9:1 10:1 11:1 
1 1:0.6761457 2:0.064516129 3:0.5 4:1 5:1 6:1 7:1 8:1 9:1 10:1 11:1 
1 1:0.6761457 2:0.064516129 3:0.5 4:1 5:1 6:1 7:1 8:1 9:1 10:1 11:1 
1 1:0.73020588 2:0.30769231 3:0.53333333 4:0 5:0 6:0 7:0 8:0.53254438 9:0.4375 10:1 11:1 
1 1:0.91666667 2:0.875 3:0.8 4:1 5:1 6:0 7:1 8:0.77477477 9:1 10:0 11:0 
1 1:0.611504 2:0.28571429 3:0.4 4:0.5 5:0.5 6:0 7:0.95555556 8:0.55696203 9:0.44444444 10:1 11:1 
1 1:0.611504 2:0.28571429 3:0.4 4:0.5 5:0.5 6:0 7:0.95555556 8:0.55696203 9:0.44444444 10:1 11:1 
1 1:0.611504 2:0.28571429 3:0.4 4:0.5 5:0.5 6:0 7:0.95555556 8:0.55696203 9:0.44444444 10:1 11:1 
1 1:1 2:1 3:1 4:0 5:0 6:0 7:0 8:0.44303797 9:0.83333333 10:1 11:1 
1 1:0.49314743 2:0.31111111 3:0.57142857 4:0 5:0 6:0 7:1 8:0.77108434 9:1 10:1 11:1 
1 1:0.52662952 2:0.24175824 3:0.43243243 4:0 5:0 6:0 7:0 8:0.1981982 9:0.16666667 10:1 11:1 
1 1:0.52662952 2:0.24175824 3:0.43243243 4:0 5:0 6:0 7:0 8:0.1981982 9:0.16666667 10:1 11:1 
1 1:0.95454545 2:0.93333333 3:0.88888889 4:0 5:0 6:0 7:1 8:0.44303797 9:0.83333333 10:0 11:0 
1 1:0.96333554 2:0.88311688 3:0.93333333 4:0.66666667 5:1 6:0 7:0.92 8:1 9:1 10:1 11:0.5 
1 1:0.96333554 2:0.88311688 3:0.93333333 4:0.66666667 5:1 6:0 7:0.92 8:1 9:1 10:1 11:0.5 
1 1:0.96333554 2:0.88311688 3:0.93333333 4:0.66666667 5:1 6:0 7:0.92 8:1 9:1 10:1 11:0.5 
1 1:0.79166667 2:0.625 3:0.28571429 4:0 5:0 6:0 7:0 8:0.45977011 9:0.47368421 10:0 11:1 
1 1:0.62846386 2:0.38461538 3:0.72727273 4:0 5:0 6:0 7:0.5625 8:0.528 9:0.71428571 10:0 11:0 
1 1:0.62846386 2:0.38461538 3:0.72727273 4:0 5:0 6:0 7:0.5625 8:0.528 9:0.71428571 10:0 11:0 
1 1:0.62846386 2:0.38461538 3:0.72727273 4:0 5:0 6:0 7:0.5625 8:0.528 9:0.71428571 10:0 11:0 
1 1:0.37159736 2:0.087248322 3:0.1509434 4:0 5:0 6:0 7:0 8:0.39784946 9:0.55555556 10:1 11:1 
1 1:0.37159736 2:0.087248322 3:0.1509434 4:0 5:0 6:0 7:0 8:0.39784946 9:0.55555556 10:1 11:1 
1 1:0.67127804 2:0.3880597 3:0.47619048 4:0 5:0 6:0 7:0.98076923 8:0 9:0 10:1 11:1 
1 1:0.67127804 2:0.3880597 3:0.47619048 4:0 5:0 6:0 7:0.98076923 8:0 9:0 10:1 11:1 
1 1:0.7037037 2:0.41025641 3:0.8 4:0 5:0 6:0 7:0.46153846 8:0.41818182 9:0.8 10:1 11:1 
1 1:0.7037037 2:0.41025641 3:0.8 4:0 5:0 6:0 7:0.46153846 8:0.41818182 9:0.8 10:1 11:1 
1 1:0.7037037 2:0.41025641 3:0.8 4:0 5:0 6:0 7:0.46153846 8:0.41818182 9:0.8 10:1 11:1 
1 1:0.7037037 2:0.41025641 3:0.8 4:0 5:0 6:0 7:0.46153846 8:0.41818182 9:0.8 10:1 11:1 
1 1:0.7037037 2:0.41025641 3:0.8 4:0 5:0 6:0 7:0.46153846 8:0.41818182 9:0.8 10:1 11:1 
1 1:0.7037037 2:0.41025641 3:0.8 4:0 5:0 6:0 7:0.46153846 8:0.41818182 9:0.8 10:1 11:1 
1 1:0.7152636 2:0.34482759 3:0.28571429 4:0 5:0 6:1 7:1 8:0.84536082 9:0.875 10:1 11:1 
1 1:0.7152636 2:0.34482759 3:0.28571429 4:0 5:0 6:1 7:1 8:0.84536082 9:0.875 10:1 11:1 
1 1:0.7152636 2:0.34482759 3:0.28571429 4:0 5:0 6:1 7:1 8:0.84536082 9:0.875 10:1 11:1 
1 1:1 2:1 3:1 4:1 5:1 6:0 7:1 8:1 9:1 10:0 11:0 
1 1:1 2:1 3:1 4:1 5:1 6:0 7:1 8:1 9:1 10:0 11:0 
1 1:1 2:1 3:1 4:1 5:1 6:0 7:1 8:1 9:1 10:0 11:0 
1 1:1 2:1 3:1 4:1 5:1 6:0 7:1 8:1 9:1 10:0 11:0 
1 1:1 2:1 3:1 4:1 5:1 6:0 7:1 8:1 9:1 10:0 11:0 
1 1:1 2:1 3:1 4:1 5:1 6:0 7:1 8:1 9:1 10:0 11:0 
1 1:1 2:1 3:1 4:1 5:1 6:0 7:1 8:1 9:1 10:0 11:0 
1 1:1 2:1 3:1 4:1 5:1 6:0 7:1 8:1 9:1 10:0 11:0 
1 1:1 2:1 3:1 4:1 5:1 6:0 7:1 8:1 9:1 10:0 11:0 
1 1:1 2:1 3:1 4:1 5:1 6:0 7:1 8:1 9:1 10:0 11:0 
1 1:1 2:1 3:1 4:1 5:1 6:0 7:1 8:1 9:1 10:0 11:0 
1 1:1 2:1 3:1 4:1 5:1 6:0 7:1 8:1 9:1 10:0 11:0 
1 1:1 2:1 3:1 4:1 5:1 6:0 7:1 8:1 9:1 10:0 11:0 
1 1:1 2:1 3:1 4:1 5:1 6:0 7:1 8:1 9:1 10:0 11:0 
1 1:1 2:1 3:1 4:1 5:1 6:0 7:1 8:1 9:1 10:0 11:0 
1 1:1 2:1 3:1 4:1 5:1 6:0 7:1 8:1 9:1 10:0 11:0 
1 1:1 2:1 3:1 4:1 5:1 6:0 7:1 8:1 9:1 10:0 11:0 
1 1:1 2:1 3:1 4:1 5:1 6:0 7:1 8:1 9:1 10:0 11:0 
1 1:1 2:1 3:1 4:1 5:1 6:0 7:1 8:1 9:1 10:0 11:0 
1 1:1 2:1 3:1 4:1 5:1 6:0 7:1 8:1 9:1 10:0 11:0 
1 1:1 2:1 3:1 4:1 5:1 6:0 7:1 8:1 9:1 10:0 11:0 
1 1:1 2:1 3:1 4:1 5:1 6:0 7:1 8:1 9:1 10:0 11:0 
1 1:1 2:1 3:1 4:1 5:1 6:0 7:1 8:1 9:1 10:0 11:0 
1 1:1 2:1 3:1 4:1 5:1 6:0 7:1 8:1 9:1 10:0 11:0 
1 1:1 2:1 3:1 4:1 5:1 6:0 7:1 8:1 9:1 10:0 11:0 
1 1:1 2:1 3:1 4:1 5:1 6:0 7:1 8:1 9:1 10:0 11:0 
1 1:1 2:1 3:1 4:1 5:1 6:0 7:1 8:1 9:1 10:0 11:0 
1 1:1 2:1 3:1 4:1 5:1 6:0 7:1 8:1 9:1 10:0 11:0 
1 1:1 2:1 3:1 4:1 5:1 6:0 7:1 8:1 9:1 10:0 11:0 
1 1:1 2:1 3:1 4:1 5:1 6:0 7:1 8:1 9:1 10:0 11:0 
1 1:1 2:1 3:1 4:1 5:1 6:0 7:1 8:1 9:1 10:0 11:0 
1 1:1 2:1 3:1 4:1 5:1 6:0 7:1 8:1 9:1 10:0 11:0 
1 1:1 2:1 3:1 4:1 5:1 6:0 7:1 8:1 9:1 10:0 11:0 
1 1:1 2:1 3:1 4:1 5:1 6:0 7:1 8:1 9:1 10:0 11:0 
1 1:1 2:1 3:1 4:1 5:1 6:0 7:1 8:1 9:1 10:0 11:0 
1 1:1 2:1 3:1 4:1 5:1 6:0 7:1 8:1 9:1 10:0 11:0 
1 1:1 2:1 3:1 4:1 5:1 6:0 7:1 8:1 9:1 10:0 11:0 
1 1:1 2:1 3:1 4:1 5:1 6:0 7:1 8:1 9:1 10:0 11:0 
1 1:1 2:1 3:1 4:1 5:1 6:0 7:1 8:1 9:1 10:0 11:0 
1 1:1 2:1 3:1 4:1 5:1 6:0 7:1 8:1 9:1 10:0 11:0 
1 1:1 2:1 3:1 4:1 5:1 6:0 7:1 8:1 9:1 10:0 11:0 
1 1:1 2:1 3:1 4:1 5:1 6:0 7:1 8:1 9:1 10:0 11:0 
1 1:1 2:1 3:1 4:1 5:1 6:0 7:1 8:1 9:1 10:0 11:0 
1 1:0.67946169 2:0.26086957 3:0.58823529 4:0 5:0 6:0 7:0.88235294 8:0 9:0 10:1 11:1 
1 1:0.95454545 2:0.93333333 3:0.88888889 4:0 5:0 6:0 7:0 8:0.41584158 9:0.46153846 10:1 11:1 
1 1:0.95454545 2:0.93333333 3:0.88888889 4:0 5:0 6:0 7:0 8:0.41584158 9:0.46153846 10:1 11:1 
1 1:0.50680048 2:0.27027027 3:0.57142857 4:0 5:0 6:0 7:0.67647059 8:0.1928934 9:0.23076923 10:1 11:1 
1 1:0.79592029 2:0.60606061 3:0.71428571 4:1 5:1 6:0 7:0 8:0.53892216 9:0.46666667 10:1 11:1 
1 1:0.68641981 2:0.57894737 3:0.625 4:0.66666667 5:1 6:0 7:1 8:1 9:1 10:1 11:1 
1 1:0.5625 2:0.074074074 3:0.22222222 4:0 5:0 6:1 7:1 8:1 9:1 10:1 11:1 
1 1:0.5625 2:0.074074074 3:0.22222222 4:0 5:0 6:1 7:1 8:1 9:1 10:1 11:1 
1 1:0.5625 2:0.074074074 3:0.22222222 4:0 5:0 6:1 7:1 8:1 9:1 10:1 11:1 
1 1:0.5625 2:0.074074074 3:0.22222222 4:0 5:0 6:1 7:1 8:1 9:1 10:1 11:1 
1 1:0.5625 2:0.074074074 3:0.22222222 4:0 5:0 6:1 7:1 8:1 9:1 10:1 11:1 
1 1:0.5625 2:0.074074074 3:0.22222222 4:0 5:0 6:1 7:1 8:1 9:1 10:1 11:1 
1 1:0.3134278 2:0.2 3:0.35294118 4:0 5:0 6:0 7:0 8:0.72268908 9:0.85714286 10:1 11:1 
1 1:0.3134278 2:0.2 3:0.35294118 4:0 5:0 6:0 7:0 8:0.72268908 9:0.85714286 10:1 11:1 
1 1:0.3134278 2:0.2 3:0.35294118 4:0 5:0 6:0 7:0 8:0.72268908 9:0.85714286 10:1 11:1 
1 1:0.3134278 2:0.2 3:0.35294118 4:0 5:0 6:0 7:0 8:0.72268908 9:0.85714286 10:1 11:1 
1 1:0.3134278 2:0.2 3:0.35294118 4:0 5:0 6:0 7:0 8:0.72268908 9:0.85714286 10:1 11:1 
1 1:0.3134278 2:0.2 3:0.35294118 4:0 5:0 6:0 7:0 8:0.72268908 9:0.85714286 10:1 11:1 
1 1:0.94444444 2:0.85714286 3:0.85714286 4:1 5:1 6:0 7:0 8:1 9:1 10:0 11:1 
1 1:0.76523617 2:0.26315789 3:0.66666667 4:0 5:0 6:0 7:0.61111111 8:1 9:1 10:1 11:1 
1 1:0.76523617 2:0.26315789 3:0.66666667 4:0 5:0 6:0 7:0.61111111 8:1 9:1 10:1 11:1 
1 1:1 2:0.89361702 3:1 4:1 5:1 6:0 7:0 8:0.37267081 9:0.8 10:1 11:1 
1 1:0.69150065 2:0.2962963 3:0.2 4:1 5:1 6:0 7:0.85714286 8:1 9:1 10:1 11:1 
1 1:0.74170754 2:0.65384615 3:0.66666667 4:0.66666667 5:1 6:0 7:1 8:0.75438596 9:1 10:0 11:0 
1 1:0.74170754 2:0.65384615 3:0.66666667 4:0.66666667 5:1 6:0 7:1 8:0.75438596 9:1 10:0 11:0 
1 1:0.95454545 2:0.93333333 3:0.88888889 4:0 5:0 6:0 7:0 8:0.50588235 9:1 10:0 11:0 
1 1:0.95454545 2:0.93333333 3:0.88888889 4:0 5:0 6:0 7:0 8:0.50588235 9:1 10:0 11:0 
1 1:0.76408368 2:0.65753425 3:0.81481481 4:1 5:1 6:0 7:1 8:0.47826087 9:1 10:1 11:1 
1 1:0.76408368 2:0.65753425 3:0.81481481 4:1 5:1 6:0 7:1 8:0.47826087 9:1 10:1 11:1 
1 1:1 2:1 3:1 4:0 5:0 6:0 7:0 8:0.66153846 9:1 10:0 11:0 
1 1:0.41535489 2:0.18181818 3:0.44444444 4:0 5:0 6:0 7:0.84848485 8:0.49740933 9:0.63636364 10:1 11:1 
1 1:0.39880224 2:0.11428571 3:0.30188679 4:0 5:0 6:0 7:0.7 8:0.074766355 9:0.16666667 10:1 11:1 
1 1:0.39880224 2:0.11428571 3:0.30188679 4:0 5:0 6:0 7:0.7 8:0.074766355 9:0.16666667 10:1 11:1 
1 1:0.39880224 2:0.11428571 3:0.30188679 4:0 5:0 6:0 7:0.7 8:0.074766355 9:0.16666667 10:1 11:1 
1 1:0.39880224 2:0.11428571 3:0.30188679 4:0 5:0 6:0 7:0.7 8:0.074766355 9:0.16666667 10:1 11:1 
1 1:1 2:1 3:1 4:0 5:0 6:0 7:0 8:0.79047619 9:0.92307692 10:1 11:1 
1 1:0.48645964 2:0.4047619 3:0.5625 4:0 5:0 6:0 7:0.95833333 8:0.43 9:1 10:0 11:1 
1 1:0.80389887 2:0.71186441 3:0.81818182 4:0 5:0 6:0 7:0 8:0.55128205 9:1 10:1 11:1 
1 1:0.80389887 2:0.71186441 3:0.81818182 4:0 5:0 6:0 7:0 8:0.55128205 9:1 10:1 11:1 
1 1:0.80389887 2:0.71186441 3:0.81818182 4:0 5:0 6:0 7:0 8:0.55128205 9:1 10:1 11:1 
1 1:0.88636364 2:0.73170732 3:0.66666667 4:0 5:0 6:0 7:0 8:0.54545455 9:1 10:1 11:1 
1 1:0.88636364 2:0.73170732 3:0.66666667 4:0 5:0 6:0 7:0 8:0.54545455 9:1 10:1 11:1 
1 1:0.40860812 2:0.41025641 3:0.75 4:0 5:0 6:0 7:0 8:0.17886179 9:0.4 10:1 11:1 
1 1:0.85416667 2:0.68181818 3:0.58823529 4:0 5:0 6:0 7:0.66666667 8:0.50434783 9:0.8 10:0 11:0 
1 1:0.85416667 2:0.68181818 3:0.58823529 4:0 5:0 6:0 7:0.66666667 8:0.50434783 9:0.8 10:0 11:0 
1 1:0.85416667 2:0.68181818 3:0.58823529 4:0 5:0 6:0 7:0.66666667 8:0.50434783 9:0.8 10:0 11:0 
1 1:0.85416667 2:0.68181818 3:0.58823529 4:0 5:0 6:0 7:0.66666667 8:0.50434783 9:0.8 10:0 11:0 
1 1:0.33987238 2:0.35897436 3:0.53333333 4:0 5:0 6:0 7:0 8:0.51648352 9:0.4375 10:1 11:1 
1 1:0.33987238 2:0.35897436 3:0.53333333 4:0 5:0 6:0 7:0 8:0.51648352 9:0.4375 10:1 11:1 
1 1:0.95580946 2:0.875 3:0.9 4:1 5:1 6:0 7:1 8:0.5308642 9:1 10:0 11:0 
1 1:0.95580946 2:0.875 3:0.9 4:1 5:1 6:0 7:1 8:0.5308642 9:1 10:0 11:0 
1 1:0.95580946 2:0.875 3:0.9 4:1 5:1 6:0 7:1 8:0.5308642 9:1 10:0 11:0 
1 1:0.95580946 2:0.875 3:0.9 4:1 5:1 6:0 7:1 8:0.5308642 9:1 10:0 11:0 
1 1:0.95580946 2:0.875 3:0.9 4:1 5:1 6:0 7:1 8:0.5308642 9:1 10:0 11:0 
1 1:0.95580946 2:0.875 3:0.9 4:1 5:1 6:0 7:1 8:0.5308642 9:1 10:0 11:0 
1 1:0.95580946 2:0.875 3:0.9 4:1 5:1 6:0 7:1 8:0.5308642 9:1 10:0 11:0 
1 1:0.95580946 2:0.875 3:0.9 4:1 5:1 6:0 7:1 8:0.5308642 9:1 10:0 11:0 
1 1:0.95580946 2:0.875 3:0.9 4:1 5:1 6:0 7:1 8:0.5308642 9:1 10:0 11:0 
1 1:0.88636364 2:0.75 3:0.66666667 4:1 5:1 6:0 7:0.75 8:0.59854015 9:0.83333333 10:1 11:1 
1 1:0.88636364 2:0.75 3:0.66666667 4:1 5:1 6:0 7:0.75 8:0.59854015 9:0.83333333 10:1 11:1 
1 1:0.95454545 2:0.93333333 3:0.88888889 4:0 5:0 6:0 7:0.55555556 8:0.77477477 9:1 10:1 11:1 
1 1:0.79020772 2:0.48979592 3:0.70588235 4:0 5:0 6:1 7:1 8:1 9:1 10:1 11:1 
1 1:0.79020772 2:0.48979592 3:0.70588235 4:0 5:0 6:1 7:1 8:1 9:1 10:1 11:1 
1 1:0.79020772 2:0.48979592 3:0.70588235 4:0 5:0 6:1 7:1 8:1 9:1 10:1 11:1 
1 1:0.79020772 2:0.48979592 3:0.70588235 4:0 5:0 6:1 7:1 8:1 9:1 10:1 11:1 
1 1:0.79020772 2:0.48979592 3:0.70588235 4:0 5:0 6:1 7:1 8:1 9:1 10:1 11:1 
1 1:0.79020772 2:0.48979592 3:0.70588235 4:0 5:0 6:1 7:1 8:1 9:1 10:1 11:1 
1 1:0.79020772 2:0.48979592 3:0.70588235 4:0 5:0 6:1 7:1 8:1 9:1 10:1 11:1 
1 1:0.79020772 2:0.48979592 3:0.70588235 4:0 5:0 6:1 7:1 8:1 9:1 10:1 11:1 
1 1:0.79020772 2:0.48979592 3:0.70588235 4:0 5:0 6:1 7:1 8:1 9:1 10:1 11:1 
1 1:0.79020772 2:0.48979592 3:0.70588235 4:0 5:0 6:1 7:1 8:1 9:1 10:1 11:1 
1 1:0.79020772 2:0.48979592 3:0.70588235 4:0 5:0 6:1 7:1 8:1 9:1 10:1 11:1 
1 1:0.79020772 2:0.48979592 3:0.70588235 4:0 5:0 6:1 7:1 8:1 9:1 10:1 11:1 
1 1:0.79020772 2:0.48979592 3:0.70588235 4:0 5:0 6:1 7:1 8:1 9:1 10:1 11:1 
1 1:0.79020772 2:0.48979592 3:0.70588235 4:0 5:0 6:1 7:1 8:1 9:1 10:1 11:1 
1 1:0.79020772 2:0.48979592 3:0.70588235 4:0 5:0 6:1 7:1 8:1 9:1 10:1 11:1 
1 1:0.79020772 2:0.48979592 3:0.70588235 4:0 5:0 6:1 7:1 8:1 9:1 10:1 11:1 
1 1:0.79020772 2:0.48979592 3:0.70588235 4:0 5:0 6:1 7:1 8:1 9:1 10:1 11:1 
1 1:0.79020772 2:0.48979592 3:0.70588235 4:0 5:0 6:1 7:1 8:1 9:1 10:1 11:1 
1 1:1 2:1 3:1 4:0 5:0 6:0 7:0.57692308 8:0.43617021 9:0.5 10:1 11:1 
1 1:0.65909091 2:0.34482759 3:0.18181818 4:0 5:0 6:0 7:0 8:0.8852459 9:0.84615385 10:1 11:1 
1 1:0.68372472 2:0.31578947 3:0.5 4:0.66666667 5:1 6:1 7:1 8:0.042553191 9:0.2 10:1 11:1 
1 1:0.68372472 2:0.31578947 3:0.5 4:0.66666667 5:1 6:1 7:1 8:0.042553191 9:0.2 10:1 11:1 
1 1:0.68372472 2:0.31578947 3:0.5 4:0.66666667 5:1 6:1 7:1 8:0.042553191 9:0.2 10:1 11:1 
1 1:0.68372472 2:0.31578947 3:0.5 4:0.66666667 5:1 6:1 7:1 8:0.042553191 9:0.2 10:1 11:1 
1 1:0.45662891 2:0.49122807 3:0.72727273 4:0 5:0 6:0.24 7:0.82142857 8:0.5 9:1 10:1 11:1 
1 1:0.45662891 2:0.49122807 3:0.72727273 4:0 5:0 6:0.24 7:0.82142857 8:0.5 9:1 10:1 11:1 
1 1:0.45662891 2:0.49122807 3:0.72727273 4:0 5:0 6:0.24 7:0.82142857 8:0.5 9:1 10:1 11:1 
1 1:0.45662891 2:0.49122807 3:0.72727273 4:0 5:0 6:0.24 7:0.82142857 8:0.5 9:1 10:1 11:1 
1 1:0.45662891 2:0.49122807 3:0.72727273 4:0 5:0 6:0.24 7:0.82142857 8:0.5 9:1 10:1 11:1 
1 1:0.45662891 2:0.49122807 3:0.72727273 4:0 5:0 6:0.24 7:0.82142857 8:0.5 9:1 10:1 11:1 
1 1:0.45662891 2:0.49122807 3:0.72727273 4:0 5:0 6:0.24 7:0.82142857 8:0.5 9:1 10:1 11:1 
1 1:0.45662891 2:0.49122807 3:0.72727273 4:0 5:0 6:0.24 7:0.82142857 8:0.5 9:1 10:1 11:1 
1 1:0.45662891 2:0.49122807 3:0.72727273 4:0 5:0 6:0.24 7:0.82142857 8:0.5 9:1 10:1 11:1 
1 1:0.45662891 2:0.49122807 3:0.72727273 4:0 5:0 6:0.24 7:0.82142857 8:0.5 9:1 10:1 11:1 
1 1:0.45662891 2:0.49122807 3:0.72727273 4:0 5:0 6:0.24 7:0.82142857 8:0.5 9:1 10:1 11:1 
1 1:0.45662891 2:0.49122807 3:0.72727273 4:0 5:0 6:0.24 7:0.82142857 8:0.5 9:1 10:1 11:1 
1 1:0.45662891 2:0.49122807 3:0.72727273 4:0 5:0 6:0.24 7:0.82142857 8:0.5 9:1 10:1 11:1 
1 1:0.45662891 2:0.49122807 3:0.72727273 4:0 5:0 6:0.24 7:0.82142857 8:0.5 9:1 10:1 11:1 
1 1:0.45662891 2:0.49122807 3:0.72727273 4:0 5:0 6:0.24 7:0.82142857 8:0.5 9:1 10:1 11:1 
1 1:0.45662891 2:0.49122807 3:0.72727273 4:0 5:0 6:0.24 7:0.82142857 8:0.5 9:1 10:1 11:1 
1 1:0.45662891 2:0.49122807 3:0.72727273 4:0 5:0 6:0.24 7:0.82142857 8:0.5 9:1 10:1 11:1 
1 1:0.45662891 2:0.49122807 3:0.72727273 4:0 5:0 6:0.24 7:0.82142857 8:0.5 9:1 10:1 11:1 
1 1:0.45662891 2:0.49122807 3:0.72727273 4:0 5:0 6:0.24 7:0.82142857 8:0.5 9:1 10:1 11:1 
1 1:0.45662891 2:0.49122807 3:0.72727273 4:0 5:0 6:0.24 7:0.82142857 8:0.5 9:1 10:1 11:1 
1 1:0.45662891 2:0.49122807 3:0.72727273 4:0 5:0 6:0.24 7:0.82142857 8:0.5 9:1 10:1 11:1 
1 1:0.45662891 2:0.49122807 3:0.72727273 4:0 5:0 6:0.24 7:0.82142857 8:0.5 9:1 10:1 11:1 
1 1:0.45662891 2:0.49122807 3:0.72727273 4:0 5:0 6:0.24 7:0.82142857 8:0.5 9:1 10:1 11:1 
1 1:0.45662891 2:0.49122807 3:0.72727273 4:0 5:0 6:0.24 7:0.82142857 8:0.5 9:1 10:1 11:1 
1 1:0.45662891 2:0.49122807 3:0.72727273 4:0 5:0 6:0.24 7:0.82142857 8:0.5 9:1 10:1 11:1 
1 1:0.45662891 2:0.49122807 3:0.72727273 4:0 5:0 6:0.24 7:0.82142857 8:0.5 9:1 10:1 11:1 
1 1:0.45662891 2:0.49122807 3:0.72727273 4:0 5:0 6:0.24 7:0.82142857 8:0.5 9:1 10:1 11:1 
1 1:0.45662891 2:0.49122807 3:0.72727273 4:0 5:0 6:0.24 7:0.82142857 8:0.5 9:1 10:1 11:1 
1 1:0.45662891 2:0.49122807 3:0.72727273 4:0 5:0 6:0.24 7:0.82142857 8:0.5 9:1 10:1 11:1 
1 1:0.45662891 2:0.49122807 3:0.72727273 4:0 5:0 6:0.24 7:0.82142857 8:0.5 9:1 10:1 11:1 
1 1:0.45662891 2:0.49122807 3:0.72727273 4:0 5:0 6:0.24 7:0.82142857 8:0.5 9:1 10:1 11:1 
1 1:0.45662891 2:0.49122807 3:0.72727273 4:0 5:0 6:0.24 7:0.82142857 8:0.5 9:1 10:1 11:1 
1 1:0.45662891 2:0.49122807 3:0.72727273 4:0 5:0 6:0.24 7:0.82142857 8:0.5 9:1 10:1 11:1 
1 1:0.45662891 2:0.49122807 3:0.72727273 4:0 5:0 6:0.24 7:0.82142857 8:0.5 9:1 10:1 11:1 
1 1:0.45662891 2:0.49122807 3:0.72727273 4:0 5:0 6:0.24 7:0.82142857 8:0.5 9:1 10:1 11:1 
1 1:0.45662891 2:0.49122807 3:0.72727273 4:0 5:0 6:0.24 7:0.82142857 8:0.5 9:1 10:1 11:1 
1 1:1 2:1 3:1 4:1 5:1 6:1 7:1 8:0.90526316 9:0.875 10:0 11:0 
1 1:1 2:1 3:1 4:1 5:1 6:1 7:1 8:0.90526316 9:0.875 10:0 11:0 
1 1:0.84375 2:0.77966102 3:0.90909091 4:1 5:1 6:0 7:1 8:0.98850575 9:1 10:0 11:0 
1 1:0.84375 2:0.77966102 3:0.90909091 4:1 5:1 6:0 7:1 8:0.98850575 9:1 10:0 11:0 
1 1:0.84375 2:0.77966102 3:0.90909091 4:1 5:1 6:0 7:1 8:0.98850575 9:1 10:0 11:0 
1 1:0.84375 2:0.77966102 3:0.90909091 4:1 5:1 6:0 7:1 8:0.98850575 9:1 10:0 11:0 
1 1:0.84375 2:0.77966102 3:0.90909091 4:1 5:1 6:0 7:1 8:0.98850575 9:1 10:0 11:0 
1 1:0.84375 2:0.77966102 3:0.90909091 4:1 5:1 6:0 7:1 8:0.98850575 9:1 10:0 11:0 
1 1:0.84375 2:0.77966102 3:0.90909091 4:1 5:1 6:0 7:1 8:0.98850575 9:1 10:0 11:0 
1 1:0.84375 2:0.77966102 3:0.90909091 4:1 5:1 6:0 7:1 8:0.98850575 9:1 10:0 11:0 
1 1:0.84375 2:0.77966102 3:0.90909091 4:1 5:1 6:0 7:1 8:0.98850575 9:1 10:0 11:0 
1 1:0.84375 2:0.77966102 3:0.90909091 4:1 5:1 6:0 7:1 8:0.98850575 9:1 10:0 11:0 
1 1:0.84375 2:0.77966102 3:0.90909091 4:1 5:1 6:0 7:1 8:0.98850575 9:1 10:0 11:0 
1 1:0.84375 2:0.77966102 3:0.90909091 4:1 5:1 6:0 7:1 8:0.98850575 9:1 10:0 11:0 
1 1:0.84375 2:0.77966102 3:0.90909091 4:1 5:1 6:0 7:1 8:0.98850575 9:1 10:0 11:0 
1 1:0.84375 2:0.77966102 3:0.90909091 4:1 5:1 6:0 7:1 8:0.98850575 9:1 10:0 11:0 
1 1:0.84375 2:0.77966102 3:0.90909091 4:1 5:1 6:0 7:1 8:0.98850575 9:1 10:0 11:0 
1 1:0.84375 2:0.77966102 3:0.90909091 4:1 5:1 6:0 7:1 8:0.98850575 9:1 10:0 11:0 
1 1:0.84375 2:0.77966102 3:0.90909091 4:1 5:1 6:0 7:1 8:0.98850575 9:1 10:0 11:0 
1 1:0.84375 2:0.77966102 3:0.90909091 4:1 5:1 6:0 7:1 8:0.98850575 9:1 10:0 11:0 
1 1:0.84375 2:0.77966102 3:0.90909091 4:1 5:1 6:0 7:1 8:0.98850575 9:1 10:0 11:0 
1 1:0.84375 2:0.77966102 3:0.90909091 4:1 5:1 6:0 7:1 8:0.98850575 9:1 10:0 11:0 
1 1:0.84375 2:0.77966102 3:0.90909091 4:1 5:1 6:0 7:1 8:0.98850575 9:1 10:0 11:0 
1 1:0.84375 2:0.77966102 3:0.90909091 4:1 5:1 6:0 7:1 8:0.98850575 9:1 10:0 11:0 
1 1:0.84375 2:0.77966102 3:0.90909091 4:1 5:1 6:0 7:1 8:0.98850575 9:1 10:0 11:0 
1 1:0.84375 2:0.77966102 3:0.90909091 4:1 5:1 6:0 7:1 8:0.98850575 9:1 10:0 11:0 
1 1:0.84375 2:0.77966102 3:0.90909091 4:1 5:1 6:0 7:1 8:0.98850575 9:1 10:0 11:0 
1 1:0.84375 2:0.77966102 3:0.90909091 4:1 5:1 6:0 7:1 8:0.98850575 9:1 10:0 11:0 
1 1:0.84375 2:0.77966102 3:0.90909091 4:1 5:1 6:0 7:1 8:0.98850575 9:1 10:0 11:0 
1 1:0.88636364 2:0.73170732 3:0.66666667 4:0 5:0 6:0 7:0.55769231 8:0.45217391 9:0.75 10:0 11:0 
1 1:0.88636364 2:0.73170732 3:0.66666667 4:0 5:0 6:0 7:0.55769231 8:0.45217391 9:0.75 10:0 11:0 
1 1:0.88636364 2:0.73170732 3:0.66666667 4:0 5:0 6:0 7:0.55769231 8:0.45217391 9:0.75 10:0 11:0 
1 1:0.88636364 2:0.73170732 3:0.66666667 4:0 5:0 6:0 7:0.55769231 8:0.45217391 9:0.75 10:0 11:0 
1 1:0.80389887 2:0.71186441 3:0.81818182 4:0 5:0 6:0 7:0.98076923 8:0.76923077 9:1 10:1 11:1 
1 1:0.80389887 2:0.71186441 3:0.81818182 4:0 5:0 6:0 7:0.98076923 8:0.76923077 9:1 10:1 11:1 
1 1:0.80389887 2:0.71186441 3:0.81818182 4:0 5:0 6:0 7:0.98076923 8:0.76923077 9:1 10:1 11:1 
1 1:0.80389887 2:0.71186441 3:0.81818182 4:0 5:0 6:0 7:0.98076923 8:0.76923077 9:1 10:1 11:1 
1 1:0.80389887 2:0.71186441 3:0.81818182 4:0 5:0 6:0 7:0.98076923 8:0.76923077 9:1 10:1 11:1 
1 1:0.80389887 2:0.71186441 3:0.81818182 4:0 5:0 6:0 7:0.98076923 8:0.76923077 9:1 10:1 11:1 
1 1:0.61729568 2:0.5 3:0.61538462 4:0 5:0 6:0 7:0.67567568 8:0.13793103 9:0.16666667 10:1 11:1 
1 1:0.61729568 2:0.5 3:0.61538462 4:0 5:0 6:0 7:0.67567568 8:0.13793103 9:0.16666667 10:1 11:1 
1 1:0.3543599 2:0.19377163 3:0.25242718 4:0 5:0 6:0 7:0.92592593 8:0.82608696 9:1 10:1 11:1 
1 1:0.3543599 2:0.19377163 3:0.25242718 4:0 5:0 6:0 7:0.92592593 8:0.82608696 9:1 10:1 11:1 
1 1:0.84090909 2:0.68421053 3:0.58823529 4:1 5:1 6:0 7:0 8:1 9:1 10:1 11:1 
1 1:0.84090909 2:0.68421053 3:0.58823529 4:1 5:1 6:0 7:0 8:1 9:1 10:1 11:1 
1 1:0.63235294 2:0.34782609 3:0.44444444 4:0 5:0.5 6:0.91666667 7:0.91666667 8:1 9:1 10:1 11:1 
1 1:0.63235294 2:0.34782609 3:0.44444444 4:0 5:0.5 6:0.91666667 7:0.91666667 8:1 9:1 10:1 11:1 
1 1:0.63235294 2:0.34782609 3:0.44444444 4:0 5:0.5 6:0.91666667 7:0.91666667 8:1 9:1 10:1 11:1 
1 1:0.63235294 2:0.34782609 3:0.44444444 4:0 5:0.5 6:0.91666667 7:0.91666667 8:1 9:1 10:1 11:1 
1 1:0.63235294 2:0.34782609 3:0.44444444 4:0 5:0.5 6:0.91666667 7:0.91666667 8:1 9:1 10:1 11:1 
1 1:0.63235294 2:0.34782609 3:0.44444444 4:0 5:0.5 6:0.91666667 7:0.91666667 8:1 9:1 10:1 11:1 
1 1:0.63235294 2:0.34782609 3:0.44444444 4:0 5:0.5 6:0.91666667 7:0.91666667 8:1 9:1 10:1 11:1 
1 1:0.63235294 2:0.34782609 3:0.44444444 4:0 5:0.5 6:0.91666667 7:0.91666667 8:1 9:1 10:1 11:1 
1 1:0.63235294 2:0.34782609 3:0.44444444 4:0 5:0.5 6:0.91666667 7:0.91666667 8:1 9:1 10:1 11:1 
1 1:0.63235294 2:0.34782609 3:0.44444444 4:0 5:0.5 6:0.91666667 7:0.91666667 8:1 9:1 10:1 11:1 
1 1:0.63235294 2:0.34782609 3:0.44444444 4:0 5:0.5 6:0.91666667 7:0.91666667 8:1 9:1 10:1 11:1 
1 1:0.63235294 2:0.34782609 3:0.44444444 4:0 5:0.5 6:0.91666667 7:0.91666667 8:1 9:1 10:1 11:1 
1 1:0.32190584 2:0.30769231 3:0.54545455 4:0 5:0 6:0 7:0 8:0.29545455 9:0.66666667 10:1 11:1 
1 1:0.38051801 2:0.48484848 3:0.61538462 4:0 5:0 6:0 7:1 8:0.15789474 9:0.25 10:1 11:1 
1 1:0.38051801 2:0.48484848 3:0.61538462 4:0 5:0 6:0 7:1 8:0.15789474 9:0.25 10:1 11:1 
1 1:0.38051801 2:0.48484848 3:0.61538462 4:0 5:0 6:0 7:1 8:0.15789474 9:0.25 10:1 11:1 
1 1:0.38051801 2:0.48484848 3:0.61538462 4:0 5:0 6:0 7:1 8:0.15789474 9:0.25 10:1 11:1 
1 1:0.38051801 2:0.48484848 3:0.61538462 4:0 5:0 6:0 7:1 8:0.15789474 9:0.25 10:1 11:1 
1 1:0.38051801 2:0.48484848 3:0.61538462 4:0 5:0 6:0 7:1 8:0.15789474 9:0.25 10:1 11:1 
1 1:0.38051801 2:0.48484848 3:0.61538462 4:0 5:0 6:0 7:1 8:0.15789474 9:0.25 10:1 11:1 
1 1:0.38051801 2:0.48484848 3:0.61538462 4:0 5:0 6:0 7:1 8:0.15789474 9:0.25 10:1 11:1 
1 1:0.38051801 2:0.48484848 3:0.61538462 4:0 5:0 6:0 7:1 8:0.15789474 9:0.25 10:1 11:1 
1 1:0.38051801 2:0.48484848 3:0.61538462 4:0 5:0 6:0 7:1 8:0.15789474 9:0.25 10:1 11:1 
1 1:0.38051801 2:0.48484848 3:0.61538462 4:0 5:0 6:0 7:1 8:0.15789474 9:0.25 10:1 11:1 
1 1:0.38051801 2:0.48484848 3:0.61538462 4:0 5:0 6:0 7:1 8:0.15789474 9:0.25 10:1 11:1 
1 1:0.38051801 2:0.48484848 3:0.61538462 4:0 5:0 6:0 7:1 8:0.15789474 9:0.25 10:1 11:1 
1 1:0.38051801 2:0.48484848 3:0.61538462 4:0 5:0 6:0 7:1 8:0.15789474 9:0.25 10:1 11:1 
1 1:0.38051801 2:0.48484848 3:0.61538462 4:0 5:0 6:0 7:1 8:0.15789474 9:0.25 10:1 11:1 
1 1:0.38051801 2:0.48484848 3:0.61538462 4:0 5:0 6:0 7:1 8:0.15789474 9:0.25 10:1 11:1 
1 1:0.38051801 2:0.48484848 3:0.61538462 4:0 5:0 6:0 7:1 8:0.15789474 9:0.25 10:1 11:1 
1 1:0.38051801 2:0.48484848 3:0.61538462 4:0 5:0 6:0 7:1 8:0.15789474 9:0.25 10:1 11:1 
1 1:0.38051801 2:0.48484848 3:0.61538462 4:0 5:0 6:0 7:1 8:0.15789474 9:0.25 10:1 11:1 
1 1:0.38051801 2:0.48484848 3:0.61538462 4:0 5:0 6:0 7:1 8:0.15789474 9:0.25 10:1 11:1 
1 1:0.55415424 2:0.40625 3:0.61538462 4:0 5:0 6:0 7:0.75 8:0.20952381 9:0.33333333 10:1 11:1 
1 1:0.47219636 2:0.071428571 3:0.3 4:0 5:0 6:0 7:0.76 8:0.17647059 9:0.25 10:1 11:1 
1 1:0.47219636 2:0.071428571 3:0.3 4:0 5:0 6:0 7:0.76 8:0.17647059 9:0.25 10:1 11:1 
1 1:0.47219636 2:0.071428571 3:0.3 4:0 5:0 6:0 7:0.76 8:0.17647059 9:0.25 10:1 11:1 
1 1:0.37701759 2:0.42857143 3:0.625 4:0 5:0 6:0 7:1 8:0.18421053 9:0.2 10:1 11:1 
1 1:0.37701759 2:0.42857143 3:0.625 4:0 5:0 6:0 7:1 8:0.18421053 9:0.2 10:1 11:1 
1 1:0.37701759 2:0.42857143 3:0.625 4:0 5:0 6:0 7:1 8:0.18421053 9:0.2 10:1 11:1 
1 1:0.37701759 2:0.42857143 3:0.625 4:0 5:0 6:0 7:1 8:0.18421053 9:0.2 10:1 11:1 
1 1:0.37701759 2:0.42857143 3:0.625 4:0 5:0 6:0 7:1 8:0.18421053 9:0.2 10:1 11:1 
1 1:0.37701759 2:0.42857143 3:0.625 4:0 5:0 6:0 7:1 8:0.18421053 9:0.2 10:1 11:1 
1 1:0.37701759 2:0.42857143 3:0.625 4:0 5:0 6:0 7:1 8:0.18421053 9:0.2 10:1 11:1 
1 1:0.37701759 2:0.42857143 3:0.625 4:0 5:0 6:0 7:1 8:0.18421053 9:0.2 10:1 11:1 
1 1:0.37701759 2:0.42857143 3:0.625 4:0 5:0 6:0 7:1 8:0.18421053 9:0.2 10:1 11:1 
1 1:0.37701759 2:0.42857143 3:0.625 4:0 5:0 6:0 7:1 8:0.18421053 9:0.2 10:1 11:1 
1 1:0.37701759 2:0.42857143 3:0.625 4:0 5:0 6:0 7:1 8:0.18421053 9:0.2 10:1 11:1 
1 1:0.37701759 2:0.42857143 3:0.625 4:0 5:0 6:0 7:1 8:0.18421053 9:0.2 10:1 11:1 
1 1:0.37701759 2:0.42857143 3:0.625 4:0 5:0 6:0 7:1 8:0.18421053 9:0.2 10:1 11:1 
1 1:0.37701759 2:0.42857143 3:0.625 4:0 5:0 6:0 7:1 8:0.18421053 9:0.2 10:1 11:1 
1 1:0.37135928 2:0.083333333 3:0.13559322 4:0 5:0 6:0 7:0.69230769 8:0.17105263 9:0.27272727 10:1 11:1 
1 1:0.37135928 2:0.083333333 3:0.13559322 4:0 5:0 6:0 7:0.69230769 8:0.17105263 9:0.27272727 10:1 11:1 
1 1:0.37135928 2:0.083333333 3:0.13559322 4:0 5:0 6:0 7:0.69230769 8:0.17105263 9:0.27272727 10:1 11:1 
1 1:1 2:1 3:1 4:0 5:0 6:0 7:0 8:0.66666667 9:0.38461538 10:1 11:1 
1 1:0.66972974 2:0.3030303 3:0.2 4:0 5:1 6:1 7:1 8:1 9:1 10:1 11:1 
1 1:0.66972974 2:0.3030303 3:0.2 4:0 5:1 6:1 7:1 8:1 9:1 10:1 11:1 
1 1:0.66972974 2:0.3030303 3:0.2 4:0 5:1 6:1 7:1 8:1 9:1 10:1 11:1 
1 1:0.79708142 2:0.47058824 3:0.75 4:0 5:0 6:0 7:0.8125 8:0.097560976 9:0.11111111 10:1 11:1 
1 1:0.79708142 2:0.47058824 3:0.75 4:0 5:0 6:0 7:0.8125 8:0.097560976 9:0.11111111 10:1 11:1 
1 1:0.92307692 2:0.79245283 3:0.83333333 4:0 5:1 6:0 7:1 8:0.43137255 9:1 10:1 11:1 
1 1:0.92307692 2:0.79245283 3:0.83333333 4:0 5:1 6:0 7:1 8:0.43137255 9:1 10:1 11:1 
1 1:0.40860583 2:0.41025641 3:0.75 4:0 5:0 6:0 7:0 8:0.12 9:0.16666667 10:1 11:1 
1 1:0.40860583 2:0.41025641 3:0.75 4:0 5:0 6:0 7:0 8:0.12 9:0.16666667 10:1 11:1 
1 1:0.40860583 2:0.41025641 3:0.75 4:0 5:0 6:0 7:0 8:0.12 9:0.16666667 10:1 11:1 
1 1:0.40860583 2:0.41025641 3:0.75 4:0 5:0 6:0 7:0 8:0.12 9:0.16666667 10:1 11:1 
1 1:0.42287235 2:0.30434783 3:0.53333333 4:1 5:1 6:1 7:1 8:0 9:0 10:1 11:1 
1 1:0.42287235 2:0.30434783 3:0.53333333 4:1 5:1 6:1 7:1 8:0 9:0 10:1 11:1 
1 1:0.42287235 2:0.30434783 3:0.53333333 4:1 5:1 6:1 7:1 8:0 9:0 10:1 11:1 
1 1:0.42287235 2:0.30434783 3:0.53333333 4:1 5:1 6:1 7:1 8:0 9:0 10:1 11:1 
1 1:0.83832137 2:0.82142857 3:0.86956522 4:0 5:0 6:0.65217391 7:0.95652174 8:0.77777778 9:0.84615385 10:1 11:1 
1 1:0.77272727 2:0.66666667 3:0.75 4:0 5:0 6:0 7:0 8:0.60550459 9:1 10:1 11:1 
1 1:0.77272727 2:0.66666667 3:0.75 4:0 5:0 6:0 7:0 8:0.60550459 9:1 10:1 11:1 
1 1:0.79592029 2:0.5625 3:0.71428571 4:0 5:0 6:0 7:0 8:0.56862745 9:0.8 10:1 11:1 
1 1:0.79592029 2:0.5625 3:0.71428571 4:0 5:0 6:0 7:0 8:0.56862745 9:0.8 10:1 11:1 
1 1:0.79592029 2:0.5625 3:0.71428571 4:0 5:0 6:0 7:0 8:0.56862745 9:0.8 10:1 11:1 
1 1:0.78125 2:0.61818182 3:0.5 4:1 5:1 6:0 7:1 8:1 9:1 10:1 11:1 
1 1:0.78125 2:0.61818182 3:0.5 4:1 5:1 6:0 7:1 8:1 9:1 10:1 11:1 
1 1:0.78125 2:0.61818182 3:0.5 4:1 5:1 6:0 7:1 8:1 9:1 10:1 11:1 
1 1:0.78125 2:0.61818182 3:0.5 4:1 5:1 6:0 7:1 8:1 9:1 10:1 11:1 
1 1:0.78125 2:0.61818182 3:0.5 4:1 5:1 6:0 7:1 8:1 9:1 10:1 11:1 
1 1:0.78125 2:0.61818182 3:0.5 4:1 5:1 6:0 7:1 8:1 9:1 10:1 11:1 
1 1:0.78125 2:0.61818182 3:0.5 4:1 5:1 6:0 7:1 8:1 9:1 10:1 11:1 
1 1:0.78125 2:0.61818182 3:0.5 4:1 5:1 6:0 7:1 8:1 9:1 10:1 11:1 
1 1:0.78125 2:0.61818182 3:0.5 4:1 5:1 6:0 7:1 8:1 9:1 10:1 11:1 
1 1:0.78125 2:0.61818182 3:0.5 4:1 5:1 6:0 7:1 8:1 9:1 10:1 11:1 
1 1:0.78125 2:0.61818182 3:0.5 4:1 5:1 6:0 7:1 8:1 9:1 10:1 11:1 
1 1:0.78125 2:0.61818182 3:0.5 4:1 5:1 6:0 7:1 8:1 9:1 10:1 11:1 
1 1:0.78125 2:0.61818182 3:0.5 4:1 5:1 6:0 7:1 8:1 9:1 10:1 11:1 
1 1:0.78125 2:0.61818182 3:0.5 4:1 5:1 6:0 7:1 8:1 9:1 10:1 11:1 
1 1:0.78125 2:0.61818182 3:0.5 4:1 5:1 6:0 7:1 8:1 9:1 10:1 11:1 
1 1:0.78125 2:0.61818182 3:0.5 4:1 5:1 6:0 7:1 8:1 9:1 10:1 11:1 
1 1:0.78125 2:0.61818182 3:0.5 4:1 5:1 6:0 7:1 8:1 9:1 10:1 11:1 
1 1:0.78125 2:0.61818182 3:0.5 4:1 5:1 6:0 7:1 8:1 9:1 10:1 11:1 
1 1:0.78125 2:0.61818182 3:0.5 4:1 5:1 6:0 7:1 8:1 9:1 10:1 11:1 
1 1:0.78125 2:0.61818182 3:0.5 4:1 5:1 6:0 7:1 8:1 9:1 10:1 11:1 
1 1:0.78125 2:0.61818182 3:0.5 4:1 5:1 6:0 7:1 8:1 9:1 10:1 11:1 
1 1:0.78125 2:0.61818182 3:0.5 4:1 5:1 6:0 7:1 8:1 9:1 10:1 11:1 
1 1:0.78125 2:0.61818182 3:0.5 4:1 5:1 6:0 7:1 8:1 9:1 10:1 11:1 
1 1:0.78125 2:0.61818182 3:0.5 4:1 5:1 6:0 7:1 8:1 9:1 10:1 11:1 
1 1:0.78125 2:0.61818182 3:0.5 4:1 5:1 6:0 7:1 8:1 9:1 10:1 11:1 
1 1:0.78125 2:0.61818182 3:0.5 4:1 5:1 6:0 7:1 8:1 9:1 10:1 11:1 
1 1:0.78125 2:0.61818182 3:0.5 4:1 5:1 6:0 7:1 8:1 9:1 10:1 11:1 
1 1:0.78125 2:0.61818182 3:0.5 4:1 5:1 6:0 7:1 8:1 9:1 10:1 11:1 
1 1:0.78125 2:0.61818182 3:0.5 4:1 5:1 6:0 7:1 8:1 9:1 10:1 11:1 
1 1:0.78125 2:0.61818182 3:0.5 4:1 5:1 6:0 7:1 8:1 9:1 10:1 11:1 
1 1:0.78125 2:0.61818182 3:0.5 4:1 5:1 6:0 7:1 8:1 9:1 10:1 11:1 
1 1:0.78125 2:0.61818182 3:0.5 4:1 5:1 6:0 7:1 8:1 9:1 10:1 11:1 
1 1:0.78125 2:0.61818182 3:0.5 4:1 5:1 6:0 7:1 8:1 9:1 10:1 11:1 
1 1:0.78125 2:0.61818182 3:0.5 4:1 5:1 6:0 7:1 8:1 9:1 10:1 11:1 
1 1:0.78125 2:0.61818182 3:0.5 4:1 5:1 6:0 7:1 8:1 9:1 10:1 11:1 
1 1:0.78125 2:0.61818182 3:0.5 4:1 5:1 6:0 7:1 8:1 9:1 10:1 11:1 
1 1:0.78125 2:0.61818182 3:0.5 4:1 5:1 6:0 7:1 8:1 9:1 10:1 11:1 
1 1:0.88636364 2:0.74418605 3:0.73684211 4:0 5:0 6:0 7:0 8:0.58333333 9:1 10:1 11:1 
1 1:0.88636364 2:0.74418605 3:0.73684211 4:0 5:0 6:0 7:0 8:0.58333333 9:1 10:1 11:1 
1 1:0.92857143 2:0.80952381 3:0.8 4:1 5:1 6:0 7:1 8:0.77108434 9:1 10:1 11:1 
1 1:0.92857143 2:0.80952381 3:0.8 4:1 5:1 6:0 7:1 8:0.77108434 9:1 10:1 11:1 
1 1:0.92857143 2:0.80952381 3:0.8 4:1 5:1 6:0 7:1 8:0.77108434 9:1 10:1 11:1 
1 1:0.92857143 2:0.80952381 3:0.8 4:1 5:1 6:0 7:1 8:0.77108434 9:1 10:1 11:1 
1 1:0.92857143 2:0.80952381 3:0.8 4:1 5:1 6:0 7:1 8:0.77108434 9:1 10:1 11:1 
1 1:0.92857143 2:0.80952381 3:0.8 4:1 5:1 6:0 7:1 8:0.77108434 9:1 10:1 11:1 
1 1:0.92857143 2:0.80952381 3:0.8 4:1 5:1 6:0 7:1 8:0.77108434 9:1 10:1 11:1 
1 1:0.61640771 2:0.28125 3:0.46153846 4:1 5:1 6:0 7:1 8:0 9:0 10:1 11:1 
1 1:0.61640771 2:0.28125 3:0.46153846 4:1 5:1 6:0 7:1 8:0 9:0 10:1 11:1 
1 1:0.61640771 2:0.28125 3:0.46153846 4:1 5:1 6:0 7:1 8:0 9:0 10:1 11:1 
1 1:0.61640771 2:0.28125 3:0.46153846 4:1 5:1 6:0 7:1 8:0 9:0 10:1 11:1 
1 1:0.61640771 2:0.28125 3:0.46153846 4:1 5:1 6:0 7:1 8:0 9:0 10:1 11:1 
1 1:0.61640771 2:0.28125 3:0.46153846 4:1 5:1 6:0 7:1 8:0 9:0 10:1 11:1 
1 1:0.61640771 2:0.28125 3:0.46153846 4:1 5:1 6:0 7:1 8:0 9:0 10:1 11:1 
1 1:0.61640771 2:0.28125 3:0.46153846 4:1 5:1 6:0 7:1 8:0 9:0 10:1 11:1 
1 1:0.61640771 2:0.28125 3:0.46153846 4:1 5:1 6:0 7:1 8:0 9:0 10:1 11:1 
1 1:0.61640771 2:0.28125 3:0.46153846 4:1 5:1 6:0 7:1 8:0 9:0 10:1 11:1 
1 1:0.61640771 2:0.28125 3:0.46153846 4:1 5:1 6:0 7:1 8:0 9:0 10:1 11:1 
1 1:0.61640771 2:0.28125 3:0.46153846 4:1 5:1 6:0 7:1 8:0 9:0 10:1 11:1 
1 1:0.61640771 2:0.28125 3:0.46153846 4:1 5:1 6:0 7:1 8:0 9:0 10:1 11:1 
1 1:0.61640771 2:0.28125 3:0.46153846 4:1 5:1 6:0 7:1 8:0 9:0 10:1 11:1 
1 1:0.61640771 2:0.28125 3:0.46153846 4:1 5:1 6:0 7:1 8:0 9:0 10:1 11:1 
1 1:0.61640771 2:0.28125 3:0.46153846 4:1 5:1 6:0 7:1 8:0 9:0 10:1 11:1 
1 1:0.61640771 2:0.28125 3:0.46153846 4:1 5:1 6:0 7:1 8:0 9:0 10:1 11:1 
1 1:0.61640771 2:0.28125 3:0.46153846 4:1 5:1 6:0 7:1 8:0 9:0 10:1 11:1 
1 1:0.61640771 2:0.28125 3:0.46153846 4:1 5:1 6:0 7:1 8:0 9:0 10:1 11:1 
1 1:0.61640771 2:0.28125 3:0.46153846 4:1 5:1 6:0 7:1 8:0 9:0 10:1 11:1 
1 1:0.61640771 2:0.28125 3:0.46153846 4:1 5:1 6:0 7:1 8:0 9:0 10:1 11:1 
1 1:0.61640771 2:0.28125 3:0.46153846 4:1 5:1 6:0 7:1 8:0 9:0 10:1 11:1 
1 1:0.61640771 2:0.28125 3:0.46153846 4:1 5:1 6:0 7:1 8:0 9:0 10:1 11:1 
1 1:0.61640771 2:0.28125 3:0.46153846 4:1 5:1 6:0 7:1 8:0 9:0 10:1 11:1 
1 1:0.61640771 2:0.28125 3:0.46153846 4:1 5:1 6:0 7:1 8:0 9:0 10:1 11:1 
1 1:0.61640771 2:0.28125 3:0.46153846 4:1 5:1 6:0 7:1 8:0 9:0 10:1 11:1 
1 1:0.61640771 2:0.28125 3:0.46153846 4:1 5:1 6:0 7:1 8:0 9:0 10:1 11:1 
1 1:0.61640771 2:0.28125 3:0.46153846 4:1 5:1 6:0 7:1 8:0 9:0 10:1 11:1 
1 1:0.61640771 2:0.28125 3:0.46153846 4:1 5:1 6:0 7:1 8:0 9:0 10:1 11:1 
1 1:0.61640771 2:0.28125 3:0.46153846 4:1 5:1 6:0 7:1 8:0 9:0 10:1 11:1 
1 1:0.61640771 2:0.28125 3:0.46153846 4:1 5:1 6:0 7:1 8:0 9:0 10:1 11:1 
1 1:0.61640771 2:0.28125 3:0.46153846 4:1 5:1 6:0 7:1 8:0 9:0 10:1 11:1 
1 1:0.61640771 2:0.28125 3:0.46153846 4:1 5:1 6:0 7:1 8:0 9:0 10:1 11:1 
1 1:0.61640771 2:0.28125 3:0.46153846 4:1 5:1 6:0 7:1 8:0 9:0 10:1 11:1 
1 1:0.61640771 2:0.28125 3:0.46153846 4:1 5:1 6:0 7:1 8:0 9:0 10:1 11:1 
1 1:0.61640771 2:0.28125 3:0.46153846 4:1 5:1 6:0 7:1 8:0 9:0 10:1 11:1 
1 1:0.61640771 2:0.28125 3:0.46153846 4:1 5:1 6:0 7:1 8:0 9:0 10:1 11:1 
1 1:0.61640771 2:0.28125 3:0.46153846 4:1 5:1 6:0 7:1 8:0 9:0 10:1 11:1 
1 1:0.61640771 2:0.28125 3:0.46153846 4:1 5:1 6:0 7:1 8:0 9:0 10:1 11:1 
1 1:0.61640771 2:0.28125 3:0.46153846 4:1 5:1 6:0 7:1 8:0 9:0 10:1 11:1 
1 1:0.61640771 2:0.28125 3:0.46153846 4:1 5:1 6:0 7:1 8:0 9:0 10:1 11:1 
1 1:0.61640771 2:0.28125 3:0.46153846 4:1 5:1 6:0 7:1 8:0 9:0 10:1 11:1 
1 1:0.61640771 2:0.28125 3:0.46153846 4:1 5:1 6:0 7:1 8:0 9:0 10:1 11:1 
1 1:0.61640771 2:0.28125 3:0.46153846 4:1 5:1 6:0 7:1 8:0 9:0 10:1 11:1 
1 1:0.61640771 2:0.28125 3:0.46153846 4:1 5:1 6:0 7:1 8:0 9:0 10:1 11:1 
1 1:0.61640771 2:0.28125 3:0.46153846 4:1 5:1 6:0 7:1 8:0 9:0 10:1 11:1 
1 1:0.61640771 2:0.28125 3:0.46153846 4:1 5:1 6:0 7:1 8:0 9:0 10:1 11:1 
1 1:0.61640771 2:0.28125 3:0.46153846 4:1 5:1 6:0 7:1 8:0 9:0 10:1 11:1 
1 1:0.61640771 2:0.28125 3:0.46153846 4:1 5:1 6:0 7:1 8:0 9:0 10:1 11:1 
1 1:0.61640771 2:0.28125 3:0.46153846 4:1 5:1 6:0 7:1 8:0 9:0 10:1 11:1 
1 1:0.61640771 2:0.28125 3:0.46153846 4:1 5:1 6:0 7:1 8:0 9:0 10:1 11:1 
1 1:0.61640771 2:0.28125 3:0.46153846 4:1 5:1 6:0 7:1 8:0 9:0 10:1 11:1 
1 1:0.61640771 2:0.28125 3:0.46153846 4:1 5:1 6:0 7:1 8:0 9:0 10:1 11:1 
1 1:0.61640771 2:0.28125 3:0.46153846 4:1 5:1 6:0 7:1 8:0 9:0 10:1 11:1 
1 1:0.61640771 2:0.28125 3:0.46153846 4:1 5:1 6:0 7:1 8:0 9:0 10:1 11:1 
1 1:0.61640771 2:0.28125 3:0.46153846 4:1 5:1 6:0 7:1 8:0 9:0 10:1 11:1 
1 1:0.61640771 2:0.28125 3:0.46153846 4:1 5:1 6:0 7:1 8:0 9:0 10:1 11:1 
1 1:0.61640771 2:0.28125 3:0.46153846 4:1 5:1 6:0 7:1 8:0 9:0 10:1 11:1 
1 1:0.66666667 2:0.34782609 3:0.25 4:0 5:0 6:0 7:0 8:0.515625 9:0.6 10:0 11:0 
1 1:0.66666667 2:0.34782609 3:0.25 4:0 5:0 6:0 7:0 8:0.515625 9:0.6 10:0 11:0 
1 1:0.625 2:0.27777778 3:0.18181818 4:0.5 5:0.5 6:0 7:1 8:1 9:1 10:1 11:1 
1 1:0.58992602 2:0.42553191 3:0.66666667 4:0.66666667 5:1 6:0 7:0.95945946 8:0.98850575 9:1 10:1 11:1 
1 1:0.50444676 2:0.097560976 3:0.4 4:0.66666667 5:1 6:0 7:0.95454545 8:1 9:1 10:1 11:1 
1 1:0.61438872 2:0.24489796 3:0.58823529 4:0 5:0 6:0 7:0.9375 8:1 9:1 10:1 11:1 
1 1:0.61438872 2:0.24489796 3:0.58823529 4:0 5:0 6:0 7:0.9375 8:1 9:1 10:1 11:1 
1 1:0.86934969 2:0.5 3:0.33333333 4:0 5:0 6:0 7:0 8:0.47798742 9:0.45454545 10:1 11:1 
1 1:0.86934969 2:0.5 3:0.33333333 4:0 5:0 6:0 7:0 8:0.47798742 9:0.45454545 10:1 11:1 
1 1:0.86934969 2:0.5 3:0.33333333 4:0 5:0 6:0 7:0 8:0.47798742 9:0.45454545 10:1 11:1 
1 1:0.37745398 2:0.13953488 3:0.31578947 4:1 5:1 6:0 7:1 8:0.75294118 9:1 10:1 11:1 
1 1:0.37745398 2:0.13953488 3:0.31578947 4:1 5:1 6:0 7:1 8:0.75294118 9:1 10:1 11:1 
1 1:0.37745398 2:0.13953488 3:0.31578947 4:1 5:1 6:0 7:1 8:0.75294118 9:1 10:1 11:1 
1 1:0.95454545 2:0.93333333 3:0.88888889 4:0 5:0 6:0 7:1 8:0.77922078 9:1 10:1 11:1 
1 1:0.95454545 2:0.93333333 3:0.88888889 4:0 5:0 6:0 7:1 8:0.77922078 9:1 10:1 11:1 
1 1:0.95454545 2:0.93333333 3:0.88888889 4:0 5:0 6:0 7:1 8:0.77922078 9:1 10:1 11:1 
1 1:0.95454545 2:0.93333333 3:0.88888889 4:0 5:0 6:0 7:1 8:0.77922078 9:1 10:1 11:1 
1 1:0.9148416 2:0.8 3:0.81818182 4:1 5:1 6:0 7:0.75 8:0.484375 9:0.8 10:1 11:1 
1 1:0.9148416 2:0.8 3:0.81818182 4:1 5:1 6:0 7:0.75 8:0.484375 9:0.8 10:1 11:1 
1 1:0.52021564 2:0.25 3:0.46153846 4:0.66666667 5:1 6:0 7:1 8:0.98850575 9:1 10:1 11:1 
1 1:0.52021564 2:0.25 3:0.46153846 4:0.66666667 5:1 6:0 7:1 8:0.98850575 9:1 10:1 11:1 
1 1:1 2:1 3:1 4:0 5:0 6:0 7:0 8:0.76415094 9:0.84615385 10:1 11:1 
1 1:0.95454545 2:0.93333333 3:0.88888889 4:0 5:0 6:0 7:0 8:0.688 9:1 10:0 11:0 
1 1:0.70477091 2:0.38095238 3:0.42105263 4:0 5:0 6:0 7:0.98888889 8:0 9:0 10:1 11:1 
1 1:0.70477091 2:0.38095238 3:0.42105263 4:0 5:0 6:0 7:0.98888889 8:0 9:0 10:1 11:1 
1 1:0.53704075 2:0.45714286 3:0.61538462 4:0 5:0 6:0 7:0 8:0.12 9:0.16666667 10:1 11:1 
1 1:0.53704075 2:0.45714286 3:0.61538462 4:0 5:0 6:0 7:0 8:0.12 9:0.16666667 10:1 11:1 
1 1:1 2:1 3:1 4:0 5:0 6:0 7:0 8:0.73504274 9:1 10:1 11:1 
1 1:1 2:1 3:1 4:0 5:0 6:0 7:0 8:0.73504274 9:1 10:1 11:1 
1 1:1 2:1 3:1 4:0 5:0 6:0 7:0 8:0.73504274 9:1 10:1 11:1 
1 1:1 2:1 3:1 4:0 5:0 6:0 7:0 8:0.73504274 9:1 10:1 11:1 
1 1:1 2:1 3:1 4:0 5:0 6:0 7:0 8:0.73504274 9:1 10:1 11:1 
1 1:1 2:1 3:1 4:0 5:0 6:0 7:0 8:0.73504274 9:1 10:1 11:1 
1 1:1 2:1 3:1 4:0 5:0 6:0 7:0 8:0.73504274 9:1 10:1 11:1 
1 1:1 2:1 3:1 4:0 5:0 6:0 7:0 8:0.73504274 9:1 10:1 11:1 
1 1:0.95580946 2:0.875 3:0.9 4:0 5:0 6:0.16666667 7:0.75 8:1 9:1 10:1 11:1 
1 1:0.65909091 2:0.34482759 3:0.18181818 4:0 5:0 6:0 7:0 8:0.40909091 9:0.35714286 10:1 11:1 
1 1:0.88636364 2:0.73170732 3:0.66666667 4:0 5:0 6:0 7:0.30769231 8:0.52760736 9:0.85714286 10:0 11:0 
1 1:0.88636364 2:0.73170732 3:0.66666667 4:0 5:0 6:0 7:0.30769231 8:0.52760736 9:0.85714286 10:0 11:0 
1 1:0.88636364 2:0.73170732 3:0.66666667 4:0 5:0 6:0 7:0.30769231 8:0.52760736 9:0.85714286 10:0 11:0 
1 1:0.88636364 2:0.73170732 3:0.66666667 4:0 5:0 6:0 7:0.30769231 8:0.52760736 9:0.85714286 10:0 11:0 
1 1:0.81162924 2:0.625 3:0.71428571 4:0 5:0 6:0 7:0 8:0.48275862 9:0.53333333 10:1 11:1 
1 1:0.81162924 2:0.625 3:0.71428571 4:0 5:0 6:0 7:0 8:0.48275862 9:0.53333333 10:1 11:1 
1 1:0.81162924 2:0.625 3:0.71428571 4:0 5:0 6:0 7:0 8:0.48275862 9:0.53333333 10:1 11:1 
1 1:0.81162924 2:0.625 3:0.71428571 4:0 5:0 6:0 7:0 8:0.48275862 9:0.53333333 10:1 11:1 
1 1:0.81162924 2:0.625 3:0.71428571 4:0 5:0 6:0 7:0 8:0.48275862 9:0.53333333 10:1 11:1 
1 1:0.81162924 2:0.625 3:0.71428571 4:0 5:0 6:0 7:0 8:0.48275862 9:0.53333333 10:1 11:1 
1 1:0.81162924 2:0.625 3:0.71428571 4:0 5:0 6:0 7:0 8:0.48275862 9:0.53333333 10:1 11:1 
1 1:0.81162924 2:0.625 3:0.71428571 4:0 5:0 6:0 7:0 8:0.48275862 9:0.53333333 10:1 11:1 
1 1:0.81162924 2:0.625 3:0.71428571 4:0 5:0 6:0 7:0 8:0.48275862 9:0.53333333 10:1 11:1 
1 1:0.81162924 2:0.625 3:0.71428571 4:0 5:0 6:0 7:0 8:0.48275862 9:0.53333333 10:1 11:1 
1 1:0.81162924 2:0.625 3:0.71428571 4:0 5:0 6:0 7:0 8:0.48275862 9:0.53333333 10:1 11:1 
1 1:0.81162924 2:0.625 3:0.71428571 4:0 5:0 6:0 7:0 8:0.48275862 9:0.53333333 10:1 11:1 
1 1:0.88636364 2:0.75 3:0.66666667 4:0 5:0 6:0 7:0.9 8:0.032258065 9:0 10:1 11:1 
1 1:0.88636364 2:0.75 3:0.66666667 4:0 5:0 6:0 7:0.9 8:0.032258065 9:0 10:1 11:1 
1 1:0.5327508 2:0.66666667 3:0.81481481 4:0 5:0 6:0 7:0.75 8:0.39263804 9:0.83333333 10:0 11:0 
1 1:0.5327508 2:0.66666667 3:0.81481481 4:0 5:0 6:0 7:0.75 8:0.39263804 9:0.83333333 10:0 11:0 
1 1:0.5327508 2:0.66666667 3:0.81481481 4:0 5:0 6:0 7:0.75 8:0.39263804 9:0.83333333 10:0 11:0 
1 1:0.5327508 2:0.66666667 3:0.81481481 4:0 5:0 6:0 7:0.75 8:0.39263804 9:0.83333333 10:0 11:0 
1 1:0.5327508 2:0.66666667 3:0.81481481 4:0 5:0 6:0 7:0.75 8:0.39263804 9:0.83333333 10:0 11:0 
1 1:0.77272727 2:0.66666667 3:0.75 4:0 5:0 6:0 7:0.61538462 8:0.55045872 9:1 10:1 11:1 
1 1:0.77272727 2:0.66666667 3:0.75 4:0 5:0 6:0 7:0.61538462 8:0.55045872 9:1 10:1 11:1 
1 1:0.80081279 2:0.45454545 3:0.25 4:0 5:0 6:0.23076923 7:0.58823529 8:0.40506329 9:1 10:1 11:1 
1 1:0.56363636 2:0.15151515 3:0.074074074 4:0 5:0 6:0 7:0 8:0.64 9:0.6 10:1 11:1 
1 1:0.56363636 2:0.15151515 3:0.074074074 4:0 5:0 6:0 7:0 8:0.64 9:0.6 10:1 11:1 
1 1:0.63636364 2:0.36363636 3:0.5 4:0 5:0 6:0 7:1 8:0.53543307 9:0.85714286 10:1 11:1 
1 1:0.63636364 2:0.36363636 3:0.5 4:0 5:0 6:0 7:1 8:0.53543307 9:0.85714286 10:1 11:1 
1 1:0.63636364 2:0.36363636 3:0.5 4:0 5:0 6:0 7:1 8:0.53543307 9:0.85714286 10:1 11:1 
1 1:0.63636364 2:0.36363636 3:0.5 4:0 5:0 6:0 7:1 8:0.53543307 9:0.85714286 10:1 11:1 
1 1:0.63636364 2:0.36363636 3:0.5 4:0 5:0 6:0 7:1 8:0.53543307 9:0.85714286 10:1 11:1 
1 1:0.63636364 2:0.36363636 3:0.5 4:0 5:0 6:0 7:1 8:0.53543307 9:0.85714286 10:1 11:1 
1 1:0.63636364 2:0.36363636 3:0.5 4:0 5:0 6:0 7:1 8:0.53543307 9:0.85714286 10:1 11:1 
1 1:0.63636364 2:0.36363636 3:0.5 4:0 5:0 6:0 7:1 8:0.53543307 9:0.85714286 10:1 11:1 
1 1:0.63636364 2:0.36363636 3:0.5 4:0 5:0 6:0 7:1 8:0.53543307 9:0.85714286 10:1 11:1 
1 1:0.63636364 2:0.36363636 3:0.5 4:0 5:0 6:0 7:1 8:0.53543307 9:0.85714286 10:1 11:1 
1 1:0.63636364 2:0.36363636 3:0.5 4:0 5:0 6:0 7:1 8:0.53543307 9:0.85714286 10:1 11:1 
1 1:0.63636364 2:0.36363636 3:0.5 4:0 5:0 6:0 7:1 8:0.53543307 9:0.85714286 10:1 11:1 
1 1:0.6352183 2:0.38095238 3:0.66666667 4:0 5:0 6:0 7:0 8:0.41441441 9:0.66666667 10:1 11:1 
1 1:0.6352183 2:0.38095238 3:0.66666667 4:0 5:0 6:0 7:0 8:0.41441441 9:0.66666667 10:1 11:1 
1 1:0.6352183 2:0.38095238 3:0.66666667 4:0 5:0 6:0 7:0 8:0.41441441 9:0.66666667 10:1 11:1 
1 1:0.6352183 2:0.38095238 3:0.66666667 4:0 5:0 6:0 7:0 8:0.41441441 9:0.66666667 10:1 11:1 
1 1:0.88636364 2:0.75 3:0.66666667 4:1 5:1 6:0 7:0 8:0.57142857 9:1 10:1 11:1 
1 1:0.88636364 2:0.75 3:0.66666667 4:1 5:1 6:0 7:0 8:0.57142857 9:1 10:1 11:1 
1 1:0.88636364 2:0.75 3:0.66666667 4:1 5:1 6:0 7:0 8:0.57142857 9:1 10:1 11:1 
1 1:0.88636364 2:0.75 3:0.66666667 4:1 5:1 6:0 7:0 8:0.57142857 9:1 10:1 11:1 
1 1:0.95580946 2:0.85106383 3:0.9 4:1 5:1 6:0 7:0 8:0.93023256 9:1 10:1 11:1 
1 1:0.47131198 2:0.13636364 3:0.76190476 4:1 5:1 6:0 7:0 8:1 9:1 10:1 11:1 
1 1:0.47131198 2:0.13636364 3:0.76190476 4:1 5:1 6:0 7:0 8:1 9:1 10:1 11:1 
1 1:0.47131198 2:0.13636364 3:0.76190476 4:1 5:1 6:0 7:0 8:1 9:1 10:1 11:1 
1 1:0.47131198 2:0.13636364 3:0.76190476 4:1 5:1 6:0 7:0 8:1 9:1 10:1 11:1 
1 1:0.47131198 2:0.13636364 3:0.76190476 4:1 5:1 6:0 7:0 8:1 9:1 10:1 11:1 
1 1:0.47131198 2:0.13636364 3:0.76190476 4:1 5:1 6:0 7:0 8:1 9:1 10:1 11:1 
1 1:0.91607863 2:0.68421053 3:0.83333333 4:1 5:1 6:0 7:1 8:1 9:1 10:1 11:1 
1 1:0.25999988 2:0.16216216 3:0.625 4:0.66666667 5:1 6:0 7:0 8:1 9:1 10:1 11:1 
1 1:0.53230849 2:0.84210526 3:1 4:0 5:0 6:0 7:0.88461538 8:0.27083333 9:0.5 10:1 11:1 
1 1:0.53230849 2:0.84210526 3:1 4:0 5:0 6:0 7:0.88461538 8:0.27083333 9:0.5 10:1 11:1 
1 1:0.68421053 2:0.4 3:0.22222222 4:0 5:0 6:1 7:1 8:0.98876404 9:1 10:0 11:0 
1 1:0.68421053 2:0.4 3:0.22222222 4:0 5:0 6:1 7:1 8:0.98876404 9:1 10:0 11:0 
1 1:0.81395111 2:0.68571429 3:0.8 4:1 5:1 6:0 7:1 8:0 9:0 10:1 11:1 
1 1:0.81395111 2:0.68571429 3:0.8 4:1 5:1 6:0 7:1 8:0 9:0 10:1 11:1 
1 1:0.81395111 2:0.68571429 3:0.8 4:1 5:1 6:0 7:1 8:0 9:0 10:1 11:1 
1 1:0.81395111 2:0.68571429 3:0.8 4:1 5:1 6:0 7:1 8:0 9:0 10:1 11:1 
1 1:0.81395111 2:0.68571429 3:0.8 4:1 5:1 6:0 7:1 8:0 9:0 10:1 11:1 
1 1:0.81395111 2:0.68571429 3:0.8 4:1 5:1 6:0 7:1 8:0 9:0 10:1 11:1 
1 1:0.81395111 2:0.68571429 3:0.8 4:1 5:1 6:0 7:1 8:0 9:0 10:1 11:1 
1 1:0.81395111 2:0.68571429 3:0.8 4:1 5:1 6:0 7:1 8:0 9:0 10:1 11:1 
1 1:0.81395111 2:0.68571429 3:0.8 4:1 5:1 6:0 7:1 8:0 9:0 10:1 11:1 
1 1:0.91666667 2:0.875 3:0.8 4:0 5:0 6:0.33333333 7:0.75 8:0.58252427 9:0.8 10:1 11:1 
1 1:0.91666667 2:0.875 3:0.8 4:0 5:0 6:0.33333333 7:0.75 8:0.58252427 9:0.8 10:1 11:1 
1 1:0.80107406 2:0.27586207 3:0.76923077 4:0 5:0 6:0 7:1 8:0.32608696 9:0.8 10:0 11:0 
1 1:0.80107406 2:0.27586207 3:0.76923077 4:0 5:0 6:0 7:1 8:0.32608696 9:0.8 10:0 11:0 
1 1:0.80107406 2:0.27586207 3:0.76923077 4:0 5:0 6:0 7:1 8:0.32608696 9:0.8 10:0 11:0 
1 1:0.80107406 2:0.27586207 3:0.76923077 4:0 5:0 6:0 7:1 8:0.32608696 9:0.8 10:0 11:0 
1 1:0.80107406 2:0.27586207 3:0.76923077 4:0 5:0 6:0 7:1 8:0.32608696 9:0.8 10:0 11:0 
1 1:0.80107406 2:0.27586207 3:0.76923077 4:0 5:0 6:0 7:1 8:0.32608696 9:0.8 10:0 11:0 
1 1:0.33987238 2:0.35897436 3:0.53333333 4:1 5:1 6:0 7:0.45945946 8:1 9:1 10:1 11:1 
1 1:0.64543478 2:0.59259259 3:0.54545455 4:0 5:0 6:0 7:1 8:0 9:0 10:1 11:1 
1 1:0.94444444 2:0.85714286 3:0.85714286 4:1 5:1 6:1 7:1 8:1 9:1 10:1 11:1 
1 1:0.94444444 2:0.85714286 3:0.85714286 4:1 5:1 6:1 7:1 8:1 9:1 10:1 11:1 
1 1:0.94444444 2:0.85714286 3:0.85714286 4:1 5:1 6:1 7:1 8:1 9:1 10:1 11:1 
1 1:0.50680048 2:0.34666667 3:0.57142857 4:0 5:0 6:0 7:0.61764706 8:0.2037037 9:0.33333333 10:1 11:1 
1 1:0.33406095 2:0.26086957 3:0.625 4:0 5:0 6:0 7:0 8:0.11538462 9:0.23809524 10:1 11:1 
1 1:1 2:1 3:1 4:0 5:0 6:0 7:0.5 8:0.72566372 9:0.71428571 10:1 11:1 
1 1:1 2:1 3:1 4:0 5:0 6:0 7:0 8:0.58974359 9:0.41176471 10:1 11:1 
1 1:0.3519634 2:0.26315789 3:0.46153846 4:0 5:0 6:0 7:0 8:0.5890411 9:0.85714286 10:1 11:1 
1 1:0.62846386 2:0.38461538 3:0.72727273 4:0.66666667 5:1 6:0 7:0 8:0.65151515 9:1 10:0 11:1 
1 1:0.62846386 2:0.38461538 3:0.72727273 4:0.66666667 5:1 6:0 7:0 8:0.65151515 9:1 10:0 11:1 
1 1:0.60606061 2:0.23809524 3:0.13333333 4:0 5:0 6:0 7:0.90789474 8:0.42553191 9:0.5 10:1 11:1 
1 1:0.60606061 2:0.23809524 3:0.13333333 4:0 5:0 6:0 7:0.90789474 8:0.42553191 9:0.5 10:1 11:1 
1 1:0.63092337 2:0.59459459 3:0.66666667 4:0 5:0 6:0.5915493 7:0.66197183 8:0 9:0 10:1 11:1 
1 1:0.63092337 2:0.59459459 3:0.66666667 4:0 5:0 6:0.5915493 7:0.66197183 8:0 9:0 10:1 11:1 
1 1:0.63092337 2:0.59459459 3:0.66666667 4:0 5:0 6:0.5915493 7:0.66197183 8:0 9:0 10:1 11:1 
1 1:0.63092337 2:0.59459459 3:0.66666667 4:0 5:0 6:0.5915493 7:0.66197183 8:0 9:0 10:1 11:1 
1 1:0.63092337 2:0.59459459 3:0.66666667 4:0 5:0 6:0.5915493 7:0.66197183 8:0 9:0 10:1 11:1 
1 1:0.63092337 2:0.59459459 3:0.66666667 4:0 5:0 6:0.5915493 7:0.66197183 8:0 9:0 10:1 11:1 
1 1:0.63092337 2:0.59459459 3:0.66666667 4:0 5:0 6:0.5915493 7:0.66197183 8:0 9:0 10:1 11:1 
1 1:0.63092337 2:0.59459459 3:0.66666667 4:0 5:0 6:0.5915493 7:0.66197183 8:0 9:0 10:1 11:1 
1 1:0.63092337 2:0.59459459 3:0.66666667 4:0 5:0 6:0.5915493 7:0.66197183 8:0 9:0 10:1 11:1 
1 1:0.63092337 2:0.59459459 3:0.66666667 4:0 5:0 6:0.5915493 7:0.66197183 8:0 9:0 10:1 11:1 
1 1:0.72438108 2:0.63414634 3:0.71428571 4:1 5:1 6:0 7:1 8:0 9:0 10:1 11:1 
1 1:0.72438108 2:0.63414634 3:0.71428571 4:1 5:1 6:0 7:1 8:0 9:0 10:1 11:1 
1 1:0.72438108 2:0.63414634 3:0.71428571 4:1 5:1 6:0 7:1 8:0 9:0 10:1 11:1 
1 1:0.72438108 2:0.63414634 3:0.71428571 4:1 5:1 6:0 7:1 8:0 9:0 10:1 11:1 
1 1:0.72438108 2:0.63414634 3:0.71428571 4:1 5:1 6:0 7:1 8:0 9:0 10:1 11:1 
1 1:0.72438108 2:0.63414634 3:0.71428571 4:1 5:1 6:0 7:1 8:0 9:0 10:1 11:1 
1 1:0.64583333 2:0.3125 3:0.15384615 4:1 5:1 6:0 7:0.91666667 8:0.55284553 9:1 10:1 11:1 
1 1:0.64583333 2:0.3125 3:0.15384615 4:1 5:1 6:0 7:0.91666667 8:0.55284553 9:1 10:1 11:1 
1 1:0.9148416 2:0.8 3:0.81818182 4:1 5:1 6:0 7:1 8:0.62857143 9:1 10:1 11:1 
1 1:0.9148416 2:0.8 3:0.81818182 4:1 5:1 6:0 7:1 8:0.62857143 9:1 10:1 11:1 
1 1:0.9148416 2:0.8 3:0.81818182 4:1 5:1 6:0 7:1 8:0.62857143 9:1 10:1 11:1 
1 1:0.9148416 2:0.8 3:0.81818182 4:1 5:1 6:0 7:1 8:0.62857143 9:1 10:1 11:1 
1 1:0.95454545 2:0.93333333 3:0.88888889 4:0 5:0 6:0 7:0 8:0.61538462 9:1 10:0 11:0 
1 1:0.95454545 2:0.93333333 3:0.88888889 4:0 5:0 6:0 7:0 8:0.61538462 9:1 10:0 11:0 
1 1:0.95454545 2:0.93333333 3:0.88888889 4:0 5:0 6:0 7:0 8:0.61538462 9:1 10:0 11:0 
1 1:0.52331231 2:0.095238095 3:0.16666667 4:0 5:0 6:0 7:0.66666667 8:0.074766355 9:0.16666667 10:1 11:1 
1 1:0.52331231 2:0.095238095 3:0.16666667 4:0 5:0 6:0 7:0.66666667 8:0.074766355 9:0.16666667 10:1 11:1 
1 1:0.52331231 2:0.095238095 3:0.16666667 4:0 5:0 6:0 7:0.66666667 8:0.074766355 9:0.16666667 10:1 11:1 
1 1:0.52331231 2:0.095238095 3:0.16666667 4:0 5:0 6:0 7:0.66666667 8:0.074766355 9:0.16666667 10:1 11:1 
1 1:0.52331231 2:0.095238095 3:0.16666667 4:0 5:0 6:0 7:0.66666667 8:0.074766355 9:0.16666667 10:1 11:1 
1 1:0.52331231 2:0.095238095 3:0.16666667 4:0 5:0 6:0 7:0.66666667 8:0.074766355 9:0.16666667 10:1 11:1 
1 1:0.52331231 2:0.095238095 3:0.16666667 4:0 5:0 6:0 7:0.66666667 8:0.074766355 9:0.16666667 10:1 11:1 
1 1:0.52331231 2:0.095238095 3:0.16666667 4:0 5:0 6:0 7:0.66666667 8:0.074766355 9:0.16666667 10:1 11:1 
1 1:0.50647731 2:0.34782609 3:0.61538462 4:0 5:0 6:0 7:0 8:0.74157303 9:0.85714286 10:0 11:0 
1 1:0.50647731 2:0.34782609 3:0.61538462 4:0 5:0 6:0 7:0 8:0.74157303 9:0.85714286 10:0 11:0 
1 1:0.50647731 2:0.34782609 3:0.61538462 4:0 5:0 6:0 7:0 8:0.74157303 9:0.85714286 10:0 11:0 
1 1:0.35407179 2:0.078014184 3:0.11764706 4:0 5:0 6:0 7:0 8:0.27488152 9:0.47368421 10:1 11:1 
1 1:0.67799399 2:0.40816327 3:0.5 4:0 5:0 6:0 7:0.48684211 8:0.49681529 9:0.6 10:1 11:1 
1 1:0.67799399 2:0.40816327 3:0.5 4:0 5:0 6:0 7:0.48684211 8:0.49681529 9:0.6 10:1 11:1 
1 1:0.67799399 2:0.40816327 3:0.5 4:0 5:0 6:0 7:0.48684211 8:0.49681529 9:0.6 10:1 11:1 
1 1:0.67799399 2:0.40816327 3:0.5 4:0 5:0 6:0 7:0.48684211 8:0.49681529 9:0.6 10:1 11:1 
1 1:0.8529649 2:0.71428571 3:0.53333333 4:0 5:0 6:0 7:0 8:0.44444444 9:0.4 10:1 11:1 
1 1:0.8529649 2:0.71428571 3:0.53333333 4:0 5:0 6:0 7:0 8:0.44444444 9:0.4 10:1 11:1 
1 1:0.61764706 2:0.25352113 3:0.4 4:0 5:0 6:0.33333333 7:0.63333333 8:0.58730159 9:0.5 10:1 11:1 
1 1:0.59003659 2:0.43636364 3:0.76190476 4:0 5:0 6:0 7:0 8:0.18461538 9:0.15384615 10:1 11:1 
1 1:0.92307692 2:0.79245283 3:0.83333333 4:1 5:1 6:0 7:1 8:0.6013986 9:1 10:1 11:1 
1 1:0.92307692 2:0.79245283 3:0.83333333 4:1 5:1 6:0 7:1 8:0.6013986 9:1 10:1 11:1 
1 1:0.92307692 2:0.79245283 3:0.83333333 4:1 5:1 6:0 7:1 8:0.6013986 9:1 10:1 11:1 
1 1:0.92307692 2:0.79245283 3:0.83333333 4:1 5:1 6:0 7:1 8:0.6013986 9:1 10:1 11:1 
1 1:0.92307692 2:0.79245283 3:0.83333333 4:1 5:1 6:0 7:1 8:0.6013986 9:1 10:1 11:1 
1 1:0.92307692 2:0.79245283 3:0.83333333 4:1 5:1 6:0 7:1 8:0.6013986 9:1 10:1 11:1 
1 1:0.92307692 2:0.79245283 3:0.83333333 4:1 5:1 6:0 7:1 8:0.6013986 9:1 10:1 11:1 
1 1:0.92307692 2:0.79245283 3:0.83333333 4:1 5:1 6:0 7:1 8:0.6013986 9:1 10:1 11:1 
1 1:0.92307692 2:0.79245283 3:0.83333333 4:1 5:1 6:0 7:1 8:0.6013986 9:1 10:1 11:1 
1 1:0.92307692 2:0.79245283 3:0.83333333 4:1 5:1 6:0 7:1 8:0.6013986 9:1 10:1 11:1 
1 1:0.92307692 2:0.79245283 3:0.83333333 4:1 5:1 6:0 7:1 8:0.6013986 9:1 10:1 11:1 
1 1:0.92307692 2:0.79245283 3:0.83333333 4:1 5:1 6:0 7:1 8:0.6013986 9:1 10:1 11:1 
1 1:0.92307692 2:0.79245283 3:0.83333333 4:1 5:1 6:0 7:1 8:0.6013986 9:1 10:1 11:1 
1 1:0.92307692 2:0.79245283 3:0.83333333 4:1 5:1 6:0 7:1 8:0.6013986 9:1 10:1 11:1 
1 1:0.3469152 2:0.31578947 3:0.53333333 4:0 5:0 6:0 7:0 8:0.89617486 9:1 10:1 11:1 
1 1:0.3469152 2:0.31578947 3:0.53333333 4:0 5:0 6:0 7:0 8:0.89617486 9:1 10:1 11:1 
1 1:0.45295349 2:0.34567901 3:0.46666667 4:0 5:0 6:0 7:0 8:0.29292929 9:0.66666667 10:0 11:1 
1 1:0.45295349 2:0.34567901 3:0.46666667 4:0 5:0 6:0 7:0 8:0.29292929 9:0.66666667 10:0 11:1 
1 1:1 2:1 3:1 4:0 5:0 6:0 7:0.58139535 8:0.58333333 9:1 10:1 11:1 
1 1:0.95454545 2:0.93333333 3:0.88888889 4:0 5:0 6:0 7:0.6 8:0.50306748 9:0.71428571 10:1 11:1 
1 1:0.60959558 2:0.47368421 3:0.57142857 4:0 5:0 6:0 7:0.98571429 8:0.15384615 9:0 10:1 11:1 
1 1:0.77041564 2:0.56410256 3:0.68571429 4:1 5:1 6:1 7:1 8:0.77777778 9:0.83333333 10:1 11:1 
1 1:0.77041564 2:0.56410256 3:0.68571429 4:1 5:1 6:1 7:1 8:0.77777778 9:0.83333333 10:1 11:1 
1 1:0.77041564 2:0.56410256 3:0.68571429 4:1 5:1 6:1 7:1 8:0.77777778 9:0.83333333 10:1 11:1 
1 1:0.77041564 2:0.56410256 3:0.68571429 4:1 5:1 6:1 7:1 8:0.77777778 9:0.83333333 10:1 11:1 
1 1:1 2:1 3:1 4:0 5:0 6:0 7:0 8:0.51497006 9:1 10:1 11:1 
1 1:1 2:1 3:1 4:0 5:0 6:0 7:0 8:0.51497006 9:1 10:1 11:1 
1 1:1 2:1 3:1 4:0 5:0 6:0 7:0 8:0.51497006 9:1 10:1 11:1 
1 1:1 2:1 3:1 4:0 5:0 6:0 7:0 8:0.51497006 9:1 10:1 11:1 
1 1:0 2:0 3:0 4:0 5:0 6:0 7:0 8:0.41702128 9:0.4 10:1 11:1 
1 1:0.91666667 2:0.85714286 3:0.8 4:0 5:1 6:0 7:0.9 8:0.95238095 9:0.88888889 10:1 11:1 
1 1:0.7972973 2:0.65625 3:0.86956522 4:0 5:0 6:0 7:0.54166667 8:0.98850575 9:1 10:1 11:1 
1 1:0.7972973 2:0.65625 3:0.86956522 4:0 5:0 6:0 7:0.54166667 8:0.98850575 9:1 10:1 11:1 
1 1:1 2:1 3:1 4:0 5:0 6:0 7:0 8:0.24817518 9:0.16666667 10:1 11:1 
1 1:0.61640771 2:0.25806452 3:0.46153846 4:1 5:1 6:0 7:0 8:1 9:1 10:1 11:1 
1 1:0.88636364 2:0.73170732 3:0.66666667 4:0 5:0 6:0 7:0 8:0.44660194 9:0.42105263 10:0 11:0 
1 1:0.88636364 2:0.73170732 3:0.66666667 4:0 5:0 6:0 7:0 8:0.44660194 9:0.42105263 10:0 11:0 
1 1:0.88636364 2:0.73170732 3:0.66666667 4:0 5:0 6:0 7:0 8:0.44660194 9:0.42105263 10:0 11:0 
1 1:0.88636364 2:0.73170732 3:0.66666667 4:0 5:0 6:0 7:0 8:0.44660194 9:0.42105263 10:0 11:0 
1 1:0.49073968 2:0.44444444 3:0.72727273 4:0 5:0 6:0 7:0.63333333 8:0.33606557 9:0.63636364 10:1 11:1 
1 1:0.49073968 2:0.44444444 3:0.72727273 4:0 5:0 6:0 7:0.63333333 8:0.33606557 9:0.63636364 10:1 11:1 
1 1:0.49073968 2:0.44444444 3:0.72727273 4:0 5:0 6:0 7:0.63333333 8:0.33606557 9:0.63636364 10:1 11:1 
1 1:0.49073968 2:0.44444444 3:0.72727273 4:0 5:0 6:0 7:0.63333333 8:0.33606557 9:0.63636364 10:1 11:1 
1 1:0.49073968 2:0.44444444 3:0.72727273 4:0 5:0 6:0 7:0.63333333 8:0.33606557 9:0.63636364 10:1 11:1 
1 1:0.20596809 2:0 3:0.31578947 4:0 5:0 6:0 7:0 8:0.16049383 9:0.33333333 10:1 11:1 
1 1:0.88636364 2:0.75 3:0.66666667 4:0 5:0 6:0 7:0.30769231 8:0.54320988 9:0.54545455 10:0 11:0 
1 1:0.88636364 2:0.75 3:0.66666667 4:0 5:0 6:0 7:0.30769231 8:0.54320988 9:0.54545455 10:0 11:0 
1 1:0.88636364 2:0.75 3:0.66666667 4:0 5:0 6:0 7:0.30769231 8:0.54320988 9:0.54545455 10:0 11:0 
1 1:1 2:1 3:1 4:0 5:0 6:0 7:0 8:0.64044944 9:0.81818182 10:1 11:1 
1 1:1 2:1 3:1 4:0 5:0 6:0 7:0 8:0.64044944 9:0.81818182 10:1 11:1 
1 1:0.95454545 2:0.90909091 3:0.88888889 4:0 5:0 6:0 7:0 8:0.46478873 9:0.29411765 10:1 11:1 
1 1:0.57928801 2:0.35087719 3:0.58333333 4:0 5:0 6:0 7:0 8:0.65909091 9:0.8 10:0 11:0 
1 1:0.95454545 2:0.90909091 3:0.88888889 4:0 5:0 6:0 7:0 8:0.61428571 9:0.46153846 10:1 11:1 
1 1:0.57777778 2:0.17857143 3:0.10526316 4:0 5:0 6:0 7:1 8:0.45263158 9:0.53846154 10:0 11:1 
1 1:0.57777778 2:0.17857143 3:0.10526316 4:0 5:0 6:0 7:1 8:0.45263158 9:0.53846154 10:0 11:1 
1 1:0.76388889 2:0.6779661 3:0.8 4:0 5:0 6:0 7:0 8:0.61654135 9:1 10:1 11:1 
1 1:0.76388889 2:0.6779661 3:0.8 4:0 5:0 6:0 7:0 8:0.61654135 9:1 10:1 11:1 
1 1:0.62846386 2:0.49056604 3:0.72727273 4:0 5:0 6:0 7:0.65625 8:0.55652174 9:0.83333333 10:0 11:0 
1 1:0.62846386 2:0.49056604 3:0.72727273 4:0 5:0 6:0 7:0.65625 8:0.55652174 9:0.83333333 10:0 11:0 
1 1:0.62846386 2:0.49056604 3:0.72727273 4:0 5:0 6:0 7:0.65625 8:0.55652174 9:0.83333333 10:0 11:0 
1 1:0.62846386 2:0.49056604 3:0.72727273 4:0 5:0 6:0 7:0.65625 8:0.55652174 9:0.83333333 10:0 11:0 
1 1:0.62846386 2:0.49056604 3:0.72727273 4:0 5:0 6:0 7:0.65625 8:0.55652174 9:0.83333333 10:0 11:0 
1 1:0.62846386 2:0.49056604 3:0.72727273 4:0 5:0 6:0 7:0.65625 8:0.55652174 9:0.83333333 10:0 11:0 
1 1:0.62846386 2:0.49056604 3:0.72727273 4:0 5:0 6:0 7:0.65625 8:0.55652174 9:0.83333333 10:0 11:0 
1 1:0.62846386 2:0.49056604 3:0.72727273 4:0 5:0 6:0 7:0.65625 8:0.55652174 9:0.83333333 10:0 11:0 
1 1:0.62846386 2:0.49056604 3:0.72727273 4:0 5:0 6:0 7:0.65625 8:0.55652174 9:0.83333333 10:0 11:0 
1 1:0.62846386 2:0.49056604 3:0.72727273 4:0 5:0 6:0 7:0.65625 8:0.55652174 9:0.83333333 10:0 11:0 
1 1:0.35942306 2:0.29473684 3:0.52941176 4:0 5:0 6:0 7:0 8:0.4278607 9:0.85714286 10:0 11:1 
1 1:0.35942306 2:0.29473684 3:0.52941176 4:0 5:0 6:0 7:0 8:0.4278607 9:0.85714286 10:0 11:1 
1 1:0.35942306 2:0.29473684 3:0.52941176 4:0 5:0 6:0 7:0 8:0.4278607 9:0.85714286 10:0 11:1 
1 1:0.23627686 2:0.047619048 3:0.5 4:0 5:0 6:0 7:1 8:1 9:1 10:1 11:1 
1 1:0.23627686 2:0.047619048 3:0.5 4:0 5:0 6:0 7:1 8:1 9:1 10:1 11:1 
1 1:0.47104643 2:0.48780488 3:0.73684211 4:0 5:0 6:0 7:0 8:0.21857923 9:0.44444444 10:1 11:1 
1 1:0.47104643 2:0.48780488 3:0.73684211 4:0 5:0 6:0 7:0 8:0.21857923 9:0.44444444 10:1 11:1 
1 1:0.3634161 2:0.10126582 3:0.18803419 4:0 5:0 6:0 7:0.78125 8:0.33093525 9:0.42857143 10:1 11:1 
1 1:0.3634161 2:0.10126582 3:0.18803419 4:0 5:0 6:0 7:0.78125 8:0.33093525 9:0.42857143 10:1 11:1 
1 1:0.3634161 2:0.10126582 3:0.18803419 4:0 5:0 6:0 7:0.78125 8:0.33093525 9:0.42857143 10:1 11:1 
1 1:0.3634161 2:0.10126582 3:0.18803419 4:0 5:0 6:0 7:0.78125 8:0.33093525 9:0.42857143 10:1 11:1 
1 1:0.3634161 2:0.10126582 3:0.18803419 4:0 5:0 6:0 7:0.78125 8:0.33093525 9:0.42857143 10:1 11:1 
1 1:0.3634161 2:0.10126582 3:0.18803419 4:0 5:0 6:0 7:0.78125 8:0.33093525 9:0.42857143 10:1 11:1 
1 1:0.95580946 2:0.875 3:0.9 4:0 5:0 6:0 7:0.66666667 8:0.58394161 9:0.5 10:0 11:0 
1 1:0.95580946 2:0.875 3:0.9 4:0 5:0 6:0 7:0.66666667 8:0.58394161 9:0.5 10:0 11:0 
1 1:0.73020588 2:0.26315789 3:0.53333333 4:0 5:0 6:0 7:0 8:0.6013986 9:1 10:1 11:1 
1 1:0.73020588 2:0.26315789 3:0.53333333 4:0 5:0 6:0 7:0 8:0.6013986 9:1 10:1 11:1 
1 1:0.71010408 2:0.40909091 3:0.70588235 4:0 5:0 6:0 7:0.9122807 8:0.94488189 9:0.91666667 10:0 11:1 
1 1:0.35146637 2:0.071428571 3:0.10619469 4:0 5:0 6:0 7:0 8:0.37569061 9:0.53333333 10:1 11:1 
1 1:0.66972974 2:0.3030303 3:0.2 4:1 5:1 6:1 7:1 8:0.73913043 9:0.75 10:0 11:0 
1 1:0.66972974 2:0.3030303 3:0.2 4:1 5:1 6:1 7:1 8:0.73913043 9:0.75 10:0 11:0 
1 1:0.95454545 2:0.90909091 3:0.88888889 4:0 5:0 6:0 7:0 8:0.6779661 9:1 10:0 11:0 
1 1:0.95454545 2:0.90909091 3:0.88888889 4:0 5:0 6:0 7:0 8:0.6779661 9:1 10:0 11:0 
1 1:0.95454545 2:0.90909091 3:0.88888889 4:0 5:0 6:0 7:0 8:0.6779661 9:1 10:0 11:0 
1 1:0.70649226 2:0.35555556 3:0.66666667 4:1 5:1 6:1 7:1 8:1 9:1 10:1 11:1 
1 1:0.70649226 2:0.35555556 3:0.66666667 4:1 5:1 6:1 7:1 8:1 9:1 10:1 11:1 
1 1:0.67989212 2:0.71428571 3:0.76923077 4:0 5:0 6:0.27272727 7:0.54545455 8:0.27083333 9:0.5 10:1 11:1 
1 1:0.67989212 2:0.71428571 3:0.76923077 4:0 5:0 6:0.27272727 7:0.54545455 8:0.27083333 9:0.5 10:1 11:1 
1 1:0.67989212 2:0.71428571 3:0.76923077 4:0 5:0 6:0.27272727 7:0.54545455 8:0.27083333 9:0.5 10:1 11:1 
1 1:0.67989212 2:0.71428571 3:0.76923077 4:0 5:0 6:0.27272727 7:0.54545455 8:0.27083333 9:0.5 10:1 11:1 
1 1:0.67989212 2:0.71428571 3:0.76923077 4:0 5:0 6:0.27272727 7:0.54545455 8:0.27083333 9:0.5 10:1 11:1 
1 1:0.67989212 2:0.71428571 3:0.76923077 4:0 5:0 6:0.27272727 7:0.54545455 8:0.27083333 9:0.5 10:1 11:1 
1 1:0.67989212 2:0.71428571 3:0.76923077 4:0 5:0 6:0.27272727 7:0.54545455 8:0.27083333 9:0.5 10:1 11:1 
1 1:0.67989212 2:0.71428571 3:0.76923077 4:0 5:0 6:0.27272727 7:0.54545455 8:0.27083333 9:0.5 10:1 11:1 
1 1:0.95652174 2:0.91666667 3:0.9 4:0 5:0 6:1 7:1 8:1 9:1 10:1 11:1 
1 1:0.76829268 2:0.68571429 3:0.8 4:1 5:1 6:0 7:0 8:0.52023121 9:0.41176471 10:1 11:1 
1 1:0.4827969 2:0.1 3:0.42857143 4:0.66666667 5:1 6:0.86363636 7:0.95454545 8:0 9:0 10:1 11:1 
1 1:0.4827969 2:0.1 3:0.42857143 4:0.66666667 5:1 6:0.86363636 7:0.95454545 8:0 9:0 10:1 11:1 
1 1:0.4827969 2:0.1 3:0.42857143 4:0.66666667 5:1 6:0.86363636 7:0.95454545 8:0 9:0 10:1 11:1 
1 1:0.4827969 2:0.1 3:0.42857143 4:0.66666667 5:1 6:0.86363636 7:0.95454545 8:0 9:0 10:1 11:1 
1 1:0.4827969 2:0.1 3:0.42857143 4:0.66666667 5:1 6:0.86363636 7:0.95454545 8:0 9:0 10:1 11:1 
1 1:0.4827969 2:0.1 3:0.42857143 4:0.66666667 5:1 6:0.86363636 7:0.95454545 8:0 9:0 10:1 11:1 
1 1:0.4827969 2:0.1 3:0.42857143 4:0.66666667 5:1 6:0.86363636 7:0.95454545 8:0 9:0 10:1 11:1 
1 1:0.7875488 2:0.69387755 3:0.75 4:0.66666667 5:1 6:0.94117647 7:0.94117647 8:1 9:1 10:1 11:1 
1 1:0.3469152 2:0.35897436 3:0.53333333 4:0 5:0 6:0 7:0 8:0.84792627 9:0.93333333 10:1 11:1 
1 1:0.3469152 2:0.35897436 3:0.53333333 4:0 5:0 6:0 7:0 8:0.84792627 9:0.93333333 10:1 11:1 
1 1:0.49578964 2:0.66666667 3:0.875 4:0 5:0 6:0 7:0 8:0.17557252 9:0.125 10:1 11:1 
1 1:0.92941963 2:0.95378928 3:0.96482412 4:0 5:0 6:0 7:0 8:0.74551971 9:0.875 10:1 11:1 
1 1:0.61952434 2:0.83870968 3:0.85714286 4:0 5:0 6:0 7:1 8:1 9:1 10:1 11:1 
1 1:0.61952434 2:0.83870968 3:0.85714286 4:0 5:0 6:0 7:1 8:1 9:1 10:1 11:1 
1 1:0.61952434 2:0.83870968 3:0.85714286 4:0 5:0 6:0 7:1 8:1 9:1 10:1 11:1 
1 1:0.61952434 2:0.83870968 3:0.85714286 4:0 5:0 6:0 7:1 8:1 9:1 10:1 11:1 
1 1:0.37239489 2:0.29411765 3:0.46153846 4:0 5:0 6:0 7:0.64285714 8:0.73563218 9:0.83333333 10:0 11:0 
1 1:0.37239489 2:0.29411765 3:0.46153846 4:0 5:0 6:0 7:0.64285714 8:0.73563218 9:0.83333333 10:0 11:0 
1 1:0.37239489 2:0.29411765 3:0.46153846 4:0 5:0 6:0 7:0.64285714 8:0.73563218 9:0.83333333 10:0 11:0 
1 1:0.40186212 2:0.33333333 3:0.46153846 4:0 5:0 6:0 7:0.75 8:0.5620915 9:0.54545455 10:1 11:1 
1 1:0.40186212 2:0.33333333 3:0.46153846 4:0 5:0 6:0 7:0.75 8:0.5620915 9:0.54545455 10:1 11:1 
1 1:0.55724672 2:0.54545455 3:0.63157895 4:0.5 5:0.5 6:0 7:0.55555556 8:0 9:0 10:1 11:1 
1 1:0.55724672 2:0.54545455 3:0.63157895 4:0.5 5:0.5 6:0 7:0.55555556 8:0 9:0 10:1 11:1 
1 1:0.55724672 2:0.54545455 3:0.63157895 4:0.5 5:0.5 6:0 7:0.55555556 8:0 9:0 10:1 11:1 
1 1:0.55724672 2:0.54545455 3:0.63157895 4:0.5 5:0.5 6:0 7:0.55555556 8:0 9:0 10:1 11:1 
1 1:0.55724672 2:0.54545455 3:0.63157895 4:0.5 5:0.5 6:0 7:0.55555556 8:0 9:0 10:1 11:1 
1 1:0.55724672 2:0.54545455 3:0.63157895 4:0.5 5:0.5 6:0 7:0.55555556 8:0 9:0 10:1 11:1 
1 1:0.55724672 2:0.54545455 3:0.63157895 4:0.5 5:0.5 6:0 7:0.55555556 8:0 9:0 10:1 11:1 
1 1:0.62702505 2:0.21505376 3:0.32258065 4:0 5:0 6:1 7:1 8:0.55172414 9:0.44444444 10:1 11:1 
1 1:1 2:0.89361702 3:1 4:0 5:0 6:0 7:0 8:0.56410256 9:0.83333333 10:1 11:1 
1 1:1 2:0.89361702 3:1 4:0 5:0 6:0 7:0 8:0.56410256 9:0.83333333 10:1 11:1 
1 1:0.58072275 2:0.48484848 3:0.61538462 4:0 5:0 6:0 7:0 8:0.15789474 9:0.25 10:1 11:1 
1 1:0.58072275 2:0.48484848 3:0.61538462 4:0 5:0 6:0 7:0 8:0.15789474 9:0.25 10:1 11:1 
1 1:0.575 2:0.17021277 3:0.13333333 4:0 5:0 6:0 7:0.58333333 8:0.44036697 9:0.8 10:1 11:1 
1 1:0.575 2:0.17021277 3:0.13333333 4:0 5:0 6:0 7:0.58333333 8:0.44036697 9:0.8 10:1 11:1 
1 1:0.575 2:0.17021277 3:0.13333333 4:0 5:0 6:0 7:0.58333333 8:0.44036697 9:0.8 10:1 11:1 
1 1:0.575 2:0.17021277 3:0.13333333 4:0 5:0 6:0 7:0.58333333 8:0.44036697 9:0.8 10:1 11:1 
1 1:0.36115757 2:0.27777778 3:0.46153846 4:1 5:1 6:0 7:0 8:0.61702128 9:0.8 10:1 11:1 
1 1:0.36115757 2:0.27777778 3:0.46153846 4:1 5:1 6:0 7:0 8:0.61702128 9:0.8 10:1 11:1 
1 1:0.89130435 2:0.75555556 3:0.70588235 4:0.66666667 5:1 6:1 7:1 8:1 9:1 10:1 11:1 
1 1:0.89130435 2:0.75555556 3:0.70588235 4:0.66666667 5:1 6:1 7:1 8:1 9:1 10:1 11:1 
1 1:1 2:1 3:1 4:1 5:1 6:0 7:0 8:0.88172043 9:1 10:1 11:1 
1 1:1 2:1 3:1 4:1 5:1 6:0 7:0 8:0.88172043 9:1 10:1 11:1 
1 1:0.71356077 2:0.5 3:0.75 4:0 5:0 6:0 7:1 8:0.16071429 9:0 10:1 11:1 
1 1:0.92105263 2:0.88888889 3:0.76923077 4:0 5:0 6:0 7:0 8:0.62650602 9:0.8 10:1 11:1 
1 1:0.68313169 2:0.5 3:0.76190476 4:0 5:0 6:0 7:0 8:0.79487179 9:0.8 10:0 11:0 
1 1:0.92307692 2:0.88888889 3:0.83333333 4:0.5 5:0.5 6:0 7:1 8:0.40251572 9:0.83333333 10:1 11:1 
1 1:0.43476847 2:0.20408163 3:0.8 4:0.66666667 5:1 6:0 7:0 8:1 9:1 10:1 11:1 
1 1:0.43476847 2:0.20408163 3:0.8 4:0.66666667 5:1 6:0 7:0 8:1 9:1 10:1 11:1 
1 1:0.37566683 2:0.27777778 3:0.46153846 4:0 5:1 6:0 7:0 8:0.53543307 9:0.85714286 10:0 11:0 
1 1:0.37566683 2:0.27777778 3:0.46153846 4:0 5:1 6:0 7:0 8:0.53543307 9:0.85714286 10:0 11:0 
1 1:0.37566683 2:0.27777778 3:0.46153846 4:0 5:1 6:0 7:0 8:0.53543307 9:0.85714286 10:0 11:0 
1 1:1 2:1 3:1 4:0 5:0 6:0 7:0 8:0.48648649 9:0.5 10:1 11:1 
1 1:1 2:1 3:1 4:0 5:0 6:0 7:0 8:0.48648649 9:0.5 10:1 11:1 
1 1:1 2:1 3:1 4:0 5:0 6:0 7:0 8:0.48648649 9:0.5 10:1 11:1 
1 1:1 2:1 3:1 4:0 5:0 6:0 7:0 8:0.48648649 9:0.5 10:1 11:1 
1 1:1 2:1 3:1 4:0 5:0 6:0 7:0 8:0.48648649 9:0.5 10:1 11:1 
1 1:1 2:1 3:1 4:0 5:0 6:0 7:0 8:0.48648649 9:0.5 10:1 11:1 
1 1:1 2:1 3:1 4:0 5:0 6:0 7:0 8:0.48648649 9:0.5 10:1 11:1 
1 1:1 2:1 3:1 4:0 5:0 6:0 7:0 8:0.48648649 9:0.5 10:1 11:1 
1 1:1 2:1 3:1 4:0 5:0 6:0 7:0 8:0.48648649 9:0.5 10:1 11:1 
1 1:1 2:1 3:1 4:0 5:0 6:0 7:0 8:0.48648649 9:0.5 10:1 11:1 
1 1:1 2:1 3:1 4:0 5:0 6:0 7:0 8:0.48648649 9:0.5 10:1 11:1 
1 1:1 2:1 3:1 4:0 5:0 6:0 7:0 8:0.48648649 9:0.5 10:1 11:1 
1 1:1 2:1 3:1 4:0 5:0 6:0 7:0 8:0.48648649 9:0.5 10:1 11:1 
1 1:1 2:1 3:1 4:0 5:0 6:0 7:0 8:0.48648649 9:0.5 10:1 11:1 
1 1:0.88947317 2:0.8 3:0.7 4:0.5 5:0.5 6:0 7:0 8:1 9:1 10:1 11:1 
1 1:0.88947317 2:0.8 3:0.7 4:0.5 5:0.5 6:0 7:0 8:1 9:1 10:1 11:1 
1 1:0.60446156 2:0.26470588 3:0.41666667 4:0 5:0 6:0 7:0 8:0.58741259 9:1 10:1 11:1 
1 1:0.60446156 2:0.26470588 3:0.41666667 4:0 5:0 6:0 7:0 8:0.58741259 9:1 10:1 11:1 
1 1:0.83437809 2:0.68613139 3:0.7826087 4:0 5:0 6:0.83333333 7:0.94444444 8:0.80851064 9:1 10:1 11:1 
1 1:0.83437809 2:0.68613139 3:0.7826087 4:0 5:0 6:0.83333333 7:0.94444444 8:0.80851064 9:1 10:1 11:1 
1 1:0.83437809 2:0.68613139 3:0.7826087 4:0 5:0 6:0.83333333 7:0.94444444 8:0.80851064 9:1 10:1 11:1 
1 1:0.83437809 2:0.68613139 3:0.7826087 4:0 5:0 6:0.83333333 7:0.94444444 8:0.80851064 9:1 10:1 11:1 
1 1:0.88461538 2:0.82352941 3:0.72727273 4:0 5:1 6:0 7:1 8:0.85714286 9:1 10:1 11:1 
1 1:0.88461538 2:0.82352941 3:0.72727273 4:0 5:1 6:0 7:1 8:0.85714286 9:1 10:1 11:1 
1 1:0.88461538 2:0.82352941 3:0.72727273 4:0 5:1 6:0 7:1 8:0.85714286 9:1 10:1 11:1 
1 1:0.88461538 2:0.82352941 3:0.72727273 4:0 5:1 6:0 7:1 8:0.85714286 9:1 10:1 11:1 
1 1:0.69354839 2:0.4 3:0.33333333 4:0 5:0 6:0 7:0.54901961 8:0.06185567 9:0 10:1 11:1 
1 1:0.91666667 2:0.85714286 3:0.8 4:0 5:0 6:0 7:0.53333333 8:0.58730159 9:0.44444444 10:1 11:1 
1 1:1 2:0.7826087 3:1 4:0 5:0 6:0 7:0.6 8:0.52857143 9:0.5 10:1 11:1 
1 1:0.95454545 2:0.93333333 3:0.88888889 4:0 5:0 6:0 7:1 8:0.77477477 9:1 10:1 11:1 
1 1:1 2:1 3:1 4:0 5:0 6:0 7:0.61538462 8:0.43617021 9:0.5 10:1 11:1 
1 1:0.45295349 2:0.34567901 3:0.46666667 4:0 5:0 6:0 7:0 8:0.41777778 9:0.52941176 10:0 11:1 
1 1:0.65909091 2:0.35714286 3:0.18181818 4:0 5:0 6:0 7:0 8:0.43902439 9:0.35714286 10:1 11:1 
1 1:0.65909091 2:0.34482759 3:0.18181818 4:0 5:0 6:0 7:0 8:0.39534884 9:0.46153846 10:1 11:1 
1 1:0.76878664 2:0.55555556 3:0.625 4:0 5:0 6:0 7:0.75 8:0.66666667 9:0.7 10:0 11:0 
1 1:0.76878664 2:0.55555556 3:0.625 4:0 5:0 6:0 7:0.75 8:0.66666667 9:0.7 10:0 11:0 
1 1:0.49073968 2:0.44444444 3:0.72727273 4:0 5:0 6:0.2 7:0.66666667 8:0.44444444 9:0.5 10:1 11:1 
1 1:0.65494927 2:0.42857143 3:0.66666667 4:0 5:0 6:0 7:0.71428571 8:0.57142857 9:0.83333333 10:0 11:0 
1 1:0.65494927 2:0.42857143 3:0.66666667 4:0 5:0 6:0 7:0.71428571 8:0.57142857 9:0.83333333 10:0 11:0 
1 1:0.65494927 2:0.42857143 3:0.66666667 4:0 5:0 6:0 7:0.71428571 8:0.57142857 9:0.83333333 10:0 11:0 
1 1:1 2:1 3:1 4:1 5:1 6:0 7:1 8:1 9:1 10:1 11:1 
1 1:1 2:1 3:1 4:1 5:1 6:0 7:1 8:1 9:1 10:1 11:1 
1 1:1 2:1 3:1 4:1 5:1 6:0 7:1 8:1 9:1 10:1 11:1 
1 1:1 2:1 3:1 4:1 5:1 6:0 7:1 8:1 9:1 10:1 11:1 
1 1:1 2:1 3:1 4:1 5:1 6:0 7:1 8:1 9:1 10:1 11:1 
1 1:1 2:1 3:1 4:1 5:1 6:0 7:1 8:1 9:1 10:1 11:1 
1 1:1 2:1 3:1 4:1 5:1 6:0 7:1 8:1 9:1 10:1 11:1 
1 1:1 2:1 3:1 4:1 5:1 6:0 7:1 8:1 9:1 10:1 11:1 
1 1:1 2:1 3:1 4:1 5:1 6:0 7:1 8:1 9:1 10:1 11:1 
1 1:1 2:1 3:1 4:1 5:1 6:0 7:1 8:1 9:1 10:1 11:1 
1 1:1 2:1 3:1 4:1 5:1 6:0 7:1 8:1 9:1 10:1 11:1 
1 1:1 2:1 3:1 4:1 5:1 6:0 7:1 8:1 9:1 10:1 11:1 
1 1:1 2:1 3:1 4:1 5:1 6:0 7:1 8:1 9:1 10:1 11:1 
1 1:1 2:1 3:1 4:1 5:1 6:0 7:1 8:1 9:1 10:1 11:1 
1 1:1 2:1 3:1 4:1 5:1 6:0 7:1 8:1 9:1 10:1 11:1 
1 1:1 2:1 3:1 4:1 5:1 6:0 7:1 8:1 9:1 10:1 11:1 
1 1:1 2:1 3:1 4:1 5:1 6:0 7:1 8:1 9:1 10:1 11:1 
1 1:1 2:1 3:1 4:1 5:1 6:0 7:1 8:1 9:1 10:1 11:1 
1 1:1 2:1 3:1 4:1 5:1 6:0 7:1 8:1 9:1 10:1 11:1 
1 1:1 2:1 3:1 4:1 5:1 6:0 7:1 8:1 9:1 10:1 11:1 
1 1:1 2:1 3:1 4:1 5:1 6:0 7:1 8:1 9:1 10:1 11:1 
1 1:1 2:1 3:1 4:1 5:1 6:0 7:1 8:1 9:1 10:1 11:1 
1 1:1 2:1 3:1 4:1 5:1 6:0 7:1 8:1 9:1 10:1 11:1 
1 1:1 2:1 3:1 4:1 5:1 6:0 7:1 8:1 9:1 10:1 11:1 
1 1:1 2:1 3:1 4:1 5:1 6:0 7:1 8:1 9:1 10:1 11:1 
1 1:1 2:1 3:1 4:1 5:1 6:0 7:1 8:1 9:1 10:1 11:1 
1 1:1 2:1 3:1 4:1 5:1 6:0 7:1 8:1 9:1 10:1 11:1 
1 1:1 2:1 3:1 4:1 5:1 6:0 7:1 8:1 9:1 10:1 11:1 
1 1:1 2:1 3:1 4:1 5:1 6:0 7:1 8:1 9:1 10:1 11:1 
1 1:1 2:1 3:1 4:1 5:1 6:0 7:1 8:1 9:1 10:1 11:1 
1 1:1 2:1 3:1 4:1 5:1 6:0 7:1 8:1 9:1 10:1 11:1 
1 1:1 2:1 3:1 4:1 5:1 6:0 7:1 8:1 9:1 10:1 11:1 
1 1:1 2:1 3:1 4:1 5:1 6:0 7:1 8:1 9:1 10:1 11:1 
1 1:1 2:1 3:1 4:1 5:1 6:0 7:1 8:1 9:1 10:1 11:1 
1 1:1 2:1 3:1 4:1 5:1 6:0 7:1 8:1 9:1 10:1 11:1 
1 1:1 2:1 3:1 4:1 5:1 6:0 7:1 8:1 9:1 10:1 11:1 
1 1:1 2:1 3:1 4:1 5:1 6:0 7:1 8:1 9:1 10:1 11:1 
1 1:1 2:1 3:1 4:1 5:1 6:0 7:1 8:1 9:1 10:1 11:1 
1 1:1 2:1 3:1 4:1 5:1 6:0 7:1 8:1 9:1 10:1 11:1 
1 1:1 2:1 3:1 4:1 5:1 6:0 7:1 8:1 9:1 10:1 11:1 
1 1:1 2:1 3:1 4:1 5:1 6:0 7:1 8:1 9:1 10:1 11:1 
1 1:1 2:1 3:1 4:1 5:1 6:0 7:1 8:1 9:1 10:1 11:1 
1 1:1 2:1 3:1 4:1 5:1 6:0 7:1 8:1 9:1 10:1 11:1 
1 1:1 2:1 3:1 4:1 5:1 6:0 7:1 8:1 9:1 10:1 11:1 
1 1:1 2:1 3:1 4:1 5:1 6:0 7:1 8:1 9:1 10:1 11:1 
1 1:1 2:1 3:1 4:1 5:1 6:0 7:1 8:1 9:1 10:1 11:1 
1 1:1 2:1 3:1 4:1 5:1 6:0 7:1 8:1 9:1 10:1 11:1 
1 1:1 2:1 3:1 4:1 5:1 6:0 7:1 8:1 9:1 10:1 11:1 
1 1:1 2:1 3:1 4:1 5:1 6:0 7:1 8:1 9:1 10:1 11:1 
1 1:1 2:1 3:1 4:1 5:1 6:0 7:1 8:1 9:1 10:1 11:1 
1 1:1 2:1 3:1 4:1 5:1 6:0 7:1 8:1 9:1 10:1 11:1 
1 1:1 2:1 3:1 4:1 5:1 6:0 7:1 8:1 9:1 10:1 11:1 
1 1:1 2:1 3:1 4:1 5:1 6:0 7:1 8:1 9:1 10:1 11:1 
1 1:1 2:1 3:1 4:1 5:1 6:0 7:1 8:1 9:1 10:1 11:1 
1 1:1 2:1 3:1 4:1 5:1 6:0 7:1 8:1 9:1 10:1 11:1 
1 1:1 2:1 3:1 4:1 5:1 6:0 7:1 8:1 9:1 10:1 11:1 
1 1:1 2:1 3:1 4:1 5:1 6:0 7:1 8:1 9:1 10:1 11:1 
1 1:1 2:1 3:1 4:1 5:1 6:0 7:1 8:1 9:1 10:1 11:1 
1 1:1 2:1 3:1 4:1 5:1 6:0 7:1 8:1 9:1 10:1 11:1 
1 1:1 2:1 3:1 4:1 5:1 6:0 7:1 8:1 9:1 10:1 11:1 
1 1:1 2:1 3:1 4:1 5:1 6:0 7:1 8:1 9:1 10:1 11:1 
1 1:1 2:1 3:1 4:1 5:1 6:0 7:1 8:1 9:1 10:1 11:1 
1 1:1 2:1 3:1 4:1 5:1 6:0 7:1 8:1 9:1 10:1 11:1 
1 1:1 2:1 3:1 4:1 5:1 6:0 7:1 8:1 9:1 10:1 11:1 
1 1:1 2:1 3:1 4:1 5:1 6:0 7:1 8:1 9:1 10:1 11:1 
1 1:1 2:1 3:1 4:1 5:1 6:0 7:1 8:1 9:1 10:1 11:1 
1 1:1 2:1 3:1 4:1 5:1 6:0 7:1 8:1 9:1 10:1 11:1 
1 1:1 2:1 3:1 4:1 5:1 6:0 7:1 8:1 9:1 10:1 11:1 
1 1:1 2:1 3:1 4:1 5:1 6:0 7:1 8:1 9:1 10:1 11:1 
1 1:1 2:1 3:1 4:1 5:1 6:0 7:1 8:1 9:1 10:1 11:1 
1 1:1 2:1 3:1 4:1 5:1 6:0 7:1 8:1 9:1 10:1 11:1 
1 1:1 2:1 3:1 4:1 5:1 6:0 7:1 8:1 9:1 10:1 11:1 
1 1:1 2:1 3:1 4:1 5:1 6:0 7:1 8:1 9:1 10:1 11:1 
1 1:1 2:1 3:1 4:1 5:1 6:0 7:1 8:1 9:1 10:1 11:1 
1 1:1 2:1 3:1 4:1 5:1 6:0 7:1 8:1 9:1 10:1 11:1 
1 1:1 2:1 3:1 4:1 5:1 6:0 7:1 8:1 9:1 10:1 11:1 
1 1:1 2:1 3:1 4:1 5:1 6:0 7:1 8:1 9:1 10:1 11:1 
1 1:1 2:1 3:1 4:1 5:1 6:0 7:1 8:1 9:1 10:1 11:1 
1 1:1 2:1 3:1 4:1 5:1 6:0 7:1 8:1 9:1 10:1 11:1 
1 1:1 2:1 3:1 4:1 5:1 6:0 7:1 8:1 9:1 10:1 11:1 
1 1:1 2:1 3:1 4:1 5:1 6:0 7:1 8:1 9:1 10:1 11:1 
1 1:1 2:1 3:1 4:1 5:1 6:0 7:1 8:1 9:1 10:1 11:1 
1 1:1 2:1 3:1 4:1 5:1 6:0 7:1 8:1 9:1 10:1 11:1 
1 1:1 2:1 3:1 4:1 5:1 6:0 7:1 8:1 9:1 10:1 11:1 
1 1:1 2:1 3:1 4:1 5:1 6:0 7:1 8:1 9:1 10:1 11:1 
1 1:1 2:1 3:1 4:1 5:1 6:0 7:1 8:1 9:1 10:1 11:1 
1 1:1 2:1 3:1 4:1 5:1 6:0 7:1 8:1 9:1 10:1 11:1 
1 1:1 2:1 3:1 4:1 5:1 6:0 7:1 8:1 9:1 10:1 11:1 
1 1:1 2:1 3:1 4:1 5:1 6:0 7:1 8:1 9:1 10:1 11:1 
1 1:1 2:1 3:1 4:1 5:1 6:0 7:1 8:1 9:1 10:1 11:1 
1 1:1 2:1 3:1 4:1 5:1 6:0 7:1 8:1 9:1 10:1 11:1 
1 1:1 2:1 3:1 4:1 5:1 6:0 7:1 8:1 9:1 10:1 11:1 
1 1:1 2:1 3:1 4:1 5:1 6:0 7:1 8:1 9:1 10:1 11:1 
1 1:1 2:1 3:1 4:1 5:1 6:0 7:1 8:1 9:1 10:1 11:1 
1 1:1 2:1 3:1 4:1 5:1 6:0 7:1 8:1 9:1 10:1 11:1 
1 1:1 2:1 3:1 4:1 5:1 6:0 7:1 8:1 9:1 10:1 11:1 
1 1:1 2:1 3:1 4:1 5:1 6:0 7:1 8:1 9:1 10:1 11:1 
1 1:1 2:1 3:1 4:1 5:1 6:0 7:1 8:1 9:1 10:1 11:1 
1 1:1 2:1 3:1 4:1 5:1 6:0 7:1 8:1 9:1 10:1 11:1 
1 1:1 2:1 3:1 4:1 5:1 6:0 7:1 8:1 9:1 10:1 11:1 
1 1:1 2:1 3:1 4:1 5:1 6:0 7:1 8:1 9:1 10:1 11:1 
1 1:1 2:1 3:1 4:1 5:1 6:0 7:1 8:1 9:1 10:1 11:1 
1 1:1 2:1 3:1 4:1 5:1 6:0 7:1 8:1 9:1 10:1 11:1 
1 1:1 2:1 3:1 4:1 5:1 6:0 7:1 8:1 9:1 10:1 11:1 
1 1:1 2:1 3:1 4:1 5:1 6:0 7:1 8:1 9:1 10:1 11:1 
1 1:1 2:1 3:1 4:1 5:1 6:0 7:1 8:1 9:1 10:1 11:1 
1 1:1 2:1 3:1 4:1 5:1 6:0 7:1 8:1 9:1 10:1 11:1 
1 1:1 2:1 3:1 4:1 5:1 6:0 7:1 8:1 9:1 10:1 11:1 
1 1:1 2:1 3:1 4:1 5:1 6:0 7:1 8:1 9:1 10:1 11:1 
1 1:1 2:1 3:1 4:1 5:1 6:0 7:1 8:1 9:1 10:1 11:1 
1 1:1 2:1 3:1 4:1 5:1 6:0 7:1 8:1 9:1 10:1 11:1 
1 1:1 2:1 3:1 4:1 5:1 6:0 7:1 8:1 9:1 10:1 11:1 
1 1:1 2:1 3:1 4:1 5:1 6:0 7:1 8:1 9:1 10:1 11:1 
1 1:1 2:1 3:1 4:1 5:1 6:0 7:1 8:1 9:1 10:1 11:1 
1 1:1 2:1 3:1 4:1 5:1 6:0 7:1 8:1 9:1 10:1 11:1 
1 1:1 2:1 3:1 4:1 5:1 6:0 7:1 8:1 9:1 10:1 11:1 
1 1:1 2:1 3:1 4:1 5:1 6:0 7:1 8:1 9:1 10:1 11:1 
1 1:1 2:1 3:1 4:1 5:1 6:0 7:1 8:1 9:1 10:1 11:1 
1 1:1 2:1 3:1 4:1 5:1 6:0 7:1 8:1 9:1 10:1 11:1 
1 1:1 2:1 3:1 4:1 5:1 6:0 7:1 8:1 9:1 10:1 11:1 
1 1:1 2:1 3:1 4:1 5:1 6:0 7:1 8:1 9:1 10:1 11:1 
1 1:1 2:1 3:1 4:1 5:1 6:0 7:1 8:1 9:1 10:1 11:1 
1 1:1 2:1 3:1 4:1 5:1 6:0 7:1 8:1 9:1 10:1 11:1 
1 1:1 2:1 3:1 4:1 5:1 6:0 7:1 8:1 9:1 10:1 11:1 
1 1:1 2:1 3:1 4:1 5:1 6:0 7:1 8:1 9:1 10:1 11:1 
1 1:1 2:1 3:1 4:1 5:1 6:0 7:1 8:1 9:1 10:1 11:1 
1 1:1 2:1 3:1 4:1 5:1 6:0 7:1 8:1 9:1 10:1 11:1 
1 1:1 2:1 3:1 4:1 5:1 6:0 7:1 8:1 9:1 10:1 11:1 
1 1:1 2:1 3:1 4:1 5:1 6:0 7:1 8:1 9:1 10:1 11:1 
1 1:1 2:1 3:1 4:1 5:1 6:0 7:1 8:1 9:1 10:1 11:1 
1 1:1 2:1 3:1 4:1 5:1 6:0 7:1 8:1 9:1 10:1 11:1 
1 1:1 2:1 3:1 4:1 5:1 6:0 7:1 8:1 9:1 10:1 11:1 
1 1:1 2:1 3:1 4:1 5:1 6:0 7:1 8:1 9:1 10:1 11:1 
1 1:1 2:1 3:1 4:1 5:1 6:0 7:1 8:1 9:1 10:1 11:1 
1 1:1 2:1 3:1 4:1 5:1 6:0 7:1 8:1 9:1 10:1 11:1 
1 1:1 2:1 3:1 4:1 5:1 6:0 7:1 8:1 9:1 10:1 11:1 
1 1:1 2:1 3:1 4:1 5:1 6:0 7:1 8:1 9:1 10:1 11:1 
1 1:1 2:1 3:1 4:1 5:1 6:0 7:1 8:1 9:1 10:1 11:1 
1 1:1 2:1 3:1 4:1 5:1 6:0 7:1 8:1 9:1 10:1 11:1 
1 1:1 2:1 3:1 4:1 5:1 6:0 7:1 8:1 9:1 10:1 11:1 
1 1:1 2:1 3:1 4:1 5:1 6:0 7:1 8:1 9:1 10:1 11:1 
1 1:1 2:1 3:1 4:1 5:1 6:0 7:1 8:1 9:1 10:1 11:1 
1 1:1 2:1 3:1 4:1 5:1 6:0 7:1 8:1 9:1 10:1 11:1 
1 1:1 2:1 3:1 4:1 5:1 6:0 7:1 8:1 9:1 10:1 11:1 
1 1:1 2:1 3:1 4:1 5:1 6:0 7:1 8:1 9:1 10:1 11:1 
1 1:1 2:1 3:1 4:1 5:1 6:0 7:1 8:1 9:1 10:1 11:1 
1 1:1 2:1 3:1 4:1 5:1 6:0 7:1 8:1 9:1 10:1 11:1 
1 1:1 2:1 3:1 4:1 5:1 6:0 7:1 8:1 9:1 10:1 11:1 
1 1:1 2:1 3:1 4:1 5:1 6:0 7:1 8:1 9:1 10:1 11:1 
1 1:1 2:1 3:1 4:1 5:1 6:0 7:1 8:1 9:1 10:1 11:1 
1 1:1 2:1 3:1 4:1 5:1 6:0 7:1 8:1 9:1 10:1 11:1 
1 1:1 2:1 3:1 4:1 5:1 6:0 7:1 8:1 9:1 10:1 11:1 
1 1:1 2:1 3:1 4:1 5:1 6:0 7:1 8:1 9:1 10:1 11:1 
1 1:1 2:1 3:1 4:1 5:1 6:0 7:1 8:1 9:1 10:1 11:1 
1 1:1 2:1 3:1 4:1 5:1 6:0 7:1 8:1 9:1 10:1 11:1 
1 1:1 2:1 3:1 4:1 5:1 6:0 7:1 8:1 9:1 10:1 11:1 
1 1:1 2:1 3:1 4:1 5:1 6:0 7:1 8:1 9:1 10:1 11:1 
1 1:1 2:1 3:1 4:1 5:1 6:0 7:1 8:1 9:1 10:1 11:1 
1 1:1 2:1 3:1 4:1 5:1 6:0 7:1 8:1 9:1 10:1 11:1 
1 1:1 2:1 3:1 4:1 5:1 6:0 7:1 8:1 9:1 10:1 11:1 
1 1:1 2:1 3:1 4:1 5:1 6:0 7:1 8:1 9:1 10:1 11:1 
1 1:1 2:1 3:1 4:1 5:1 6:0 7:1 8:1 9:1 10:1 11:1 
1 1:1 2:1 3:1 4:1 5:1 6:0 7:1 8:1 9:1 10:1 11:1 
1 1:1 2:1 3:1 4:1 5:1 6:0 7:1 8:1 9:1 10:1 11:1 
1 1:1 2:1 3:1 4:1 5:1 6:0 7:1 8:1 9:1 10:1 11:1 
1 1:1 2:1 3:1 4:1 5:1 6:0 7:1 8:1 9:1 10:1 11:1 
1 1:1 2:1 3:1 4:1 5:1 6:0 7:1 8:1 9:1 10:1 11:1 
1 1:1 2:1 3:1 4:1 5:1 6:0 7:1 8:1 9:1 10:1 11:1 
1 1:1 2:1 3:1 4:1 5:1 6:0 7:1 8:1 9:1 10:1 11:1 
1 1:1 2:1 3:1 4:1 5:1 6:0 7:1 8:1 9:1 10:1 11:1 
1 1:1 2:1 3:1 4:1 5:1 6:0 7:1 8:1 9:1 10:1 11:1 
1 1:1 2:1 3:1 4:1 5:1 6:0 7:1 8:1 9:1 10:1 11:1 
1 1:1 2:1 3:1 4:1 5:1 6:0 7:1 8:1 9:1 10:1 11:1 
1 1:1 2:1 3:1 4:1 5:1 6:0 7:1 8:1 9:1 10:1 11:1 
1 1:1 2:1 3:1 4:1 5:1 6:0 7:1 8:1 9:1 10:1 11:1 
1 1:1 2:1 3:1 4:1 5:1 6:0 7:1 8:1 9:1 10:1 11:1 
1 1:1 2:1 3:1 4:1 5:1 6:0 7:1 8:1 9:1 10:1 11:1 
1 1:1 2:1 3:1 4:1 5:1 6:0 7:1 8:1 9:1 10:1 11:1 
1 1:1 2:1 3:1 4:1 5:1 6:0 7:1 8:1 9:1 10:1 11:1 
1 1:1 2:1 3:1 4:1 5:1 6:0 7:1 8:1 9:1 10:1 11:1 
1 1:1 2:1 3:1 4:1 5:1 6:0 7:1 8:1 9:1 10:1 11:1 
1 1:1 2:1 3:1 4:1 5:1 6:0 7:1 8:1 9:1 10:1 11:1 
1 1:1 2:1 3:1 4:1 5:1 6:0 7:1 8:1 9:1 10:1 11:1 
1 1:1 2:1 3:1 4:1 5:1 6:0 7:1 8:1 9:1 10:1 11:1 
1 1:1 2:1 3:1 4:1 5:1 6:0 7:1 8:1 9:1 10:1 11:1 
1 1:1 2:1 3:1 4:1 5:1 6:0 7:1 8:1 9:1 10:1 11:1 
1 1:1 2:1 3:1 4:1 5:1 6:0 7:1 8:1 9:1 10:1 11:1 
1 1:1 2:1 3:1 4:1 5:1 6:0 7:1 8:1 9:1 10:1 11:1 
1 1:1 2:1 3:1 4:1 5:1 6:0 7:1 8:1 9:1 10:1 11:1 
1 1:1 2:1 3:1 4:1 5:1 6:0 7:1 8:1 9:1 10:1 11:1 
1 1:1 2:1 3:1 4:1 5:1 6:0 7:1 8:1 9:1 10:1 11:1 
1 1:1 2:1 3:1 4:1 5:1 6:0 7:1 8:1 9:1 10:1 11:1 
1 1:1 2:1 3:1 4:1 5:1 6:0 7:1 8:1 9:1 10:1 11:1 
1 1:1 2:1 3:1 4:1 5:1 6:0 7:1 8:1 9:1 10:1 11:1 
1 1:1 2:1 3:1 4:1 5:1 6:0 7:1 8:1 9:1 10:1 11:1 
1 1:1 2:1 3:1 4:1 5:1 6:0 7:1 8:1 9:1 10:1 11:1 
1 1:1 2:1 3:1 4:1 5:1 6:0 7:1 8:1 9:1 10:1 11:1 
1 1:1 2:1 3:1 4:1 5:1 6:0 7:1 8:1 9:1 10:1 11:1 
1 1:1 2:1 3:1 4:1 5:1 6:0 7:1 8:1 9:1 10:1 11:1 
1 1:1 2:1 3:1 4:1 5:1 6:0 7:1 8:1 9:1 10:1 11:1 
1 1:1 2:1 3:1 4:1 5:1 6:0 7:1 8:1 9:1 10:1 11:1 
1 1:1 2:1 3:1 4:1 5:1 6:0 7:1 8:1 9:1 10:1 11:1 
1 1:1 2:1 3:1 4:1 5:1 6:0 7:1 8:1 9:1 10:1 11:1 
1 1:1 2:1 3:1 4:1 5:1 6:0 7:1 8:1 9:1 10:1 11:1 
1 1:1 2:1 3:1 4:1 5:1 6:0 7:1 8:1 9:1 10:1 11:1 
1 1:1 2:1 3:1 4:1 5:1 6:0 7:1 8:1 9:1 10:1 11:1 
1 1:1 2:1 3:1 4:1 5:1 6:0 7:1 8:1 9:1 10:1 11:1 
1 1:1 2:1 3:1 4:1 5:1 6:0 7:1 8:1 9:1 10:1 11:1 
1 1:1 2:1 3:1 4:1 5:1 6:0 7:1 8:1 9:1 10:1 11:1 
1 1:1 2:1 3:1 4:1 5:1 6:0 7:1 8:1 9:1 10:1 11:1 
1 1:1 2:1 3:1 4:1 5:1 6:0 7:1 8:1 9:1 10:1 11:1 
1 1:1 2:1 3:1 4:1 5:1 6:0 7:1 8:1 9:1 10:1 11:1 
1 1:1 2:1 3:1 4:1 5:1 6:0 7:1 8:1 9:1 10:1 11:1 
1 1:1 2:1 3:1 4:1 5:1 6:0 7:1 8:1 9:1 10:1 11:1 
1 1:1 2:1 3:1 4:1 5:1 6:0 7:1 8:1 9:1 10:1 11:1 
1 1:1 2:1 3:1 4:1 5:1 6:0 7:1 8:1 9:1 10:1 11:1 
1 1:1 2:1 3:1 4:1 5:1 6:0 7:1 8:1 9:1 10:1 11:1 
1 1:1 2:1 3:1 4:1 5:1 6:0 7:1 8:1 9:1 10:1 11:1 
1 1:1 2:1 3:1 4:1 5:1 6:0 7:1 8:1 9:1 10:1 11:1 
1 1:1 2:1 3:1 4:1 5:1 6:0 7:1 8:1 9:1 10:1 11:1 
1 1:1 2:1 3:1 4:1 5:1 6:0 7:1 8:1 9:1 10:1 11:1 
1 1:1 2:1 3:1 4:1 5:1 6:0 7:1 8:1 9:1 10:1 11:1 
1 1:1 2:1 3:1 4:1 5:1 6:0 7:1 8:1 9:1 10:1 11:1 
1 1:1 2:1 3:1 4:1 5:1 6:0 7:1 8:1 9:1 10:1 11:1 
1 1:1 2:1 3:1 4:1 5:1 6:0 7:1 8:1 9:1 10:1 11:1 
1 1:1 2:1 3:1 4:1 5:1 6:0 7:1 8:1 9:1 10:1 11:1 
1 1:1 2:1 3:1 4:1 5:1 6:0 7:1 8:1 9:1 10:1 11:1 
1 1:1 2:1 3:1 4:1 5:1 6:0 7:1 8:1 9:1 10:1 11:1 
1 1:1 2:1 3:1 4:1 5:1 6:0 7:1 8:1 9:1 10:1 11:1 
1 1:1 2:1 3:1 4:1 5:1 6:0 7:1 8:1 9:1 10:1 11:1 
1 1:1 2:1 3:1 4:1 5:1 6:0 7:1 8:1 9:1 10:1 11:1 
1 1:1 2:1 3:1 4:1 5:1 6:0 7:1 8:1 9:1 10:1 11:1 
1 1:1 2:1 3:1 4:1 5:1 6:0 7:1 8:1 9:1 10:1 11:1 
1 1:1 2:1 3:1 4:1 5:1 6:0 7:1 8:1 9:1 10:1 11:1 
1 1:1 2:1 3:1 4:1 5:1 6:0 7:1 8:1 9:1 10:1 11:1 
1 1:1 2:1 3:1 4:1 5:1 6:0 7:1 8:1 9:1 10:1 11:1 
1 1:1 2:1 3:1 4:1 5:1 6:0 7:1 8:1 9:1 10:1 11:1 
1 1:1 2:1 3:1 4:1 5:1 6:0 7:1 8:1 9:1 10:1 11:1 
1 1:1 2:1 3:1 4:1 5:1 6:0 7:1 8:1 9:1 10:1 11:1 
1 1:1 2:1 3:1 4:1 5:1 6:0 7:1 8:1 9:1 10:1 11:1 
1 1:1 2:1 3:1 4:1 5:1 6:0 7:1 8:1 9:1 10:1 11:1 
1 1:1 2:1 3:1 4:1 5:1 6:0 7:1 8:1 9:1 10:1 11:1 
1 1:1 2:1 3:1 4:1 5:1 6:0 7:1 8:1 9:1 10:1 11:1 
1 1:1 2:1 3:1 4:1 5:1 6:0 7:1 8:1 9:1 10:1 11:1 
1 1:1 2:1 3:1 4:1 5:1 6:0 7:1 8:1 9:1 10:1 11:1 
1 1:1 2:1 3:1 4:1 5:1 6:0 7:1 8:1 9:1 10:1 11:1 
1 1:1 2:1 3:1 4:1 5:1 6:0 7:1 8:1 9:1 10:1 11:1 
1 1:1 2:1 3:1 4:1 5:1 6:0 7:1 8:1 9:1 10:1 11:1 
1 1:1 2:1 3:1 4:1 5:1 6:0 7:1 8:1 9:1 10:1 11:1 
1 1:1 2:1 3:1 4:1 5:1 6:0 7:1 8:1 9:1 10:1 11:1 
1 1:1 2:1 3:1 4:1 5:1 6:0 7:1 8:1 9:1 10:1 11:1 
1 1:1 2:1 3:1 4:1 5:1 6:0 7:1 8:1 9:1 10:1 11:1 
1 1:1 2:1 3:1 4:1 5:1 6:0 7:1 8:1 9:1 10:1 11:1 
1 1:1 2:1 3:1 4:1 5:1 6:0 7:1 8:1 9:1 10:1 11:1 
1 1:1 2:1 3:1 4:1 5:1 6:0 7:1 8:1 9:1 10:1 11:1 
1 1:1 2:1 3:1 4:1 5:1 6:0 7:1 8:1 9:1 10:1 11:1 
1 1:1 2:1 3:1 4:1 5:1 6:0 7:1 8:1 9:1 10:1 11:1 
1 1:1 2:1 3:1 4:1 5:1 6:0 7:1 8:1 9:1 10:1 11:1 
1 1:1 2:1 3:1 4:1 5:1 6:0 7:1 8:1 9:1 10:1 11:1 
1 1:1 2:1 3:1 4:1 5:1 6:0 7:1 8:1 9:1 10:1 11:1 
1 1:1 2:1 3:1 4:1 5:1 6:0 7:1 8:1 9:1 10:1 11:1 
1 1:1 2:1 3:1 4:1 5:1 6:0 7:1 8:1 9:1 10:1 11:1 
1 1:1 2:1 3:1 4:1 5:1 6:0 7:1 8:1 9:1 10:1 11:1 
1 1:1 2:1 3:1 4:1 5:1 6:0 7:1 8:1 9:1 10:1 11:1 
1 1:0.59383233 2:0.53333333 3:0.76190476 4:0 5:0 6:0 7:0 8:1 9:1 10:0 11:0 
1 1:0.44231564 2:0.06993007 3:0.078431373 4:0 5:0 6:0 7:0 8:0.11764706 9:0.28571429 10:1 11:1 
1 1:0.44231564 2:0.06993007 3:0.078431373 4:0 5:0 6:0 7:0 8:0.11764706 9:0.28571429 10:1 11:1 
1 1:0.44231564 2:0.06993007 3:0.078431373 4:0 5:0 6:0 7:0 8:0.11764706 9:0.28571429 10:1 11:1 
1 1:1 2:1 3:1 4:0 5:0 6:0 7:0 8:0.8627451 9:0.875 10:0 11:0 
1 1:1 2:1 3:1 4:0 5:0 6:0 7:0 8:0.8627451 9:0.875 10:0 11:0 
1 1:1 2:1 3:1 4:0 5:0 6:0 7:0 8:0.8627451 9:0.875 10:0 11:0 
1 1:1 2:1 3:1 4:0 5:0 6:0 7:0 8:0.8627451 9:0.875 10:0 11:0 
1 1:1 2:1 3:1 4:0 5:0 6:0 7:0 8:0.8627451 9:0.875 10:0 11:0 
1 1:1 2:1 3:1 4:0 5:0 6:0 7:0 8:0.8627451 9:0.875 10:0 11:0 
1 1:1 2:1 3:1 4:0 5:0 6:0 7:0 8:0.8627451 9:0.875 10:0 11:0 
1 1:1 2:1 3:1 4:0 5:0 6:0 7:0 8:0.8627451 9:0.875 10:0 11:0 
1 1:1 2:1 3:1 4:0 5:0 6:0 7:0 8:0.8627451 9:0.875 10:0 11:0 
1 1:1 2:1 3:1 4:0 5:0 6:0 7:0 8:0.8627451 9:0.875 10:0 11:0 
1 1:0.5625 2:0.074074074 3:0.22222222 4:0 5:0 6:0.2 7:1 8:0.69047619 9:0.8 10:1 11:1 
1 1:0.5625 2:0.074074074 3:0.22222222 4:0 5:0 6:0.2 7:1 8:0.69047619 9:0.8 10:1 11:1 
1 1:0.95580946 2:0.875 3:0.9 4:0 5:0 6:0 7:0.75 8:0.66153846 9:0.7 10:0 11:0 
1 1:0.95580946 2:0.875 3:0.9 4:0 5:0 6:0 7:0.75 8:0.66153846 9:0.7 10:0 11:0 
1 1:0.88461538 2:0.82352941 3:0.72727273 4:0 5:1 6:0 7:1 8:0.43137255 9:1 10:1 11:1 
1 1:0.88461538 2:0.82352941 3:0.72727273 4:0 5:1 6:0 7:1 8:0.43137255 9:1 10:1 11:1 
1 1:0.88461538 2:0.82352941 3:0.72727273 4:0 5:1 6:0 7:1 8:0.43137255 9:1 10:1 11:1 
1 1:0.88461538 2:0.82352941 3:0.72727273 4:0 5:1 6:0 7:1 8:0.43137255 9:1 10:1 11:1 
1 1:0.48441683 2:0.28228228 3:0.34188034 4:0 5:1 6:0 7:0 8:0.63755459 9:0.625 10:0 11:0 
1 1:0.48441683 2:0.28228228 3:0.34188034 4:0 5:1 6:0 7:0 8:0.63755459 9:0.625 10:0 11:0 
1 1:0.90792277 2:0.71428571 3:0.8 4:0 5:0 6:0 7:1 8:0.5308642 9:1 10:1 11:1 
1 1:0.90792277 2:0.71428571 3:0.8 4:0 5:0 6:0 7:1 8:0.5308642 9:1 10:1 11:1 
1 1:0.90792277 2:0.71428571 3:0.8 4:0 5:0 6:0 7:1 8:0.5308642 9:1 10:1 11:1 
1 1:0.90792277 2:0.71428571 3:0.8 4:0 5:0 6:0 7:1 8:0.5308642 9:1 10:1 11:1 
1 1:1 2:0.89361702 3:1 4:1 5:1 6:0 7:0 8:1 9:1 10:1 11:1 
1 1:1 2:0.89361702 3:1 4:1 5:1 6:0 7:0 8:1 9:1 10:1 11:1 
1 1:1 2:0.89361702 3:1 4:1 5:1 6:0 7:0 8:1 9:1 10:1 11:1 
1 1:1 2:0.89361702 3:1 4:1 5:1 6:0 7:0 8:1 9:1 10:1 11:1 
1 1:1 2:0.89361702 3:1 4:1 5:1 6:0 7:0 8:1 9:1 10:1 11:1 
1 1:1 2:0.89361702 3:1 4:0 5:0 6:0 7:0 8:0.3583815 9:0.27777778 10:1 11:1 
1 1:1 2:0.89361702 3:1 4:0 5:0 6:0 7:0 8:0.3583815 9:0.27777778 10:1 11:1 
1 1:1 2:0.76190476 3:1 4:1 5:1 6:1 7:1 8:1 9:1 10:1 11:1 
1 1:1 2:0.76190476 3:1 4:1 5:1 6:1 7:1 8:1 9:1 10:1 11:1 
1 1:1 2:0.76190476 3:1 4:1 5:1 6:1 7:1 8:1 9:1 10:1 11:1 
1 1:1 2:0.76190476 3:1 4:1 5:1 6:1 7:1 8:1 9:1 10:1 11:1 
1 1:1 2:0.76190476 3:1 4:1 5:1 6:1 7:1 8:1 9:1 10:1 11:1 
1 1:1 2:0.76190476 3:1 4:1 5:1 6:1 7:1 8:1 9:1 10:1 11:1 
1 1:1 2:0.76190476 3:1 4:1 5:1 6:1 7:1 8:1 9:1 10:1 11:1 
1 1:1 2:0.76190476 3:1 4:1 5:1 6:1 7:1 8:1 9:1 10:1 11:1 
1 1:1 2:0.76190476 3:1 4:1 5:1 6:1 7:1 8:1 9:1 10:1 11:1 
1 1:1 2:0.76190476 3:1 4:1 5:1 6:1 7:1 8:1 9:1 10:1 11:1 
1 1:1 2:0.76190476 3:1 4:1 5:1 6:1 7:1 8:1 9:1 10:1 11:1 
1 1:1 2:0.76190476 3:1 4:1 5:1 6:1 7:1 8:1 9:1 10:1 11:1 
1 1:1 2:0.76190476 3:1 4:1 5:1 6:1 7:1 8:1 9:1 10:1 11:1 
1 1:1 2:0.76190476 3:1 4:1 5:1 6:1 7:1 8:1 9:1 10:1 11:1 
1 1:1 2:0.76190476 3:1 4:1 5:1 6:1 7:1 8:1 9:1 10:1 11:1 
1 1:1 2:0.76190476 3:1 4:1 5:1 6:1 7:1 8:1 9:1 10:1 11:1 
1 1:1 2:0.76190476 3:1 4:1 5:1 6:1 7:1 8:1 9:1 10:1 11:1 
1 1:1 2:0.76190476 3:1 4:1 5:1 6:1 7:1 8:1 9:1 10:1 11:1 
1 1:1 2:0.76190476 3:1 4:1 5:1 6:1 7:1 8:1 9:1 10:1 11:1 
1 1:1 2:0.76190476 3:1 4:1 5:1 6:1 7:1 8:1 9:1 10:1 11:1 
1 1:1 2:0.76190476 3:1 4:1 5:1 6:1 7:1 8:1 9:1 10:1 11:1 
1 1:1 2:0.76190476 3:1 4:1 5:1 6:1 7:1 8:1 9:1 10:1 11:1 
1 1:1 2:0.76190476 3:1 4:1 5:1 6:1 7:1 8:1 9:1 10:1 11:1 
1 1:1 2:0.76190476 3:1 4:1 5:1 6:1 7:1 8:1 9:1 10:1 11:1 
1 1:1 2:0.76190476 3:1 4:1 5:1 6:1 7:1 8:1 9:1 10:1 11:1 
1 1:1 2:0.76190476 3:1 4:1 5:1 6:1 7:1 8:1 9:1 10:1 11:1 
1 1:1 2:0.76190476 3:1 4:1 5:1 6:1 7:1 8:1 9:1 10:1 11:1 
1 1:1 2:0.76190476 3:1 4:1 5:1 6:1 7:1 8:1 9:1 10:1 11:1 
1 1:1 2:0.7826087 3:1 4:0 5:0 6:0 7:0.63333333 8:0.58741259 9:0.72727273 10:0 11:1 
1 1:1 2:0.7826087 3:1 4:0 5:0 6:0 7:0.63333333 8:0.58741259 9:0.72727273 10:0 11:1 
1 1:0.70731707 2:0.47619048 3:0.5 4:1 5:1 6:0 7:0 8:0.73542601 9:0.76470588 10:0 11:0 
1 1:0.70731707 2:0.47619048 3:0.5 4:1 5:1 6:0 7:0 8:0.73542601 9:0.76470588 10:0 11:0 
1 1:0.70731707 2:0.47619048 3:0.5 4:1 5:1 6:0 7:0 8:0.73542601 9:0.76470588 10:0 11:0 
1 1:0.70731707 2:0.47619048 3:0.5 4:1 5:1 6:0 7:0 8:0.73542601 9:0.76470588 10:0 11:0 
1 1:0.71356077 2:0.5 3:0.75 4:0 5:0 6:0 7:0 8:0.15730337 9:0 10:1 11:1 
1 1:0.71356077 2:0.5 3:0.75 4:0 5:0 6:0 7:0 8:0.15730337 9:0 10:1 11:1 
1 1:0.71356077 2:0.5 3:0.75 4:0 5:0 6:0 7:0 8:0.15730337 9:0 10:1 11:1 
1 1:0.79311353 2:0.45 3:0.55555556 4:0 5:0 6:0 7:0.75 8:0.55681818 9:0.54545455 10:1 11:1 
1 1:0.6888133 2:0.54054054 3:0.75 4:0 5:0 6:0 7:0.8125 8:0.091503268 9:0.28571429 10:1 11:1 
1 1:0.6888133 2:0.54054054 3:0.75 4:0 5:0 6:0 7:0.8125 8:0.091503268 9:0.28571429 10:1 11:1 
1 1:0.6888133 2:0.54054054 3:0.75 4:0 5:0 6:0 7:0.8125 8:0.091503268 9:0.28571429 10:1 11:1 
1 1:0.6888133 2:0.54054054 3:0.75 4:0 5:0 6:0 7:0.8125 8:0.091503268 9:0.28571429 10:1 11:1 
1 1:0.6888133 2:0.54054054 3:0.75 4:0 5:0 6:0 7:0.8125 8:0.091503268 9:0.28571429 10:1 11:1 
1 1:0.6888133 2:0.54054054 3:0.75 4:0 5:0 6:0 7:0.8125 8:0.091503268 9:0.28571429 10:1 11:1 
1 1:0.6888133 2:0.54054054 3:0.75 4:0 5:0 6:0 7:0.8125 8:0.091503268 9:0.28571429 10:1 11:1 
1 1:0.33987238 2:0.35897436 3:0.53333333 4:1 5:1 6:0 7:0 8:0.53146853 9:0.5 10:1 11:1 
1 1:0.33987238 2:0.35897436 3:0.53333333 4:1 5:1 6:0 7:0 8:0.53146853 9:0.5 10:1 11:1 
1 1:0.33987238 2:0.35897436 3:0.53333333 4:1 5:1 6:0 7:0 8:0.53146853 9:0.5 10:1 11:1 
1 1:0.33987238 2:0.35897436 3:0.53333333 4:1 5:1 6:0 7:0 8:0.53146853 9:0.5 10:1 11:1 
1 1:0.37566683 2:0.27777778 3:0.46153846 4:1 5:1 6:0 7:0.70588235 8:1 9:1 10:0 11:0 
1 1:0.90909091 2:0.84210526 3:0.8 4:0 5:0 6:0 7:0 8:0.079207921 9:0 10:1 11:1 
1 1:0.90909091 2:0.84210526 3:0.8 4:0 5:0 6:0 7:0 8:0.079207921 9:0 10:1 11:1 
1 1:0.90909091 2:0.84210526 3:0.8 4:0 5:0 6:0 7:0 8:0.079207921 9:0 10:1 11:1 
1 1:0.90909091 2:0.84210526 3:0.8 4:0 5:0 6:0 7:0 8:0.079207921 9:0 10:1 11:1 
1 1:0.54814746 2:0.23529412 3:0.5 4:0 5:0 6:0 7:0 8:0.12 9:0.16666667 10:1 11:1 
1 1:0.54814746 2:0.23529412 3:0.5 4:0 5:0 6:0 7:0 8:0.12 9:0.16666667 10:1 11:1 
1 1:0.54814746 2:0.23529412 3:0.5 4:0 5:0 6:0 7:0 8:0.12 9:0.16666667 10:1 11:1 
1 1:0.35327566 2:0.068493151 3:0.11428571 4:0 5:0 6:0 7:0 8:0.1986755 9:0.4 10:1 11:1 
1 1:0.35327566 2:0.068493151 3:0.11428571 4:0 5:0 6:0 7:0 8:0.1986755 9:0.4 10:1 11:1 
1 1:0.35327566 2:0.068493151 3:0.11428571 4:0 5:0 6:0 7:0 8:0.1986755 9:0.4 10:1 11:1 
1 1:0.46050676 2:0.375 3:0.43478261 4:0 5:0 6:0 7:0 8:0.21311475 9:0.44444444 10:1 11:1 
1 1:0.46050676 2:0.375 3:0.43478261 4:0 5:0 6:0 7:0 8:0.21311475 9:0.44444444 10:1 11:1 
1 1:0.46050676 2:0.375 3:0.43478261 4:0 5:0 6:0 7:0 8:0.21311475 9:0.44444444 10:1 11:1 
1 1:0.46050676 2:0.375 3:0.43478261 4:0 5:0 6:0 7:0 8:0.21311475 9:0.44444444 10:1 11:1 
1 1:0.91666667 2:0.85714286 3:0.8 4:0 5:0 6:0 7:1 8:0.34632035 9:0.36 10:1 11:1 
1 1:0.77272727 2:0.57142857 3:0.28571429 4:0 5:0 6:1 7:1 8:1 9:1 10:0 11:0 
1 1:0.77272727 2:0.57142857 3:0.28571429 4:0 5:0 6:1 7:1 8:1 9:1 10:0 11:0 
1 1:0.77272727 2:0.57142857 3:0.28571429 4:0 5:0 6:1 7:1 8:1 9:1 10:0 11:0 
1 1:0.77272727 2:0.57142857 3:0.28571429 4:0 5:0 6:1 7:1 8:1 9:1 10:0 11:0 
1 1:0.68372472 2:0.31578947 3:0.5 4:1 5:1 6:0 7:1 8:1 9:1 10:1 11:1 
1 1:0.68372472 2:0.31578947 3:0.5 4:1 5:1 6:0 7:1 8:1 9:1 10:1 11:1 
1 1:1 2:1 3:1 4:0.66666667 5:1 6:1 7:1 8:1 9:1 10:1 11:1 
1 1:1 2:1 3:1 4:0.66666667 5:1 6:1 7:1 8:1 9:1 10:1 11:1 
1 1:1 2:1 3:1 4:0.66666667 5:1 6:1 7:1 8:1 9:1 10:1 11:1 
1 1:1 2:1 3:1 4:0.66666667 5:1 6:1 7:1 8:1 9:1 10:1 11:1 
1 1:1 2:1 3:1 4:0.66666667 5:1 6:1 7:1 8:1 9:1 10:1 11:1 
1 1:1 2:1 3:1 4:0.66666667 5:1 6:1 7:1 8:1 9:1 10:1 11:1 
1 1:1 2:1 3:1 4:0.66666667 5:1 6:1 7:1 8:1 9:1 10:1 11:1 
1 1:1 2:1 3:1 4:0.66666667 5:1 6:1 7:1 8:1 9:1 10:1 11:1 
1 1:1 2:1 3:1 4:0.66666667 5:1 6:1 7:1 8:1 9:1 10:1 11:1 
1 1:1 2:1 3:1 4:0.66666667 5:1 6:1 7:1 8:1 9:1 10:1 11:1 
1 1:1 2:1 3:1 4:0.66666667 5:1 6:1 7:1 8:1 9:1 10:1 11:1 
1 1:1 2:1 3:1 4:0.66666667 5:1 6:1 7:1 8:1 9:1 10:1 11:1 
1 1:1 2:1 3:1 4:0.66666667 5:1 6:1 7:1 8:1 9:1 10:1 11:1 
1 1:1 2:1 3:1 4:0.66666667 5:1 6:1 7:1 8:1 9:1 10:1 11:1 
1 1:1 2:1 3:1 4:0.66666667 5:1 6:1 7:1 8:1 9:1 10:1 11:1 
1 1:1 2:1 3:1 4:0.66666667 5:1 6:1 7:1 8:1 9:1 10:1 11:1 
1 1:1 2:1 3:1 4:0.66666667 5:1 6:1 7:1 8:1 9:1 10:1 11:1 
1 1:1 2:1 3:1 4:0.66666667 5:1 6:1 7:1 8:1 9:1 10:1 11:1 
1 1:1 2:1 3:1 4:0.66666667 5:1 6:1 7:1 8:1 9:1 10:1 11:1 
1 1:1 2:1 3:1 4:0.66666667 5:1 6:1 7:1 8:1 9:1 10:1 11:1 
1 1:1 2:1 3:1 4:0.66666667 5:1 6:1 7:1 8:1 9:1 10:1 11:1 
1 1:1 2:1 3:1 4:0.66666667 5:1 6:1 7:1 8:1 9:1 10:1 11:1 
1 1:1 2:1 3:1 4:0.66666667 5:1 6:1 7:1 8:1 9:1 10:1 11:1 
1 1:1 2:1 3:1 4:0.66666667 5:1 6:1 7:1 8:1 9:1 10:1 11:1 
1 1:1 2:1 3:1 4:0.66666667 5:1 6:1 7:1 8:1 9:1 10:1 11:1 
1 1:1 2:1 3:1 4:0.66666667 5:1 6:1 7:1 8:1 9:1 10:1 11:1 
1 1:1 2:1 3:1 4:0.66666667 5:1 6:1 7:1 8:1 9:1 10:1 11:1 
1 1:1 2:1 3:1 4:0.66666667 5:1 6:1 7:1 8:1 9:1 10:1 11:1 
1 1:1 2:1 3:1 4:0.66666667 5:1 6:1 7:1 8:1 9:1 10:1 11:1 
1 1:1 2:1 3:1 4:0.66666667 5:1 6:1 7:1 8:1 9:1 10:1 11:1 
1 1:1 2:1 3:1 4:0.66666667 5:1 6:1 7:1 8:1 9:1 10:1 11:1 
1 1:1 2:1 3:1 4:0.66666667 5:1 6:1 7:1 8:1 9:1 10:1 11:1 
1 1:1 2:1 3:1 4:0.66666667 5:1 6:1 7:1 8:1 9:1 10:1 11:1 
1 1:1 2:1 3:1 4:0.66666667 5:1 6:1 7:1 8:1 9:1 10:1 11:1 
1 1:1 2:1 3:1 4:0.66666667 5:1 6:1 7:1 8:1 9:1 10:1 11:1 
1 1:1 2:1 3:1 4:0.66666667 5:1 6:1 7:1 8:1 9:1 10:1 11:1 
1 1:1 2:1 3:1 4:0.66666667 5:1 6:1 7:1 8:1 9:1 10:1 11:1 
1 1:1 2:1 3:1 4:0.66666667 5:1 6:1 7:1 8:1 9:1 10:1 11:1 
1 1:1 2:1 3:1 4:0.66666667 5:1 6:1 7:1 8:1 9:1 10:1 11:1 
1 1:1 2:1 3:1 4:0.66666667 5:1 6:1 7:1 8:1 9:1 10:1 11:1 
1 1:1 2:1 3:1 4:0.66666667 5:1 6:1 7:1 8:1 9:1 10:1 11:1 
1 1:1 2:1 3:1 4:0.66666667 5:1 6:1 7:1 8:1 9:1 10:1 11:1 
1 1:1 2:1 3:1 4:0.66666667 5:1 6:1 7:1 8:1 9:1 10:1 11:1 
1 1:1 2:1 3:1 4:0.66666667 5:1 6:1 7:1 8:1 9:1 10:1 11:1 
1 1:1 2:1 3:1 4:0.66666667 5:1 6:1 7:1 8:1 9:1 10:1 11:1 
1 1:1 2:1 3:1 4:0.66666667 5:1 6:1 7:1 8:1 9:1 10:1 11:1 
1 1:0.71010408 2:0.40909091 3:0.70588235 4:0 5:0 6:0 7:0 8:0.49689441 9:0.61538462 10:0 11:1 
1 1:0.71010408 2:0.40909091 3:0.70588235 4:0 5:0 6:0 7:0 8:0.49689441 9:0.61538462 10:0 11:1 
1 1:0.83160024 2:0.68421053 3:0.83333333 4:1 5:1 6:0 7:1 8:1 9:1 10:1 11:1 
1 1:0.83160024 2:0.68421053 3:0.83333333 4:1 5:1 6:0 7:1 8:1 9:1 10:1 11:1 
1 1:0.83160024 2:0.68421053 3:0.83333333 4:1 5:1 6:0 7:1 8:1 9:1 10:1 11:1 
1 1:0.83160024 2:0.68421053 3:0.83333333 4:1 5:1 6:0 7:1 8:1 9:1 10:1 11:1 
1 1:0.83160024 2:0.68421053 3:0.83333333 4:1 5:1 6:0 7:1 8:1 9:1 10:1 11:1 
1 1:0.83160024 2:0.68421053 3:0.83333333 4:1 5:1 6:0 7:1 8:1 9:1 10:1 11:1 
1 1:0.83160024 2:0.68421053 3:0.83333333 4:1 5:1 6:0 7:1 8:1 9:1 10:1 11:1 
1 1:0.83160024 2:0.68421053 3:0.83333333 4:1 5:1 6:0 7:1 8:1 9:1 10:1 11:1 
1 1:1 2:1 3:1 4:0 5:0 6:0 7:0.61538462 8:0.98850575 9:1 10:1 11:1 
1 1:0.88461538 2:0.82352941 3:0.72727273 4:0 5:1 6:0 7:1 8:0.64705882 9:1 10:1 11:1 
1 1:0.88461538 2:0.82352941 3:0.72727273 4:0 5:1 6:0 7:1 8:0.64705882 9:1 10:1 11:1 
1 1:0.22061265 2:0.27777778 3:0.5 4:0 5:0 6:0 7:0.51923077 8:1 9:1 10:1 11:1 
1 1:0.22061265 2:0.27777778 3:0.5 4:0 5:0 6:0 7:0.51923077 8:1 9:1 10:1 11:1 
1 1:0.68098561 2:0.52747253 3:0.66666667 4:0 5:0 6:1 7:1 8:0.80851064 9:1 10:1 11:1 
1 1:0.60977775 2:0.45833333 3:0.6 4:1 5:1 6:0.78571429 7:0.85714286 8:1 9:1 10:1 11:1 
