svm_type c_svc
kernel_type polynomial
degree 3
gamma 0.125
coef0 0.5
nr_class 2
total_sv 42
rho 1.7250788638143404
label 1 0
nr_sv 20 22
SV
8.0 0:0.0 1:0.48095238095238096 2:0.4077669902912621 3:0.3 4:0.0 5:0.75 
8.0 0:1.0 1:0.0 2:0.7928994082840237 3:0.8571428571428571 4:0.8 5:0.9285714285714286 
8.0 0:1.0 1:0.0 2:0.2857142857142857 3:0.47619047619047616 4:1.0 5:0.8695652173913043 
8.0 0:0.0 1:0.28679245283018867 2:0.5882352941176471 3:0.8888888888888888 4:1.0 5:1.0 
3.1368072327288616 0:0.0 1:0.5930599369085173 2:0.7741935483870968 3:0.8888888888888888 4:1.0 5:1.0 
8.0 0:0.0 1:0.5714285714285714 2:0.8979591836734694 3:1.0 4:0.0 5:0.4583333333333333 
8.0 0:1.0 1:0.5695067264573991 2:0.6666666666666666 3:0.5714285714285714 4:0.0 5:0.0 
8.0 0:0.0 1:0.1797752808988764 2:0.0 3:0.2857142857142857 4:0.0 5:0.0 
8.0 0:0.0 1:0.12048192771084337 2:0.0 3:0.0 4:0.0 5:0.0 
8.0 0:0.0 1:0.0 2:1.0 3:1.0 4:0.0 5:1.0 
8.0 0:0.0 1:0.0 2:1.0 3:1.0 4:0.0 5:1.0 
8.0 0:0.0 1:0.89 2:0.1111111111111111 3:0.2 4:0.0 5:0.75 
0.9213544017541879 0:1.0 1:0.6209677419354839 2:0.0 3:0.0 4:1.0 5:0.0 
8.0 0:1.0 1:0.0 2:0.8 3:0.8571428571428571 4:0.0 5:0.0 
8.0 0:1.0 1:0.632183908045977 2:0.0 3:0.0 4:0.0 5:1.0 
8.0 0:1.0 1:0.5979381443298969 2:0.0 3:0.0 4:1.0 5:0.0 
8.0 0:0.0 1:0.504424778761062 2:0.25 3:1.0 4:1.0 5:0.0 
2.065582590397728 0:0.0 1:0.5625 2:1.0 3:1.0 4:1.0 5:1.0 
8.0 0:0.0 1:0.6623376623376623 2:1.0 3:1.0 4:0.0 5:1.0 
8.0 0:0.0 1:0.6623376623376623 2:1.0 3:1.0 4:0.0 5:1.0 
-8.0 0:1.0 1:0.1746031746031746 2:0.14814814814814814 3:0.6 4:0.0 5:0.5333333333333333 
-8.0 0:1.0 1:0.1746031746031746 2:0.14814814814814814 3:0.6 4:0.0 5:0.5833333333333334 
-8.0 0:1.0 1:0.06792452830188679 2:0.45454545454545453 3:0.5 4:0.0 5:0.0 
-8.0 0:0.0 1:0.3064516129032258 2:1.0 3:1.0 4:0.0 5:1.0 
-7.34860709458854 0:0.0 1:0.26666666666666666 2:1.0 3:1.0 4:0.0 5:1.0 
-1.6725164371015921 0:1.0 1:0.042704626334519574 2:0.15789473684210525 3:0.3333333333333333 4:0.5 5:0.0 
-8.0 0:1.0 1:0.2857142857142857 2:0.0 3:0.0 4:0.5 5:0.36363636363636365 
-8.0 0:1.0 1:0.11070110701107011 2:0.0 3:0.0 4:0.6666666666666666 5:0.41379310344827586 
-8.0 0:1.0 1:0.2727272727272727 2:0.0 3:0.0 4:0.5 5:0.0 
-0.45280343961267505 0:1.0 1:0.2465753424657534 2:0.10526315789473684 3:0.23076923076923078 4:0.0 5:0.9090909090909091 
-0.6125860365995688 0:0.0 1:0.4 2:0.10752688172043011 3:0.375 4:0.0 5:0.5 
-8.0 0:0.0 1:0.38333333333333336 2:0.0 3:0.16666666666666666 4:0.0 5:0.0 
-0.04532818300796526 0:0.0 1:0.3404255319148936 2:0.0 3:0.5 4:0.0 5:0.0 
-8.0 0:0.0 1:0.3076923076923077 2:0.2 3:1.0 4:0.5 5:1.0 
-5.154245471995914 0:0.0 1:0.04807692307692308 2:1.0 3:1.0 4:1.0 5:0.0 
-7.33193143397936 0:0.0 1:0.04807692307692308 2:1.0 3:1.0 4:1.0 5:0.0 
-7.505726127995165 0:0.0 1:0.06965174129353234 2:1.0 3:1.0 4:1.0 5:1.0 
-8.0 0:0.0 1:0.2802547770700637 2:1.0 3:1.0 4:0.5 5:1.0 
-8.0 0:0.0 1:0.3829787234042553 2:0.6666666666666666 3:0.6666666666666666 4:0.0 5:1.0 
-8.0 0:0.0 1:0.3829787234042553 2:0.6666666666666666 3:0.6666666666666666 4:0.0 5:1.0 
-8.0 0:0.0 1:0.3829787234042553 2:0.6666666666666666 3:0.6666666666666666 4:0.0 5:1.0 
-8.0 0:0.0 1:0.3829787234042553 2:0.6666666666666666 3:0.6666666666666666 4:0.0 5:1.0 
