svm_type c_svc
kernel_type linear
nr_class 2
total_sv 4757
rho -3.65819
label 0 1
probA -2.18129
probB -0.648332
nr_sv 2378 2379
SV
1 1:0.74193548 2:0.72727273 3:0 4:0 5:0.70175439 6:1 
1 1:0.7 2:0.84210526 3:1 4:0 5:1 6:0.64285714 
1 1:0 2:0.23529412 3:1 4:1 5:0.23684211 6:0.78 
1 1:0.77272727 2:1 3:0 4:1 5:0.2962963 6:0.82608696 
1 1:0.77272727 2:1 3:0 4:1 5:0.2962963 6:0.82608696 
1 1:0.77272727 2:1 3:0 4:1 5:0.2962963 6:0.76 
1 1:0.55813953 2:0.75 3:1 4:1 5:0.71111111 6:1 
1 1:0.55813953 2:0.75 3:1 4:1 5:0.71111111 6:1 
1 1:0.16 2:0.3 3:1 4:0 5:0.43181818 6:0.5 
1 1:0.55813953 2:0.875 3:0 4:1 5:0.7173913 6:0.85 
1 1:0.55813953 2:0.75 3:1 4:0.5 5:0.71111111 6:1 
1 1:0.42307692 2:0.42857143 3:1 4:1 5:0.71111111 6:1 
1 1:0.55813953 2:0.875 3:1 4:1 5:0.7173913 6:0.85 
1 1:0.55813953 2:0.875 3:1 4:1 5:0.7173913 6:0.85 
1 1:0.2 2:0.26666667 3:1 4:1 5:0.12820513 6:0.68 
1 1:0.10714286 2:0.25 3:1 4:1 5:0.18181818 6:0.8 
1 1:0.11111111 2:0.28571429 3:1 4:1 5:0.18181818 6:0.84 
1 1:0.42307692 2:0.42857143 3:1 4:0 5:0.71111111 6:0.85 
1 1:0.29268293 2:0.47058824 3:1 4:1 5:0.12820513 6:1 
1 1:0.12765957 2:0.33333333 3:1 4:1 5:0.18181818 6:0.94117647 
1 1:0.13333333 2:0.5 3:1 4:1 5:0.18181818 6:1 
1 1:0.55813953 2:0.75 3:1 4:0 5:0.71111111 6:1 
1 1:0.12244898 2:0.31578947 3:1 4:0 5:0.44186047 6:0.70588235 
1 1:0.76190476 2:0.8 3:0 4:0.8 5:0.71111111 6:1 
1 1:0.57142857 2:0.82352941 3:0 4:1 5:0.97777778 6:0.85 
1 1:0.66666667 2:0.76190476 3:1 4:0 5:0.15 6:1 
1 1:0.60869565 2:0.73684211 3:1 4:1 5:0.97826087 6:1 
1 1:0.42307692 2:0.42857143 3:1 4:1 5:0.55913978 6:1 
1 1:0.55813953 2:0.75 3:1 4:1 5:0.63366337 6:1 
1 1:0.55813953 2:0.75 3:1 4:1 5:0.63366337 6:1 
1 1:0.55813953 2:0.75 3:1 4:1 5:0.71111111 6:1 
1 1:0.55813953 2:0.75 3:1 4:1 5:0.71111111 6:1 
1 1:0.55813953 2:0.75 3:1 4:1 5:0.71111111 6:1 
1 1:0.4 2:0.5 3:1 4:1 5:0.71111111 6:1 
1 1:0.4 2:0.5 3:1 4:1 5:0.71111111 6:1 
1 1:0.55813953 2:0.75 3:1 4:0 5:0.66666667 6:1 
1 1:0.55813953 2:0.75 3:1 4:0 5:0.66666667 6:1 
1 1:0.4 2:0.5 3:1 4:0 5:0.55913978 6:1 
1 1:0.4 2:0.5 3:1 4:0 5:0.55913978 6:1 
1 1:0.4 2:0.5 3:1 4:0 5:0.55913978 6:1 
1 1:0.55813953 2:0.75 3:1 4:1 5:0.71111111 6:1 
1 1:0.4 2:0.5 3:1 4:0 5:0.55913978 6:1 
1 1:0.55813953 2:0.75 3:1 4:1 5:0.63366337 6:1 
1 1:0.55813953 2:0.75 3:1 4:1 5:0.63366337 6:1 
1 1:0.54545455 2:0.82352941 3:1 4:1 5:0.95652174 6:1 
1 1:0.54545455 2:0.82352941 3:1 4:1 5:0.71111111 6:1 
1 1:0.54545455 2:0.82352941 3:1 4:1 5:0.71111111 6:1 
1 1:0.55813953 2:0.75 3:1 4:1 5:0.71111111 6:1 
1 1:0.66666667 2:0.76190476 3:1 4:0 5:0.125 6:1 
1 1:0.60869565 2:0.73684211 3:1 4:1 5:0.69565217 6:1 
1 1:0.66666667 2:0.76190476 3:1 4:0 5:0.125 6:1 
1 1:0.60869565 2:0.73684211 3:1 4:1 5:0.69565217 6:1 
1 1:0.55813953 2:0.75 3:0 4:1 5:0.71111111 6:1 
1 1:0.55813953 2:0.75 3:0 4:1 5:0.71111111 6:1 
1 1:0.87323944 2:0.97142857 3:0 4:0 5:0.72727273 6:0.69565217 
1 1:0.88571429 2:0.91428571 3:0 4:0 5:0.94117647 6:0.88888889 
1 1:0.11320755 2:0.36363636 3:1 4:1 5:0.18348624 6:0.68421053 
1 1:0.77777778 2:0.8 3:0 4:1 5:0.34782609 6:0.35294118 
1 1:0.62162162 2:0.74285714 3:0 4:1 5:0.34782609 6:0.40909091 
1 1:0.051446945 2:0.10526316 3:1 4:1 5:0.2 6:0.26086957 
1 1:0.051446945 2:0.10526316 3:1 4:1 5:0.2 6:0.26086957 
1 1:0.051446945 2:0.10526316 3:1 4:1 5:0.2 6:0.48387097 
1 1:0.1125 2:0.18333333 3:1 4:1 5:0.1512605 6:0.78947368 
1 1:0.094339623 2:0.13559322 3:1 4:1 5:0.1512605 6:0.78947368 
1 1:0.094339623 2:0.13559322 3:1 4:1 5:0.1512605 6:0.78947368 
1 1:0.050632911 2:0.10619469 3:1 4:1 5:0.1971831 6:0.26086957 
1 1:0.050632911 2:0.10619469 3:1 4:1 5:0.1971831 6:0.26086957 
1 1:0.050632911 2:0.10619469 3:1 4:1 5:0.1971831 6:0.48387097 
1 1:0.11076923 2:0.18487395 3:1 4:1 5:0.14876033 6:0.78947368 
1 1:0.092879257 2:0.13675214 3:1 4:1 5:0.14876033 6:0.78947368 
1 1:0.092879257 2:0.13675214 3:1 4:1 5:0.14876033 6:0.78947368 
1 1:0.025396825 2:0.09375 3:1 4:1 5:0.17021277 6:0.42424242 
1 1:0.10493827 2:0.1641791 3:1 4:1 5:0.21666667 6:0.42105263 
1 1:0.080745342 2:0.12121212 3:1 4:1 5:0.21666667 6:0.42105263 
1 1:0.080745342 2:0.12121212 3:1 4:1 5:0.21666667 6:0.42105263 
1 1:0.025396825 2:0.09375 3:1 4:1 5:0.17021277 6:0.42424242 
1 1:0.10493827 2:0.1641791 3:1 4:1 5:0.21666667 6:0.42105263 
1 1:0.080745342 2:0.12121212 3:1 4:1 5:0.21666667 6:0.42105263 
1 1:0.080745342 2:0.12121212 3:1 4:1 5:0.21666667 6:0.42105263 
1 1:0.064516129 2:0.15584416 3:1 4:1 5:0.19858156 6:0.26086957 
1 1:0.064516129 2:0.15584416 3:1 4:1 5:0.19858156 6:0.26086957 
1 1:0.064516129 2:0.15584416 3:1 4:1 5:0.19858156 6:0.48387097 
1 1:0.12389381 2:0.24096386 3:1 4:1 5:0.15 6:0.78947368 
1 1:0.098214286 2:0.17283951 3:1 4:1 5:0.15 6:0.78947368 
1 1:0.098214286 2:0.17283951 3:1 4:1 5:0.15 6:0.78947368 
1 1:0.064516129 2:0.15584416 3:1 4:1 5:0.19858156 6:0.26086957 
1 1:0.064516129 2:0.15584416 3:1 4:1 5:0.19858156 6:0.26086957 
1 1:0.064516129 2:0.15584416 3:1 4:1 5:0.19858156 6:0.48387097 
1 1:0.12389381 2:0.24096386 3:1 4:1 5:0.15 6:0.78947368 
1 1:0.098214286 2:0.17283951 3:1 4:1 5:0.15 6:0.78947368 
1 1:0.098214286 2:0.17283951 3:1 4:1 5:0.15 6:0.78947368 
1 1:0.006097561 2:0.076335878 3:1 4:1 5:0.17021277 6:0.48484848 
1 1:0.071216617 2:0.1459854 3:1 4:1 5:0.21666667 6:0.89473684 
1 1:0.047761194 2:0.1037037 3:1 4:1 5:0.21666667 6:0.89473684 
1 1:0.047761194 2:0.1037037 3:1 4:1 5:0.21666667 6:0.89473684 
1 1:0.024242424 2:0.090909091 3:1 4:1 5:0.1971831 6:0.26086957 
1 1:0.024242424 2:0.090909091 3:1 4:1 5:0.1971831 6:0.26086957 
1 1:0.024242424 2:0.090909091 3:1 4:1 5:0.1971831 6:0.48387097 
1 1:0.08259587 2:0.15942029 3:1 4:1 5:0.14876033 6:0.78947368 
1 1:0.059347181 2:0.11764706 3:1 4:1 5:0.14876033 6:0.78947368 
1 1:0.059347181 2:0.11764706 3:1 4:1 5:0.14876033 6:0.78947368 
1 1:0.031746032 2:0.09375 3:1 4:1 5:0.16783217 6:0.61904762 
1 1:0.11111111 2:0.1641791 3:1 4:1 5:0.21311475 6:0.78947368 
1 1:0.080745342 2:0.12121212 3:1 4:1 5:0.21311475 6:0.78947368 
1 1:0.080745342 2:0.12121212 3:1 4:1 5:0.21311475 6:0.78947368 
1 1:0.40909091 2:0.6 3:1 4:1 5:0.28985507 6:0.58571429 
1 1:0.2 2:0.57142857 3:1 4:1 5:0.32911392 6:0.76 
1 1:0.20833333 2:0.52631579 3:1 4:1 5:0.32911392 6:0.74 
1 1:0.27586207 2:0.35294118 3:1 4:1 5:0.24691358 6:0.6 
1 1:0.36734694 2:0.63157895 3:1 4:1 5:0.24691358 6:0.82352941 
1 1:0.27586207 2:0.35294118 3:1 4:0 5:0.30952381 6:0.82352941 
1 1:0.36734694 2:0.63157895 3:1 4:0 5:0.34482759 6:0.82352941 
1 1:0.36734694 2:0.63157895 3:1 4:0 5:0.34482759 6:0.82352941 
1 1:0.56 2:0.7 3:1 4:0 5:0.24691358 6:0.82352941 
1 1:0.56 2:0.7 3:1 4:0 5:0.24691358 6:0.82352941 
1 1:0.40909091 2:0.6 3:1 4:1 5:0.28985507 6:0.58571429 
1 1:0.2 2:0.57142857 3:1 4:1 5:0.32911392 6:0.76 
1 1:0.20833333 2:0.52631579 3:1 4:1 5:0.32911392 6:0.74 
1 1:0.27586207 2:0.35294118 3:1 4:1 5:0.24691358 6:0.6 
1 1:0.36734694 2:0.63157895 3:1 4:1 5:0.24691358 6:0.82352941 
1 1:0.27586207 2:0.35294118 3:1 4:0 5:0.30952381 6:0.82352941 
1 1:0.36734694 2:0.63157895 3:1 4:0 5:0.34482759 6:0.82352941 
1 1:0.36734694 2:0.63157895 3:1 4:0 5:0.34482759 6:0.82352941 
1 1:0.56 2:0.7 3:1 4:0 5:0.24691358 6:0.82352941 
1 1:0.56 2:0.7 3:1 4:0 5:0.24691358 6:0.82352941 
1 1:0.40909091 2:0.6 3:1 4:1 5:0.28985507 6:0.58571429 
1 1:0.2 2:0.57142857 3:1 4:1 5:0.32911392 6:0.76 
1 1:0.20833333 2:0.52631579 3:1 4:1 5:0.32911392 6:0.74 
1 1:0.27586207 2:0.35294118 3:1 4:1 5:0.24691358 6:0.6 
1 1:0.36734694 2:0.63157895 3:1 4:1 5:0.24691358 6:0.82352941 
1 1:0.27586207 2:0.35294118 3:1 4:0 5:0.30952381 6:0.82352941 
1 1:0.36734694 2:0.63157895 3:1 4:0 5:0.34482759 6:0.82352941 
1 1:0.36734694 2:0.63157895 3:1 4:0 5:0.34482759 6:0.82352941 
1 1:0.56 2:0.7 3:1 4:0 5:0.24691358 6:0.82352941 
1 1:0.56 2:0.7 3:1 4:0 5:0.24691358 6:0.82352941 
1 1:0.40909091 2:0.6 3:1 4:1 5:0.28985507 6:0.58571429 
1 1:0.2 2:0.57142857 3:1 4:1 5:0.32911392 6:0.76 
1 1:0.20833333 2:0.52631579 3:1 4:1 5:0.32911392 6:0.74 
1 1:0.27586207 2:0.35294118 3:1 4:1 5:0.24691358 6:0.6 
1 1:0.36734694 2:0.63157895 3:1 4:1 5:0.24691358 6:0.82352941 
1 1:0.27586207 2:0.35294118 3:1 4:0 5:0.30952381 6:0.82352941 
1 1:0.36734694 2:0.63157895 3:1 4:0 5:0.34482759 6:0.82352941 
1 1:0.36734694 2:0.63157895 3:1 4:0 5:0.34482759 6:0.82352941 
1 1:0.56 2:0.7 3:1 4:0 5:0.24691358 6:0.82352941 
1 1:0.56 2:0.7 3:1 4:0 5:0.24691358 6:0.82352941 
1 1:0.73684211 2:0.88 3:0 4:1 5:0.38356164 6:0.80952381 
1 1:0.73684211 2:0.88 3:0 4:1 5:0.38356164 6:0.80952381 
1 1:0.84210526 2:0.96296296 3:0 4:1 5:0.38356164 6:0.72727273 
1 1:0.84210526 2:0.96296296 3:0 4:1 5:0.41666667 6:0.64516129 
1 1:0.84210526 2:0.96296296 3:0 4:1 5:0.41666667 6:0.64516129 
1 1:0.84210526 2:0.96296296 3:0 4:1 5:0.38888889 6:0.7 
1 1:0.84210526 2:0.96296296 3:0 4:1 5:0.38888889 6:0.7 
1 1:0.84210526 2:0.96296296 3:0 4:1 5:0.38888889 6:0.7 
1 1:0.84210526 2:0.96296296 3:0 4:1 5:0.38888889 6:0.7 
1 1:0.83636364 2:0.92307692 3:0 4:1 5:0.25 6:0.68965517 
1 1:0.73684211 2:0.88 3:0 4:1 5:0.38356164 6:0.80952381 
1 1:0.73684211 2:0.88 3:0 4:1 5:0.38356164 6:0.80952381 
1 1:0.84210526 2:0.96296296 3:0 4:1 5:0.38356164 6:0.72727273 
1 1:0.84210526 2:0.96296296 3:0 4:1 5:0.41666667 6:0.64516129 
1 1:0.84210526 2:0.96296296 3:0 4:1 5:0.41666667 6:0.64516129 
1 1:0.84210526 2:0.96296296 3:0 4:1 5:0.38888889 6:0.7 
1 1:0.84210526 2:0.96296296 3:0 4:1 5:0.38888889 6:0.7 
1 1:0.84210526 2:0.96296296 3:0 4:1 5:0.38888889 6:0.7 
1 1:0.84210526 2:0.96296296 3:0 4:1 5:0.38888889 6:0.7 
1 1:0.83636364 2:0.92307692 3:0 4:1 5:0.25 6:0.68965517 
1 1:0.84745763 2:0.96 3:0 4:1 5:0.38356164 6:0.80952381 
1 1:0.84745763 2:0.96 3:0 4:1 5:0.38356164 6:0.80952381 
1 1:0.77966102 2:0.88888889 3:0 4:1 5:0.38356164 6:0.72727273 
1 1:0.77966102 2:0.88888889 3:0 4:1 5:0.41666667 6:0.90909091 
1 1:0.77966102 2:0.88888889 3:0 4:1 5:0.41666667 6:0.90909091 
1 1:0.77966102 2:0.88888889 3:0 4:1 5:0.38888889 6:0.7 
1 1:0.77966102 2:0.88888889 3:0 4:1 5:0.38888889 6:0.7 
1 1:0.77966102 2:0.88888889 3:0 4:1 5:0.38888889 6:0.7 
1 1:0.77966102 2:0.88888889 3:0 4:1 5:0.38888889 6:0.7 
1 1:0.80701754 2:0.92307692 3:0 4:1 5:0.25 6:0.90909091 
1 1:0.84745763 2:0.96 3:0 4:1 5:0.38356164 6:0.80952381 
1 1:0.84745763 2:0.96 3:0 4:1 5:0.38356164 6:0.80952381 
1 1:0.77966102 2:0.88888889 3:0 4:1 5:0.38356164 6:0.72727273 
1 1:0.77966102 2:0.88888889 3:0 4:1 5:0.41666667 6:0.90909091 
1 1:0.77966102 2:0.88888889 3:0 4:1 5:0.41666667 6:0.90909091 
1 1:0.77966102 2:0.88888889 3:0 4:1 5:0.38888889 6:0.7 
1 1:0.77966102 2:0.88888889 3:0 4:1 5:0.38888889 6:0.7 
1 1:0.77966102 2:0.88888889 3:0 4:1 5:0.38888889 6:0.7 
1 1:0.77966102 2:0.88888889 3:0 4:1 5:0.38888889 6:0.7 
1 1:0.80701754 2:0.92307692 3:0 4:1 5:0.25 6:0.90909091 
1 1:0.84745763 2:0.96 3:0 4:1 5:0.38356164 6:0.80952381 
1 1:0.84745763 2:0.96 3:0 4:1 5:0.38356164 6:0.80952381 
1 1:0.77966102 2:0.88888889 3:0 4:1 5:0.38356164 6:0.72727273 
1 1:0.77966102 2:0.88888889 3:0 4:1 5:0.41666667 6:0.90909091 
1 1:0.77966102 2:0.88888889 3:0 4:1 5:0.41666667 6:0.90909091 
1 1:0.77966102 2:0.88888889 3:0 4:1 5:0.38888889 6:0.7 
1 1:0.77966102 2:0.88888889 3:0 4:1 5:0.38888889 6:0.7 
1 1:0.77966102 2:0.88888889 3:0 4:1 5:0.38888889 6:0.7 
1 1:0.77966102 2:0.88888889 3:0 4:1 5:0.38888889 6:0.7 
1 1:0.80701754 2:0.92307692 3:0 4:1 5:0.25 6:0.90909091 
1 1:0.68965517 2:0.84615385 3:0 4:1 5:0.38356164 6:0.85714286 
1 1:0.68965517 2:0.84615385 3:0 4:1 5:0.38356164 6:0.85714286 
1 1:0.93103448 2:1 3:0 4:1 5:0.38356164 6:0.72727273 
1 1:0.93103448 2:1 3:0 4:1 5:0.41666667 6:0.8 
1 1:0.93103448 2:1 3:0 4:1 5:0.41666667 6:0.8 
1 1:0.93103448 2:1 3:0 4:1 5:0.38888889 6:0.7 
1 1:0.93103448 2:1 3:0 4:1 5:0.38888889 6:0.7 
1 1:0.93103448 2:1 3:0 4:1 5:0.38888889 6:0.7 
1 1:0.93103448 2:1 3:0 4:1 5:0.38888889 6:0.7 
1 1:0.89285714 2:0.96296296 3:0 4:1 5:0.25 6:0.75862069 
1 1:0.68965517 2:0.84615385 3:0 4:1 5:0.38356164 6:0.85714286 
1 1:0.68965517 2:0.84615385 3:0 4:1 5:0.38356164 6:0.85714286 
1 1:0.93103448 2:1 3:0 4:1 5:0.38356164 6:0.72727273 
1 1:0.93103448 2:1 3:0 4:1 5:0.41666667 6:0.8 
1 1:0.93103448 2:1 3:0 4:1 5:0.41666667 6:0.8 
1 1:0.93103448 2:1 3:0 4:1 5:0.38888889 6:0.7 
1 1:0.93103448 2:1 3:0 4:1 5:0.38888889 6:0.7 
1 1:0.93103448 2:1 3:0 4:1 5:0.38888889 6:0.7 
1 1:0.93103448 2:1 3:0 4:1 5:0.38888889 6:0.7 
1 1:0.89285714 2:0.96296296 3:0 4:1 5:0.25 6:0.75862069 
1 1:0.68965517 2:0.84615385 3:0 4:1 5:0.38356164 6:0.85714286 
1 1:0.68965517 2:0.84615385 3:0 4:1 5:0.38356164 6:0.85714286 
1 1:0.93103448 2:1 3:0 4:1 5:0.38356164 6:0.72727273 
1 1:0.93103448 2:1 3:0 4:1 5:0.41666667 6:0.8 
1 1:0.93103448 2:1 3:0 4:1 5:0.41666667 6:0.8 
1 1:0.93103448 2:1 3:0 4:1 5:0.38888889 6:0.7 
1 1:0.93103448 2:1 3:0 4:1 5:0.38888889 6:0.7 
1 1:0.93103448 2:1 3:0 4:1 5:0.38888889 6:0.7 
1 1:0.93103448 2:1 3:0 4:1 5:0.38888889 6:0.7 
1 1:0.89285714 2:0.96296296 3:0 4:1 5:0.25 6:0.75862069 
1 1:0.68965517 2:0.84615385 3:0 4:1 5:0.38356164 6:0.85714286 
1 1:0.68965517 2:0.84615385 3:0 4:1 5:0.38356164 6:0.85714286 
1 1:0.93103448 2:1 3:0 4:1 5:0.38356164 6:0.72727273 
1 1:0.93103448 2:1 3:0 4:1 5:0.41666667 6:0.8 
1 1:0.93103448 2:1 3:0 4:1 5:0.41666667 6:0.8 
1 1:0.93103448 2:1 3:0 4:1 5:0.38888889 6:0.7 
1 1:0.93103448 2:1 3:0 4:1 5:0.38888889 6:0.7 
1 1:0.93103448 2:1 3:0 4:1 5:0.38888889 6:0.7 
1 1:0.93103448 2:1 3:0 4:1 5:0.38888889 6:0.7 
1 1:0.89285714 2:0.96296296 3:0 4:1 5:0.25 6:0.75862069 
1 1:0.68965517 2:0.84615385 3:0 4:1 5:0.38356164 6:0.38095238 
1 1:0.68965517 2:0.84615385 3:0 4:1 5:0.38356164 6:0.38095238 
1 1:0.93103448 2:1 3:0 4:1 5:0.4109589 6:1 
1 1:0.93103448 2:1 3:0 4:1 5:0.38888889 6:0.44 
1 1:0.93103448 2:1 3:0 4:1 5:0.38888889 6:0.44 
1 1:0.93103448 2:1 3:0 4:1 5:0.41666667 6:1 
1 1:0.93103448 2:1 3:0 4:1 5:0.41666667 6:1 
1 1:0.93103448 2:1 3:0 4:1 5:0.41666667 6:1 
1 1:0.93103448 2:1 3:0 4:1 5:0.41666667 6:1 
1 1:0.89285714 2:0.96296296 3:0 4:1 5:0.22222222 6:0.44 
1 1:0.68965517 2:0.84615385 3:0 4:1 5:0.38356164 6:0.38095238 
1 1:0.68965517 2:0.84615385 3:0 4:1 5:0.38356164 6:0.38095238 
1 1:0.93103448 2:1 3:0 4:1 5:0.4109589 6:1 
1 1:0.93103448 2:1 3:0 4:1 5:0.38888889 6:0.44 
1 1:0.93103448 2:1 3:0 4:1 5:0.38888889 6:0.44 
1 1:0.93103448 2:1 3:0 4:1 5:0.41666667 6:1 
1 1:0.93103448 2:1 3:0 4:1 5:0.41666667 6:1 
1 1:0.93103448 2:1 3:0 4:1 5:0.41666667 6:1 
1 1:0.93103448 2:1 3:0 4:1 5:0.41666667 6:1 
1 1:0.89285714 2:0.96296296 3:0 4:1 5:0.22222222 6:0.44 
1 1:0.68965517 2:0.84615385 3:0 4:1 5:0.38356164 6:0.38095238 
1 1:0.68965517 2:0.84615385 3:0 4:1 5:0.38356164 6:0.38095238 
1 1:0.93103448 2:1 3:0 4:1 5:0.4109589 6:1 
1 1:0.93103448 2:1 3:0 4:1 5:0.38888889 6:0.44 
1 1:0.93103448 2:1 3:0 4:1 5:0.38888889 6:0.44 
1 1:0.93103448 2:1 3:0 4:1 5:0.41666667 6:1 
1 1:0.93103448 2:1 3:0 4:1 5:0.41666667 6:1 
1 1:0.93103448 2:1 3:0 4:1 5:0.41666667 6:1 
1 1:0.93103448 2:1 3:0 4:1 5:0.41666667 6:1 
1 1:0.89285714 2:0.96296296 3:0 4:1 5:0.22222222 6:0.44 
1 1:0.68965517 2:0.84615385 3:0 4:1 5:0.38356164 6:0.38095238 
1 1:0.68965517 2:0.84615385 3:0 4:1 5:0.38356164 6:0.38095238 
1 1:0.93103448 2:1 3:0 4:1 5:0.4109589 6:1 
1 1:0.93103448 2:1 3:0 4:1 5:0.38888889 6:0.44 
1 1:0.93103448 2:1 3:0 4:1 5:0.38888889 6:0.44 
1 1:0.93103448 2:1 3:0 4:1 5:0.41666667 6:1 
1 1:0.93103448 2:1 3:0 4:1 5:0.41666667 6:1 
1 1:0.93103448 2:1 3:0 4:1 5:0.41666667 6:1 
1 1:0.93103448 2:1 3:0 4:1 5:0.41666667 6:1 
1 1:0.89285714 2:0.96296296 3:0 4:1 5:0.22222222 6:0.44 
1 1:0.68965517 2:0.84615385 3:0 4:1 5:0.38356164 6:0.38095238 
1 1:0.68965517 2:0.84615385 3:0 4:1 5:0.38356164 6:0.38095238 
1 1:0.93103448 2:1 3:0 4:1 5:0.4109589 6:1 
1 1:0.93103448 2:1 3:0 4:1 5:0.38888889 6:0.44 
1 1:0.93103448 2:1 3:0 4:1 5:0.38888889 6:0.44 
1 1:0.93103448 2:1 3:0 4:1 5:0.41666667 6:1 
1 1:0.93103448 2:1 3:0 4:1 5:0.41666667 6:1 
1 1:0.93103448 2:1 3:0 4:1 5:0.41666667 6:1 
1 1:0.93103448 2:1 3:0 4:1 5:0.41666667 6:1 
1 1:0.89285714 2:0.96296296 3:0 4:1 5:0.22222222 6:0.44 
1 1:0.68965517 2:0.84615385 3:0 4:1 5:0.38356164 6:0.38095238 
1 1:0.68965517 2:0.84615385 3:0 4:1 5:0.38356164 6:0.38095238 
1 1:0.93103448 2:1 3:0 4:1 5:0.4109589 6:1 
1 1:0.93103448 2:1 3:0 4:1 5:0.38888889 6:0.44 
1 1:0.93103448 2:1 3:0 4:1 5:0.38888889 6:0.44 
1 1:0.93103448 2:1 3:0 4:1 5:0.41666667 6:1 
1 1:0.93103448 2:1 3:0 4:1 5:0.41666667 6:1 
1 1:0.93103448 2:1 3:0 4:1 5:0.41666667 6:1 
1 1:0.93103448 2:1 3:0 4:1 5:0.41666667 6:1 
1 1:0.89285714 2:0.96296296 3:0 4:1 5:0.22222222 6:0.44 
1 1:0.68965517 2:0.84615385 3:0 4:1 5:0.38356164 6:0.38095238 
1 1:0.68965517 2:0.84615385 3:0 4:1 5:0.38356164 6:0.38095238 
1 1:0.93103448 2:1 3:0 4:1 5:0.4109589 6:1 
1 1:0.93103448 2:1 3:0 4:1 5:0.38888889 6:0.44 
1 1:0.93103448 2:1 3:0 4:1 5:0.38888889 6:0.44 
1 1:0.93103448 2:1 3:0 4:1 5:0.41666667 6:1 
1 1:0.93103448 2:1 3:0 4:1 5:0.41666667 6:1 
1 1:0.93103448 2:1 3:0 4:1 5:0.41666667 6:1 
1 1:0.93103448 2:1 3:0 4:1 5:0.41666667 6:1 
1 1:0.89285714 2:0.96296296 3:0 4:1 5:0.22222222 6:0.44 
1 1:0.76666667 2:0.92307692 3:0 4:1 5:0.21917808 6:0.80952381 
1 1:0.76666667 2:0.92307692 3:0 4:1 5:0.21917808 6:0.80952381 
1 1:0.83333333 2:0.92857143 3:0 4:1 5:0.24657534 6:0.72727273 
1 1:0.83333333 2:0.92857143 3:0 4:1 5:0.22222222 6:0.92857143 
1 1:0.83333333 2:0.92857143 3:0 4:1 5:0.22222222 6:0.92857143 
1 1:0.83333333 2:0.92857143 3:0 4:1 5:0.25 6:0.7 
1 1:0.83333333 2:0.92857143 3:0 4:1 5:0.25 6:0.7 
1 1:0.83333333 2:0.92857143 3:0 4:1 5:0.25 6:0.7 
1 1:0.83333333 2:0.92857143 3:0 4:1 5:0.25 6:0.7 
1 1:0.86206897 2:0.96296296 3:0 4:1 5:0.38888889 6:0.92857143 
1 1:0.029411765 2:0.11111111 3:0 4:0 5:1 6:0 
1 1:0.029411765 2:0.11111111 3:0 4:0 5:1 6:0 
1 1:0.029411765 2:0.11111111 3:0 4:0 5:1 6:0 
1 1:0.029411765 2:0.11111111 3:0 4:0 5:1 6:0 
1 1:0.73684211 2:0.84210526 3:0 4:1 5:0.33802817 6:0.81428571 
1 1:0.28070175 2:0.37837838 3:1 4:0 5:0.66666667 6:0.83870968 
1 1:0.28070175 2:0.37837838 3:1 4:1 5:0.66666667 6:0.83870968 
1 1:0.28070175 2:0.37837838 3:1 4:1 5:0.66666667 6:0.83870968 
1 1:0.28070175 2:0.37837838 3:1 4:1 5:0.66666667 6:0.83870968 
1 1:0.28070175 2:0.37837838 3:1 4:1 5:0.66666667 6:0.83870968 
1 1:0.28070175 2:0.37837838 3:1 4:0 5:0.66666667 6:0.80645161 
1 1:0.28070175 2:0.37837838 3:1 4:1 5:0.66666667 6:0.80645161 
1 1:0.28070175 2:0.37837838 3:1 4:1 5:0.66666667 6:0.80645161 
1 1:0.28070175 2:0.37837838 3:1 4:1 5:0.66666667 6:0.80645161 
1 1:0.28070175 2:0.37837838 3:1 4:1 5:0.66666667 6:0.80645161 
1 1:0.064516129 2:0.28571429 3:1 4:0 5:0.38235294 6:1 
1 1:0.064516129 2:0.28571429 3:1 4:0 5:0.38235294 6:1 
1 1:0.064516129 2:0.28571429 3:1 4:0 5:0.38235294 6:1 
1 1:0.064516129 2:0.28571429 3:1 4:0 5:0.38235294 6:1 
1 1:0.064516129 2:0.28571429 3:1 4:0 5:0.38235294 6:1 
1 1:0.064516129 2:0.28571429 3:1 4:0 5:0.38235294 6:1 
1 1:0.064516129 2:0.28571429 3:1 4:0 5:0.38235294 6:1 
1 1:0.064516129 2:0.28571429 3:1 4:0 5:0.38235294 6:1 
1 1:0.064516129 2:0.28571429 3:1 4:0 5:0.38235294 6:1 
1 1:0.064516129 2:0.28571429 3:1 4:0 5:0.38235294 6:1 
1 1:0.46666667 2:0.72 3:1 4:1 5:0.37096774 6:0.66666667 
1 1:0.34482759 2:0.60869565 3:1 4:1 5:0.37096774 6:0.66666667 
1 1:0.34482759 2:0.60869565 3:1 4:1 5:0.37096774 6:0.66666667 
1 1:0.10062893 2:0.15384615 3:1 4:1 5:0.19354839 6:0.55555556 
1 1:0.099071207 2:0.15517241 3:1 4:1 5:0.22929936 6:0.55555556 
1 1:0.099378882 2:0.13740458 3:1 4:1 5:0.19230769 6:0.66666667 
1 1:0.099378882 2:0.13740458 3:1 4:1 5:0.19230769 6:0.66666667 
1 1:0.125 2:0.2 3:1 4:1 5:0.23076923 6:0.55555556 
1 1:0.125 2:0.2 3:1 4:1 5:0.23076923 6:0.55555556 
1 1:0.07761194 2:0.11940299 3:1 4:1 5:0.19230769 6:0.55555556 
1 1:0.089020772 2:0.13333333 3:1 4:1 5:0.22929936 6:0.55555556 
1 1:0.10559006 2:0.13740458 3:1 4:1 5:0.18987342 6:0.55555556 
1 1:0.37288136 2:0.58333333 3:0 4:1 5:0.46774194 6:0.47368421 
1 1:0.38596491 2:0.63636364 3:0 4:1 5:0.46774194 6:0.47368421 
1 1:0.38596491 2:0.63636364 3:0 4:1 5:0.46774194 6:0.47368421 
1 1:0.60606061 2:0.59259259 3:0 4:1 5:0.192 6:0.64705882 
1 1:0.77777778 2:0.8 3:0 4:1 5:0.34782609 6:0.35294118 
1 1:0.77777778 2:0.8 3:0 4:1 5:0.34188034 6:0.35294118 
1 1:0.34285714 2:0.46153846 3:0 4:1 5:0.46017699 6:0.2173913 
1 1:0.34285714 2:0.46153846 3:0 4:1 5:0.46017699 6:0.2173913 
1 1:0.34285714 2:0.46153846 3:0 4:1 5:0.46017699 6:0.65217391 
1 1:0.32432432 2:0.5 3:0 4:1 5:0.53658537 6:0 
1 1:0.32432432 2:0.5 3:0 4:1 5:0.53658537 6:0 
1 1:0.24390244 2:0.42105263 3:1 4:1 5:0.15533981 6:0.82608696 
1 1:0.25641026 2:0.47058824 3:1 4:1 5:0.15533981 6:0.86363636 
1 1:0.25641026 2:0.47058824 3:1 4:1 5:0.15533981 6:0.86363636 
1 1:0.57142857 2:0.81818182 3:0 4:1 5:0.4516129 6:0.66666667 
1 1:0.56140351 2:0.81818182 3:0 4:1 5:0.41935484 6:0.55555556 
1 1:0.56140351 2:0.81818182 3:0 4:1 5:0.41935484 6:0.55555556 
1 1:0.43636364 2:0.66666667 3:0 4:1 5:0.4516129 6:0.55555556 
1 1:0.43636364 2:0.66666667 3:0 4:1 5:0.4516129 6:0.55555556 
1 1:0.7 2:0.72727273 3:0 4:0 5:0.69879518 6:0.72 
1 1:0.81481481 2:1 3:1 4:0 5:0.52631579 6:0.72 
1 1:0.7 2:0.72727273 3:0 4:0 5:0.69879518 6:0.72 
1 1:0.81481481 2:1 3:1 4:0 5:0.52631579 6:0.72 
1 1:0.66666667 2:0.70588235 3:0 4:1 5:0.39130435 6:0 
1 1:0.61538462 2:0.70588235 3:0 4:1 5:0.19607843 6:0.92592593 
1 1:0.4516129 2:0.55555556 3:1 4:0 5:0.48529412 6:0.57894737 
1 1:0.39393939 2:0.64 3:0 4:0 5:0.71428571 6:0.41176471 
1 1:0.39393939 2:0.64 3:0 4:0 5:0.71428571 6:0.41176471 
1 1:0.47058824 2:0.72 3:0 4:0 5:0.71428571 6:0.41176471 
1 1:0.47058824 2:0.72 3:0 4:0 5:0.71428571 6:0.41176471 
1 1:0.47058824 2:0.72 3:0 4:0 5:0.71428571 6:0.41176471 
1 1:0.73684211 2:0.96 3:1 4:1 5:0.94736842 6:0.95 
1 1:0.73684211 2:0.96 3:1 4:1 5:0.94736842 6:0.95 
1 1:0.63157895 2:0.88888889 3:1 4:1 5:0.9122807 6:0.72727273 
1 1:0.63157895 2:0.88888889 3:1 4:1 5:0.96428571 6:1 
1 1:0.63157895 2:0.88888889 3:1 4:1 5:0.96428571 6:1 
1 1:0.63157895 2:0.88888889 3:1 4:1 5:1 6:0.7 
1 1:0.63157895 2:0.88888889 3:1 4:1 5:1 6:0.7 
1 1:0.63157895 2:0.88888889 3:1 4:1 5:1 6:0.7 
1 1:0.63157895 2:0.88888889 3:1 4:1 5:1 6:0.7 
1 1:0.65454545 2:0.92307692 3:1 4:1 5:0.64285714 6:1 
1 1:0.64285714 2:0.92307692 3:0 4:1 5:0.38888889 6:0.9 
1 1:0.64285714 2:0.92307692 3:0 4:1 5:0.38888889 6:0.9 
1 1:0.75862069 2:1 3:0 4:1 5:0.38888889 6:0.9 
1 1:0.75862069 2:1 3:0 4:1 5:0.38888889 6:0.9 
1 1:0.75862069 2:1 3:0 4:1 5:0.38888889 6:0.9 
1 1:0.59649123 2:0.88888889 3:0 4:1 5:0.38888889 6:0.9 
1 1:0.59649123 2:0.88888889 3:0 4:1 5:0.38888889 6:0.9 
1 1:0.59649123 2:0.88888889 3:0 4:1 5:0.38888889 6:0.9 
1 1:0.59649123 2:0.88888889 3:0 4:1 5:0.38888889 6:0.9 
1 1:0.59649123 2:0.88888889 3:0 4:1 5:0.41666667 6:0.45 
1 1:0.59649123 2:0.88888889 3:0 4:1 5:0.41666667 6:0.45 
1 1:0.59649123 2:0.88888889 3:0 4:1 5:0.41666667 6:0.45 
1 1:0.59649123 2:0.88888889 3:0 4:1 5:0.41666667 6:0.45 
1 1:0.59649123 2:0.88888889 3:0 4:1 5:0.41666667 6:0.45 
1 1:0.59649123 2:0.88888889 3:0 4:1 5:0.41666667 6:0.45 
1 1:0.59649123 2:0.88888889 3:0 4:1 5:0.41666667 6:0.45 
1 1:0.73684211 2:0.96 3:1 4:1 5:0.94736842 6:0.95 
1 1:0.73684211 2:0.96 3:1 4:1 5:0.94736842 6:0.95 
1 1:0.63157895 2:0.88888889 3:1 4:1 5:0.9122807 6:0.72727273 
1 1:0.63157895 2:0.88888889 3:1 4:1 5:0.96428571 6:1 
1 1:0.63157895 2:0.88888889 3:1 4:1 5:0.96428571 6:1 
1 1:0.63157895 2:0.88888889 3:1 4:1 5:1 6:0.7 
1 1:0.63157895 2:0.88888889 3:1 4:1 5:1 6:0.7 
1 1:0.63157895 2:0.88888889 3:1 4:1 5:1 6:0.7 
1 1:0.63157895 2:0.88888889 3:1 4:1 5:1 6:0.7 
1 1:0.65454545 2:0.92307692 3:1 4:1 5:0.64285714 6:1 
1 1:0.64285714 2:0.92307692 3:0 4:1 5:0.38888889 6:0.9 
1 1:0.64285714 2:0.92307692 3:0 4:1 5:0.38888889 6:0.9 
1 1:0.75862069 2:1 3:0 4:1 5:0.38888889 6:0.9 
1 1:0.75862069 2:1 3:0 4:1 5:0.38888889 6:0.9 
1 1:0.75862069 2:1 3:0 4:1 5:0.38888889 6:0.9 
1 1:0.59649123 2:0.88888889 3:0 4:1 5:0.38888889 6:0.9 
1 1:0.59649123 2:0.88888889 3:0 4:1 5:0.38888889 6:0.9 
1 1:0.59649123 2:0.88888889 3:0 4:1 5:0.38888889 6:0.9 
1 1:0.59649123 2:0.88888889 3:0 4:1 5:0.38888889 6:0.9 
1 1:0.59649123 2:0.88888889 3:0 4:1 5:0.41666667 6:0.45 
1 1:0.59649123 2:0.88888889 3:0 4:1 5:0.41666667 6:0.45 
1 1:0.59649123 2:0.88888889 3:0 4:1 5:0.41666667 6:0.45 
1 1:0.59649123 2:0.88888889 3:0 4:1 5:0.41666667 6:0.45 
1 1:0.59649123 2:0.88888889 3:0 4:1 5:0.41666667 6:0.45 
1 1:0.59649123 2:0.88888889 3:0 4:1 5:0.41666667 6:0.45 
1 1:0.59649123 2:0.88888889 3:0 4:1 5:0.41666667 6:0.45 
1 1:0.86206897 2:0.92307692 3:0 4:0 5:0.42553191 6:0.97058824 
1 1:0.9122807 2:0.96296296 3:0 4:0 5:0.42553191 6:0.92647059 
1 1:0 2:0.068965517 3:0 4:0 5:1 6:1 
1 1:0 2:0.068965517 3:0 4:0 5:1 6:1 
1 1:0 2:0.068965517 3:0 4:0 5:1 6:1 
1 1:0 2:0.068965517 3:0 4:0 5:1 6:1 
1 1:0.054054054 2:0.4 3:0 4:1 5:1 6:0 
1 1:0.25 2:0.26666667 3:0 4:1 5:0.5 6:0.35 
1 1:0.45 2:0.54545455 3:0 4:0 5:0.71153846 6:0.36363636 
1 1:0.7826087 2:0.75 3:0 4:1 5:0.24175824 6:0.73913043 
1 1:0.018292683 2:0.11494253 3:0 4:0 5:1 6:0 
1 1:0.018292683 2:0.11494253 3:0 4:0 5:1 6:0 
1 1:0.018292683 2:0.11494253 3:0 4:0 5:1 6:0 
1 1:0.018292683 2:0.11494253 3:0 4:0 5:1 6:0 
1 1:0 2:0.26666667 3:0 4:1 5:1 6:0.34042553 
1 1:0 2:0.33333333 3:0 4:1 5:1 6:0 
1 1:0.018292683 2:0.11494253 3:0 4:0 5:1 6:0 
1 1:0.018292683 2:0.11494253 3:0 4:0 5:1 6:0 
1 1:0.018292683 2:0.11494253 3:0 4:0 5:1 6:0 
1 1:0.018292683 2:0.11494253 3:0 4:0 5:1 6:0 
1 1:0 2:0.26666667 3:0 4:1 5:1 6:0.34042553 
1 1:0 2:0.33333333 3:0 4:1 5:1 6:0 
1 1:0.0061538462 2:0.070588235 3:0 4:0 5:1 6:0 
1 1:0.0061538462 2:0.070588235 3:0 4:0 5:1 6:0 
1 1:0.0061538462 2:0.070588235 3:0 4:0 5:1 6:0 
1 1:0.0061538462 2:0.070588235 3:0 4:0 5:1 6:0 
1 1:0 2:0.30769231 3:0 4:1 5:1 6:0.34042553 
1 1:0 2:0.4 3:0 4:1 5:1 6:0 
1 1:0.0061538462 2:0.070588235 3:0 4:0 5:1 6:0 
1 1:0.0061538462 2:0.070588235 3:0 4:0 5:1 6:0 
1 1:0.0061538462 2:0.070588235 3:0 4:0 5:1 6:0 
1 1:0.0061538462 2:0.070588235 3:0 4:0 5:1 6:0 
1 1:0 2:0.30769231 3:0 4:1 5:1 6:0.34042553 
1 1:0 2:0.4 3:0 4:1 5:1 6:0 
1 1:0.14285714 2:0.5 3:1 4:1 5:0.23300971 6:0.95652174 
1 1:0.14285714 2:0.5 3:1 4:1 5:0.23300971 6:0.95652174 
1 1:0.14285714 2:0.5 3:1 4:1 5:0.23300971 6:0.96153846 
1 1:0.025559105 2:0.0625 3:1 4:1 5:0.15789474 6:0.38461538 
1 1:0.025559105 2:0.0625 3:1 4:1 5:0.15789474 6:0.38461538 
1 1:0.4 2:0.66666667 3:0 4:1 5:1 6:0.69230769 
1 1:0.14285714 2:0.5 3:1 4:1 5:0.23300971 6:0.95652174 
1 1:0.14285714 2:0.5 3:1 4:1 5:0.23300971 6:0.95652174 
1 1:0.14285714 2:0.5 3:1 4:1 5:0.23300971 6:0.96153846 
1 1:0.025559105 2:0.0625 3:1 4:1 5:0.15789474 6:0.38461538 
1 1:0.025559105 2:0.0625 3:1 4:1 5:0.15789474 6:0.38461538 
1 1:0.4 2:0.66666667 3:0 4:1 5:1 6:0.69230769 
1 1:0.63829787 2:0.82352941 3:0 4:1 5:0.97115385 6:0.64285714 
1 1:0.32876712 2:0.32258065 3:1 4:0 5:0.1958042 6:0.97183099 
1 1:0.90140845 2:0.94444444 3:0 4:0 5:0.5 6:0.94117647 
1 1:0.8 2:0.91428571 3:1 4:1 5:0.6875 6:1 
1 1:0.89855072 2:0.91428571 3:1 4:1 5:0.48484848 6:1 
1 1:0.90140845 2:0.94444444 3:0 4:0 5:0.5 6:0.94117647 
1 1:0.8 2:0.91428571 3:1 4:1 5:0.6875 6:1 
1 1:0.89855072 2:0.91428571 3:1 4:1 5:0.48484848 6:1 
1 1:0.90140845 2:0.94444444 3:0 4:0 5:0.5 6:0.94117647 
1 1:0.8 2:0.91428571 3:1 4:1 5:0.6875 6:1 
1 1:0.89855072 2:0.91428571 3:1 4:1 5:0.48484848 6:1 
1 1:0.73846154 2:0.83870968 3:0 4:0 5:0.72727273 6:0.84210526 
1 1:0.78125 2:0.86666667 3:1 4:1 5:1 6:1 
1 1:0.76190476 2:0.86666667 3:1 4:1 5:0.67647059 6:0.94444444 
1 1:0.65671642 2:0.77419355 3:0 4:0 5:1 6:0.94117647 
1 1:0.66666667 2:0.8 3:1 4:1 5:0.72727273 6:1 
1 1:0.58461538 2:0.8 3:1 4:1 5:0.94117647 6:1 
1 1:0.68656716 2:0.77419355 3:0 4:0 5:0.94117647 6:0.70833333 
1 1:0.66666667 2:0.8 3:1 4:1 5:0.67647059 6:0.7826087 
1 1:0.61538462 2:0.8 3:1 4:1 5:0.91428571 6:0.94444444 
1 1:0.68656716 2:0.77419355 3:0 4:0 5:0.90140845 6:0.70833333 
1 1:0.66666667 2:0.8 3:1 4:1 5:0.64788732 6:0.7826087 
1 1:0.61538462 2:0.8 3:1 4:1 5:0.87671233 6:0.94444444 
1 1:0.76470588 2:0.8125 3:0 4:0 5:0.68571429 6:0.84210526 
1 1:0.65671642 2:0.77419355 3:1 4:1 5:0.94285714 6:1 
1 1:0.81818182 2:0.83870968 3:1 4:1 5:0.63888889 6:0.94444444 
1 1:0.66666667 2:0.91891892 3:0 4:0 5:0.72727273 6:0.94117647 
1 1:0.59459459 2:0.88888889 3:1 4:1 5:1 6:1 
1 1:0.73972603 2:0.88888889 3:1 4:1 5:0.67647059 6:1 
1 1:0.66666667 2:0.91891892 3:0 4:0 5:0.72727273 6:0.94117647 
1 1:0.59459459 2:0.88888889 3:1 4:1 5:1 6:1 
1 1:0.73972603 2:0.88888889 3:1 4:1 5:0.67647059 6:1 
1 1:0.66666667 2:0.91891892 3:0 4:0 5:0.72727273 6:0.94117647 
1 1:0.59459459 2:0.88888889 3:1 4:1 5:1 6:1 
1 1:0.73972603 2:0.88888889 3:1 4:1 5:0.67647059 6:1 
1 1:0.71232877 2:0.91891892 3:0 4:0 5:0.72727273 6:0.94117647 
1 1:0.61111111 2:0.88888889 3:1 4:1 5:1 6:1 
1 1:0.78873239 2:0.88888889 3:1 4:1 5:0.67647059 6:1 
1 1:0.71232877 2:0.91891892 3:0 4:0 5:0.72727273 6:0.94117647 
1 1:0.61111111 2:0.88888889 3:1 4:1 5:1 6:1 
1 1:0.78873239 2:0.88888889 3:1 4:1 5:0.67647059 6:1 
1 1:0.68656716 2:0.77419355 3:0 4:1 5:0.94117647 6:0.65384615 
1 1:0.66666667 2:0.8 3:1 4:0 5:0.67647059 6:0.7826087 
1 1:0.61538462 2:0.8 3:1 4:0 5:0.91428571 6:0.94444444 
1 1:0.075 2:0.13445378 3:1 4:1 5:0.30909091 6:0.26923077 
1 1:0.073846154 2:0.13559322 3:1 4:1 5:0.35714286 6:0.26923077 
1 1:0.055555556 2:0.10526316 3:1 4:1 5:0.27027027 6:0.34615385 
1 1:0.055555556 2:0.10526316 3:1 4:1 5:0.27027027 6:0.34615385 
1 1:0.097345133 2:0.19512195 3:1 4:1 5:0.36036036 6:0.26923077 
1 1:0.097345133 2:0.19512195 3:1 4:1 5:0.36036036 6:0.26923077 
1 1:0.035608309 2:0.10294118 3:1 4:1 5:0.27027027 6:0.26923077 
1 1:0.053097345 2:0.11678832 3:1 4:1 5:0.35714286 6:0.26923077 
1 1:0.049382716 2:0.10526316 3:1 4:1 5:0.26548673 6:0.33333333 
1 1:0.47058824 2:0.66666667 3:1 4:1 5:0.19178082 6:0.34615385 
1 1:0.47058824 2:0.66666667 3:1 4:1 5:0.19178082 6:0.34615385 
1 1:0.68656716 2:0.77419355 3:0 4:0 5:0.94117647 6:0.68 
1 1:0.41509434 2:0.6 3:1 4:0.5 5:0.175 6:1 
1 1:0.66666667 2:0.8 3:1 4:0 5:0.67647059 6:0.7826087 
1 1:0.61538462 2:0.8 3:1 4:0 5:0.91428571 6:0.94444444 
1 1:0.68656716 2:0.77419355 3:0 4:0 5:0.94117647 6:0.68 
1 1:0.41509434 2:0.6 3:1 4:0.5 5:0.175 6:1 
1 1:0.66666667 2:0.8 3:1 4:0 5:0.67647059 6:0.7826087 
1 1:0.61538462 2:0.8 3:1 4:0 5:0.91428571 6:0.94444444 
1 1:0.68656716 2:0.77419355 3:0 4:0 5:0.94117647 6:0.70833333 
1 1:0.41509434 2:0.6 3:1 4:0.5 5:0.175 6:1 
1 1:0.66666667 2:0.8 3:1 4:0 5:0.67647059 6:0.7826087 
1 1:0.61538462 2:0.8 3:1 4:0 5:0.91428571 6:0.94444444 
1 1:0.68493151 2:0.85714286 3:0 4:1 5:1 6:0.94117647 
1 1:0.72222222 2:0.88235294 3:1 4:0 5:0.72727273 6:1 
1 1:0.5915493 2:0.76470588 3:1 4:0 5:0.94117647 6:1 
1 1:0.11042945 2:0.19512195 3:1 4:1 5:0.33333333 6:0.41176471 
1 1:0.10876133 2:0.19672131 3:1 4:1 5:0.38181818 6:0.41176471 
1 1:0.066666667 2:0.16058394 3:1 4:1 5:0.27522936 6:0.47058824 
1 1:0.066666667 2:0.16058394 3:1 4:1 5:0.27522936 6:0.47058824 
1 1:0.14655172 2:0.27906977 3:1 4:1 5:0.3853211 6:0.41176471 
1 1:0.14655172 2:0.27906977 3:1 4:1 5:0.3853211 6:0.41176471 
1 1:0.04664723 2:0.15714286 3:1 4:1 5:0.29357798 6:0.41176471 
1 1:0.069565217 2:0.17021277 3:1 4:1 5:0.38181818 6:0.41176471 
1 1:0.060606061 2:0.16058394 3:1 4:1 5:0.27027027 6:0.41176471 
1 1:0.15151515 2:0.5 3:1 4:1 5:0.26548673 6:0.55555556 
1 1:0.42105263 2:0.56 3:1 4:1 5:0.1971831 6:0.35294118 
1 1:0.42105263 2:0.56 3:1 4:1 5:0.1971831 6:0.35294118 
1 1:0.5915493 2:0.91428571 3:0 4:0 5:0.67647059 6:0.94117647 
1 1:0.57142857 2:0.94117647 3:1 4:1 5:0.94117647 6:1 
1 1:0.57971014 2:0.82352941 3:1 4:1 5:0.71428571 6:1 
1 1:0.56338028 2:0.85714286 3:0 4:1 5:1 6:0.94117647 
1 1:0.57142857 2:0.88235294 3:1 4:0 5:0.72727273 6:1 
1 1:0.55072464 2:0.76470588 3:1 4:0 5:0.94117647 6:1 
1 1:0.086419753 2:0.19512195 3:1 4:1 5:0.33333333 6:0.41176471 
1 1:0.085106383 2:0.19672131 3:1 4:1 5:0.38181818 6:0.41176471 
1 1:0.054878049 2:0.16058394 3:1 4:1 5:0.27522936 6:0.47058824 
1 1:0.054878049 2:0.16058394 3:1 4:1 5:0.27522936 6:0.47058824 
1 1:0.11304348 2:0.27906977 3:1 4:1 5:0.3853211 6:0.41176471 
1 1:0.11304348 2:0.27906977 3:1 4:1 5:0.3853211 6:0.41176471 
1 1:0.035190616 2:0.15714286 3:1 4:1 5:0.29357798 6:0.41176471 
1 1:0.058309038 2:0.17021277 3:1 4:1 5:0.38181818 6:0.41176471 
1 1:0.048780488 2:0.16058394 3:1 4:1 5:0.27027027 6:0.41176471 
1 1:0.4 2:0.56 3:1 4:1 5:0.1971831 6:0.35294118 
1 1:0.4 2:0.56 3:1 4:1 5:0.1971831 6:0.35294118 
1 1:0.58227848 2:0.6875 3:0 4:0 5:0.6969697 6:0.68 
1 1:0.53846154 2:0.64516129 3:1 4:1 5:0.96969697 6:0.7826087 
1 1:0.57142857 2:0.64516129 3:1 4:1 5:0.67647059 6:0.94444444 
1 1:0.58227848 2:0.6875 3:0 4:0 5:0.6969697 6:0.70833333 
1 1:0.53846154 2:0.64516129 3:1 4:1 5:0.96969697 6:0.7826087 
1 1:0.57142857 2:0.64516129 3:1 4:1 5:0.67647059 6:0.94444444 
1 1:0.68493151 2:0.85714286 3:0 4:1 5:1 6:0.94117647 
1 1:0.72222222 2:0.88235294 3:1 4:0 5:0.72727273 6:1 
1 1:0.5915493 2:0.76470588 3:1 4:0 5:0.94117647 6:1 
1 1:0.11042945 2:0.19512195 3:1 4:1 5:0.33333333 6:0.41176471 
1 1:0.10876133 2:0.19672131 3:1 4:1 5:0.38181818 6:0.41176471 
1 1:0.066666667 2:0.16058394 3:1 4:1 5:0.27522936 6:0.47058824 
1 1:0.066666667 2:0.16058394 3:1 4:1 5:0.27522936 6:0.47058824 
1 1:0.14655172 2:0.27906977 3:1 4:1 5:0.3853211 6:0.41176471 
1 1:0.14655172 2:0.27906977 3:1 4:1 5:0.3853211 6:0.41176471 
1 1:0.04664723 2:0.15714286 3:1 4:1 5:0.29357798 6:0.41176471 
1 1:0.069565217 2:0.17021277 3:1 4:1 5:0.38181818 6:0.41176471 
1 1:0.060606061 2:0.16058394 3:1 4:1 5:0.27027027 6:0.41176471 
1 1:0.15151515 2:0.5 3:1 4:1 5:0.26548673 6:0.55555556 
1 1:0.42105263 2:0.56 3:1 4:1 5:0.1971831 6:0.35294118 
1 1:0.42105263 2:0.56 3:1 4:1 5:0.1971831 6:0.35294118 
1 1:0.65671642 2:0.77419355 3:0 4:0 5:1 6:0.94117647 
1 1:0.66666667 2:0.8 3:1 4:1 5:0.72727273 6:1 
1 1:0.58461538 2:0.8 3:1 4:1 5:0.94117647 6:1 
1 1:0.65671642 2:0.77419355 3:0 4:0 5:1 6:0.94117647 
1 1:0.66666667 2:0.8 3:1 4:1 5:0.72727273 6:1 
1 1:0.58461538 2:0.8 3:1 4:1 5:0.94117647 6:1 
1 1:0.58227848 2:0.6875 3:0 4:0 5:0.6969697 6:0.68 
1 1:0.53846154 2:0.64516129 3:1 4:1 5:0.96969697 6:0.7826087 
1 1:0.57142857 2:0.64516129 3:1 4:1 5:0.67647059 6:0.94444444 
1 1:0.58227848 2:0.6875 3:0 4:0 5:0.6969697 6:0.68 
1 1:0.53846154 2:0.64516129 3:1 4:1 5:0.96969697 6:0.7826087 
1 1:0.57142857 2:0.64516129 3:1 4:1 5:0.67647059 6:0.94444444 
1 1:0.78378378 2:0.85714286 3:0 4:1 5:0.72727273 6:0.70833333 
1 1:0.68493151 2:0.82352941 3:1 4:0 5:1 6:0.7826087 
1 1:0.69444444 2:0.88235294 3:1 4:0 5:0.67647059 6:0.94444444 
1 1:0.085626911 2:0.19512195 3:1 4:1 5:0.24074074 6:0.29166667 
1 1:0.084337349 2:0.19672131 3:1 4:1 5:0.29090909 6:0.29166667 
1 1:0.078549849 2:0.16058394 3:1 4:1 5:0.36697248 6:0.375 
1 1:0.078549849 2:0.16058394 3:1 4:1 5:0.36697248 6:0.375 
1 1:0.11158798 2:0.27906977 3:1 4:1 5:0.29357798 6:0.29166667 
1 1:0.11158798 2:0.27906977 3:1 4:1 5:0.29357798 6:0.29166667 
1 1:0.058139535 2:0.15714286 3:1 4:1 5:0.3853211 6:0.29166667 
1 1:0.063583815 2:0.17021277 3:1 4:1 5:0.29090909 6:0.29166667 
1 1:0.072507553 2:0.16058394 3:1 4:1 5:0.36036036 6:0.33333333 
1 1:0.17910448 2:0.5 3:1 4:1 5:0.24778761 6:0.55555556 
1 1:0.4137931 2:0.56 3:1 4:1 5:0.22535211 6:0.375 
1 1:0.4137931 2:0.56 3:1 4:1 5:0.22535211 6:0.375 
1 1:0.65671642 2:0.77419355 3:0 4:1 5:1 6:0.94117647 
1 1:0.66666667 2:0.8 3:1 4:0 5:0.72727273 6:1 
1 1:0.58461538 2:0.8 3:1 4:0 5:0.94117647 6:1 
1 1:0.075 2:0.13445378 3:1 4:1 5:0.33333333 6:0.41176471 
1 1:0.073846154 2:0.13559322 3:1 4:1 5:0.38181818 6:0.41176471 
1 1:0.055555556 2:0.10526316 3:1 4:1 5:0.27522936 6:0.47058824 
1 1:0.055555556 2:0.10526316 3:1 4:1 5:0.27522936 6:0.47058824 
1 1:0.097345133 2:0.19512195 3:1 4:1 5:0.3853211 6:0.41176471 
1 1:0.097345133 2:0.19512195 3:1 4:1 5:0.3853211 6:0.41176471 
1 1:0.035608309 2:0.10294118 3:1 4:1 5:0.29357798 6:0.41176471 
1 1:0.053097345 2:0.11678832 3:1 4:1 5:0.38181818 6:0.41176471 
1 1:0.049382716 2:0.10526316 3:1 4:1 5:0.27027027 6:0.41176471 
1 1:0.47058824 2:0.66666667 3:1 4:1 5:0.1971831 6:0.35294118 
1 1:0.47058824 2:0.66666667 3:1 4:1 5:0.1971831 6:0.35294118 
1 1:0.71232877 2:0.91891892 3:0 4:0 5:0.72727273 6:0.94117647 
1 1:0.61111111 2:0.88888889 3:1 4:1 5:1 6:1 
1 1:0.78873239 2:0.88888889 3:1 4:1 5:0.67647059 6:1 
1 1:0.65671642 2:0.77419355 3:0 4:1 5:1 6:0.94117647 
1 1:0.66666667 2:0.8 3:1 4:0 5:0.72727273 6:1 
1 1:0.58461538 2:0.8 3:1 4:0 5:0.94117647 6:1 
1 1:0.075 2:0.13445378 3:1 4:1 5:0.33333333 6:0.41176471 
1 1:0.073846154 2:0.13559322 3:1 4:1 5:0.38181818 6:0.41176471 
1 1:0.055555556 2:0.10526316 3:1 4:1 5:0.27522936 6:0.47058824 
1 1:0.055555556 2:0.10526316 3:1 4:1 5:0.27522936 6:0.47058824 
1 1:0.097345133 2:0.19512195 3:1 4:1 5:0.3853211 6:0.41176471 
1 1:0.097345133 2:0.19512195 3:1 4:1 5:0.3853211 6:0.41176471 
1 1:0.035608309 2:0.10294118 3:1 4:1 5:0.29357798 6:0.41176471 
1 1:0.053097345 2:0.11678832 3:1 4:1 5:0.38181818 6:0.41176471 
1 1:0.049382716 2:0.10526316 3:1 4:1 5:0.27027027 6:0.41176471 
1 1:0.47058824 2:0.66666667 3:1 4:1 5:0.1971831 6:0.35294118 
1 1:0.47058824 2:0.66666667 3:1 4:1 5:0.1971831 6:0.35294118 
1 1:0.65671642 2:0.77419355 3:0 4:1 5:1 6:0.94117647 
1 1:0.66666667 2:0.8 3:1 4:0 5:0.72727273 6:1 
1 1:0.58461538 2:0.8 3:1 4:0 5:0.94117647 6:1 
1 1:0.075 2:0.13445378 3:1 4:1 5:0.33333333 6:0.41176471 
1 1:0.073846154 2:0.13559322 3:1 4:1 5:0.38181818 6:0.41176471 
1 1:0.055555556 2:0.10526316 3:1 4:1 5:0.27522936 6:0.47058824 
1 1:0.055555556 2:0.10526316 3:1 4:1 5:0.27522936 6:0.47058824 
1 1:0.097345133 2:0.19512195 3:1 4:1 5:0.3853211 6:0.41176471 
1 1:0.097345133 2:0.19512195 3:1 4:1 5:0.3853211 6:0.41176471 
1 1:0.035608309 2:0.10294118 3:1 4:1 5:0.29357798 6:0.41176471 
1 1:0.053097345 2:0.11678832 3:1 4:1 5:0.38181818 6:0.41176471 
1 1:0.049382716 2:0.10526316 3:1 4:1 5:0.27027027 6:0.41176471 
1 1:0.47058824 2:0.66666667 3:1 4:1 5:0.1971831 6:0.35294118 
1 1:0.47058824 2:0.66666667 3:1 4:1 5:0.1971831 6:0.35294118 
1 1:0.43902439 2:0.625 3:0 4:1 5:1 6:0.94117647 
1 1:0.44444444 2:0.64516129 3:1 4:0 5:0.72727273 6:1 
1 1:0.425 2:0.58064516 3:1 4:0 5:0.94117647 6:1 
1 1:0.08358209 2:0.13333333 3:1 4:1 5:0.33333333 6:0.41176471 
1 1:0.082352941 2:0.13445378 3:1 4:1 5:0.38181818 6:0.41176471 
1 1:0.07079646 2:0.11940299 3:1 4:1 5:0.27522936 6:0.47058824 
1 1:0.07079646 2:0.11940299 3:1 4:1 5:0.27522936 6:0.47058824 
1 1:0.099585062 2:0.19277108 3:1 4:1 5:0.3853211 6:0.41176471 
1 1:0.099585062 2:0.19277108 3:1 4:1 5:0.3853211 6:0.41176471 
1 1:0.045454545 2:0.10218978 3:1 4:1 5:0.29357798 6:0.41176471 
1 1:0.06779661 2:0.11594203 3:1 4:1 5:0.38181818 6:0.41176471 
1 1:0.064896755 2:0.11940299 3:1 4:1 5:0.27027027 6:0.41176471 
1 1:0.24242424 2:0.45454545 3:1 4:1 5:0.1971831 6:0.35294118 
1 1:0.24242424 2:0.45454545 3:1 4:1 5:0.1971831 6:0.35294118 
1 1:0.88571429 2:0.91428571 3:0 4:0 5:1 6:0.94117647 
1 1:0.8115942 2:0.88235294 3:1 4:1 5:0.72727273 6:1 
1 1:1 2:1 3:1 4:1 5:0.94117647 6:1 
1 1:0.72463768 2:0.78787879 3:0 4:0 5:0.90410959 6:0.94117647 
1 1:0.61764706 2:0.75 3:0 4:1 5:0.65753425 6:1 
1 1:0.80597015 2:0.875 3:0 4:1 5:0.85333333 6:1 
1 1:0.77333333 2:0.86486486 3:0 4:0 5:0.81818182 6:0.88888889 
1 1:0.7027027 2:0.88888889 3:1 4:1 5:0.90909091 6:1 
1 1:0.71232877 2:0.77777778 3:1 4:1 5:0.76470588 6:0.88888889 
1 1:0.77333333 2:0.86486486 3:0 4:0 5:1 6:0.88888889 
1 1:0.7027027 2:0.88888889 3:1 4:1 5:0.72727273 6:1 
1 1:0.71232877 2:0.77777778 3:1 4:1 5:0.94117647 6:0.88888889 
1 1:0.5 2:0.64285714 3:0 4:0 5:1 6:0.94117647 
1 1:0.50793651 2:0.66666667 3:1 4:1 5:0.72727273 6:1 
1 1:0.51612903 2:0.66666667 3:1 4:1 5:0.94117647 6:1 
1 1:0.47058824 2:0.73333333 3:0 4:0 5:1 6:0.94117647 
1 1:0.47761194 2:0.75862069 3:1 4:1 5:0.72727273 6:1 
1 1:0.48484848 2:0.68965517 3:1 4:1 5:0.94117647 6:1 
1 1:0.65671642 2:0.77419355 3:0 4:0 5:1 6:0.94117647 
1 1:0.66666667 2:0.8 3:1 4:1 5:0.72727273 6:1 
1 1:0.58461538 2:0.8 3:1 4:1 5:0.94117647 6:1 
1 1:0.65671642 2:0.77419355 3:0 4:0 5:1 6:0.94117647 
1 1:0.66666667 2:0.8 3:1 4:1 5:0.72727273 6:1 
1 1:0.58461538 2:0.8 3:1 4:1 5:0.94117647 6:1 
1 1:0.68493151 2:0.85714286 3:0 4:0 5:1 6:0.94117647 
1 1:0.72222222 2:0.88235294 3:1 4:1 5:0.72727273 6:1 
1 1:0.5915493 2:0.76470588 3:1 4:1 5:0.94117647 6:1 
1 1:0.68493151 2:0.85714286 3:0 4:0 5:1 6:0.94117647 
1 1:0.72222222 2:0.88235294 3:1 4:1 5:0.72727273 6:1 
1 1:0.5915493 2:0.76470588 3:1 4:1 5:0.94117647 6:1 
1 1:0.68493151 2:0.85714286 3:0 4:0 5:1 6:0.94117647 
1 1:0.72222222 2:0.88235294 3:1 4:1 5:0.72727273 6:1 
1 1:0.5915493 2:0.76470588 3:1 4:1 5:0.94117647 6:1 
1 1:0.68493151 2:0.85714286 3:0 4:0 5:1 6:0.94117647 
1 1:0.72222222 2:0.88235294 3:1 4:1 5:0.72727273 6:1 
1 1:0.5915493 2:0.76470588 3:1 4:1 5:0.94117647 6:1 
1 1:0.68493151 2:0.85714286 3:0 4:0 5:1 6:0.94117647 
1 1:0.72222222 2:0.88235294 3:1 4:1 5:0.72727273 6:1 
1 1:0.5915493 2:0.76470588 3:1 4:1 5:0.94117647 6:1 
1 1:0.68493151 2:0.85714286 3:0 4:0 5:1 6:0.94117647 
1 1:0.72222222 2:0.88235294 3:1 4:1 5:0.72727273 6:1 
1 1:0.5915493 2:0.76470588 3:1 4:1 5:0.94117647 6:1 
1 1:0.68493151 2:0.85714286 3:0 4:0 5:1 6:0.94117647 
1 1:0.72222222 2:0.88235294 3:1 4:1 5:0.72727273 6:1 
1 1:0.5915493 2:0.76470588 3:1 4:1 5:0.94117647 6:1 
1 1:0.68493151 2:0.85714286 3:0 4:0 5:1 6:0.94117647 
1 1:0.72222222 2:0.88235294 3:1 4:1 5:0.72727273 6:1 
1 1:0.5915493 2:0.76470588 3:1 4:1 5:0.94117647 6:1 
1 1:0.68493151 2:0.85714286 3:0 4:0 5:1 6:0.94117647 
1 1:0.72222222 2:0.88235294 3:1 4:1 5:0.72727273 6:1 
1 1:0.5915493 2:0.76470588 3:1 4:1 5:0.94117647 6:1 
1 1:0.68493151 2:0.85714286 3:0 4:0 5:1 6:0.94117647 
1 1:0.72222222 2:0.88235294 3:1 4:1 5:0.72727273 6:1 
1 1:0.5915493 2:0.76470588 3:1 4:1 5:0.94117647 6:1 
1 1:0.68493151 2:0.85714286 3:0 4:0 5:0.92307692 6:0.94117647 
1 1:0.72222222 2:0.88235294 3:1 4:1 5:0.70769231 6:1 
1 1:0.5915493 2:0.76470588 3:1 4:1 5:0.86567164 6:1 
1 1:0.56338028 2:0.85714286 3:0 4:0 5:1 6:0.94117647 
1 1:0.57142857 2:0.88235294 3:1 4:1 5:0.72727273 6:1 
1 1:0.55072464 2:0.76470588 3:1 4:1 5:0.94117647 6:1 
1 1:0.56338028 2:0.85714286 3:0 4:0 5:1 6:0.94117647 
1 1:0.57142857 2:0.88235294 3:1 4:1 5:0.72727273 6:1 
1 1:0.55072464 2:0.76470588 3:1 4:1 5:0.94117647 6:1 
1 1:0.56338028 2:0.85714286 3:0 4:0 5:1 6:0.94117647 
1 1:0.57142857 2:0.88235294 3:1 4:1 5:0.72727273 6:1 
1 1:0.55072464 2:0.76470588 3:1 4:1 5:0.94117647 6:1 
1 1:0.43902439 2:0.625 3:0 4:0 5:1 6:0.94117647 
1 1:0.44444444 2:0.64516129 3:1 4:1 5:0.72727273 6:1 
1 1:0.425 2:0.58064516 3:1 4:1 5:0.94117647 6:1 
1 1:0.43902439 2:0.625 3:0 4:0 5:1 6:0.94117647 
1 1:0.44444444 2:0.64516129 3:1 4:1 5:0.72727273 6:1 
1 1:0.425 2:0.58064516 3:1 4:1 5:0.94117647 6:1 
1 1:0.43902439 2:0.625 3:0 4:0 5:1 6:0.94117647 
1 1:0.44444444 2:0.64516129 3:1 4:1 5:0.72727273 6:1 
1 1:0.425 2:0.58064516 3:1 4:1 5:0.94117647 6:1 
1 1:0.68571429 2:0.84848485 3:0 4:0 5:1 6:0.94117647 
1 1:0.69565217 2:0.875 3:1 4:1 5:0.72727273 6:1 
1 1:0.61764706 2:0.8125 3:1 4:1 5:0.94117647 6:1 
1 1:0.68493151 2:0.85714286 3:0 4:0 5:0.72727273 6:0.94117647 
1 1:0.72222222 2:0.88235294 3:1 4:1 5:1 6:1 
1 1:0.5915493 2:0.76470588 3:1 4:1 5:0.67647059 6:1 
1 1:0.68493151 2:0.85714286 3:0 4:0 5:0.72727273 6:0.94117647 
1 1:0.72222222 2:0.88235294 3:1 4:1 5:1 6:1 
1 1:0.5915493 2:0.76470588 3:1 4:1 5:0.67647059 6:1 
1 1:0.68493151 2:0.85714286 3:0 4:0 5:1 6:0.94117647 
1 1:0.72222222 2:0.88235294 3:1 4:1 5:0.72727273 6:1 
1 1:0.5915493 2:0.76470588 3:1 4:1 5:0.94117647 6:1 
1 1:0.68493151 2:0.85714286 3:0 4:0 5:1 6:0.94117647 
1 1:0.72222222 2:0.88235294 3:1 4:1 5:0.72727273 6:1 
1 1:0.5915493 2:0.76470588 3:1 4:1 5:0.94117647 6:1 
1 1:0.52173913 2:0.84848485 3:0 4:0 5:0.72727273 6:0.94117647 
1 1:0.52941176 2:0.875 3:1 4:1 5:1 6:1 
1 1:0.50746269 2:0.75 3:1 4:1 5:0.67647059 6:1 
1 1:0.36363636 2:0.53846154 3:0 4:0 5:0.79012346 6:0.94117647 
1 1:0.57142857 2:0.625 3:1 4:0 5:0.16842105 6:1 
1 1:0.37037037 2:0.56 3:1 4:0 5:0.56790123 6:1 
1 1:0.30188679 2:0.56 3:1 4:0 5:0.74698795 6:1 
1 1:0.68493151 2:0.85714286 3:0 4:0 5:1 6:0.94117647 
1 1:0.72222222 2:0.88235294 3:1 4:1 5:0.72727273 6:1 
1 1:0.5915493 2:0.76470588 3:1 4:1 5:0.94117647 6:1 
1 1:0.68493151 2:0.85714286 3:0 4:0 5:1 6:0.94117647 
1 1:0.72222222 2:0.88235294 3:1 4:1 5:0.72727273 6:1 
1 1:0.5915493 2:0.76470588 3:1 4:1 5:0.94117647 6:1 
1 1:0.68493151 2:0.85714286 3:0 4:0 5:1 6:0.94117647 
1 1:0.72222222 2:0.88235294 3:1 4:1 5:0.72727273 6:1 
1 1:0.5915493 2:0.76470588 3:1 4:1 5:0.94117647 6:1 
1 1:0.68493151 2:0.85714286 3:0 4:0 5:1 6:0.94117647 
1 1:0.72222222 2:0.88235294 3:1 4:1 5:0.72727273 6:1 
1 1:0.5915493 2:0.76470588 3:1 4:1 5:0.94117647 6:1 
1 1:0.68493151 2:0.85714286 3:0 4:0 5:1 6:0.94117647 
1 1:0.72222222 2:0.88235294 3:1 4:1 5:0.72727273 6:1 
1 1:0.5915493 2:0.76470588 3:1 4:1 5:0.94117647 6:1 
1 1:0.43902439 2:0.625 3:0 4:0 5:1 6:0.94117647 
1 1:0.44444444 2:0.64516129 3:1 4:1 5:0.72727273 6:1 
1 1:0.425 2:0.58064516 3:1 4:1 5:0.94117647 6:1 
1 1:0.47058824 2:0.73333333 3:0 4:0 5:1 6:0.94117647 
1 1:0.47761194 2:0.75862069 3:1 4:1 5:0.72727273 6:1 
1 1:0.48484848 2:0.68965517 3:1 4:1 5:0.94117647 6:1 
1 1:0.65671642 2:0.77419355 3:0 4:0 5:1 6:0.94117647 
1 1:0.66666667 2:0.8 3:1 4:1 5:0.72727273 6:1 
1 1:0.58461538 2:0.8 3:1 4:1 5:0.94117647 6:1 
1 1:0.63013699 2:0.8 3:0 4:0 5:1 6:0.94117647 
1 1:0.66666667 2:0.82352941 3:1 4:1 5:0.72727273 6:1 
1 1:0.56338028 2:0.70588235 3:1 4:1 5:0.94117647 6:1 
1 1:0.68493151 2:0.85714286 3:0 4:0 5:1 6:0.94117647 
1 1:0.72222222 2:0.88235294 3:1 4:1 5:0.72727273 6:1 
1 1:0.5915493 2:0.76470588 3:1 4:1 5:0.94117647 6:1 
1 1:0.68493151 2:0.85714286 3:0 4:0 5:1 6:0.94117647 
1 1:0.72222222 2:0.88235294 3:1 4:1 5:0.72727273 6:1 
1 1:0.5915493 2:0.76470588 3:1 4:1 5:0.94117647 6:1 
1 1:0.68493151 2:0.85714286 3:0 4:0 5:1 6:0.94117647 
1 1:0.72222222 2:0.88235294 3:1 4:1 5:0.72727273 6:1 
1 1:0.5915493 2:0.76470588 3:1 4:1 5:0.94117647 6:1 
1 1:0.68493151 2:0.85714286 3:0 4:0 5:1 6:0.94117647 
1 1:0.72222222 2:0.88235294 3:1 4:1 5:0.72727273 6:1 
1 1:0.5915493 2:0.76470588 3:1 4:1 5:0.94117647 6:1 
1 1:0.68493151 2:0.85714286 3:0 4:0 5:1 6:0.94117647 
1 1:0.72222222 2:0.88235294 3:1 4:1 5:0.72727273 6:1 
1 1:0.5915493 2:0.76470588 3:1 4:1 5:0.94117647 6:1 
1 1:0.68493151 2:0.85714286 3:0 4:0 5:1 6:0.94117647 
1 1:0.72222222 2:0.88235294 3:1 4:1 5:0.72727273 6:1 
1 1:0.5915493 2:0.76470588 3:1 4:1 5:0.94117647 6:1 
1 1:0.43902439 2:0.625 3:0 4:0 5:1 6:0.94117647 
1 1:0.44444444 2:0.64516129 3:1 4:1 5:0.72727273 6:1 
1 1:0.425 2:0.58064516 3:1 4:1 5:0.94117647 6:1 
1 1:0.43902439 2:0.625 3:0 4:0 5:1 6:0.94117647 
1 1:0.44444444 2:0.64516129 3:1 4:1 5:0.72727273 6:1 
1 1:0.425 2:0.58064516 3:1 4:1 5:0.94117647 6:1 
1 1:0.71428571 2:0.76470588 3:0 4:0 5:0.67647059 6:0.94117647 
1 1:0.60869565 2:0.72727273 3:1 4:1 5:0.94117647 6:1 
1 1:0.79411765 2:0.84848485 3:1 4:1 5:0.65714286 6:1 
1 1:0.72463768 2:0.78787879 3:0 4:0 5:0.72727273 6:0.94117647 
1 1:0.61764706 2:0.75 3:1 4:1 5:1 6:1 
1 1:0.80597015 2:0.875 3:1 4:1 5:0.67647059 6:1 
1 1:0.72463768 2:0.78787879 3:0 4:0 5:0.72727273 6:0.94117647 
1 1:0.61764706 2:0.75 3:1 4:1 5:1 6:1 
1 1:0.80597015 2:0.875 3:1 4:1 5:0.67647059 6:1 
1 1:0.72463768 2:0.78787879 3:0 4:0 5:0.72727273 6:0.94117647 
1 1:0.61764706 2:0.75 3:1 4:1 5:1 6:1 
1 1:0.80597015 2:0.875 3:1 4:1 5:0.67647059 6:1 
1 1:0.60606061 2:0.73333333 3:0 4:0 5:0.72727273 6:0.94117647 
1 1:0.61538462 2:0.75862069 3:1 4:1 5:1 6:1 
1 1:0.53125 2:0.75862069 3:1 4:1 5:0.67647059 6:1 
1 1:0.65671642 2:0.77419355 3:0 4:0 5:1 6:0.94117647 
1 1:0.66666667 2:0.8 3:1 4:1 5:0.72727273 6:1 
1 1:0.58461538 2:0.8 3:1 4:1 5:0.94117647 6:1 
1 1:0.61538462 2:0.84848485 3:0 4:0 5:0.85714286 6:0.94117647 
1 1:0.65625 2:0.875 3:1 4:1 5:0.62337662 6:1 
1 1:0.50793651 2:0.75 3:1 4:1 5:0.81012658 6:1 
1 1:0.61538462 2:0.84848485 3:0 4:0 5:0.85714286 6:0.94117647 
1 1:0.65625 2:0.875 3:1 4:1 5:0.62337662 6:1 
1 1:0.50793651 2:0.75 3:1 4:1 5:0.81012658 6:1 
1 1:0.68493151 2:0.85714286 3:0 4:0 5:1 6:0.94117647 
1 1:0.72222222 2:0.88235294 3:1 4:1 5:0.72727273 6:1 
1 1:0.5915493 2:0.76470588 3:1 4:1 5:0.94117647 6:1 
1 1:0.68493151 2:0.85714286 3:0 4:0 5:1 6:0.94117647 
1 1:0.72222222 2:0.88235294 3:1 4:1 5:0.72727273 6:1 
1 1:0.5915493 2:0.76470588 3:1 4:1 5:0.94117647 6:1 
1 1:0.68493151 2:0.85714286 3:0 4:0 5:1 6:0.94117647 
1 1:0.72222222 2:0.88235294 3:1 4:1 5:0.72727273 6:1 
1 1:0.5915493 2:0.76470588 3:1 4:1 5:0.94117647 6:1 
1 1:0.43902439 2:0.625 3:0 4:1 5:1 6:0.94117647 
1 1:0.44444444 2:0.64516129 3:1 4:0 5:0.72727273 6:1 
1 1:0.425 2:0.58064516 3:1 4:0 5:0.94117647 6:1 
1 1:0.08358209 2:0.13333333 3:1 4:1 5:0.33333333 6:0.41176471 
1 1:0.082352941 2:0.13445378 3:1 4:1 5:0.38181818 6:0.41176471 
1 1:0.07079646 2:0.11940299 3:1 4:1 5:0.27522936 6:0.47058824 
1 1:0.07079646 2:0.11940299 3:1 4:1 5:0.27522936 6:0.47058824 
1 1:0.099585062 2:0.19277108 3:1 4:1 5:0.3853211 6:0.41176471 
1 1:0.099585062 2:0.19277108 3:1 4:1 5:0.3853211 6:0.41176471 
1 1:0.045454545 2:0.10218978 3:1 4:1 5:0.29357798 6:0.41176471 
1 1:0.06779661 2:0.11594203 3:1 4:1 5:0.38181818 6:0.41176471 
1 1:0.064896755 2:0.11940299 3:1 4:1 5:0.27027027 6:0.41176471 
1 1:0.24242424 2:0.45454545 3:1 4:1 5:0.1971831 6:0.35294118 
1 1:0.24242424 2:0.45454545 3:1 4:1 5:0.1971831 6:0.35294118 
1 1:0.43902439 2:0.625 3:0 4:0 5:1 6:0.94117647 
1 1:0.44444444 2:0.64516129 3:1 4:1 5:0.72727273 6:1 
1 1:0.425 2:0.58064516 3:1 4:1 5:0.94117647 6:1 
1 1:0.43902439 2:0.625 3:0 4:0 5:1 6:0.94117647 
1 1:0.44444444 2:0.64516129 3:1 4:1 5:0.72727273 6:1 
1 1:0.425 2:0.58064516 3:1 4:1 5:0.94117647 6:1 
1 1:0.68493151 2:0.85714286 3:0 4:0 5:1 6:0.94117647 
1 1:0.72222222 2:0.88235294 3:1 4:1 5:0.72727273 6:1 
1 1:0.5915493 2:0.76470588 3:1 4:1 5:0.94117647 6:1 
1 1:0.5915493 2:0.91428571 3:0 4:0 5:0.96969697 6:0.94117647 
1 1:0.57142857 2:0.94117647 3:1 4:1 5:0.6969697 6:1 
1 1:0.57971014 2:0.82352941 3:1 4:1 5:0.94117647 6:1 
1 1:0.5915493 2:0.91428571 3:0 4:0 5:1 6:0.94117647 
1 1:0.57142857 2:0.94117647 3:0 4:1 5:0.72727273 6:1 
1 1:0.57971014 2:0.82352941 3:0 4:1 5:0.94117647 6:1 
1 1:0.80597015 2:0.84848485 3:0 4:0 5:1 6:0.94117647 
1 1:0.72727273 2:0.8125 3:1 4:1 5:0.72727273 6:1 
1 1:0.92307692 2:0.9375 3:1 4:1 5:0.94117647 6:1 
1 1:0.65671642 2:0.77419355 3:0 4:0 5:1 6:0.94117647 
1 1:0.66666667 2:0.8 3:1 4:0 5:0.72727273 6:1 
1 1:0.58461538 2:0.8 3:1 4:0 5:0.94117647 6:1 
1 1:0.38709677 2:0.51851852 3:0 4:0 5:0.6031746 6:0.72727273 
1 1:0.42622951 2:0.53846154 3:0 4:1 5:0.6031746 6:0.81818182 
1 1:0.4 2:0.53846154 3:0 4:1 5:0.58461538 6:0.88888889 
1 1:0.12244898 2:0.31578947 3:1 4:0 5:0.44186047 6:0.70588235 
1 1:0.76190476 2:0.8 3:0 4:1 5:0.71111111 6:1 
1 1:0.73469388 2:0.77777778 3:0 4:0 5:0.625 6:0 
1 1:0.71111111 2:0.93333333 3:0 4:1 5:1 6:1 
1 1:0.71111111 2:0.93333333 3:0 4:1 5:1 6:1 
1 1:0.71111111 2:0.93333333 3:1 4:1 5:0.95652174 6:1 
1 1:0.71111111 2:0.93333333 3:0 4:0.5 5:1 6:1 
1 1:0.51851852 2:0.61538462 3:0 4:1 5:1 6:1 
1 1:0.71111111 2:0.93333333 3:0 4:1 5:0.95652174 6:1 
1 1:0.71111111 2:0.93333333 3:0 4:1 5:0.95652174 6:1 
1 1:0.51851852 2:0.61538462 3:0 4:0 5:1 6:1 
1 1:0.71111111 2:0.93333333 3:0 4:0 5:1 6:1 
1 1:1 2:1 3:1 4:0.8 5:1 6:1 
1 1:0.59090909 2:0.75 3:0 4:1 5:0.73333333 6:1 
1 1:0.66666667 2:0.77777778 3:0 4:1 5:0.69565217 6:1 
1 1:0.51851852 2:0.61538462 3:0 4:1 5:0.75268817 6:1 
1 1:0.71111111 2:0.93333333 3:0 4:1 5:0.87128713 6:1 
1 1:0.71111111 2:0.93333333 3:0 4:1 5:0.87128713 6:1 
1 1:0.71111111 2:0.93333333 3:0 4:1 5:1 6:1 
1 1:0.71111111 2:0.93333333 3:0 4:1 5:1 6:1 
1 1:0.71111111 2:0.93333333 3:0 4:1 5:1 6:1 
1 1:0.49122807 2:0.66666667 3:0 4:1 5:1 6:1 
1 1:0.49122807 2:0.66666667 3:0 4:1 5:1 6:1 
1 1:0.71111111 2:0.93333333 3:0 4:0 5:0.91666667 6:1 
1 1:0.71111111 2:0.93333333 3:0 4:0 5:0.91666667 6:1 
1 1:0.49122807 2:0.66666667 3:0 4:0 5:0.75268817 6:1 
1 1:0.49122807 2:0.66666667 3:0 4:0 5:0.75268817 6:1 
1 1:0.49122807 2:0.66666667 3:0 4:0 5:0.75268817 6:1 
1 1:0.71111111 2:0.93333333 3:0 4:1 5:1 6:1 
1 1:0.49122807 2:0.66666667 3:0 4:0 5:0.75268817 6:1 
1 1:0.71111111 2:0.93333333 3:0 4:1 5:0.87128713 6:1 
1 1:0.71111111 2:0.93333333 3:0 4:1 5:0.87128713 6:1 
1 1:0.73913043 2:0.875 3:0 4:1 5:0.69565217 6:1 
1 1:0.7826087 2:0.875 3:0 4:1 5:1 6:1 
1 1:0.7826087 2:0.875 3:0 4:1 5:1 6:1 
1 1:0.71111111 2:0.93333333 3:0 4:1 5:1 6:1 
1 1:0.66666667 2:0.77777778 3:0 4:1 5:0.95652174 6:1 
1 1:0.66666667 2:0.77777778 3:0 4:1 5:0.95652174 6:1 
1 1:0.71111111 2:0.93333333 3:0 4:1 5:1 6:1 
1 1:0.71111111 2:0.93333333 3:0 4:1 5:1 6:1 
1 1:0.12244898 2:0.31578947 3:1 4:0 5:0.44186047 6:0.70588235 
1 1:0.76190476 2:0.8 3:0 4:1 5:0.71111111 6:1 
1 1:0.73469388 2:0.77777778 3:0 4:0 5:0.625 6:0 
1 1:0.71111111 2:0.93333333 3:0 4:1 5:1 6:1 
1 1:0.71111111 2:0.93333333 3:0 4:1 5:1 6:1 
1 1:0.71111111 2:0.93333333 3:1 4:1 5:0.95652174 6:1 
1 1:0.71111111 2:0.93333333 3:0 4:0.5 5:1 6:1 
1 1:0.51851852 2:0.61538462 3:0 4:1 5:1 6:1 
1 1:0.71111111 2:0.93333333 3:0 4:1 5:0.95652174 6:1 
1 1:0.71111111 2:0.93333333 3:0 4:1 5:0.95652174 6:1 
1 1:0.51851852 2:0.61538462 3:0 4:0 5:1 6:1 
1 1:0.71111111 2:0.93333333 3:0 4:0 5:1 6:1 
1 1:1 2:1 3:1 4:0.8 5:1 6:1 
1 1:0.59090909 2:0.75 3:0 4:1 5:0.73333333 6:1 
1 1:0.66666667 2:0.77777778 3:0 4:1 5:0.69565217 6:1 
1 1:0.51851852 2:0.61538462 3:0 4:1 5:0.75268817 6:1 
1 1:0.71111111 2:0.93333333 3:0 4:1 5:0.87128713 6:1 
1 1:0.71111111 2:0.93333333 3:0 4:1 5:0.87128713 6:1 
1 1:0.71111111 2:0.93333333 3:0 4:1 5:1 6:1 
1 1:0.71111111 2:0.93333333 3:0 4:1 5:1 6:1 
1 1:0.71111111 2:0.93333333 3:0 4:1 5:1 6:1 
1 1:0.49122807 2:0.66666667 3:0 4:1 5:1 6:1 
1 1:0.49122807 2:0.66666667 3:0 4:1 5:1 6:1 
1 1:0.71111111 2:0.93333333 3:0 4:0 5:0.91666667 6:1 
1 1:0.71111111 2:0.93333333 3:0 4:0 5:0.91666667 6:1 
1 1:0.49122807 2:0.66666667 3:0 4:0 5:0.75268817 6:1 
1 1:0.49122807 2:0.66666667 3:0 4:0 5:0.75268817 6:1 
1 1:0.49122807 2:0.66666667 3:0 4:0 5:0.75268817 6:1 
1 1:0.71111111 2:0.93333333 3:0 4:1 5:1 6:1 
1 1:0.49122807 2:0.66666667 3:0 4:0 5:0.75268817 6:1 
1 1:0.71111111 2:0.93333333 3:0 4:1 5:0.87128713 6:1 
1 1:0.71111111 2:0.93333333 3:0 4:1 5:0.87128713 6:1 
1 1:0.73913043 2:0.875 3:0 4:1 5:0.69565217 6:1 
1 1:0.7826087 2:0.875 3:0 4:1 5:1 6:1 
1 1:0.7826087 2:0.875 3:0 4:1 5:1 6:1 
1 1:0.71111111 2:0.93333333 3:0 4:1 5:1 6:1 
1 1:0.66666667 2:0.77777778 3:0 4:1 5:0.95652174 6:1 
1 1:0.66666667 2:0.77777778 3:0 4:1 5:0.95652174 6:1 
1 1:0.71111111 2:0.93333333 3:0 4:1 5:1 6:1 
1 1:0.71111111 2:0.93333333 3:0 4:1 5:1 6:1 
1 1:0.12244898 2:0.31578947 3:1 4:0 5:0.44186047 6:0.70588235 
1 1:0.76190476 2:0.8 3:0 4:1 5:0.71111111 6:1 
1 1:0.73469388 2:0.77777778 3:0 4:0 5:0.625 6:0 
1 1:0.71111111 2:0.93333333 3:0 4:1 5:1 6:1 
1 1:0.71111111 2:0.93333333 3:0 4:1 5:1 6:1 
1 1:0.71111111 2:0.93333333 3:1 4:1 5:0.95652174 6:1 
1 1:0.71111111 2:0.93333333 3:0 4:0.5 5:1 6:1 
1 1:0.51851852 2:0.61538462 3:0 4:1 5:1 6:1 
1 1:0.71111111 2:0.93333333 3:0 4:1 5:0.95652174 6:1 
1 1:0.71111111 2:0.93333333 3:0 4:1 5:0.95652174 6:1 
1 1:0.51851852 2:0.61538462 3:0 4:0 5:1 6:1 
1 1:0.71111111 2:0.93333333 3:0 4:0 5:1 6:1 
1 1:1 2:1 3:1 4:0.8 5:1 6:1 
1 1:0.59090909 2:0.75 3:0 4:1 5:0.73333333 6:1 
1 1:0.66666667 2:0.77777778 3:0 4:1 5:0.69565217 6:1 
1 1:0.51851852 2:0.61538462 3:0 4:1 5:0.75268817 6:1 
1 1:0.71111111 2:0.93333333 3:0 4:1 5:0.87128713 6:1 
1 1:0.71111111 2:0.93333333 3:0 4:1 5:0.87128713 6:1 
1 1:0.71111111 2:0.93333333 3:0 4:1 5:1 6:1 
1 1:0.71111111 2:0.93333333 3:0 4:1 5:1 6:1 
1 1:0.71111111 2:0.93333333 3:0 4:1 5:1 6:1 
1 1:0.49122807 2:0.66666667 3:0 4:1 5:1 6:1 
1 1:0.49122807 2:0.66666667 3:0 4:1 5:1 6:1 
1 1:0.71111111 2:0.93333333 3:0 4:0 5:0.91666667 6:1 
1 1:0.71111111 2:0.93333333 3:0 4:0 5:0.91666667 6:1 
1 1:0.49122807 2:0.66666667 3:0 4:0 5:0.75268817 6:1 
1 1:0.49122807 2:0.66666667 3:0 4:0 5:0.75268817 6:1 
1 1:0.49122807 2:0.66666667 3:0 4:0 5:0.75268817 6:1 
1 1:0.71111111 2:0.93333333 3:0 4:1 5:1 6:1 
1 1:0.49122807 2:0.66666667 3:0 4:0 5:0.75268817 6:1 
1 1:0.71111111 2:0.93333333 3:0 4:1 5:0.87128713 6:1 
1 1:0.71111111 2:0.93333333 3:0 4:1 5:0.87128713 6:1 
1 1:0.73913043 2:0.875 3:0 4:1 5:0.69565217 6:1 
1 1:0.7826087 2:0.875 3:0 4:1 5:1 6:1 
1 1:0.7826087 2:0.875 3:0 4:1 5:1 6:1 
1 1:0.71111111 2:0.93333333 3:0 4:1 5:1 6:1 
1 1:0.66666667 2:0.77777778 3:0 4:1 5:0.95652174 6:1 
1 1:0.66666667 2:0.77777778 3:0 4:1 5:0.95652174 6:1 
1 1:0.71111111 2:0.93333333 3:0 4:1 5:1 6:1 
1 1:0.71111111 2:0.93333333 3:0 4:1 5:1 6:1 
1 1:0.12244898 2:0.31578947 3:1 4:0 5:0.44186047 6:0.70588235 
1 1:0.76190476 2:0.8 3:0 4:1 5:0.71111111 6:1 
1 1:0.73469388 2:0.77777778 3:0 4:0 5:0.625 6:0 
1 1:0.71111111 2:0.93333333 3:0 4:1 5:1 6:1 
1 1:0.71111111 2:0.93333333 3:0 4:1 5:1 6:1 
1 1:0.71111111 2:0.93333333 3:1 4:1 5:0.95652174 6:1 
1 1:0.71111111 2:0.93333333 3:0 4:0.5 5:1 6:1 
1 1:0.51851852 2:0.61538462 3:0 4:1 5:1 6:1 
1 1:0.71111111 2:0.93333333 3:0 4:1 5:0.95652174 6:1 
1 1:0.71111111 2:0.93333333 3:0 4:1 5:0.95652174 6:1 
1 1:0.51851852 2:0.61538462 3:0 4:0 5:1 6:1 
1 1:0.71111111 2:0.93333333 3:0 4:0 5:1 6:1 
1 1:1 2:1 3:1 4:0.8 5:1 6:1 
1 1:0.59090909 2:0.75 3:0 4:1 5:0.73333333 6:1 
1 1:0.66666667 2:0.77777778 3:0 4:1 5:0.69565217 6:1 
1 1:0.51851852 2:0.61538462 3:0 4:1 5:0.75268817 6:1 
1 1:0.71111111 2:0.93333333 3:0 4:1 5:0.87128713 6:1 
1 1:0.71111111 2:0.93333333 3:0 4:1 5:0.87128713 6:1 
1 1:0.71111111 2:0.93333333 3:0 4:1 5:1 6:1 
1 1:0.71111111 2:0.93333333 3:0 4:1 5:1 6:1 
1 1:0.71111111 2:0.93333333 3:0 4:1 5:1 6:1 
1 1:0.49122807 2:0.66666667 3:0 4:1 5:1 6:1 
1 1:0.49122807 2:0.66666667 3:0 4:1 5:1 6:1 
1 1:0.71111111 2:0.93333333 3:0 4:0 5:0.91666667 6:1 
1 1:0.71111111 2:0.93333333 3:0 4:0 5:0.91666667 6:1 
1 1:0.49122807 2:0.66666667 3:0 4:0 5:0.75268817 6:1 
1 1:0.49122807 2:0.66666667 3:0 4:0 5:0.75268817 6:1 
1 1:0.49122807 2:0.66666667 3:0 4:0 5:0.75268817 6:1 
1 1:0.71111111 2:0.93333333 3:0 4:1 5:1 6:1 
1 1:0.49122807 2:0.66666667 3:0 4:0 5:0.75268817 6:1 
1 1:0.71111111 2:0.93333333 3:0 4:1 5:0.87128713 6:1 
1 1:0.71111111 2:0.93333333 3:0 4:1 5:0.87128713 6:1 
1 1:0.73913043 2:0.875 3:0 4:1 5:0.69565217 6:1 
1 1:0.7826087 2:0.875 3:0 4:1 5:1 6:1 
1 1:0.7826087 2:0.875 3:0 4:1 5:1 6:1 
1 1:0.71111111 2:0.93333333 3:0 4:1 5:1 6:1 
1 1:0.66666667 2:0.77777778 3:0 4:1 5:0.95652174 6:1 
1 1:0.66666667 2:0.77777778 3:0 4:1 5:0.95652174 6:1 
1 1:0.71111111 2:0.93333333 3:0 4:1 5:1 6:1 
1 1:0.71111111 2:0.93333333 3:0 4:1 5:1 6:1 
1 1:1 2:1 3:1 4:0 5:0.29545455 6:0.6 
1 1:1 2:1 3:1 4:0 5:0.29545455 6:0.6 
1 1:1 2:1 3:1 4:0 5:0.29545455 6:0.6 
1 1:1 2:1 3:1 4:0 5:0.29545455 6:0.6 
1 1:1 2:1 3:1 4:0 5:0.29545455 6:0.6 
1 1:1 2:1 3:1 4:0 5:0.29545455 6:0.6 
1 1:1 2:1 3:1 4:0 5:0.29545455 6:0.6 
1 1:1 2:1 3:1 4:0 5:0.29545455 6:0.6 
1 1:1 2:1 3:1 4:0 5:0.29545455 6:0.6 
1 1:0.60869565 2:0.72727273 3:1 4:0 5:0.29545455 6:0.95714286 
1 1:1 2:1 3:0 4:0 5:0.33846154 6:0.82692308 
0.3666630887270931 1:0.75 2:0.72727273 3:0 4:0 5:0.37931034 6:0.75 
1 1:0.88888889 2:0.8 3:0 4:0 5:0.31111111 6:0.93846154 
1 1:0.88888889 2:0.8 3:0 4:0 5:0.31111111 6:0.93846154 
1 1:0.88888889 2:0.8 3:0 4:0 5:0.31111111 6:0.93846154 
1 1:0.60869565 2:0.72727273 3:1 4:0 5:0.27272727 6:0.6 
1 1:0.60869565 2:0.72727273 3:1 4:0 5:0.27272727 6:0.6 
1 1:0.60869565 2:0.72727273 3:1 4:0 5:0.27272727 6:0.6 
1 1:0.60869565 2:0.72727273 3:1 4:0 5:0.27272727 6:0.6 
1 1:0.60869565 2:0.72727273 3:1 4:0 5:0.27272727 6:0.6 
1 1:0.60869565 2:0.72727273 3:1 4:0 5:0.27272727 6:0.6 
1 1:0.60869565 2:0.72727273 3:1 4:0 5:0.27272727 6:0.6 
1 1:0.60869565 2:0.72727273 3:1 4:0 5:0.27272727 6:0.6 
1 1:0.60869565 2:0.72727273 3:1 4:0 5:0.27272727 6:0.6 
1 1:1 2:1 3:1 4:0 5:0.27272727 6:0.95714286 
1 1:0.57142857 2:0.61538462 3:1 4:0 5:0.28571429 6:0.6 
1 1:0.57142857 2:0.61538462 3:1 4:0 5:0.28571429 6:0.6 
1 1:0.57142857 2:0.61538462 3:1 4:0 5:0.28571429 6:0.6 
1 1:0.57142857 2:0.61538462 3:1 4:0 5:0.28571429 6:0.6 
1 1:0.57142857 2:0.61538462 3:1 4:0 5:0.28571429 6:0.6 
1 1:0.57142857 2:0.61538462 3:1 4:0 5:0.28571429 6:0.6 
1 1:0.57142857 2:0.61538462 3:1 4:0 5:0.28571429 6:0.6 
1 1:0.57142857 2:0.61538462 3:1 4:0 5:0.28571429 6:0.6 
1 1:0.57142857 2:0.61538462 3:1 4:0 5:0.28571429 6:0.6 
1 1:0.64 2:0.85714286 3:1 4:0 5:0.28571429 6:0.86764706 
1 1:0.57142857 2:0.61538462 3:1 4:0 5:0.27692308 6:0.88235294 
1 1:0.64 2:0.85714286 3:1 4:0 5:0.27692308 6:0.88235294 
1 1:0.22222222 2:0.26666667 3:1 4:0 5:0.81818182 6:0.64285714 
1 1:0.57627119 2:0.66666667 3:1 4:0 5:0.14814815 6:1 
1 1:0.5483871 2:0.57142857 3:1 4:0 5:0.12820513 6:1 
1 1:0.5483871 2:0.57142857 3:1 4:0 5:0.12820513 6:1 
1 1:0.5483871 2:0.57142857 3:1 4:0 5:0.14814815 6:1 
1 1:0.5483871 2:0.57142857 3:1 4:0 5:0.14814815 6:1 
1 1:0.5483871 2:0.57142857 3:1 4:0 5:0.14814815 6:1 
1 1:0.5483871 2:0.57142857 3:1 4:0 5:0.14814815 6:1 
1 1:0.22222222 2:0.26666667 3:1 4:0 5:0.81818182 6:0.64285714 
1 1:0.57627119 2:0.66666667 3:1 4:0 5:0.14814815 6:1 
1 1:0.5483871 2:0.57142857 3:1 4:0 5:0.12820513 6:1 
1 1:0.5483871 2:0.57142857 3:1 4:0 5:0.12820513 6:1 
1 1:0.5483871 2:0.57142857 3:1 4:0 5:0.14814815 6:1 
1 1:0.5483871 2:0.57142857 3:1 4:0 5:0.14814815 6:1 
1 1:0.5483871 2:0.57142857 3:1 4:0 5:0.14814815 6:1 
1 1:0.5483871 2:0.57142857 3:1 4:0 5:0.14814815 6:1 
1 1:0.22222222 2:0.26666667 3:1 4:0 5:1 6:0.64285714 
1 1:0.57627119 2:0.66666667 3:1 4:0 5:0.14814815 6:1 
1 1:0.5483871 2:0.57142857 3:1 4:0 5:0.12820513 6:1 
1 1:0.5483871 2:0.57142857 3:1 4:0 5:0.12820513 6:1 
1 1:0.5483871 2:0.57142857 3:1 4:0 5:0.14814815 6:1 
1 1:0.5483871 2:0.57142857 3:1 4:0 5:0.14814815 6:1 
1 1:0.5483871 2:0.57142857 3:1 4:0 5:0.14814815 6:1 
1 1:0.5483871 2:0.57142857 3:1 4:0 5:0.14814815 6:1 
1 1:0.2739726 2:0.88888889 3:0 4:0 5:0.91428571 6:0.94117647 
1 1:0.22222222 2:0.85714286 3:1 4:1 5:0.65714286 6:1 
1 1:0.28169014 2:0.85714286 3:1 4:1 5:0.88888889 6:1 
1 1:0.26666667 2:0.89473684 3:0 4:0 5:0.96969697 6:0.94117647 
1 1:0.21621622 2:0.86486486 3:1 4:1 5:0.6969697 6:1 
1 1:0.2739726 2:0.81081081 3:1 4:1 5:0.94117647 6:1 
1 1:0.84931507 2:0.91891892 3:0 4:0 5:1 6:0.94117647 
1 1:0.77777778 2:0.88888889 3:1 4:1 5:0.72727273 6:1 
1 1:0.95774648 2:0.94444444 3:1 4:1 5:0.94117647 6:1 
1 1:0.54285714 2:0.83333333 3:0 4:0 5:0.94285714 6:0.94117647 
1 1:0.57971014 2:0.85714286 3:1 4:1 5:0.68571429 6:1 
1 1:0.58823529 2:0.74285714 3:1 4:1 5:0.88888889 6:1 
1 1:0.67532468 2:0.85 3:0 4:0 5:0.96969697 6:0.94117647 
1 1:0.57894737 2:0.82051282 3:1 4:1 5:0.6969697 6:1 
1 1:0.74666667 2:0.82051282 3:1 4:1 5:0.94117647 6:1 
1 1:0.65714286 2:0.78787879 3:0 4:0 5:1 6:0.94117647 
1 1:0.66666667 2:0.8125 3:1 4:1 5:0.72727273 6:1 
1 1:0.58823529 2:0.75 3:1 4:1 5:0.94117647 6:1 
1 1:0.65714286 2:0.78787879 3:0 4:0 5:1 6:0.94117647 
1 1:0.66666667 2:0.8125 3:1 4:1 5:0.72727273 6:1 
1 1:0.58823529 2:0.75 3:1 4:1 5:0.94117647 6:1 
1 1:0.48484848 2:0.8 3:0 4:0 5:0.84210526 6:0.94117647 
1 1:0.49230769 2:0.82352941 3:1 4:1 5:0.60526316 6:1 
1 1:0.46875 2:0.70588235 3:1 4:1 5:0.82051282 6:1 
1 1:0.48484848 2:0.8 3:0 4:0 5:0.84210526 6:0.94117647 
1 1:0.49230769 2:0.82352941 3:1 4:1 5:0.60526316 6:1 
1 1:0.46875 2:0.70588235 3:1 4:1 5:0.82051282 6:1 
1 1:0.65714286 2:0.78787879 3:0 4:0 5:0.72727273 6:0.94117647 
1 1:0.66666667 2:0.8125 3:1 4:1 5:1 6:1 
1 1:0.58823529 2:0.75 3:1 4:1 5:0.67647059 6:1 
1 1:0.65714286 2:0.78787879 3:0 4:0 5:0.72727273 6:0.94117647 
1 1:0.66666667 2:0.8125 3:1 4:1 5:1 6:1 
1 1:0.58823529 2:0.75 3:1 4:1 5:0.67647059 6:1 
1 1:0.65714286 2:0.78787879 3:0 4:0 5:0.72727273 6:0.94117647 
1 1:0.66666667 2:0.8125 3:1 4:1 5:1 6:1 
1 1:0.58823529 2:0.75 3:1 4:1 5:0.67647059 6:1 
1 1:0.56756757 2:0.81081081 3:0 4:0 5:1 6:0.94117647 
1 1:0.57534247 2:0.83333333 3:1 4:1 5:0.72727273 6:1 
1 1:0.55555556 2:0.72222222 3:1 4:1 5:0.94117647 6:1 
1 1:1 2:1 3:1 4:0 5:0.076190476 6:0.68421053 
1 1:1 2:1 3:1 4:0 5:0.076923077 6:0.68421053 
1 1:1 2:1 3:1 4:0 5:0.076923077 6:0.68421053 
1 1:1 2:1 3:1 4:0 5:0.076923077 6:0.68421053 
1 1:1 2:1 3:1 4:0 5:0.076923077 6:0.68421053 
1 1:1 2:1 3:1 4:0 5:0.076923077 6:0.68421053 
1 1:1 2:1 3:1 4:0 5:0.076923077 6:0.68421053 
1 1:1 2:1 3:1 4:0 5:0.076923077 6:0.68421053 
1 1:1 2:1 3:1 4:0 5:0.076923077 6:0.68421053 
1 1:1 2:1 3:1 4:0 5:0.076923077 6:0.68421053 
1 1:1 2:1 3:1 4:0 5:0.076923077 6:0.68421053 
1 1:1 2:1 3:1 4:0 5:0.076923077 6:0.68421053 
1 1:1 2:1 3:1 4:0 5:0.076923077 6:0.68421053 
1 1:1 2:1 3:0 4:0 5:0.34920635 6:0.69230769 
1 1:1 2:1 3:1 4:0 5:0.076190476 6:0.68421053 
1 1:1 2:1 3:1 4:0 5:0.076923077 6:0.68421053 
1 1:1 2:1 3:1 4:0 5:0.076923077 6:0.68421053 
1 1:1 2:1 3:1 4:0 5:0.076923077 6:0.68421053 
1 1:1 2:1 3:1 4:0 5:0.076923077 6:0.68421053 
1 1:1 2:1 3:1 4:0 5:0.076923077 6:0.68421053 
1 1:1 2:1 3:1 4:0 5:0.076923077 6:0.68421053 
1 1:1 2:1 3:1 4:0 5:0.076923077 6:0.68421053 
1 1:1 2:1 3:1 4:0 5:0.076923077 6:0.68421053 
1 1:1 2:1 3:1 4:0 5:0.076923077 6:0.68421053 
1 1:1 2:1 3:1 4:0 5:0.076923077 6:0.68421053 
1 1:1 2:1 3:1 4:0 5:0.076923077 6:0.68421053 
1 1:1 2:1 3:1 4:0 5:0.076923077 6:0.68421053 
1 1:1 2:1 3:0 4:0 5:0.34920635 6:0.69230769 
1 1:1 2:1 3:1 4:0 5:0.076190476 6:0.78947368 
1 1:1 2:1 3:1 4:0 5:0.076923077 6:0.78947368 
1 1:1 2:1 3:1 4:0 5:0.076923077 6:0.78947368 
1 1:1 2:1 3:1 4:0 5:0.076923077 6:0.78947368 
1 1:1 2:1 3:1 4:0 5:0.076923077 6:0.78947368 
1 1:1 2:1 3:1 4:0 5:0.076923077 6:0.78947368 
1 1:1 2:1 3:1 4:0 5:0.076923077 6:0.78947368 
1 1:1 2:1 3:1 4:0 5:0.076923077 6:0.78947368 
1 1:1 2:1 3:1 4:0 5:0.076923077 6:0.78947368 
1 1:1 2:1 3:1 4:0 5:0.076923077 6:0.78947368 
1 1:1 2:1 3:1 4:0 5:0.076923077 6:0.78947368 
1 1:1 2:1 3:1 4:0 5:0.076923077 6:0.78947368 
1 1:1 2:1 3:1 4:0 5:0.076923077 6:0.78947368 
1 1:1 2:1 3:0 4:0 5:0.34920635 6:0.69230769 
1 1:0.63636364 2:0.83333333 3:0 4:1 5:0.37931034 6:0.79411765 
1 1:1 2:1 3:1 4:0 5:0.076190476 6:0.78947368 
1 1:1 2:1 3:1 4:0 5:0.076923077 6:0.78947368 
1 1:1 2:1 3:1 4:0 5:0.076923077 6:0.78947368 
1 1:1 2:1 3:1 4:0 5:0.076923077 6:0.78947368 
1 1:1 2:1 3:1 4:0 5:0.076923077 6:0.78947368 
1 1:1 2:1 3:1 4:0 5:0.076923077 6:0.78947368 
1 1:1 2:1 3:1 4:0 5:0.076923077 6:0.78947368 
1 1:1 2:1 3:1 4:0 5:0.076923077 6:0.78947368 
1 1:1 2:1 3:1 4:0 5:0.076923077 6:0.78947368 
1 1:1 2:1 3:1 4:0 5:0.076923077 6:0.78947368 
1 1:1 2:1 3:1 4:0 5:0.076923077 6:0.78947368 
1 1:1 2:1 3:1 4:0 5:0.076923077 6:0.78947368 
1 1:1 2:1 3:1 4:0 5:0.076923077 6:0.78947368 
1 1:1 2:1 3:0 4:0 5:0.34920635 6:0.69230769 
1 1:0.63636364 2:0.83333333 3:0 4:1 5:0.37931034 6:0.79411765 
1 1:0.25 2:0.47619048 3:1 4:1 5:0.072727273 6:1 
1 1:0.73333333 2:0.84615385 3:0 4:0 5:0.72727273 6:0 
1 1:0.93103448 2:0.83333333 3:0 4:0 5:0.72727273 6:0 
1 1:0.93103448 2:0.83333333 3:0 4:0 5:0.72727273 6:0 
1 1:0.54545455 2:0.7826087 3:1 4:0 5:0.80898876 6:0 
1 1:0.54545455 2:0.7826087 3:1 4:0 5:0.86363636 6:0 
1 1:0.60714286 2:0.86956522 3:1 4:0 5:0.97727273 6:0 
1 1:0.63157895 2:0.86956522 3:1 4:0 5:0.84090909 6:0 
1 1:0.63157895 2:0.86956522 3:1 4:0 5:0.84090909 6:0 
1 1:0.63157895 2:0.86956522 3:1 4:0 5:0.77272727 6:0 
1 1:0.63157895 2:0.86956522 3:1 4:0 5:0.77272727 6:0 
1 1:0.5 2:0.75 3:0 4:0 5:0.79166667 6:0 
1 1:0.61818182 2:0.72727273 3:1 4:0 5:0.97727273 6:0 
1 1:0.61818182 2:0.72727273 3:1 4:0 5:0.97727273 6:0 
1 1:0.63829787 2:0.86956522 3:0 4:1 5:0.36144578 6:0.9 
1 1:0.63829787 2:0.86956522 3:0 4:1 5:0.36144578 6:0.9 
1 1:0.60714286 2:1 3:0 4:1 5:0.38356164 6:0.80952381 
0.3209399041347591 1:0.60714286 2:1 3:0 4:1 5:0.38356164 6:0.80952381 
1 1:0.64615385 2:0.75 3:0 4:0 5:0.74285714 6:0.41176471 
1 1:0.72727273 2:0.96 3:0 4:1 5:0.41666667 6:0.9 
1 1:0.72727273 2:0.96 3:0 4:1 5:0.41666667 6:0.9 
1 1:0.76666667 2:0.92307692 3:0 4:1 5:0.21917808 6:0.80952381 
1 1:0.76666667 2:0.92307692 3:0 4:1 5:0.21917808 6:0.80952381 
1 1:0.83333333 2:0.92857143 3:0 4:1 5:0.24657534 6:0.72727273 
1 1:0.83333333 2:0.92857143 3:0 4:1 5:0.22222222 6:0.92857143 
1 1:0.83333333 2:0.92857143 3:0 4:1 5:0.22222222 6:0.92857143 
1 1:0.83333333 2:0.92857143 3:0 4:1 5:0.25 6:0.7 
1 1:0.83333333 2:0.92857143 3:0 4:1 5:0.25 6:0.7 
1 1:0.83333333 2:0.92857143 3:0 4:1 5:0.25 6:0.7 
1 1:0.83333333 2:0.92857143 3:0 4:1 5:0.25 6:0.7 
1 1:0.86206897 2:0.96296296 3:0 4:1 5:0.38888889 6:0.92857143 
1 1:0.53968254 2:0.72727273 3:0 4:1 5:0.38356164 6:0.80952381 
1 1:0.53968254 2:0.72727273 3:0 4:1 5:0.38356164 6:0.80952381 
1 1:0.38095238 2:0.58333333 3:0 4:1 5:0.4109589 6:0.72727273 
1 1:0.38095238 2:0.58333333 3:0 4:1 5:0.38888889 6:0.64516129 
1 1:0.38095238 2:0.58333333 3:0 4:1 5:0.38888889 6:0.64516129 
1 1:0.38095238 2:0.58333333 3:0 4:1 5:0.41666667 6:0.7 
1 1:0.38095238 2:0.58333333 3:0 4:1 5:0.41666667 6:0.7 
1 1:0.38095238 2:0.58333333 3:0 4:1 5:0.41666667 6:0.7 
1 1:0.38095238 2:0.58333333 3:0 4:1 5:0.41666667 6:0.7 
1 1:0.94444444 2:0.90909091 3:0 4:0 5:0.74285714 6:0.41176471 
1 1:0.4516129 2:0.69565217 3:0 4:1 5:0.41666667 6:0.9 
1 1:0.4516129 2:0.69565217 3:0 4:1 5:0.41666667 6:0.9 
1 1:0.53968254 2:0.72727273 3:0 4:1 5:0.38356164 6:0.80952381 
1 1:0.53968254 2:0.72727273 3:0 4:1 5:0.38356164 6:0.80952381 
1 1:0.38095238 2:0.58333333 3:0 4:1 5:0.4109589 6:0.72727273 
1 1:0.38095238 2:0.58333333 3:0 4:1 5:0.38888889 6:0.64516129 
1 1:0.38095238 2:0.58333333 3:0 4:1 5:0.38888889 6:0.64516129 
1 1:0.38095238 2:0.58333333 3:0 4:1 5:0.41666667 6:0.7 
1 1:0.38095238 2:0.58333333 3:0 4:1 5:0.41666667 6:0.7 
1 1:0.38095238 2:0.58333333 3:0 4:1 5:0.41666667 6:0.7 
1 1:0.38095238 2:0.58333333 3:0 4:1 5:0.41666667 6:0.7 
1 1:0.94444444 2:0.90909091 3:0 4:0 5:0.74285714 6:0.41176471 
1 1:0.4516129 2:0.69565217 3:0 4:1 5:0.41666667 6:0.9 
1 1:0.4516129 2:0.69565217 3:0 4:1 5:0.41666667 6:0.9 
1 1:0.53968254 2:0.72727273 3:0 4:1 5:0.38356164 6:0.80952381 
1 1:0.53968254 2:0.72727273 3:0 4:1 5:0.38356164 6:0.80952381 
1 1:0.38095238 2:0.58333333 3:0 4:1 5:0.4109589 6:0.72727273 
1 1:0.38095238 2:0.58333333 3:0 4:1 5:0.38888889 6:0.64516129 
1 1:0.38095238 2:0.58333333 3:0 4:1 5:0.38888889 6:0.64516129 
1 1:0.38095238 2:0.58333333 3:0 4:1 5:0.41666667 6:0.7 
1 1:0.38095238 2:0.58333333 3:0 4:1 5:0.41666667 6:0.7 
1 1:0.38095238 2:0.58333333 3:0 4:1 5:0.41666667 6:0.7 
1 1:0.38095238 2:0.58333333 3:0 4:1 5:0.41666667 6:0.7 
1 1:0.94444444 2:0.90909091 3:0 4:0 5:0.74285714 6:0.41176471 
1 1:0.4516129 2:0.69565217 3:0 4:1 5:0.41666667 6:0.9 
1 1:0.4516129 2:0.69565217 3:0 4:1 5:0.41666667 6:0.9 
1 1:0.53968254 2:0.72727273 3:0 4:1 5:0.38356164 6:0.80952381 
1 1:0.53968254 2:0.72727273 3:0 4:1 5:0.38356164 6:0.80952381 
1 1:0.38095238 2:0.58333333 3:0 4:1 5:0.4109589 6:0.72727273 
1 1:0.38095238 2:0.58333333 3:0 4:1 5:0.38888889 6:0.64516129 
1 1:0.38095238 2:0.58333333 3:0 4:1 5:0.38888889 6:0.64516129 
1 1:0.38095238 2:0.58333333 3:0 4:1 5:0.41666667 6:0.7 
1 1:0.38095238 2:0.58333333 3:0 4:1 5:0.41666667 6:0.7 
1 1:0.38095238 2:0.58333333 3:0 4:1 5:0.41666667 6:0.7 
1 1:0.38095238 2:0.58333333 3:0 4:1 5:0.41666667 6:0.7 
1 1:0.94444444 2:0.90909091 3:0 4:0 5:0.74285714 6:0.41176471 
1 1:0.4516129 2:0.69565217 3:0 4:1 5:0.41666667 6:0.9 
1 1:0.4516129 2:0.69565217 3:0 4:1 5:0.41666667 6:0.9 
1 1:0.53968254 2:0.72727273 3:0 4:1 5:0.38356164 6:0.80952381 
1 1:0.53968254 2:0.72727273 3:0 4:1 5:0.38356164 6:0.80952381 
1 1:0.38095238 2:0.58333333 3:0 4:1 5:0.4109589 6:0.72727273 
1 1:0.38095238 2:0.58333333 3:0 4:1 5:0.38888889 6:0.64516129 
1 1:0.38095238 2:0.58333333 3:0 4:1 5:0.38888889 6:0.64516129 
1 1:0.38095238 2:0.58333333 3:0 4:1 5:0.41666667 6:0.7 
1 1:0.38095238 2:0.58333333 3:0 4:1 5:0.41666667 6:0.7 
1 1:0.38095238 2:0.58333333 3:0 4:1 5:0.41666667 6:0.7 
1 1:0.38095238 2:0.58333333 3:0 4:1 5:0.41666667 6:0.7 
1 1:0.94444444 2:0.90909091 3:0 4:0 5:0.74285714 6:0.41176471 
1 1:0.4516129 2:0.69565217 3:0 4:1 5:0.41666667 6:0.9 
1 1:0.4516129 2:0.69565217 3:0 4:1 5:0.41666667 6:0.9 
1 1:0.53968254 2:0.72727273 3:0 4:1 5:0.38356164 6:0.80952381 
1 1:0.53968254 2:0.72727273 3:0 4:1 5:0.38356164 6:0.80952381 
1 1:0.38095238 2:0.58333333 3:0 4:1 5:0.4109589 6:0.72727273 
1 1:0.38095238 2:0.58333333 3:0 4:1 5:0.38888889 6:0.64516129 
1 1:0.38095238 2:0.58333333 3:0 4:1 5:0.38888889 6:0.64516129 
1 1:0.38095238 2:0.58333333 3:0 4:1 5:0.41666667 6:0.7 
1 1:0.38095238 2:0.58333333 3:0 4:1 5:0.41666667 6:0.7 
1 1:0.38095238 2:0.58333333 3:0 4:1 5:0.41666667 6:0.7 
1 1:0.38095238 2:0.58333333 3:0 4:1 5:0.41666667 6:0.7 
1 1:0.94444444 2:0.90909091 3:0 4:0 5:0.74285714 6:0.41176471 
1 1:0.4516129 2:0.69565217 3:0 4:1 5:0.41666667 6:0.9 
1 1:0.4516129 2:0.69565217 3:0 4:1 5:0.41666667 6:0.9 
1 1:0.53968254 2:0.72727273 3:0 4:1 5:0.38356164 6:0.80952381 
1 1:0.53968254 2:0.72727273 3:0 4:1 5:0.38356164 6:0.80952381 
1 1:0.38095238 2:0.58333333 3:0 4:1 5:0.4109589 6:0.72727273 
1 1:0.38095238 2:0.58333333 3:0 4:1 5:0.38888889 6:0.64516129 
1 1:0.38095238 2:0.58333333 3:0 4:1 5:0.38888889 6:0.64516129 
1 1:0.38095238 2:0.58333333 3:0 4:1 5:0.41666667 6:0.7 
1 1:0.38095238 2:0.58333333 3:0 4:1 5:0.41666667 6:0.7 
1 1:0.38095238 2:0.58333333 3:0 4:1 5:0.41666667 6:0.7 
1 1:0.38095238 2:0.58333333 3:0 4:1 5:0.41666667 6:0.7 
1 1:0.94444444 2:0.90909091 3:0 4:0 5:0.74285714 6:0.41176471 
1 1:0.4516129 2:0.69565217 3:0 4:1 5:0.41666667 6:0.9 
1 1:0.4516129 2:0.69565217 3:0 4:1 5:0.41666667 6:0.9 
1 1:0.53968254 2:0.72727273 3:0 4:1 5:0.38356164 6:0.80952381 
1 1:0.53968254 2:0.72727273 3:0 4:1 5:0.38356164 6:0.80952381 
1 1:0.38095238 2:0.58333333 3:0 4:1 5:0.4109589 6:0.72727273 
1 1:0.38095238 2:0.58333333 3:0 4:1 5:0.38888889 6:0.64516129 
1 1:0.38095238 2:0.58333333 3:0 4:1 5:0.38888889 6:0.64516129 
1 1:0.38095238 2:0.58333333 3:0 4:1 5:0.41666667 6:0.7 
1 1:0.38095238 2:0.58333333 3:0 4:1 5:0.41666667 6:0.7 
1 1:0.38095238 2:0.58333333 3:0 4:1 5:0.41666667 6:0.7 
1 1:0.38095238 2:0.58333333 3:0 4:1 5:0.41666667 6:0.7 
1 1:0.94444444 2:0.90909091 3:0 4:0 5:0.74285714 6:0.41176471 
1 1:0.4516129 2:0.69565217 3:0 4:1 5:0.41666667 6:0.9 
1 1:0.4516129 2:0.69565217 3:0 4:1 5:0.41666667 6:0.9 
1 1:0.53968254 2:0.72727273 3:0 4:1 5:0.38356164 6:0.80952381 
1 1:0.53968254 2:0.72727273 3:0 4:1 5:0.38356164 6:0.80952381 
1 1:0.38095238 2:0.58333333 3:0 4:1 5:0.4109589 6:0.72727273 
1 1:0.38095238 2:0.58333333 3:0 4:1 5:0.38888889 6:0.64516129 
1 1:0.38095238 2:0.58333333 3:0 4:1 5:0.38888889 6:0.64516129 
1 1:0.38095238 2:0.58333333 3:0 4:1 5:0.41666667 6:0.7 
1 1:0.38095238 2:0.58333333 3:0 4:1 5:0.41666667 6:0.7 
1 1:0.38095238 2:0.58333333 3:0 4:1 5:0.41666667 6:0.7 
1 1:0.38095238 2:0.58333333 3:0 4:1 5:0.41666667 6:0.7 
1 1:0.94444444 2:0.90909091 3:0 4:0 5:0.74285714 6:0.41176471 
1 1:0.4516129 2:0.69565217 3:0 4:1 5:0.41666667 6:0.9 
1 1:0.4516129 2:0.69565217 3:0 4:1 5:0.41666667 6:0.9 
1 1:0.67857143 2:0.96296296 3:0 4:1 5:0.38888889 6:0.92857143 
1 1:0.84210526 2:0.96296296 3:0 4:1 5:0.25 6:0.9 
1 1:0.84210526 2:0.96296296 3:0 4:1 5:0.25 6:0.9 
1 1:0.61818182 2:0.72727273 3:0 4:0 5:0.70454545 6:0.42105263 
1 1:0.83018868 2:0.8 3:0 4:0 5:0.70454545 6:0.42105263 
1 1:0.83018868 2:0.8 3:0 4:0 5:0.70454545 6:0.42105263 
1 1:0.52 2:0.73684211 3:0 4:0 5:0.78651685 6:0.29032258 
1 1:0.52 2:0.73684211 3:0 4:0 5:0.84090909 6:0.29032258 
1 1:0.58823529 2:0.84210526 3:0 4:0 5:1 6:0.28846154 
1 1:0.61538462 2:0.84210526 3:0 4:0 5:0.86363636 6:0.29032258 
1 1:0.61538462 2:0.84210526 3:0 4:0 5:0.86363636 6:0.29032258 
1 1:0.61538462 2:0.84210526 3:0 4:0 5:0.79545455 6:0.29032258 
1 1:0.61538462 2:0.84210526 3:0 4:0 5:0.79545455 6:0.29032258 
1 1:0.50980392 2:0.7 3:1 4:0 5:0.76 6:0.066666667 
1 1:0.50980392 2:0.7 3:1 4:0 5:0.76 6:0.066666667 
1 1:0.50980392 2:0.7 3:1 4:0 5:0.79166667 6:0.066666667 
1 1:0.6 2:0.77777778 3:0 4:0 5:1 6:0.32258065 
1 1:0.6 2:0.77777778 3:0 4:0 5:1 6:0.32258065 
1 1:0.70175439 2:0.83333333 3:0 4:0 5:0.70454545 6:0.52631579 
1 1:0.90909091 2:0.90909091 3:0 4:0 5:0.70454545 6:0.52631579 
1 1:0.90909091 2:0.90909091 3:0 4:0 5:0.70454545 6:0.52631579 
1 1:0.5 2:0.76190476 3:0 4:0 5:0.78651685 6:0.35483871 
1 1:0.5 2:0.76190476 3:0 4:0 5:0.84090909 6:0.35483871 
1 1:0.56603774 2:0.85714286 3:0 4:0 5:1 6:0.25806452 
1 1:0.59259259 2:0.85714286 3:0 4:0 5:0.86363636 6:0.35483871 
1 1:0.59259259 2:0.85714286 3:0 4:0 5:0.86363636 6:0.35483871 
1 1:0.59259259 2:0.85714286 3:0 4:0 5:0.79545455 6:0.35483871 
1 1:0.59259259 2:0.85714286 3:0 4:0 5:0.79545455 6:0.35483871 
1 1:0.45283019 2:0.72727273 3:1 4:0 5:0.76 6:0.066666667 
1 1:0.45283019 2:0.72727273 3:1 4:0 5:0.76 6:0.066666667 
1 1:0.45283019 2:0.72727273 3:1 4:0 5:0.79166667 6:0.066666667 
1 1:0.57692308 2:0.7 3:0 4:0 5:1 6:0.38709677 
1 1:0.57692308 2:0.7 3:0 4:0 5:1 6:0.38709677 
1 1:0.078571429 2:0.13636364 3:1 4:1 5:0.11111111 6:1 
1 1:0.61818182 2:0.72727273 3:0 4:1 5:0.84090909 6:0 
1 1:0.83018868 2:0.8 3:0 4:1 5:0.84090909 6:0 
1 1:0.83018868 2:0.8 3:0 4:1 5:0.84090909 6:0 
1 1:0.52 2:0.73684211 3:1 4:1 5:0.92134831 6:0 
1 1:0.52 2:0.73684211 3:1 4:1 5:0.97727273 6:0 
1 1:0.58823529 2:0.84210526 3:1 4:1 5:0.86363636 6:0 
1 1:0.61538462 2:0.84210526 3:1 4:1 5:1 6:0 
1 1:0.61538462 2:0.84210526 3:1 4:1 5:1 6:0 
1 1:0.61538462 2:0.84210526 3:1 4:1 5:0.79545455 6:0 
1 1:0.61538462 2:0.84210526 3:1 4:1 5:0.79545455 6:0 
1 1:0.50980392 2:0.7 3:0 4:1 5:0.72 6:0 
1 1:0.50980392 2:0.7 3:0 4:1 5:0.72 6:0 
1 1:0.50980392 2:0.7 3:0 4:1 5:0.75 6:0 
1 1:0.6 2:0.77777778 3:1 4:1 5:0.86363636 6:0 
1 1:0.6 2:0.77777778 3:1 4:1 5:0.86363636 6:0 
1 1:0.078571429 2:0.13636364 3:1 4:1 5:0.11111111 6:1 
1 1:0.61818182 2:0.72727273 3:0 4:1 5:0.84090909 6:0 
1 1:0.83018868 2:0.8 3:0 4:1 5:0.84090909 6:0 
1 1:0.83018868 2:0.8 3:0 4:1 5:0.84090909 6:0 
1 1:0.52 2:0.73684211 3:1 4:1 5:0.92134831 6:0 
1 1:0.52 2:0.73684211 3:1 4:1 5:0.97727273 6:0 
1 1:0.58823529 2:0.84210526 3:1 4:1 5:0.86363636 6:0 
1 1:0.61538462 2:0.84210526 3:1 4:1 5:1 6:0 
1 1:0.61538462 2:0.84210526 3:1 4:1 5:1 6:0 
1 1:0.61538462 2:0.84210526 3:1 4:1 5:0.79545455 6:0 
1 1:0.61538462 2:0.84210526 3:1 4:1 5:0.79545455 6:0 
1 1:0.50980392 2:0.7 3:0 4:1 5:0.72 6:0 
1 1:0.50980392 2:0.7 3:0 4:1 5:0.72 6:0 
1 1:0.50980392 2:0.7 3:0 4:1 5:0.75 6:0 
1 1:0.6 2:0.77777778 3:1 4:1 5:0.86363636 6:0 
1 1:0.6 2:0.77777778 3:1 4:1 5:0.86363636 6:0 
1 1:0.61818182 2:0.72727273 3:0 4:0 5:0.70454545 6:0.52631579 
1 1:0.83018868 2:0.8 3:0 4:0 5:0.70454545 6:0.52631579 
1 1:0.83018868 2:0.8 3:0 4:0 5:0.70454545 6:0.52631579 
1 1:0.52 2:0.73684211 3:1 4:0 5:0.78651685 6:0.35483871 
1 1:0.52 2:0.73684211 3:1 4:0 5:0.84090909 6:0.35483871 
1 1:0.58823529 2:0.84210526 3:1 4:0 5:1 6:0.32 
1 1:0.61538462 2:0.84210526 3:1 4:0 5:0.86363636 6:0.35483871 
1 1:0.61538462 2:0.84210526 3:1 4:0 5:0.86363636 6:0.35483871 
1 1:0.61538462 2:0.84210526 3:1 4:0 5:0.79545455 6:0.35483871 
1 1:0.61538462 2:0.84210526 3:1 4:0 5:0.79545455 6:0.35483871 
1 1:0.50980392 2:0.7 3:0 4:0 5:0.76 6:0.066666667 
1 1:0.50980392 2:0.7 3:0 4:0 5:0.76 6:0.066666667 
1 1:0.50980392 2:0.7 3:0 4:0 5:0.79166667 6:0.066666667 
1 1:0.6 2:0.77777778 3:1 4:0 5:1 6:0.38709677 
1 1:0.6 2:0.77777778 3:1 4:0 5:1 6:0.38709677 
1 1:0.70175439 2:0.83333333 3:0 4:0 5:0.65168539 6:0.52631579 
1 1:0.90909091 2:0.90909091 3:0 4:0 5:0.65168539 6:0.52631579 
1 1:0.90909091 2:0.90909091 3:0 4:0 5:0.65168539 6:0.52631579 
1 1:0.5 2:0.76190476 3:0 4:0 5:0.73333333 6:0.35483871 
1 1:0.5 2:0.76190476 3:0 4:0 5:0.78651685 6:0.35483871 
1 1:0.56603774 2:0.85714286 3:0 4:0 5:0.94382022 6:0.32 
1 1:0.59259259 2:0.85714286 3:0 4:0 5:0.80898876 6:0.35483871 
1 1:0.59259259 2:0.85714286 3:0 4:0 5:0.80898876 6:0.35483871 
1 1:0.59259259 2:0.85714286 3:0 4:0 5:0.74157303 6:0.35483871 
1 1:0.59259259 2:0.85714286 3:0 4:0 5:0.74157303 6:0.35483871 
1 1:0.57692308 2:0.7 3:0 4:0 5:0.94382022 6:0.38709677 
1 1:0.57692308 2:0.7 3:0 4:0 5:0.94382022 6:0.38709677 
1 1:0.70175439 2:0.83333333 3:0 4:0 5:0.70454545 6:0.52631579 
1 1:0.90909091 2:0.90909091 3:0 4:0 5:0.70454545 6:0.52631579 
1 1:0.90909091 2:0.90909091 3:0 4:0 5:0.70454545 6:0.52631579 
1 1:0.5 2:0.76190476 3:0 4:0 5:0.78651685 6:0.35483871 
1 1:0.5 2:0.76190476 3:0 4:0 5:0.84090909 6:0.35483871 
1 1:0.56603774 2:0.85714286 3:0 4:0 5:1 6:0.32 
1 1:0.59259259 2:0.85714286 3:0 4:0 5:0.86363636 6:0.35483871 
1 1:0.59259259 2:0.85714286 3:0 4:0 5:0.86363636 6:0.35483871 
1 1:0.59259259 2:0.85714286 3:0 4:0 5:0.79545455 6:0.35483871 
1 1:0.59259259 2:0.85714286 3:0 4:0 5:0.79545455 6:0.35483871 
1 1:0.45283019 2:0.72727273 3:0 4:0 5:0.79166667 6:0.066666667 
1 1:0.57692308 2:0.7 3:0 4:0 5:1 6:0.38709677 
1 1:0.57692308 2:0.7 3:0 4:0 5:1 6:0.38709677 
1 1:0.65517241 2:0.83333333 3:0 4:0 5:1 6:0.52631579 
1 1:0.82142857 2:0.81818182 3:0 4:0 5:1 6:0.52631579 
1 1:0.82142857 2:0.81818182 3:0 4:0 5:1 6:0.52631579 
1 1:0.64150943 2:0.85714286 3:0 4:0 5:0.80898876 6:0.35483871 
1 1:0.64150943 2:0.85714286 3:0 4:0 5:0.86363636 6:0.35483871 
1 1:0.7037037 2:0.95238095 3:0 4:0 5:0.70454545 6:0.30188679 
1 1:0.72727273 2:0.95238095 3:0 4:0 5:0.84090909 6:0.35483871 
1 1:0.72727273 2:0.95238095 3:0 4:0 5:0.84090909 6:0.35483871 
1 1:0.72727273 2:0.95238095 3:0 4:0 5:0.90909091 6:0.35483871 
1 1:0.72727273 2:0.95238095 3:0 4:0 5:0.90909091 6:0.35483871 
1 1:0.60377358 2:0.8 3:0 4:0 5:0.70454545 6:0.38709677 
1 1:0.60377358 2:0.8 3:0 4:0 5:0.70454545 6:0.38709677 
1 1:0.55172414 2:0.83333333 3:0 4:0 5:0.6741573 6:0.47368421 
1 1:0.64285714 2:0.81818182 3:0 4:0 5:0.6741573 6:0.47368421 
1 1:0.64285714 2:0.81818182 3:0 4:0 5:0.6741573 6:0.47368421 
1 1:0.64150943 2:0.85714286 3:1 4:0 5:0.86666667 6:0.32258065 
1 1:0.64150943 2:0.85714286 3:1 4:0 5:0.80898876 6:0.32258065 
1 1:0.59259259 2:0.95238095 3:1 4:0 5:0.92134831 6:0.28571429 
1 1:0.61818182 2:0.95238095 3:1 4:0 5:0.78651685 6:0.32258065 
1 1:0.61818182 2:0.95238095 3:1 4:0 5:0.78651685 6:0.32258065 
1 1:0.61818182 2:0.95238095 3:1 4:0 5:0.71910112 6:0.32258065 
1 1:0.61818182 2:0.95238095 3:1 4:0 5:0.71910112 6:0.32258065 
1 1:0.59259259 2:0.81818182 3:0 4:0 5:0.74226804 6:0.066666667 
1 1:0.49056604 2:0.8 3:1 4:0 5:0.92134831 6:0.35483871 
1 1:0.49056604 2:0.8 3:1 4:0 5:0.92134831 6:0.35483871 
1 1:0.60714286 2:0.66666667 3:0 4:1 5:0.95555556 6:0 
1 1:0.66666667 2:0.72727273 3:0 4:1 5:0.95555556 6:0 
1 1:0.66666667 2:0.72727273 3:0 4:1 5:0.95555556 6:0 
1 1:0.06918239 2:0.091603053 3:1 4:1 5:0.224 6:1 
1 1:0.70588235 2:0.76190476 3:0 4:1 5:0.76923077 6:0 
1 1:0.70588235 2:0.76190476 3:0 4:1 5:0.82222222 6:0 
1 1:0.61538462 2:0.76190476 3:0 4:1 5:0.68888889 6:0 
1 1:0.67924528 2:0.76190476 3:0 4:1 5:0.82222222 6:0 
1 1:0.67924528 2:0.76190476 3:0 4:1 5:0.82222222 6:0 
1 1:0.67924528 2:0.76190476 3:0 4:1 5:0.88888889 6:0 
1 1:0.67924528 2:0.76190476 3:0 4:1 5:0.88888889 6:0 
1 1:0.65384615 2:0.72727273 3:0 4:1 5:0.58823529 6:0 
1 1:0.65384615 2:0.72727273 3:0 4:1 5:0.58823529 6:0 
1 1:0.65384615 2:0.72727273 3:0 4:1 5:0.6122449 6:0 
1 1:0.54901961 2:0.6 3:0 4:1 5:0.68888889 6:0 
1 1:0.54901961 2:0.6 3:0 4:1 5:0.68888889 6:0 
1 1:0.084805654 2:0.17777778 3:1 4:1 5:0.12698413 6:1 
1 1:0.62068966 2:0.83333333 3:0 4:1 5:0.63291139 6:0 
1 1:0.82142857 2:0.90909091 3:0 4:1 5:0.63291139 6:0 
1 1:0.82142857 2:0.90909091 3:0 4:1 5:0.63291139 6:0 
1 1:0.60377358 2:0.76190476 3:1 4:1 5:0.625 6:0 
1 1:0.60377358 2:0.76190476 3:1 4:1 5:0.6835443 6:0 
1 1:0.66666667 2:0.85714286 3:1 4:1 5:0.86075949 6:0 
1 1:0.69090909 2:0.85714286 3:1 4:1 5:0.70886076 6:0 
1 1:0.69090909 2:0.85714286 3:1 4:1 5:0.70886076 6:0 
1 1:0.69090909 2:0.85714286 3:1 4:1 5:0.73417722 6:0 
1 1:0.69090909 2:0.85714286 3:1 4:1 5:0.73417722 6:0 
1 1:0.55555556 2:0.72727273 3:0 4:1 5:0.61538462 6:0 
1 1:0.55555556 2:0.72727273 3:0 4:1 5:0.61538462 6:0 
1 1:0.55555556 2:0.72727273 3:0 4:1 5:0.64367816 6:0 
1 1:0.56603774 2:0.7 3:1 4:1 5:0.86075949 6:0 
1 1:0.56603774 2:0.7 3:1 4:1 5:0.86075949 6:0 
1 1:0.65454545 2:0.72727273 3:0 4:0 5:0.71111111 6:0.25 
1 1:0.83018868 2:0.7 3:0 4:0 5:0.71111111 6:0.25 
1 1:0.83018868 2:0.7 3:0 4:0 5:0.71111111 6:0.25 
1 1:0.56 2:0.73684211 3:1 4:0 5:0.79120879 6:0.25 
1 1:0.56 2:0.73684211 3:1 4:0 5:0.84444444 6:0.25 
1 1:0.62745098 2:0.84210526 3:1 4:0 5:0.95555556 6:0.75 
1 1:0.65384615 2:0.84210526 3:1 4:0 5:0.82222222 6:0.25 
1 1:0.65384615 2:0.84210526 3:1 4:0 5:0.82222222 6:0.25 
1 1:0.65384615 2:0.84210526 3:1 4:0 5:0.75555556 6:0.25 
1 1:0.65384615 2:0.84210526 3:1 4:0 5:0.75555556 6:0.25 
1 1:0.54901961 2:0.7 3:0 4:0 5:0.74509804 6:0.25 
1 1:0.54901961 2:0.7 3:0 4:0 5:0.74509804 6:0.25 
1 1:0.54901961 2:0.7 3:0 4:0 5:0.7755102 6:0.25 
1 1:0.64 2:0.88888889 3:1 4:0 5:0.95555556 6:0.25 
1 1:0.64 2:0.88888889 3:1 4:0 5:0.95555556 6:0.25 
1 1:0.65454545 2:0.72727273 3:0 4:0 5:0.71111111 6:0.25 
1 1:0.83018868 2:0.7 3:0 4:0 5:0.71111111 6:0.25 
1 1:0.83018868 2:0.7 3:0 4:0 5:0.71111111 6:0.25 
1 1:0.56 2:0.73684211 3:1 4:0 5:0.79120879 6:0.25 
1 1:0.56 2:0.73684211 3:1 4:0 5:0.84444444 6:0.25 
1 1:0.62745098 2:0.84210526 3:1 4:0 5:0.95555556 6:0.75 
1 1:0.65384615 2:0.84210526 3:1 4:0 5:0.82222222 6:0.25 
1 1:0.65384615 2:0.84210526 3:1 4:0 5:0.82222222 6:0.25 
1 1:0.65384615 2:0.84210526 3:1 4:0 5:0.75555556 6:0.25 
1 1:0.65384615 2:0.84210526 3:1 4:0 5:0.75555556 6:0.25 
1 1:0.54901961 2:0.7 3:0 4:0 5:0.74509804 6:0.25 
1 1:0.54901961 2:0.7 3:0 4:0 5:0.74509804 6:0.25 
1 1:0.54901961 2:0.7 3:0 4:0 5:0.7755102 6:0.25 
1 1:0.64 2:0.88888889 3:1 4:0 5:0.95555556 6:0.25 
1 1:0.64 2:0.88888889 3:1 4:0 5:0.95555556 6:0.25 
1 1:0.65454545 2:0.72727273 3:0 4:0 5:0.71111111 6:0.25 
1 1:0.83018868 2:0.7 3:0 4:0 5:0.71111111 6:0.25 
1 1:0.83018868 2:0.7 3:0 4:0 5:0.71111111 6:0.25 
1 1:0.56 2:0.73684211 3:1 4:0 5:0.79120879 6:0.25 
1 1:0.56 2:0.73684211 3:1 4:0 5:0.84444444 6:0.25 
1 1:0.62745098 2:0.84210526 3:1 4:0 5:0.95555556 6:0.75 
1 1:0.65384615 2:0.84210526 3:1 4:0 5:0.82222222 6:0.25 
1 1:0.65384615 2:0.84210526 3:1 4:0 5:0.82222222 6:0.25 
1 1:0.65384615 2:0.84210526 3:1 4:0 5:0.75555556 6:0.25 
1 1:0.65384615 2:0.84210526 3:1 4:0 5:0.75555556 6:0.25 
1 1:0.54901961 2:0.7 3:0 4:0 5:0.74509804 6:0.25 
1 1:0.54901961 2:0.7 3:0 4:0 5:0.74509804 6:0.25 
1 1:0.54901961 2:0.7 3:0 4:0 5:0.7755102 6:0.25 
1 1:0.64 2:0.88888889 3:1 4:0 5:0.95555556 6:0.25 
1 1:0.64 2:0.88888889 3:1 4:0 5:0.95555556 6:0.25 
1 1:0.52 2:0.73684211 3:1 4:0 5:0.58139535 6:0 
1 1:0.52 2:0.73684211 3:1 4:0 5:0.58823529 6:0 
1 1:0.58823529 2:0.84210526 3:1 4:0 5:0.68235294 6:0 
1 1:0.61538462 2:0.84210526 3:1 4:0 5:0.58823529 6:0 
1 1:0.61538462 2:0.84210526 3:1 4:0 5:0.58823529 6:0 
1 1:0.61538462 2:0.84210526 3:1 4:0 5:0.51764706 6:0 
1 1:0.61538462 2:0.84210526 3:1 4:0 5:0.51764706 6:0 
1 1:0.6 2:0.77777778 3:1 4:0 5:0.68235294 6:0 
1 1:0.6 2:0.77777778 3:1 4:0 5:0.68235294 6:0 
1 1:0.76363636 2:0.88 3:0 4:0 5:0.65 6:0 
1 1:0.76 2:0.90909091 3:1 4:0 5:0.64197531 6:0 
1 1:0.76 2:0.90909091 3:1 4:0 5:0.7 6:0 
1 1:0.62745098 2:0.90909091 3:1 4:0 5:0.825 6:0 
1 1:0.73076923 2:0.90909091 3:1 4:0 5:0.675 6:0 
1 1:0.73076923 2:0.90909091 3:1 4:0 5:0.675 6:0 
1 1:0.73076923 2:0.90909091 3:1 4:0 5:0.7 6:0 
1 1:0.73076923 2:0.90909091 3:1 4:0 5:0.7 6:0 
1 1:0.82352941 2:0.95652174 3:0 4:0 5:0.63636364 6:0 
1 1:0.8 2:0.85714286 3:1 4:0 5:0.825 6:0 
1 1:0.8 2:0.85714286 3:1 4:0 5:0.825 6:0 
1 1:0.64150943 2:0.85714286 3:1 4:0 5:0.60465116 6:0 
1 1:0.64150943 2:0.85714286 3:1 4:0 5:0.61176471 6:0 
1 1:0.7037037 2:0.95238095 3:1 4:0 5:0.75294118 6:0 
1 1:0.72727273 2:0.95238095 3:1 4:0 5:0.61176471 6:0 
1 1:0.72727273 2:0.95238095 3:1 4:0 5:0.61176471 6:0 
1 1:0.72727273 2:0.95238095 3:1 4:0 5:0.58823529 6:0 
1 1:0.72727273 2:0.95238095 3:1 4:0 5:0.58823529 6:0 
1 1:0.60377358 2:0.8 3:1 4:0 5:0.75294118 6:0 
1 1:0.60377358 2:0.8 3:1 4:0 5:0.75294118 6:0 
1 1:0.70175439 2:0.83333333 3:0 4:0 5:0.70454545 6:0.52631579 
1 1:0.90909091 2:0.90909091 3:0 4:0 5:0.70454545 6:0.52631579 
1 1:0.90909091 2:0.90909091 3:0 4:0 5:0.70454545 6:0.52631579 
1 1:0.5 2:0.76190476 3:1 4:0 5:0.78651685 6:0.35483871 
1 1:0.5 2:0.76190476 3:1 4:0 5:0.84090909 6:0.35483871 
1 1:0.56603774 2:0.85714286 3:1 4:0 5:1 6:0.32 
1 1:0.59259259 2:0.85714286 3:1 4:0 5:0.86363636 6:0.35483871 
1 1:0.59259259 2:0.85714286 3:1 4:0 5:0.86363636 6:0.35483871 
1 1:0.59259259 2:0.85714286 3:1 4:0 5:0.79545455 6:0.35483871 
1 1:0.59259259 2:0.85714286 3:1 4:0 5:0.79545455 6:0.35483871 
1 1:0.45283019 2:0.72727273 3:0 4:0 5:0.79166667 6:0.066666667 
1 1:0.57692308 2:0.7 3:1 4:0 5:1 6:0.38709677 
1 1:0.57692308 2:0.7 3:1 4:0 5:1 6:0.38709677 
1 1:0.62068966 2:0.83333333 3:0 4:0 5:0.84090909 6:0.52631579 
1 1:0.82142857 2:0.90909091 3:0 4:0 5:0.84090909 6:0.52631579 
1 1:0.82142857 2:0.90909091 3:0 4:0 5:0.84090909 6:0.52631579 
1 1:0.60377358 2:0.76190476 3:1 4:0 5:0.92134831 6:0.35483871 
1 1:0.60377358 2:0.76190476 3:1 4:0 5:0.97727273 6:0.35483871 
1 1:0.66666667 2:0.85714286 3:1 4:0 5:0.86363636 6:0.30769231 
1 1:0.69090909 2:0.85714286 3:1 4:0 5:1 6:0.35483871 
1 1:0.69090909 2:0.85714286 3:1 4:0 5:1 6:0.35483871 
1 1:0.69090909 2:0.85714286 3:1 4:0 5:0.79545455 6:0.35483871 
1 1:0.69090909 2:0.85714286 3:1 4:0 5:0.79545455 6:0.35483871 
1 1:0.55555556 2:0.72727273 3:0 4:0 5:0.72 6:0.066666667 
1 1:0.55555556 2:0.72727273 3:0 4:0 5:0.72 6:0.066666667 
1 1:0.55555556 2:0.72727273 3:0 4:0 5:0.75 6:0.066666667 
1 1:0.56603774 2:0.7 3:1 4:0 5:0.86363636 6:0.38709677 
1 1:0.56603774 2:0.7 3:1 4:0 5:0.86363636 6:0.38709677 
1 1:0.62068966 2:0.83333333 3:0 4:0 5:0.70454545 6:0.52631579 
1 1:0.82142857 2:0.90909091 3:0 4:0 5:0.70454545 6:0.52631579 
1 1:0.82142857 2:0.90909091 3:0 4:0 5:0.70454545 6:0.52631579 
1 1:0.60377358 2:0.76190476 3:1 4:0 5:0.78651685 6:0.35483871 
1 1:0.60377358 2:0.76190476 3:1 4:0 5:0.84090909 6:0.35483871 
1 1:0.66666667 2:0.85714286 3:1 4:0 5:1 6:0.32 
1 1:0.69090909 2:0.85714286 3:1 4:0 5:0.86363636 6:0.35483871 
1 1:0.69090909 2:0.85714286 3:1 4:0 5:0.86363636 6:0.35483871 
1 1:0.69090909 2:0.85714286 3:1 4:0 5:0.79545455 6:0.35483871 
1 1:0.69090909 2:0.85714286 3:1 4:0 5:0.79545455 6:0.35483871 
1 1:0.55555556 2:0.72727273 3:0 4:0 5:0.76 6:0.066666667 
1 1:0.55555556 2:0.72727273 3:0 4:0 5:0.76 6:0.066666667 
1 1:0.55555556 2:0.72727273 3:0 4:0 5:0.79166667 6:0.066666667 
1 1:0.56603774 2:0.7 3:1 4:0 5:1 6:0.38709677 
1 1:0.56603774 2:0.7 3:1 4:0 5:1 6:0.38709677 
1 1:0.62068966 2:0.83333333 3:0 4:1 5:0.70454545 6:0.47368421 
1 1:0.82142857 2:0.90909091 3:0 4:1 5:0.70454545 6:0.47368421 
1 1:0.82142857 2:0.90909091 3:0 4:1 5:0.70454545 6:0.47368421 
1 1:0.42857143 2:0.66666667 3:0 4:1 5:0.4516129 6:0.77777778 
1 1:0.60377358 2:0.76190476 3:1 4:1 5:0.78651685 6:0.32258065 
1 1:0.60377358 2:0.76190476 3:1 4:1 5:0.84090909 6:0.32258065 
1 1:0.66666667 2:0.85714286 3:1 4:1 5:1 6:0.39473684 
1 1:0.69090909 2:0.85714286 3:1 4:1 5:0.86363636 6:0.32258065 
1 1:0.69090909 2:0.85714286 3:1 4:1 5:0.86363636 6:0.32258065 
1 1:0.69090909 2:0.85714286 3:1 4:1 5:0.79545455 6:0.32258065 
1 1:0.69090909 2:0.85714286 3:1 4:1 5:0.79545455 6:0.32258065 
1 1:0.55555556 2:0.72727273 3:0 4:1 5:0.76 6:0.066666667 
1 1:0.55555556 2:0.72727273 3:0 4:1 5:0.76 6:0.066666667 
1 1:0.55555556 2:0.72727273 3:0 4:1 5:0.79166667 6:0.066666667 
1 1:0.56603774 2:0.7 3:1 4:1 5:1 6:0.35483871 
1 1:0.56603774 2:0.7 3:1 4:1 5:1 6:0.35483871 
1 1:0.52631579 2:0.54545455 3:0 4:0 5:0.92134831 6:0.42105263 
1 1:0.50909091 2:0.4 3:0 4:0 5:0.92134831 6:0.42105263 
1 1:0.50909091 2:0.4 3:0 4:0 5:0.92134831 6:0.42105263 
1 1:0.57692308 2:0.63157895 3:0 4:0 5:0.77777778 6:0.29032258 
1 1:0.57692308 2:0.63157895 3:0 4:0 5:0.78651685 6:0.29032258 
1 1:0.49056604 2:0.63157895 3:0 4:0 5:0.6741573 6:0.33333333 
1 1:0.55555556 2:0.63157895 3:0 4:0 5:0.80898876 6:0.29032258 
1 1:0.55555556 2:0.63157895 3:0 4:0 5:0.80898876 6:0.29032258 
1 1:0.55555556 2:0.63157895 3:0 4:0 5:0.87640449 6:0.29032258 
1 1:0.55555556 2:0.63157895 3:0 4:0 5:0.87640449 6:0.29032258 
1 1:0.57692308 2:0.66666667 3:0 4:0 5:0.6741573 6:0.32258065 
1 1:0.57692308 2:0.66666667 3:0 4:0 5:0.6741573 6:0.32258065 
1 1:0.54545455 2:0.63636364 3:0 4:0 5:0.74074074 6:0 
1 1:0.71698113 2:0.6 3:0 4:0 5:0.74074074 6:0 
1 1:0.71698113 2:0.6 3:0 4:0 5:0.74074074 6:0 
1 1:0.70175439 2:0.83333333 3:0 4:0 5:0.70454545 6:0.52631579 
1 1:0.90909091 2:0.90909091 3:0 4:0 5:0.70454545 6:0.52631579 
1 1:0.90909091 2:0.90909091 3:0 4:0 5:0.70454545 6:0.52631579 
1 1:0.5 2:0.76190476 3:0 4:0 5:0.78651685 6:0.35483871 
1 1:0.5 2:0.76190476 3:0 4:0 5:0.84090909 6:0.35483871 
1 1:0.56603774 2:0.85714286 3:0 4:0 5:1 6:0.32 
1 1:0.59259259 2:0.85714286 3:0 4:0 5:0.86363636 6:0.35483871 
1 1:0.59259259 2:0.85714286 3:0 4:0 5:0.86363636 6:0.35483871 
1 1:0.59259259 2:0.85714286 3:0 4:0 5:0.79545455 6:0.35483871 
1 1:0.59259259 2:0.85714286 3:0 4:0 5:0.79545455 6:0.35483871 
1 1:0.45283019 2:0.72727273 3:0 4:0 5:0.79166667 6:0.066666667 
1 1:0.57692308 2:0.7 3:0 4:0 5:1 6:0.38709677 
1 1:0.57692308 2:0.7 3:0 4:0 5:1 6:0.38709677 
1 1:0.70175439 2:0.83333333 3:0 4:0 5:0.70454545 6:0.52631579 
1 1:0.90909091 2:0.90909091 3:0 4:0 5:0.70454545 6:0.52631579 
1 1:0.90909091 2:0.90909091 3:0 4:0 5:0.70454545 6:0.52631579 
1 1:0.5 2:0.76190476 3:1 4:0 5:0.78651685 6:0.35483871 
1 1:0.5 2:0.76190476 3:1 4:0 5:0.84090909 6:0.35483871 
1 1:0.56603774 2:0.85714286 3:1 4:0 5:1 6:0.32 
1 1:0.59259259 2:0.85714286 3:1 4:0 5:0.86363636 6:0.35483871 
1 1:0.59259259 2:0.85714286 3:1 4:0 5:0.86363636 6:0.35483871 
1 1:0.59259259 2:0.85714286 3:1 4:0 5:0.79545455 6:0.35483871 
1 1:0.59259259 2:0.85714286 3:1 4:0 5:0.79545455 6:0.35483871 
1 1:0.45283019 2:0.72727273 3:0 4:0 5:0.79166667 6:0.066666667 
1 1:0.57692308 2:0.7 3:1 4:0 5:1 6:0.38709677 
1 1:0.57692308 2:0.7 3:1 4:0 5:1 6:0.38709677 
1 1:0.62068966 2:0.83333333 3:0 4:0 5:0.70454545 6:0.52631579 
1 1:0.82142857 2:0.90909091 3:0 4:0 5:0.70454545 6:0.52631579 
1 1:0.82142857 2:0.90909091 3:0 4:0 5:0.70454545 6:0.52631579 
1 1:0.60377358 2:0.76190476 3:1 4:0 5:0.78651685 6:0.35483871 
1 1:0.60377358 2:0.76190476 3:1 4:0 5:0.84090909 6:0.35483871 
1 1:0.66666667 2:0.85714286 3:1 4:0 5:1 6:0.32 
1 1:0.69090909 2:0.85714286 3:1 4:0 5:0.86363636 6:0.35483871 
1 1:0.69090909 2:0.85714286 3:1 4:0 5:0.86363636 6:0.35483871 
1 1:0.69090909 2:0.85714286 3:1 4:0 5:0.79545455 6:0.35483871 
1 1:0.69090909 2:0.85714286 3:1 4:0 5:0.79545455 6:0.35483871 
1 1:0.55555556 2:0.72727273 3:0 4:0 5:0.76 6:0.066666667 
1 1:0.55555556 2:0.72727273 3:0 4:0 5:0.76 6:0.066666667 
1 1:0.55555556 2:0.72727273 3:0 4:0 5:0.79166667 6:0.066666667 
1 1:0.56603774 2:0.7 3:1 4:0 5:1 6:0.38709677 
1 1:0.56603774 2:0.7 3:1 4:0 5:1 6:0.38709677 
1 1:0.62068966 2:0.83333333 3:0 4:0 5:0.70454545 6:0.52631579 
1 1:0.82142857 2:0.90909091 3:0 4:0 5:0.70454545 6:0.52631579 
1 1:0.82142857 2:0.90909091 3:0 4:0 5:0.70454545 6:0.52631579 
1 1:0.60377358 2:0.76190476 3:1 4:0 5:0.78651685 6:0.35483871 
1 1:0.60377358 2:0.76190476 3:1 4:0 5:0.84090909 6:0.35483871 
1 1:0.66666667 2:0.85714286 3:1 4:0 5:1 6:0.32 
1 1:0.69090909 2:0.85714286 3:1 4:0 5:0.86363636 6:0.35483871 
1 1:0.69090909 2:0.85714286 3:1 4:0 5:0.86363636 6:0.35483871 
1 1:0.69090909 2:0.85714286 3:1 4:0 5:0.79545455 6:0.35483871 
1 1:0.69090909 2:0.85714286 3:1 4:0 5:0.79545455 6:0.35483871 
1 1:0.55555556 2:0.72727273 3:0 4:0 5:0.76 6:0.066666667 
1 1:0.55555556 2:0.72727273 3:0 4:0 5:0.76 6:0.066666667 
1 1:0.55555556 2:0.72727273 3:0 4:0 5:0.79166667 6:0.066666667 
1 1:0.56603774 2:0.7 3:1 4:0 5:1 6:0.38709677 
1 1:0.56603774 2:0.7 3:1 4:0 5:1 6:0.38709677 
1 1:0.84210526 2:0.83333333 3:0 4:0 5:0.97727273 6:0 
1 1:0.69090909 2:0.81818182 3:0 4:0 5:0.97727273 6:0 
1 1:0.69090909 2:0.81818182 3:0 4:0 5:0.97727273 6:0 
1 1:0.65384615 2:0.85714286 3:1 4:0 5:0.78651685 6:0 
1 1:0.65384615 2:0.85714286 3:1 4:0 5:0.84090909 6:0 
1 1:0.79245283 2:0.95238095 3:1 4:0 5:0.72727273 6:0 
1 1:0.81481481 2:0.95238095 3:1 4:0 5:0.86363636 6:0 
1 1:0.81481481 2:0.95238095 3:1 4:0 5:0.86363636 6:0 
1 1:0.81481481 2:0.95238095 3:1 4:0 5:0.93181818 6:0 
1 1:0.81481481 2:0.95238095 3:1 4:0 5:0.93181818 6:0 
1 1:0.76923077 2:0.8 3:1 4:0 5:0.72727273 6:0 
1 1:0.76923077 2:0.8 3:1 4:0 5:0.72727273 6:0 
1 1:0.93103448 2:0.88 3:0 4:0 5:0.72727273 6:0 
1 1:0.67857143 2:0.7826087 3:0 4:0 5:0.72727273 6:0 
1 1:0.67857143 2:0.7826087 3:0 4:0 5:0.72727273 6:0 
1 1:0.75471698 2:0.90909091 3:1 4:0 5:0.80898876 6:0 
1 1:0.75471698 2:0.90909091 3:1 4:0 5:0.86363636 6:0 
1 1:0.81481481 2:1 3:1 4:0 5:0.97727273 6:0 
1 1:0.90909091 2:1 3:1 4:0 5:0.84090909 6:0 
1 1:0.90909091 2:1 3:1 4:0 5:0.84090909 6:0 
1 1:0.90909091 2:1 3:1 4:0 5:0.77272727 6:0 
1 1:0.90909091 2:1 3:1 4:0 5:0.77272727 6:0 
1 1:0.7037037 2:0.86956522 3:0 4:0 5:0.76 6:0 
1 1:0.7037037 2:0.86956522 3:0 4:0 5:0.76 6:0 
1 1:0.7037037 2:0.86956522 3:0 4:0 5:0.79166667 6:0 
1 1:0.86792453 2:0.85714286 3:1 4:0 5:0.97727273 6:0 
1 1:0.86792453 2:0.85714286 3:1 4:0 5:0.97727273 6:0 
1 1:0.73684211 2:0.83333333 3:0 4:0 5:0.71111111 6:0 
1 1:0.90909091 2:0.81818182 3:0 4:0 5:0.71111111 6:0 
1 1:0.90909091 2:0.81818182 3:0 4:0 5:0.71111111 6:0 
1 1:0.53846154 2:0.85714286 3:0 4:0 5:0.84444444 6:0 
1 1:0.60377358 2:0.95238095 3:0 4:0 5:0.95555556 6:0 
1 1:0.62962963 2:0.95238095 3:0 4:0 5:0.82222222 6:0 
1 1:0.62962963 2:0.95238095 3:0 4:0 5:0.82222222 6:0 
1 1:0.49056604 2:0.81818182 3:1 4:0 5:0.74509804 6:0 
1 1:0.49056604 2:0.81818182 3:1 4:0 5:0.74509804 6:0 
1 1:0.49056604 2:0.81818182 3:1 4:0 5:0.7755102 6:0 
1 1:0.61538462 2:0.8 3:0 4:0 5:0.95555556 6:0 
1 1:0.61538462 2:0.8 3:0 4:0 5:0.95555556 6:0 
1 1:0.84745763 2:0.88 3:0 4:0 5:0.70454545 6:0.52631579 
1 1:0.59649123 2:0.7826087 3:0 4:0 5:0.70454545 6:0.52631579 
1 1:0.59649123 2:0.7826087 3:0 4:0 5:0.70454545 6:0.52631579 
1 1:0.85185185 2:0.90909091 3:1 4:0 5:0.78651685 6:0.35483871 
1 1:0.85185185 2:0.90909091 3:1 4:0 5:0.84090909 6:0.35483871 
1 1:0.90909091 2:1 3:1 4:0 5:1 6:0.32 
1 1:1 2:1 3:1 4:0 5:0.86363636 6:0.35483871 
1 1:1 2:1 3:1 4:0 5:0.86363636 6:0.35483871 
1 1:1 2:1 3:1 4:0 5:0.79545455 6:0.35483871 
1 1:1 2:1 3:1 4:0 5:0.79545455 6:0.35483871 
1 1:0.8 2:0.86956522 3:0 4:0 5:0.76 6:0.066666667 
1 1:0.8 2:0.86956522 3:0 4:0 5:0.76 6:0.066666667 
1 1:0.8 2:0.86956522 3:0 4:0 5:0.79166667 6:0.066666667 
1 1:0.85185185 2:0.85714286 3:1 4:0 5:1 6:0.38709677 
1 1:0.85185185 2:0.85714286 3:1 4:0 5:1 6:0.38709677 
1 1:0.52631579 2:0.54545455 3:0 4:0 5:0.92134831 6:0.42105263 
1 1:0.50909091 2:0.4 3:0 4:0 5:0.92134831 6:0.42105263 
1 1:0.50909091 2:0.4 3:0 4:0 5:0.92134831 6:0.42105263 
1 1:0.57692308 2:0.63157895 3:0 4:0 5:0.77777778 6:0.29032258 
1 1:0.57692308 2:0.63157895 3:0 4:0 5:0.78651685 6:0.29032258 
1 1:0.49056604 2:0.63157895 3:0 4:0 5:0.6741573 6:0.34042553 
1 1:0.55555556 2:0.63157895 3:0 4:0 5:0.80898876 6:0.29032258 
1 1:0.55555556 2:0.63157895 3:0 4:0 5:0.80898876 6:0.29032258 
1 1:0.55555556 2:0.63157895 3:0 4:0 5:0.87640449 6:0.29032258 
1 1:0.55555556 2:0.63157895 3:0 4:0 5:0.87640449 6:0.29032258 
1 1:0.57692308 2:0.66666667 3:0 4:0 5:0.6741573 6:0.32258065 
1 1:0.57692308 2:0.66666667 3:0 4:0 5:0.6741573 6:0.32258065 
1 1:0.52631579 2:0.54545455 3:0 4:0 5:0.97727273 6:0.42105263 
1 1:0.50909091 2:0.4 3:0 4:0 5:0.97727273 6:0.42105263 
1 1:0.50909091 2:0.4 3:0 4:0 5:0.97727273 6:0.42105263 
1 1:0.57692308 2:0.63157895 3:0 4:0 5:0.78651685 6:0.29032258 
1 1:0.57692308 2:0.63157895 3:0 4:0 5:0.84090909 6:0.29032258 
1 1:0.49056604 2:0.63157895 3:0 4:0 5:0.72727273 6:0.34042553 
1 1:0.55555556 2:0.63157895 3:0 4:0 5:0.86363636 6:0.29032258 
1 1:0.55555556 2:0.63157895 3:0 4:0 5:0.86363636 6:0.29032258 
1 1:0.55555556 2:0.63157895 3:0 4:0 5:0.93181818 6:0.29032258 
1 1:0.55555556 2:0.63157895 3:0 4:0 5:0.93181818 6:0.29032258 
1 1:0.56603774 2:0.6 3:0 4:0 5:0.625 6:0.066666667 
1 1:0.57692308 2:0.66666667 3:0 4:0 5:0.72727273 6:0.32258065 
1 1:0.57692308 2:0.66666667 3:0 4:0 5:0.72727273 6:0.32258065 
1 1:0.63157895 2:0.7826087 3:0 4:0 5:1 6:0 
1 1:0.83636364 2:0.85714286 3:0 4:0 5:1 6:0 
1 1:0.83636364 2:0.85714286 3:0 4:0 5:1 6:0 
1 1:0.61538462 2:0.8 3:1 4:0 5:0.80898876 6:0 
1 1:0.61538462 2:0.8 3:1 4:0 5:0.86363636 6:0 
1 1:0.67924528 2:0.9 3:1 4:0 5:0.70454545 6:0 
1 1:0.7037037 2:0.9 3:1 4:0 5:0.84090909 6:0 
1 1:0.7037037 2:0.9 3:1 4:0 5:0.84090909 6:0 
1 1:0.7037037 2:0.9 3:1 4:0 5:0.90909091 6:0 
1 1:0.7037037 2:0.9 3:1 4:0 5:0.90909091 6:0 
1 1:0.57692308 2:0.73684211 3:1 4:0 5:0.70454545 6:0 
1 1:0.57692308 2:0.73684211 3:1 4:0 5:0.70454545 6:0 
1 1:0.70175439 2:0.83333333 3:0 4:0 5:0.70454545 6:0.52631579 
1 1:0.90909091 2:0.90909091 3:0 4:0 5:0.70454545 6:0.52631579 
1 1:0.90909091 2:0.90909091 3:0 4:0 5:0.70454545 6:0.52631579 
1 1:0.5 2:0.76190476 3:1 4:0 5:0.78651685 6:0.35483871 
1 1:0.5 2:0.76190476 3:1 4:0 5:0.84090909 6:0.35483871 
1 1:0.56603774 2:0.85714286 3:1 4:0 5:1 6:0.30769231 
1 1:0.59259259 2:0.85714286 3:1 4:0 5:0.86363636 6:0.35483871 
1 1:0.59259259 2:0.85714286 3:1 4:0 5:0.86363636 6:0.35483871 
1 1:0.59259259 2:0.85714286 3:1 4:0 5:0.79545455 6:0.35483871 
1 1:0.59259259 2:0.85714286 3:1 4:0 5:0.79545455 6:0.35483871 
1 1:0.45283019 2:0.72727273 3:0 4:0 5:0.79166667 6:0.066666667 
1 1:0.57692308 2:0.7 3:1 4:0 5:1 6:0.38709677 
